booster[0]:
0:[pfRelIso03_all<0.118735917] yes=1,no=2,missing=1
	1:[jetBTag<0.481269598] yes=3,no=4,missing=3
		3:[mvaFall17V2noIso<0.541411877] yes=7,no=8,missing=7
			7:[mvaFall17V2noIso<-0.928510785] yes=15,no=16,missing=15
				15:leaf=-0.150675327
				16:leaf=0.00630889321
			8:[jetBTag<0.180651933] yes=17,no=18,missing=17
				17:leaf=0.194312677
				18:leaf=0.120056368
		4:[sip3d<2.45651722] yes=9,no=10,missing=9
			9:[jetPtRelv2<7.16617298] yes=19,no=20,missing=19
				19:leaf=-0.0735962912
				20:leaf=0.143092677
			10:[jetBTag<0.629689157] yes=21,no=22,missing=21
				21:leaf=-0.0959398001
				22:leaf=-0.182158694
	2:[jetPtRelv2<6.6114006] yes=5,no=6,missing=5
		5:[jetPtRatio<0.700306773] yes=11,no=12,missing=11
			11:[sip3d<1.91476524] yes=23,no=24,missing=23
				23:leaf=-0.153203666
				24:leaf=-0.194960698
			12:[jetBTag<0.203266472] yes=25,no=26,missing=25
				25:leaf=0.0538419597
				26:leaf=-0.158792034
		6:[mvaFall17V2noIso<0.998301208] yes=13,no=14,missing=13
			13:[mvaFall17V2noIso<0.828024983] yes=27,no=28,missing=27
				27:leaf=-0.180702969
				28:leaf=-0.072825335
			14:[sip3d<3.40610528] yes=29,no=30,missing=29
				29:leaf=0.154719427
				30:leaf=-0.0944728553
booster[1]:
0:[pfRelIso03_all<0.11460571] yes=1,no=2,missing=1
	1:[jetBTag<0.502331257] yes=3,no=4,missing=3
		3:[mvaFall17V2noIso<0.307498753] yes=7,no=8,missing=7
			7:[jetNDauChargedMVASel<1.5] yes=15,no=16,missing=15
				15:leaf=-0.0175935514
				16:leaf=-0.1518718
			8:[jetBTag<0.172284544] yes=17,no=18,missing=17
				17:leaf=0.176753417
				18:leaf=0.109067716
		4:[jetPtRelv2<9.0644722] yes=9,no=10,missing=9
			9:[jetBTag<0.643121481] yes=19,no=20,missing=19
				19:leaf=-0.0520260334
				20:leaf=-0.165142417
			10:[mvaFall17V2noIso<0.985132813] yes=21,no=22,missing=21
				21:leaf=-0.153245673
				22:leaf=0.145104855
	2:[miniRelIsoCharged<0.061175514] yes=5,no=6,missing=5
		5:[sip3d<2.37117457] yes=11,no=12,missing=11
			11:[mvaFall17V2noIso<0.991189659] yes=23,no=24,missing=23
				23:leaf=-0.0980798826
				24:leaf=0.110753849
			12:[jetPtRelv2<9.37095451] yes=25,no=26,missing=25
				25:leaf=-0.159426898
				26:leaf=0.0199967194
		6:[jetPtRelv2<5.36595917] yes=13,no=14,missing=13
			13:[jetPtRatio<0.754071295] yes=27,no=28,missing=27
				27:leaf=-0.174701706
				28:leaf=-0.0736257955
			14:[sip3d<2.21445537] yes=29,no=30,missing=29
				29:leaf=-0.043897599
				30:leaf=-0.167370021
booster[2]:
0:[jetPtRatio<0.740731478] yes=1,no=2,missing=1
	1:[jetPtRelv2<7.25293159] yes=3,no=4,missing=3
		3:[miniRelIsoCharged<0.0503552705] yes=7,no=8,missing=7
			7:[sip3d<2.00824046] yes=15,no=16,missing=15
				15:leaf=0.016852295
				16:leaf=-0.140501812
			8:[jetBTag<0.195186883] yes=17,no=18,missing=17
				17:leaf=-0.13788797
				18:leaf=-0.165737718
		4:[mvaFall17V2noIso<0.993746042] yes=9,no=10,missing=9
			9:[mvaFall17V2noIso<0.19737488] yes=19,no=20,missing=19
				19:leaf=-0.153976351
				20:leaf=-0.0605309606
			10:[sip3d<3.73728609] yes=21,no=22,missing=21
				21:leaf=0.147671863
				22:leaf=-0.0392889194
	2:[jetBTag<0.514347196] yes=5,no=6,missing=5
		5:[mvaFall17V2noIso<0.812751114] yes=11,no=12,missing=11
			11:[pfRelIso03_all<0.0587825701] yes=23,no=24,missing=23
				23:leaf=0.0708430633
				24:leaf=-0.119939566
			12:[miniRelIsoCharged<0.0683318377] yes=25,no=26,missing=25
				25:leaf=0.163110375
				26:leaf=0.0491973087
		6:[sip3d<2.40020657] yes=13,no=14,missing=13
			13:[miniRelIsoCharged<0.0286619104] yes=27,no=28,missing=27
				27:leaf=0.0516227745
				28:leaf=-0.132350296
			14:[pfRelIso03_all<0.0385243595] yes=29,no=30,missing=29
				29:leaf=-0.0853511542
				30:leaf=-0.161292404
booster[3]:
0:[pfRelIso03_all<0.127367556] yes=1,no=2,missing=1
	1:[jetBTag<0.466162205] yes=3,no=4,missing=3
		3:[mvaFall17V2noIso<0.90595448] yes=7,no=8,missing=7
			7:[mvaFall17V2noIso<-0.84254539] yes=15,no=16,missing=15
				15:leaf=-0.11548131
				16:leaf=0.0319423564
			8:[jetBTag<0.194385052] yes=17,no=18,missing=17
				17:leaf=0.153552532
				18:leaf=0.0923058465
		4:[sip3d<2.48248386] yes=9,no=10,missing=9
			9:[mvaFall17V2noIso<0.979866624] yes=19,no=20,missing=19
				19:leaf=-0.121318974
				20:leaf=0.0650602356
			10:[jetPtRelv2<11.4659176] yes=21,no=22,missing=21
				21:leaf=-0.139312282
				22:leaf=-0.033083573
	2:[jetPtRelv2<6.08758259] yes=5,no=6,missing=5
		5:[jetPtRatio<0.670915604] yes=11,no=12,missing=11
			11:[jetBTag<0.195477292] yes=23,no=24,missing=23
				23:leaf=-0.123110496
				24:leaf=-0.154704273
			12:[jetBTag<0.255469918] yes=25,no=26,missing=25
				25:leaf=0.0222955924
				26:leaf=-0.139456138
		6:[mvaFall17V2noIso<0.99914372] yes=13,no=14,missing=13
			13:[mvaFall17V2noIso<0.908522606] yes=27,no=28,missing=27
				27:leaf=-0.143514439
				28:leaf=-0.0525399558
			14:[sip3d<2.99314785] yes=29,no=30,missing=29
				29:leaf=0.125089884
				30:leaf=-0.0686314777
booster[4]:
0:[jetPtRatio<0.749145627] yes=1,no=2,missing=1
	1:[miniRelIsoCharged<0.0467859954] yes=3,no=4,missing=3
		3:[sip3d<2.61720943] yes=7,no=8,missing=7
			7:[mvaFall17V2noIso<0.920324326] yes=15,no=16,missing=15
				15:leaf=-0.0916697904
				16:leaf=0.0921543464
			8:[jetPtRelv2<9.03625965] yes=17,no=18,missing=17
				17:leaf=-0.128252223
				18:leaf=0.0566725321
		4:[jetPtRelv2<5.24481153] yes=9,no=10,missing=9
			9:[sip3d<1.66299999] yes=19,no=20,missing=19
				19:leaf=-0.12237864
				20:leaf=-0.14731209
			10:[sip3d<2.12260246] yes=21,no=22,missing=21
				21:leaf=-0.0186287835
				22:leaf=-0.134138256
	2:[jetBTag<0.52492857] yes=5,no=6,missing=5
		5:[mvaFall17V2noIso<-0.127495989] yes=11,no=12,missing=11
			11:[pfRelIso03_all<0.0321600884] yes=23,no=24,missing=23
				23:leaf=0.0533934906
				24:leaf=-0.11869023
			12:[miniRelIsoCharged<0.0595458448] yes=25,no=26,missing=25
				25:leaf=0.143881261
				26:leaf=0.0429805666
		6:[miniRelIsoCharged<0.015183216] yes=13,no=14,missing=13
			13:[sip3d<3.16117787] yes=27,no=28,missing=27
				27:leaf=0.0384364836
				28:leaf=-0.103593208
			14:[sip3d<1.56544232] yes=29,no=30,missing=29
				29:leaf=-0.0929444805
				30:leaf=-0.144637078
booster[5]:
0:[pfRelIso03_all<0.104448222] yes=1,no=2,missing=1
	1:[jetBTag<0.448976517] yes=3,no=4,missing=3
		3:[mvaFall17V2noIso<0.946353137] yes=7,no=8,missing=7
			7:[jetNDauChargedMVASel<1.5] yes=15,no=16,missing=15
				15:leaf=0.0423553623
				16:leaf=-0.0961907431
			8:[jetBTag<0.157948792] yes=17,no=18,missing=17
				17:leaf=0.139701054
				18:leaf=0.0945009515
		4:[sip3d<2.81544518] yes=9,no=10,missing=9
			9:[jetPtRelv2<5.18234062] yes=19,no=20,missing=19
				19:leaf=-0.0469127707
				20:leaf=0.0950057358
			10:[jetBTag<0.653823137] yes=21,no=22,missing=21
				21:leaf=-0.0614508875
				22:leaf=-0.132054403
	2:[miniRelIsoCharged<0.0832888186] yes=5,no=6,missing=5
		5:[sip3d<2.54080629] yes=11,no=12,missing=11
			11:[mvaFall17V2noIso<0.998808622] yes=23,no=24,missing=23
				23:leaf=-0.058824487
				24:leaf=0.0920317248
			12:[jetPtRelv2<8.14716053] yes=25,no=26,missing=25
				25:leaf=-0.127273902
				26:leaf=-0.0131432284
		6:[sip3d<1.9948802] yes=13,no=14,missing=13
			13:[mvaFall17V2noIso<0.991151452] yes=27,no=28,missing=27
				27:leaf=-0.135419205
				28:leaf=-0.0672652796
			14:[sip3d<2.88717222] yes=29,no=30,missing=29
				29:leaf=-0.130773842
				30:leaf=-0.142202526
booster[6]:
0:[jetPtRatio<0.735405743] yes=1,no=2,missing=1
	1:[jetPtRelv2<6.86407614] yes=3,no=4,missing=3
		3:[jetBTag<0.26631549] yes=7,no=8,missing=7
			7:[miniRelIsoCharged<0.112173349] yes=15,no=16,missing=15
				15:leaf=-0.00337343034
				16:leaf=-0.117892325
			8:[pfRelIso03_all<0.068189919] yes=17,no=18,missing=17
				17:leaf=-0.0894431472
				18:leaf=-0.133383945
		4:[mvaFall17V2noIso<0.984398127] yes=9,no=10,missing=9
			9:[mvaFall17V2noIso<-0.410754442] yes=19,no=20,missing=19
				19:leaf=-0.12688981
				20:leaf=-0.0570722409
			10:[miniRelIsoCharged<0.0923739374] yes=21,no=22,missing=21
				21:leaf=0.124279581
				22:leaf=-0.0107541773
	2:[jetBTag<0.501103759] yes=5,no=6,missing=5
		5:[mvaFall17V2noIso<0.973900199] yes=11,no=12,missing=11
			11:[pfRelIso03_all<0.0505122729] yes=23,no=24,missing=23
				23:leaf=0.079527542
				24:leaf=-0.0729565546
			12:[miniRelIsoCharged<0.0469747186] yes=25,no=26,missing=25
				25:leaf=0.132590085
				26:leaf=0.0631002039
		6:[jetBTag<0.651907682] yes=13,no=14,missing=13
			13:[pfRelIso03_all<0.0571253374] yes=27,no=28,missing=27
				27:leaf=0.0740105212
				28:leaf=-0.0777708143
			14:[mvaFall17V2noIso<0.999999642] yes=29,no=30,missing=29
				29:leaf=-0.12284863
				30:leaf=-0.016097283
booster[7]:
0:[pfRelIso03_all<0.135280758] yes=1,no=2,missing=1
	1:[jetBTag<0.253834665] yes=3,no=4,missing=3
		3:[mvaFall17V2noIso<-0.53447926] yes=7,no=8,missing=7
			7:[mvaFall17V2noIso<-0.987944126] yes=15,no=16,missing=15
				15:leaf=-0.113177978
				16:leaf=-0.0198573526
			8:[mvaFall17V2noIso<0.997664452] yes=17,no=18,missing=17
				17:leaf=0.0715240613
				18:leaf=0.128748223
		4:[sip3d<3.06634116] yes=9,no=10,missing=9
			9:[mvaFall17V2noIso<0.280868351] yes=19,no=20,missing=19
				19:leaf=-0.109470323
				20:leaf=0.0609611347
			10:[jetPtRatio<0.861629725] yes=21,no=22,missing=21
				21:leaf=-0.10721916
				22:leaf=-0.00358761451
	2:[jetPtRelv2<5.65235329] yes=5,no=6,missing=5
		5:[jetPtRatio<0.642397523] yes=11,no=12,missing=11
			11:[sip3d<1.61646104] yes=23,no=24,missing=23
				23:leaf=-0.100785486
				24:leaf=-0.129029468
			12:[jetBTag<0.22621356] yes=25,no=26,missing=25
				25:leaf=0.0126749715
				26:leaf=-0.114999823
		6:[mvaFall17V2noIso<0.999629974] yes=13,no=14,missing=13
			13:[mvaFall17V2noIso<0.652286053] yes=27,no=28,missing=27
				27:leaf=-0.121608369
				28:leaf=-0.0433738194
			14:[sip3d<3.50269413] yes=29,no=30,missing=29
				29:leaf=0.101448119
				30:leaf=-0.0717021599
booster[8]:
0:[pfRelIso03_all<0.0978810787] yes=1,no=2,missing=1
	1:[jetBTag<0.542582214] yes=3,no=4,missing=3
		3:[mvaFall17V2noIso<0.978949904] yes=7,no=8,missing=7
			7:[mvaFall17V2noIso<-0.950636268] yes=15,no=16,missing=15
				15:leaf=-0.0967189893
				16:leaf=0.0380662866
			8:[jetBTag<0.158717155] yes=17,no=18,missing=17
				17:leaf=0.125150725
				18:leaf=0.0798507258
		4:[jetPtRelv2<11.3502979] yes=9,no=10,missing=9
			9:[jetBTag<0.713504314] yes=19,no=20,missing=19
				19:leaf=-0.0356966592
				20:leaf=-0.118901312
			10:[mvaFall17V2noIso<0.934190869] yes=21,no=22,missing=21
				21:leaf=-0.10983517
				22:leaf=0.128772333
	2:[miniRelIsoCharged<0.0889826268] yes=5,no=6,missing=5
		5:[sip3d<2.69367886] yes=11,no=12,missing=11
			11:[mvaFall17V2noIso<0.839382827] yes=23,no=24,missing=23
				23:leaf=-0.093796365
				24:leaf=0.0614037402
			12:[jetPtRelv2<11.7091665] yes=25,no=26,missing=25
				25:leaf=-0.111342013
				26:leaf=0.0145002501
		6:[sip3d<1.80569124] yes=13,no=14,missing=13
			13:[mvaFall17V2noIso<0.983674407] yes=27,no=28,missing=27
				27:leaf=-0.119756274
				28:leaf=-0.0505202115
			14:[sip3d<2.8277185] yes=29,no=30,missing=29
				29:leaf=-0.113335826
				30:leaf=-0.127569392
booster[9]:
0:[jetPtRatio<0.760951281] yes=1,no=2,missing=1
	1:[miniRelIsoCharged<0.0415557101] yes=3,no=4,missing=3
		3:[sip3d<2.95910501] yes=7,no=8,missing=7
			7:[jetPtRelv2<4.57750607] yes=15,no=16,missing=15
				15:leaf=-0.0104193976
				16:leaf=0.104598083
			8:[jetPtRelv2<11.0344887] yes=17,no=18,missing=17
				17:leaf=-0.102629066
				18:leaf=0.0568345487
		4:[sip3d<1.97608495] yes=9,no=10,missing=9
			9:[jetPtRelv2<4.06121063] yes=19,no=20,missing=19
				19:leaf=-0.100259379
				20:leaf=-0.00866805948
			10:[jetBTag<0.164047465] yes=21,no=22,missing=21
				21:leaf=-0.105886556
				22:leaf=-0.123281196
	2:[jetBTag<0.223979875] yes=5,no=6,missing=5
		5:[mvaFall17V2noIso<-0.743365407] yes=11,no=12,missing=11
			11:[pfRelIso03_all<0.0306566209] yes=23,no=24,missing=23
				23:leaf=0.0454235338
				24:leaf=-0.096978806
			12:[mvaFall17V2noIso<0.998712778] yes=25,no=26,missing=25
				25:leaf=0.0782202408
				26:leaf=0.122149982
		6:[pfRelIso03_all<0.0497028902] yes=13,no=14,missing=13
			13:[jetBTag<0.679384589] yes=27,no=28,missing=27
				27:leaf=0.0830954835
				28:leaf=-0.0607187562
			14:[sip3d<3.06727052] yes=29,no=30,missing=29
				29:leaf=-0.0103567149
				30:leaf=-0.111692183
booster[10]:
0:[jetPtRatio<0.766278982] yes=1,no=2,missing=1
	1:[miniRelIsoCharged<0.0668489039] yes=3,no=4,missing=3
		3:[dxy<-5.3507328] yes=7,no=8,missing=7
			7:[jetPtRelv2<4.92160225] yes=15,no=16,missing=15
				15:leaf=-0.00622132514
				16:leaf=0.10110905
			8:[jetBTag<0.393665195] yes=17,no=18,missing=17
				17:leaf=-0.0429163352
				18:leaf=-0.112719946
		4:[sip3d<2.13527632] yes=9,no=10,missing=9
			9:[mvaFall17V2noIso<0.979959607] yes=19,no=20,missing=19
				19:leaf=-0.111983135
				20:leaf=-0.0438449197
			10:[jetBTag<0.141757503] yes=21,no=22,missing=21
				21:leaf=-0.10506507
				22:leaf=-0.120564096
	2:[jetBTag<0.21010533] yes=5,no=6,missing=5
		5:[mvaFall17V2noIso<0.987288594] yes=11,no=12,missing=11
			11:[jetNDauChargedMVASel<1.5] yes=23,no=24,missing=23
				23:leaf=0.0758218095
				24:leaf=-0.0640979558
			12:[miniRelIsoCharged<0.0408902317] yes=25,no=26,missing=25
				25:leaf=0.119297557
				26:leaf=0.0816130862
		6:[pfRelIso03_all<0.0708589703] yes=13,no=14,missing=13
			13:[sip3d<4.25036049] yes=27,no=28,missing=27
				27:leaf=0.0851037949
				28:leaf=-0.0249170009
			14:[sip3d<2.94133949] yes=29,no=30,missing=29
				29:leaf=-0.0185153019
				30:leaf=-0.107575297
booster[11]:
0:[pfRelIso03_all<0.146512568] yes=1,no=2,missing=1
	1:[jetBTag<0.213892102] yes=3,no=4,missing=3
		3:[mvaFall17V2noIso<0.86540693] yes=7,no=8,missing=7
			7:[jetNDauChargedMVASel<1.5] yes=15,no=16,missing=15
				15:leaf=0.031107476
				16:leaf=-0.0784427375
			8:[mvaFall17V2noIso<0.999563575] yes=17,no=18,missing=17
				17:leaf=0.0768623203
				18:leaf=0.116156124
		4:[sip3d<3.51867294] yes=9,no=10,missing=9
			9:[mvaFall17V2noIso<-0.172900051] yes=19,no=20,missing=19
				19:leaf=-0.102691375
				20:leaf=0.0455964468
			10:[jetBTag<0.60444057] yes=21,no=22,missing=21
				21:leaf=-0.0429784171
				22:leaf=-0.109955572
	2:[jetPtRelv2<5.34591961] yes=5,no=6,missing=5
		5:[jetBTag<0.182138726] yes=11,no=12,missing=11
			11:[mvaFall17V2noIso<0.953387618] yes=23,no=24,missing=23
				23:leaf=-0.107579045
				24:leaf=-0.00831731036
			12:[jetBTag<0.416488796] yes=25,no=26,missing=25
				25:leaf=-0.0966391712
				26:leaf=-0.118282877
		6:[mvaFall17V2noIso<0.999273181] yes=13,no=14,missing=13
			13:[sip3d<2.47826385] yes=27,no=28,missing=27
				27:leaf=-0.0399510525
				28:leaf=-0.109002493
			14:[jetBTag<0.193385392] yes=29,no=30,missing=29
				29:leaf=0.109965287
				30:leaf=-0.00322530791
booster[12]:
0:[pfRelIso03_all<0.0885752738] yes=1,no=2,missing=1
	1:[jetBTag<0.234783664] yes=3,no=4,missing=3
		3:[mvaFall17V2noIso<0.99172914] yes=7,no=8,missing=7
			7:[mvaFall17V2noIso<-0.975589693] yes=15,no=16,missing=15
				15:leaf=-0.0746504068
				16:leaf=0.053537745
			8:[mvaFall17V2noIso<0.999886513] yes=17,no=18,missing=17
				17:leaf=0.0936609358
				18:leaf=0.11524155
		4:[sip3d<3.50920248] yes=9,no=10,missing=9
			9:[mvaFall17V2noIso<-0.53370136] yes=19,no=20,missing=19
				19:leaf=-0.0998137817
				20:leaf=0.0563780852
			10:[jetBTag<0.679488301] yes=21,no=22,missing=21
				21:leaf=-0.0286402609
				22:leaf=-0.105851009
	2:[miniRelIsoCharged<0.12493898] yes=5,no=6,missing=5
		5:[sip3d<2.22087026] yes=11,no=12,missing=11
			11:[mvaFall17V2noIso<0.560544372] yes=23,no=24,missing=23
				23:leaf=-0.0876822695
				24:leaf=0.0529845022
			12:[jetBTag<0.283322394] yes=25,no=26,missing=25
				25:leaf=-0.041078601
				26:leaf=-0.105630413
		6:[jetBTag<0.143657148] yes=13,no=14,missing=13
			13:[mvaFall17V2noIso<0.999695182] yes=27,no=28,missing=27
				27:leaf=-0.0983733833
				28:leaf=0.00125705311
			14:[jetPtRelv2<4.56313133] yes=29,no=30,missing=29
				29:leaf=-0.114852965
				30:leaf=-0.0953743532
booster[13]:
0:[jetPtRatio<0.777909577] yes=1,no=2,missing=1
	1:[miniRelIsoCharged<0.0762143806] yes=3,no=4,missing=3
		3:[sip3d<3.22329688] yes=7,no=8,missing=7
			7:[mvaFall17V2noIso<0.999566436] yes=15,no=16,missing=15
				15:leaf=-0.0229640491
				16:leaf=0.0730540454
			8:[jetPtRelv2<11.7120533] yes=17,no=18,missing=17
				17:leaf=-0.0929361209
				18:leaf=0.0430873446
		4:[sip3d<2.11703777] yes=9,no=10,missing=9
			9:[jetPtRelv2<3.97819996] yes=19,no=20,missing=19
				19:leaf=-0.0902637467
				20:leaf=-0.0114342459
			10:[jetPtRelv2<4.98276806] yes=21,no=22,missing=21
				21:leaf=-0.112948254
				22:leaf=-0.093603991
	2:[jetBTag<0.168668136] yes=5,no=6,missing=5
		5:[mvaFall17V2noIso<0.993470967] yes=11,no=12,missing=11
			11:[pfRelIso03_all<0.0387809798] yes=23,no=24,missing=23
				23:leaf=0.0891248733
				24:leaf=-0.0153298816
			12:[miniRelIsoCharged<0.0404444784] yes=25,no=26,missing=25
				25:leaf=0.112550788
				26:leaf=0.0771553665
		6:[pfRelIso03_all<0.045641847] yes=13,no=14,missing=13
			13:[jetBTag<0.733987868] yes=27,no=28,missing=27
				27:leaf=0.0768165514
				28:leaf=-0.062318828
			14:[pt<29.0271587] yes=29,no=30,missing=29
				29:leaf=0.0199634414
				30:leaf=-0.0807354972
booster[14]:
0:[jetPtRatio<0.717857003] yes=1,no=2,missing=1
	1:[jetPtRelv2<5.7820425] yes=3,no=4,missing=3
		3:[jetBTag<0.340395629] yes=7,no=8,missing=7
			7:[mvaFall17V2noIso<0.782748044] yes=15,no=16,missing=15
				15:leaf=-0.101025157
				16:leaf=-0.01494323
			8:[jetBTag<0.54935658] yes=17,no=18,missing=17
				17:leaf=-0.0905598253
				18:leaf=-0.112171434
		4:[mvaFall17V2noIso<0.977981091] yes=9,no=10,missing=9
			9:[mvaFall17V2noIso<-0.48512575] yes=19,no=20,missing=19
				19:leaf=-0.0984458849
				20:leaf=-0.032805752
			10:[sip3d<4.55482531] yes=21,no=22,missing=21
				21:leaf=0.0849418417
				22:leaf=-0.0504326634
	2:[jetBTag<0.169724524] yes=5,no=6,missing=5
		5:[mvaFall17V2noIso<0.995146751] yes=11,no=12,missing=11
			11:[jetNDauChargedMVASel<1.5] yes=23,no=24,missing=23
				23:leaf=0.0636099949
				24:leaf=-0.0543946438
			12:[miniRelIsoCharged<0.0354020819] yes=25,no=26,missing=25
				25:leaf=0.109905481
				26:leaf=0.0686148927
		6:[jetBTag<0.615817785] yes=13,no=14,missing=13
			13:[pt<33.4359283] yes=27,no=28,missing=27
				27:leaf=0.0621903799
				28:leaf=-0.0388700776
			14:[jetPtRelv2<16.2433968] yes=29,no=30,missing=29
				29:leaf=-0.097364381
				30:leaf=-0.00419416744
booster[15]:
0:[pfRelIso03_all<0.0809443295] yes=1,no=2,missing=1
	1:[jetBTag<0.19183901] yes=3,no=4,missing=3
		3:[mvaFall17V2noIso<0.995232403] yes=7,no=8,missing=7
			7:[mvaFall17V2noIso<-0.994113564] yes=15,no=16,missing=15
				15:leaf=-0.0776882693
				16:leaf=0.0539025739
			8:[mvaFall17V2noIso<0.999929309] yes=17,no=18,missing=17
				17:leaf=0.0903652087
				18:leaf=0.11008101
		4:[mvaFall17V2noIso<0.973508477] yes=9,no=10,missing=9
			9:[pt<20.6231041] yes=19,no=20,missing=19
				19:leaf=-0.0296383146
				20:leaf=-0.111480765
			10:[jetBTag<0.777281523] yes=21,no=22,missing=21
				21:leaf=0.0575746968
				22:leaf=-0.0456563495
	2:[jetBTag<0.165435433] yes=5,no=6,missing=5
		5:[mvaFall17V2noIso<0.994476497] yes=11,no=12,missing=11
			11:[mvaFall17V2noIso<-0.130842119] yes=23,no=24,missing=23
				23:leaf=-0.102816261
				24:leaf=-0.0355602764
			12:[miniRelIsoCharged<0.195628464] yes=25,no=26,missing=25
				25:leaf=0.0749106556
				26:leaf=-0.0388926454
		6:[jetPtRelv2<9.74860287] yes=13,no=14,missing=13
			13:[jetBTag<0.423657298] yes=27,no=28,missing=27
				27:leaf=-0.0700505897
				28:leaf=-0.10596817
			14:[mvaFall17V2noIso<0.998232007] yes=29,no=30,missing=29
				29:leaf=-0.0783126578
				30:leaf=0.0838870034
booster[16]:
0:[pfRelIso03_all<0.169279724] yes=1,no=2,missing=1
	1:[jetBTag<0.159054995] yes=3,no=4,missing=3
		3:[mvaFall17V2noIso<0.997158051] yes=7,no=8,missing=7
			7:[jetNDauChargedMVASel<1.5] yes=15,no=16,missing=15
				15:leaf=0.0542509072
				16:leaf=-0.0372331105
			8:[jetPtRatio<0.850353301] yes=17,no=18,missing=17
				17:leaf=0.0870434269
				18:leaf=0.108735256
		4:[sip3d<3.93315601] yes=9,no=10,missing=9
			9:[jetBTag<0.618566513] yes=19,no=20,missing=19
				19:leaf=0.0491293482
				20:leaf=-0.0381895564
			10:[mvaFall17V2noIso<0.999590397] yes=21,no=22,missing=21
				21:leaf=-0.0915033147
				22:leaf=-0.0236276314
	2:[jetPtRelv2<4.70321751] yes=5,no=6,missing=5
		5:[jetBTag<0.249320552] yes=11,no=12,missing=11
			11:[mvaFall17V2noIso<0.722723722] yes=23,no=24,missing=23
				23:leaf=-0.100487433
				24:leaf=-0.0263593253
			12:[jetBTag<0.482117116] yes=25,no=26,missing=25
				25:leaf=-0.0912838131
				26:leaf=-0.109091304
		6:[sip3d<2.89183521] yes=13,no=14,missing=13
			13:[mvaFall17V2noIso<0.418825805] yes=27,no=28,missing=27
				27:leaf=-0.079337962
				28:leaf=0.0571557693
			14:[miniRelIsoCharged<0.0219056346] yes=29,no=30,missing=29
				29:leaf=-0.0186559614
				30:leaf=-0.0962971374
booster[17]:
0:[jetPtRatio<0.793181777] yes=1,no=2,missing=1
	1:[miniRelIsoCharged<0.114464343] yes=3,no=4,missing=3
		3:[sip3d<2.08023739] yes=7,no=8,missing=7
			7:[mvaFall17V2noIso<-0.529519677] yes=15,no=16,missing=15
				15:leaf=-0.0822150335
				16:leaf=0.0493280366
			8:[jetPtRelv2<8.04887199] yes=17,no=18,missing=17
				17:leaf=-0.0744244382
				18:leaf=0.0351795405
		4:[sip3d<2.28590393] yes=9,no=10,missing=9
			9:[jetPtRelv2<3.42588663] yes=19,no=20,missing=19
				19:leaf=-0.0865089893
				20:leaf=-0.0220888238
			10:[jetPtRelv2<4.73391247] yes=21,no=22,missing=21
				21:leaf=-0.107672028
				22:leaf=-0.0898700431
	2:[mvaFall17V2noIso<0.998622835] yes=5,no=6,missing=5
		5:[sip3d<2.72463512] yes=11,no=12,missing=11
			11:[jetNDauChargedMVASel<2.5] yes=23,no=24,missing=23
				23:leaf=0.0749849901
				24:leaf=-0.0758224353
			12:[pfRelIso03_all<0.0205471776] yes=25,no=26,missing=25
				25:leaf=0.0145283295
				26:leaf=-0.0898889005
		6:[jetBTag<0.676620781] yes=13,no=14,missing=13
			13:[jetBTag<0.116636403] yes=27,no=28,missing=27
				27:leaf=0.106183842
				28:leaf=0.0730738044
			14:[jetPtRelv2<10.3395462] yes=29,no=30,missing=29
				29:leaf=-0.0708782151
				30:leaf=0.0678329691
booster[18]:
0:[pfRelIso03_all<0.0734112263] yes=1,no=2,missing=1
	1:[mvaFall17V2noIso<0.999216139] yes=3,no=4,missing=3
		3:[sip3d<2.36228991] yes=7,no=8,missing=7
			7:[jetPtRatio<0.654649496] yes=15,no=16,missing=15
				15:leaf=-0.015606164
				16:leaf=0.0711472854
			8:[jetNDauChargedMVASel<1.5] yes=17,no=18,missing=17
				17:leaf=-0.0140933916
				18:leaf=-0.0942219943
		4:[jetBTag<0.298799932] yes=9,no=10,missing=9
			9:[jetBTag<0.101864129] yes=19,no=20,missing=19
				19:leaf=0.10614419
				20:leaf=0.0832666531
			10:[jetPtRelv2<7.85082483] yes=21,no=22,missing=21
				21:leaf=0.00250709313
				22:leaf=0.103414081
	2:[sip3d<2.30027866] yes=5,no=6,missing=5
		5:[miniRelIsoCharged<0.174230233] yes=11,no=12,missing=11
			11:[mvaFall17V2noIso<-0.238894582] yes=23,no=24,missing=23
				23:leaf=-0.0807480812
				24:leaf=0.0368587114
			12:[jetPtRelv2<3.56939888] yes=25,no=26,missing=25
				25:leaf=-0.0903247297
				26:leaf=-0.0317890458
		6:[miniRelIsoCharged<0.0316384137] yes=13,no=14,missing=13
			13:[mvaFall17V2noIso<0.999945283] yes=27,no=28,missing=27
				27:leaf=-0.0758670717
				28:leaf=0.019233387
			14:[sip3d<3.55153131] yes=29,no=30,missing=29
				29:leaf=-0.0847800672
				30:leaf=-0.105449177
booster[19]:
0:[jetPtRatio<0.802969456] yes=1,no=2,missing=1
	1:[miniRelIsoCharged<0.131235719] yes=3,no=4,missing=3
		3:[dxy<-5.43830872] yes=7,no=8,missing=7
			7:[miniRelIsoNeutral<0.0442390293] yes=15,no=16,missing=15
				15:leaf=0.0610868745
				16:leaf=-0.0193584021
			8:[jetBTag<0.556394339] yes=17,no=18,missing=17
				17:leaf=-0.0326883756
				18:leaf=-0.0980211124
		4:[sip3d<2.40154314] yes=9,no=10,missing=9
			9:[mvaFall17V2noIso<0.905092657] yes=19,no=20,missing=19
				19:leaf=-0.0938459039
				20:leaf=-0.0363284461
			10:[jetBTag<0.0990937799] yes=21,no=22,missing=21
				21:leaf=-0.0848393366
				22:leaf=-0.105187491
	2:[mvaFall17V2noIso<0.999230504] yes=5,no=6,missing=5
		5:[sip3d<2.83126259] yes=11,no=12,missing=11
			11:[jetNDauChargedMVASel<2.5] yes=23,no=24,missing=23
				23:leaf=0.0708015189
				24:leaf=-0.0687999353
			12:[pfRelIso03_all<0.0308180675] yes=25,no=26,missing=25
				25:leaf=0.0130472649
				26:leaf=-0.0803911537
		6:[jetBTag<0.136906788] yes=13,no=14,missing=13
			13:[pfRelIso03_all<0.0512516126] yes=27,no=28,missing=27
				27:leaf=0.105969422
				28:leaf=0.0866246372
			14:[jetBTag<0.836647153] yes=29,no=30,missing=29
				29:leaf=0.0646350607
				30:leaf=-0.0585372746
booster[20]:
0:[pfRelIso03_all<0.0667490065] yes=1,no=2,missing=1
	1:[jetBTag<0.144789502] yes=3,no=4,missing=3
		3:[mvaFall17V2noIso<0.998888612] yes=7,no=8,missing=7
			7:[mvaFall17V2noIso<-0.950281143] yes=15,no=16,missing=15
				15:leaf=-0.0417234264
				16:leaf=0.0598349683
			8:[jetPtRatio<0.84752357] yes=17,no=18,missing=17
				17:leaf=0.0886656195
				18:leaf=0.104878403
		4:[sip3d<5.92345047] yes=9,no=10,missing=9
			9:[mvaFall17V2noIso<-0.714007854] yes=19,no=20,missing=19
				19:leaf=-0.0825927332
				20:leaf=0.0465025641
			10:[dxy<-4.58252048] yes=21,no=22,missing=21
				21:leaf=-0.0126188518
				22:leaf=-0.0936096683
	2:[jetBTag<0.188670605] yes=5,no=6,missing=5
		5:[mvaFall17V2noIso<0.998005152] yes=11,no=12,missing=11
			11:[mvaFall17V2noIso<-0.525653601] yes=23,no=24,missing=23
				23:leaf=-0.0934254006
				24:leaf=-0.0228608903
			12:[jetPtRelv2<3.36562443] yes=25,no=26,missing=25
				25:leaf=0.00718269823
				26:leaf=0.0793923438
		6:[jetPtRelv2<8.79447746] yes=13,no=14,missing=13
			13:[jetBTag<0.483330965] yes=27,no=28,missing=27
				27:leaf=-0.0591769591
				28:leaf=-0.0988970026
			14:[mvaFall17V2noIso<0.999860227] yes=29,no=30,missing=29
				29:leaf=-0.0539624654
				30:leaf=0.0801456273
booster[21]:
0:[miniRelIsoCharged<0.0301027969] yes=1,no=2,missing=1
	1:[jetBTag<0.142781049] yes=3,no=4,missing=3
		3:[mvaFall17V2noIso<0.99957931] yes=7,no=8,missing=7
			7:[mvaFall17V2noIso<-0.825009227] yes=15,no=16,missing=15
				15:leaf=-0.0568273924
				16:leaf=0.0499896482
			8:[miniRelIsoNeutral<0.0407625586] yes=17,no=18,missing=17
				17:leaf=0.102446817
				18:leaf=0.0694314986
		4:[miniRelIsoNeutral<0.0229375586] yes=9,no=10,missing=9
			9:[jetPtRelv2<4.20980644] yes=19,no=20,missing=19
				19:leaf=-0.0105094137
				20:leaf=0.0641549677
			10:[jetBTag<0.41531235] yes=21,no=22,missing=21
				21:leaf=-0.0307130553
				22:leaf=-0.0854764357
	2:[sip3d<1.79551911] yes=5,no=6,missing=5
		5:[mvaFall17V2noIso<0.783518434] yes=11,no=12,missing=11
			11:[mvaFall17V2noIso<-0.931194305] yes=23,no=24,missing=23
				23:leaf=-0.0977717191
				24:leaf=-0.0554684587
			12:[jetBTag<0.150521129] yes=25,no=26,missing=25
				25:leaf=0.0320377238
				26:leaf=-0.0379042588
		6:[jetBTag<0.296975493] yes=13,no=14,missing=13
			13:[mvaFall17V2noIso<0.999928355] yes=27,no=28,missing=27
				27:leaf=-0.0807820484
				28:leaf=0.00204287632
			14:[jetPtRelv2<4.94936848] yes=29,no=30,missing=29
				29:leaf=-0.102641642
				30:leaf=-0.0840709358
booster[22]:
0:[jetPtRatio<0.818768859] yes=1,no=2,missing=1
	1:[miniRelIsoCharged<0.146260679] yes=3,no=4,missing=3
		3:[sip3d<3.5369885] yes=7,no=8,missing=7
			7:[miniRelIsoNeutral<0.0391166396] yes=15,no=16,missing=15
				15:leaf=0.0487655103
				16:leaf=-0.021451151
			8:[jetPtRelv2<5.45388317] yes=17,no=18,missing=17
				17:leaf=-0.0828883648
				18:leaf=-0.0226494428
		4:[jetPtRelv2<4.12157774] yes=9,no=10,missing=9
			9:[jetBTag<0.14593485] yes=19,no=20,missing=19
				19:leaf=-0.0699965358
				20:leaf=-0.100148216
			10:[dxy<-5.86906242] yes=21,no=22,missing=21
				21:leaf=0.00407130923
				22:leaf=-0.07470759
	2:[sip3d<3.67777491] yes=5,no=6,missing=5
		5:[mvaFall17V2noIso<0.999603987] yes=11,no=12,missing=11
			11:[jetNDauChargedMVASel<2.5] yes=23,no=24,missing=23
				23:leaf=0.066375494
				24:leaf=-0.0601951554
			12:[jetBTag<0.764515042] yes=25,no=26,missing=25
				25:leaf=0.100335218
				26:leaf=-0.00268000248
		6:[pfRelIso03_all<0.0308237001] yes=13,no=14,missing=13
			13:[mvaFall17V2noIso<0.999819636] yes=27,no=28,missing=27
				27:leaf=0.00858418364
				28:leaf=0.0839839131
			14:[sip3d<6.68056679] yes=29,no=30,missing=29
				29:leaf=-0.0245487839
				30:leaf=-0.0939593539
booster[23]:
0:[jetPtRatio<0.819062233] yes=1,no=2,missing=1
	1:[miniRelIsoCharged<0.160010248] yes=3,no=4,missing=3
		3:[jetBTag<0.387625784] yes=7,no=8,missing=7
			7:[mvaFall17V2noIso<0.647629738] yes=15,no=16,missing=15
				15:leaf=-0.0559356511
				16:leaf=0.0412530601
			8:[jetPtRelv2<9.32868671] yes=17,no=18,missing=17
				17:leaf=-0.0750973895
				18:leaf=0.0670624897
		4:[jetPtRelv2<3.97268343] yes=9,no=10,missing=9
			9:[jetBTag<0.124229431] yes=19,no=20,missing=19
				19:leaf=-0.0682723969
				20:leaf=-0.0990736261
			10:[jetBTag<0.0979376733] yes=21,no=22,missing=21
				21:leaf=0.017574396
				22:leaf=-0.0652956665
	2:[mvaFall17V2noIso<0.999587536] yes=5,no=6,missing=5
		5:[sip3d<2.4277215] yes=11,no=12,missing=11
			11:[jetNDauChargedMVASel<1.5] yes=23,no=24,missing=23
				23:leaf=0.0770479217
				24:leaf=0.00575130759
			12:[jetNDauChargedMVASel<1.5] yes=25,no=26,missing=25
				25:leaf=0.00821613707
				26:leaf=-0.0871036276
		6:[jetBTag<0.133331984] yes=13,no=14,missing=13
			13:[pfRelIso03_all<0.0488572195] yes=27,no=28,missing=27
				27:leaf=0.102691248
				28:leaf=0.0814240724
			14:[jetBTag<0.892225146] yes=29,no=30,missing=29
				29:leaf=0.0602832027
				30:leaf=-0.0628402457
booster[24]:
0:[miniRelIsoCharged<0.0278828312] yes=1,no=2,missing=1
	1:[mvaFall17V2noIso<0.99992609] yes=3,no=4,missing=3
		3:[jetBTag<0.576205969] yes=7,no=8,missing=7
			7:[mvaFall17V2noIso<-0.877083421] yes=15,no=16,missing=15
				15:leaf=-0.0710689574
				16:leaf=0.0331956856
			8:[jetPtRelv2<4.29958773] yes=17,no=18,missing=17
				17:leaf=-0.100628845
				18:leaf=-0.0255026557
		4:[jetBTag<0.30886662] yes=9,no=10,missing=9
			9:[miniRelIsoNeutral<0.0388619751] yes=19,no=20,missing=19
				19:leaf=0.0993729681
				20:leaf=0.0605491884
			10:[jetPtRelv2<7.61557865] yes=21,no=22,missing=21
				21:leaf=-0.0299336854
				22:leaf=0.0951548368
	2:[sip3d<2.5956068] yes=5,no=6,missing=5
		5:[mvaFall17V2noIso<0.917515874] yes=11,no=12,missing=11
			11:[mvaFall17V2noIso<-0.87738061] yes=23,no=24,missing=23
				23:leaf=-0.0930713043
				24:leaf=-0.0489580967
			12:[jetPtRelv2<3.72503614] yes=25,no=26,missing=25
				25:leaf=-0.0305432957
				26:leaf=0.0347803831
		6:[jetBTag<0.357538968] yes=13,no=14,missing=13
			13:[mvaFall17V2noIso<0.992514491] yes=27,no=28,missing=27
				27:leaf=-0.0898452699
				28:leaf=-0.0433847532
			14:[jetPtRelv2<4.73231983] yes=29,no=30,missing=29
				29:leaf=-0.101670042
				30:leaf=-0.0877900496
booster[25]:
0:[pfRelIso03_all<0.0571663678] yes=1,no=2,missing=1
	1:[jetBTag<0.126725256] yes=3,no=4,missing=3
		3:[mvaFall17V2noIso<0.999147892] yes=7,no=8,missing=7
			7:[jetPtRatio<0.894028068] yes=15,no=16,missing=15
				15:leaf=0.0216405634
				16:leaf=0.0790249333
			8:[jetPtRatio<0.870372176] yes=17,no=18,missing=17
				17:leaf=0.084729515
				18:leaf=0.101614058
		4:[sip3d<7.13659048] yes=9,no=10,missing=9
			9:[jetBTag<0.719574571] yes=19,no=20,missing=19
				19:leaf=0.0447960757
				20:leaf=-0.0343075767
			10:[dxy<-4.62238026] yes=21,no=22,missing=21
				21:leaf=-0.0225817058
				22:leaf=-0.0915809721
	2:[sip3d<2.8700738] yes=5,no=6,missing=5
		5:[mvaFall17V2noIso<-0.141373947] yes=11,no=12,missing=11
			11:[mvaFall17V2noIso<-0.974199176] yes=23,no=24,missing=23
				23:leaf=-0.0943485349
				24:leaf=-0.0517376922
			12:[jetPtRelv2<4.30097675] yes=25,no=26,missing=25
				25:leaf=-0.0168689955
				26:leaf=0.0482723899
		6:[miniRelIsoCharged<0.0620663762] yes=13,no=14,missing=13
			13:[sip3d<5.94250393] yes=27,no=28,missing=27
				27:leaf=-0.0248148311
				28:leaf=-0.087213181
			14:[jetBTag<0.428567708] yes=29,no=30,missing=29
				29:leaf=-0.0828978866
				30:leaf=-0.100881174
booster[26]:
0:[jetPtRatio<0.833377838] yes=1,no=2,missing=1
	1:[sip3d<1.77293849] yes=3,no=4,missing=3
		3:[miniRelIsoCharged<0.220914841] yes=7,no=8,missing=7
			7:[miniRelIsoNeutral<0.0580224507] yes=15,no=16,missing=15
				15:leaf=0.0507718883
				16:leaf=-0.01135018
			8:[jetPtRelv2<3.11964512] yes=17,no=18,missing=17
				17:leaf=-0.0768259913
				18:leaf=-0.0105682667
		4:[jetPtRelv2<4.94882202] yes=9,no=10,missing=9
			9:[jetNDauChargedMVASel<1.5] yes=19,no=20,missing=19
				19:leaf=-0.0272633489
				20:leaf=-0.0903811529
			10:[mvaFall17V2noIso<0.992408454] yes=21,no=22,missing=21
				21:leaf=-0.0671538115
				22:leaf=0.0221429672
	2:[mvaFall17V2noIso<0.999793887] yes=5,no=6,missing=5
		5:[sip3d<2.08786321] yes=11,no=12,missing=11
			11:[jetNDauChargedMVASel<2.5] yes=23,no=24,missing=23
				23:leaf=0.0714934617
				24:leaf=-0.0300865471
			12:[jetNDauChargedMVASel<1.5] yes=25,no=26,missing=25
				25:leaf=0.0157818478
				26:leaf=-0.0711518601
		6:[jetBTag<0.116785549] yes=13,no=14,missing=13
			13:[pfRelIso03_all<0.0488158688] yes=27,no=28,missing=27
				27:leaf=0.101170443
				28:leaf=0.0817949697
			14:[dxy<-4.81032753] yes=29,no=30,missing=29
				29:leaf=0.0693577379
				30:leaf=-0.00156203029
booster[27]:
0:[jetPtRatio<0.840887308] yes=1,no=2,missing=1
	1:[jetBTag<0.424642026] yes=3,no=4,missing=3
		3:[mvaFall17V2noIso<0.982893944] yes=7,no=8,missing=7
			7:[mvaFall17V2noIso<-0.822266579] yes=15,no=16,missing=15
				15:leaf=-0.0834696516
				16:leaf=-0.0240559466
			8:[miniRelIsoNeutral<0.0202461295] yes=17,no=18,missing=17
				17:leaf=0.0561544709
				18:leaf=-0.0014931797
		4:[jetPtRelv2<11.4196568] yes=9,no=10,missing=9
			9:[jetPtRelv2<3.87081003] yes=19,no=20,missing=19
				19:leaf=-0.0918599963
				20:leaf=-0.0502594113
			10:[mvaFall17V2noIso<0.108988635] yes=21,no=22,missing=21
				21:leaf=-0.0645227507
				22:leaf=0.0889365524
	2:[mvaFall17V2noIso<0.999872088] yes=5,no=6,missing=5
		5:[sip3d<4.37250042] yes=11,no=12,missing=11
			11:[mvaFall17V2noIso<-0.995269895] yes=23,no=24,missing=23
				23:leaf=-0.0802323297
				24:leaf=0.0590836704
			12:[pfRelIso03_all<0.0153460708] yes=25,no=26,missing=25
				25:leaf=0.0100770108
				26:leaf=-0.0661509559
		6:[jetBTag<0.133642942] yes=13,no=14,missing=13
			13:[pfRelIso03_all<0.0417336226] yes=27,no=28,missing=27
				27:leaf=0.100816607
				28:leaf=0.0829444751
			14:[dxy<-4.53280735] yes=29,no=30,missing=29
				29:leaf=0.0641301498
				30:leaf=-0.0180572718
booster[28]:
0:[miniRelIsoCharged<0.0232634041] yes=1,no=2,missing=1
	1:[mvaFall17V2noIso<0.999941587] yes=3,no=4,missing=3
		3:[dz<-4.81655216] yes=7,no=8,missing=7
			7:[jetNDauChargedMVASel<1.5] yes=15,no=16,missing=15
				15:leaf=0.0612365603
				16:leaf=-0.0121053448
			8:[jetPtRatio<0.616243124] yes=17,no=18,missing=17
				17:leaf=-0.0705609024
				18:leaf=-0.00899565872
		4:[jetBTag<0.104706116] yes=9,no=10,missing=9
			9:[miniRelIsoNeutral<0.0216857847] yes=19,no=20,missing=19
				19:leaf=0.099585034
				20:leaf=0.0772290081
			10:[jetPtRelv2<7.61434269] yes=21,no=22,missing=21
				21:leaf=0.00905399397
				22:leaf=0.0881343186
	2:[sip3d<2.74496031] yes=5,no=6,missing=5
		5:[mvaFall17V2noIso<-0.0332389772] yes=11,no=12,missing=11
			11:[mvaFall17V2noIso<-0.982292175] yes=23,no=24,missing=23
				23:leaf=-0.0904806629
				24:leaf=-0.0562878065
			12:[jetBTag<0.290246129] yes=25,no=26,missing=25
				25:leaf=0.0150789488
				26:leaf=-0.0456255674
		6:[jetBTag<0.501390457] yes=13,no=14,missing=13
			13:[miniRelIsoNeutral<0.00532037206] yes=27,no=28,missing=27
				27:leaf=-0.0323338918
				28:leaf=-0.0806490108
			14:[jetPtRelv2<7.13597441] yes=29,no=30,missing=29
				29:leaf=-0.0993883088
				30:leaf=-0.0761199668
booster[29]:
0:[pfRelIso03_all<0.215418547] yes=1,no=2,missing=1
	1:[jetBTag<0.125162169] yes=3,no=4,missing=3
		3:[mvaFall17V2noIso<0.999886274] yes=7,no=8,missing=7
			7:[jetNDauChargedMVASel<1.5] yes=15,no=16,missing=15
				15:leaf=0.051667612
				16:leaf=-0.0128527703
			8:[pfRelIso03_all<0.0417250693] yes=17,no=18,missing=17
				17:leaf=0.0978358909
				18:leaf=0.07039731
		4:[jetBTag<0.661973476] yes=9,no=10,missing=9
			9:[pt<28.5621643] yes=19,no=20,missing=19
				19:leaf=0.0373481102
				20:leaf=-0.0274147671
			10:[jetPtRelv2<12.3941994] yes=21,no=22,missing=21
				21:leaf=-0.0797058567
				22:leaf=0.0618226193
	2:[jetPtRelv2<3.98020458] yes=5,no=6,missing=5
		5:[jetBTag<0.253740519] yes=11,no=12,missing=11
			11:[jetPtRatio<0.548217893] yes=23,no=24,missing=23
				23:leaf=-0.0681281015
				24:leaf=0.000929406378
			12:[jetBTag<0.519205809] yes=25,no=26,missing=25
				25:leaf=-0.0761708543
				26:leaf=-0.0973439291
		6:[dxy<-5.63102627] yes=13,no=14,missing=13
			13:[mvaFall17V2noIso<0.999986172] yes=27,no=28,missing=27
				27:leaf=0.00934323575
				28:leaf=0.0698199049
			14:[sip3d<4.78825283] yes=29,no=30,missing=29
				29:leaf=-0.0217493102
				30:leaf=-0.0826779827
booster[30]:
0:[miniRelIsoCharged<0.0213011503] yes=1,no=2,missing=1
	1:[mvaFall17V2noIso<0.99997139] yes=3,no=4,missing=3
		3:[jetBTag<0.595894873] yes=7,no=8,missing=7
			7:[dz<-4.99053192] yes=15,no=16,missing=15
				15:leaf=0.0443814173
				16:leaf=-0.0119203553
			8:[jetPtRelv2<5.09537268] yes=17,no=18,missing=17
				17:leaf=-0.0882757455
				18:leaf=-0.000174389308
		4:[jetBTag<0.103161655] yes=9,no=10,missing=9
			9:[miniRelIsoNeutral<0.0217981599] yes=19,no=20,missing=19
				19:leaf=0.0987207741
				20:leaf=0.0738938078
			10:[jetPtRelv2<6.30666351] yes=21,no=22,missing=21
				21:leaf=0.00449454738
				22:leaf=0.0807288438
	2:[sip3d<3.0960865] yes=5,no=6,missing=5
		5:[miniRelIsoNeutral<0.00904127769] yes=11,no=12,missing=11
			11:[miniRelIsoCharged<0.262403309] yes=23,no=24,missing=23
				23:leaf=0.0363617614
				24:leaf=-0.048654478
			12:[jetPtRelv2<3.4248898] yes=25,no=26,missing=25
				25:leaf=-0.0628836975
				26:leaf=-0.012935753
		6:[jetNDauChargedMVASel<1.5] yes=13,no=14,missing=13
			13:[jetPtRatio<0.602162778] yes=27,no=28,missing=27
				27:leaf=-0.0786159262
				28:leaf=-0.0100589497
			14:[jetPtRelv2<4.98361588] yes=29,no=30,missing=29
				29:leaf=-0.0949541479
				30:leaf=-0.0633661672
booster[31]:
0:[pfRelIso03_all<0.0455166958] yes=1,no=2,missing=1
	1:[jetBTag<0.107449397] yes=3,no=4,missing=3
		3:[mvaFall17V2noIso<0.998888612] yes=7,no=8,missing=7
			7:[jetPtRatio<0.922685206] yes=15,no=16,missing=15
				15:leaf=0.0236678068
				16:leaf=0.0770350024
			8:[jetPtRatio<0.877452493] yes=17,no=18,missing=17
				17:leaf=0.0778919309
				18:leaf=0.0987337753
		4:[sip3d<7.23998928] yes=9,no=10,missing=9
			9:[mvaFall17V2noIso<-0.908091009] yes=19,no=20,missing=19
				19:leaf=-0.0709524453
				20:leaf=0.0380884744
			10:[dxy<-4.62238026] yes=21,no=22,missing=21
				21:leaf=-0.0162004326
				22:leaf=-0.0794340447
	2:[dxy<-5.63042927] yes=5,no=6,missing=5
		5:[miniRelIsoCharged<0.198272124] yes=11,no=12,missing=11
			11:[mvaFall17V2noIso<0.999984741] yes=23,no=24,missing=23
				23:leaf=0.00413478725
				24:leaf=0.0586237088
			12:[jetPtRelv2<2.93453312] yes=25,no=26,missing=25
				25:leaf=-0.0702165514
				26:leaf=-0.00680258265
		6:[jetBTag<0.560346007] yes=13,no=14,missing=13
			13:[miniRelIsoNeutral<0.0178162381] yes=27,no=28,missing=27
				27:leaf=-0.0032413539
				28:leaf=-0.0589785576
			14:[jetPtRelv2<8.60419464] yes=29,no=30,missing=29
				29:leaf=-0.0942298174
				30:leaf=-0.0392915159
booster[32]:
0:[jetPtRatio<0.849830866] yes=1,no=2,missing=1
	1:[mvaFall17V2noIso<-0.38020727] yes=3,no=4,missing=3
		3:[mvaFall17V2noIso<-0.988129377] yes=7,no=8,missing=7
			7:[jetPtRelv2<18.0472298] yes=15,no=16,missing=15
				15:leaf=-0.0930215269
				16:leaf=-0.0468969047
			8:[sip3d<1.86104727] yes=17,no=18,missing=17
				17:leaf=-0.0274997205
				18:leaf=-0.0799577087
		4:[jetBTag<0.575884223] yes=9,no=10,missing=9
			9:[jetNDauChargedMVASel<1.5] yes=19,no=20,missing=19
				19:leaf=0.0475360416
				20:leaf=-0.00640160963
			10:[jetPtRelv2<8.57184601] yes=21,no=22,missing=21
				21:leaf=-0.0745510235
				22:leaf=0.0565166138
	2:[mvaFall17V2noIso<0.999821067] yes=5,no=6,missing=5
		5:[sip3d<1.96918821] yes=11,no=12,missing=11
			11:[pfRelIso03_all<0.0270343907] yes=23,no=24,missing=23
				23:leaf=0.0761944354
				24:leaf=0.0327581838
			12:[pfRelIso03_all<0.0207890384] yes=25,no=26,missing=25
				25:leaf=0.0267958827
				26:leaf=-0.0356884263
		6:[jetBTag<0.0959510431] yes=13,no=14,missing=13
			13:[pfRelIso03_all<0.035672728] yes=27,no=28,missing=27
				27:leaf=0.0990768299
				28:leaf=0.079442203
			14:[dxy<-4.69631863] yes=29,no=30,missing=29
				29:leaf=0.0638881475
				30:leaf=-0.0027911989
booster[33]:
0:[mvaFall17V2noIso<0.999940157] yes=1,no=2,missing=1
	1:[jetNDauChargedMVASel<1.5] yes=3,no=4,missing=3
		3:[dz<-4.70080233] yes=7,no=8,missing=7
			7:[mvaFall17V2noIso<-0.99121654] yes=15,no=16,missing=15
				15:leaf=-0.0683300495
				16:leaf=0.0508211926
			8:[jetPtRatio<0.560272455] yes=17,no=18,missing=17
				17:leaf=-0.0711710006
				18:leaf=-0.00330837676
		4:[jetPtRelv2<3.42664838] yes=9,no=10,missing=9
			9:[jetPtRatio<0.601600528] yes=19,no=20,missing=19
				19:leaf=-0.0840979218
				20:leaf=-0.0307291802
			10:[jetPtRatio<0.36325717] yes=21,no=22,missing=21
				21:leaf=0.049852401
				22:leaf=-0.0373534523
	2:[jetBTag<0.112978265] yes=5,no=6,missing=5
		5:[miniRelIsoNeutral<0.0200884268] yes=11,no=12,missing=11
			11:[jetPtRelv2<2.553689] yes=23,no=24,missing=23
				23:leaf=0.0596500039
				24:leaf=0.0943373442
			12:[jetBTag<0.0542409346] yes=25,no=26,missing=25
				25:leaf=0.0656347275
				26:leaf=0.0192276221
		6:[jetPtRelv2<10.3638916] yes=13,no=14,missing=13
			13:[jetBTag<0.675112128] yes=27,no=28,missing=27
				27:leaf=0.00757294614
				28:leaf=-0.0647074878
			14:[jetPtRelv2<14.7427721] yes=29,no=30,missing=29
				29:leaf=0.0529588871
				30:leaf=0.0996000096
booster[34]:
0:[miniRelIsoNeutral<0.0142327063] yes=1,no=2,missing=1
	1:[mvaFall17V2noIso<0.999987006] yes=3,no=4,missing=3
		3:[jetBTag<0.638314843] yes=7,no=8,missing=7
			7:[jetNDauChargedMVASel<1.5] yes=15,no=16,missing=15
				15:leaf=0.0489360802
				16:leaf=-0.00193069095
			8:[jetPtRatio<0.303029358] yes=17,no=18,missing=17
				17:leaf=0.0453119688
				18:leaf=-0.0716557428
		4:[jetBTag<0.104196042] yes=9,no=10,missing=9
			9:[jetPtRelv2<8.17103767] yes=19,no=20,missing=19
				19:leaf=0.0835938454
				20:leaf=0.0996088013
			10:[jetPtRelv2<7.83727598] yes=21,no=22,missing=21
				21:leaf=0.0104828803
				22:leaf=0.0822863057
	2:[jetBTag<0.135133743] yes=5,no=6,missing=5
		5:[jetNDauChargedMVASel<1.5] yes=11,no=12,missing=11
			11:[mvaFall17V2noIso<-0.985204518] yes=23,no=24,missing=23
				23:leaf=-0.0639439151
				24:leaf=0.044597622
			12:[jetPtRelv2<2.73968983] yes=25,no=26,missing=25
				25:leaf=-0.0591025837
				26:leaf=0.00641577039
		6:[sip3d<3.66979694] yes=13,no=14,missing=13
			13:[jetPtRelv2<7.85497379] yes=27,no=28,missing=27
				27:leaf=-0.0523195937
				28:leaf=0.0187011082
			14:[jetNDauChargedMVASel<1.5] yes=29,no=30,missing=29
				29:leaf=-0.0597642325
				30:leaf=-0.0941475406
booster[35]:
0:[miniRelIsoNeutral<0.0164937675] yes=1,no=2,missing=1
	1:[mvaFall17V2noIso<0.999975324] yes=3,no=4,missing=3
		3:[jetBTag<0.670152068] yes=7,no=8,missing=7
			7:[dz<-5.17511845] yes=15,no=16,missing=15
				15:leaf=0.0418283306
				16:leaf=-0.00967389159
			8:[jetPtRelv2<3.92294741] yes=17,no=18,missing=17
				17:leaf=-0.090183571
				18:leaf=-0.0231088623
		4:[jetBTag<0.274883091] yes=9,no=10,missing=9
			9:[jetPtRelv2<8.16291618] yes=19,no=20,missing=19
				19:leaf=0.0681068823
				20:leaf=0.0967482254
			10:[jetPtRelv2<11.9393663] yes=21,no=22,missing=21
				21:leaf=-0.00690474454
				22:leaf=0.0929777399
	2:[jetBTag<0.114872694] yes=5,no=6,missing=5
		5:[mvaFall17V2noIso<-0.579520702] yes=11,no=12,missing=11
			11:[pfRelIso03_all<0.135272905] yes=23,no=24,missing=23
				23:leaf=-0.0143230176
				24:leaf=-0.0692472085
			12:[jetNDauChargedMVASel<1.5] yes=25,no=26,missing=25
				25:leaf=0.0465438217
				26:leaf=-0.00751882046
		6:[sip3d<3.52860284] yes=13,no=14,missing=13
			13:[jetNDauChargedMVASel<1.5] yes=27,no=28,missing=27
				27:leaf=1.12342341e-05
				28:leaf=-0.0518144481
			14:[jetNDauChargedMVASel<1.5] yes=29,no=30,missing=29
				29:leaf=-0.0542770028
				30:leaf=-0.0921626538
booster[36]:
0:[jetPtRatio<0.872563064] yes=1,no=2,missing=1
	1:[sip3d<4.52355099] yes=3,no=4,missing=3
		3:[mvaFall17V2noIso<-0.872043252] yes=7,no=8,missing=7
			7:[mvaFall17V2noIso<-0.994319201] yes=15,no=16,missing=15
				15:leaf=-0.0842434391
				16:leaf=-0.0480670184
			8:[jetPtRelv2<8.72885227] yes=17,no=18,missing=17
				17:leaf=-0.00105097133
				18:leaf=0.0675633624
		4:[miniRelIsoCharged<0.0582531095] yes=9,no=10,missing=9
			9:[dxy<-4.7258215] yes=19,no=20,missing=19
				19:leaf=-0.0120448591
				20:leaf=-0.0703291968
			10:[jetBTag<0.498550296] yes=21,no=22,missing=21
				21:leaf=-0.0744426474
				22:leaf=-0.0971066579
	2:[mvaFall17V2noIso<0.999865532] yes=5,no=6,missing=5
		5:[sip3d<2.72365689] yes=11,no=12,missing=11
			11:[mvaFall17V2noIso<-0.933877349] yes=23,no=24,missing=23
				23:leaf=-0.0255644303
				24:leaf=0.058644373
			12:[mvaFall17V2noIso<0.659018457] yes=25,no=26,missing=25
				25:leaf=-0.0501517057
				26:leaf=0.0143933734
		6:[jetBTag<0.0784588382] yes=13,no=14,missing=13
			13:[pfRelIso03_all<0.035672728] yes=27,no=28,missing=27
				27:leaf=0.0984281227
				28:leaf=0.0794729069
			14:[sip3d<3.24786186] yes=29,no=30,missing=29
				29:leaf=0.0721434951
				30:leaf=0.0221305024
booster[37]:
0:[miniRelIsoCharged<0.0197868571] yes=1,no=2,missing=1
	1:[mvaFall17V2noIso<0.999991536] yes=3,no=4,missing=3
		3:[sip3d<6.28467655] yes=7,no=8,missing=7
			7:[jetNDauChargedMVASel<1.5] yes=15,no=16,missing=15
				15:leaf=0.0360406898
				16:leaf=-0.0073486045
			8:[jetBTag<0.0491675846] yes=17,no=18,missing=17
				17:leaf=0.0293321516
				18:leaf=-0.063826941
		4:[jetBTag<0.080975771] yes=9,no=10,missing=9
			9:[miniRelIsoNeutral<0.0311590098] yes=19,no=20,missing=19
				19:leaf=0.0959122404
				20:leaf=0.0697370619
			10:[jetPtRelv2<11.8842402] yes=21,no=22,missing=21
				21:leaf=0.0231450479
				22:leaf=0.0936836302
	2:[sip3d<1.58470988] yes=5,no=6,missing=5
		5:[mvaFall17V2noIso<-0.748430133] yes=11,no=12,missing=11
			11:[mvaFall17V2noIso<-0.997340083] yes=23,no=24,missing=23
				23:leaf=-0.0787396654
				24:leaf=-0.0431153104
			12:[miniRelIsoNeutral<1.05984509e-05] yes=25,no=26,missing=25
				25:leaf=0.0357386395
				26:leaf=-0.00686120614
		6:[jetBTag<0.41216746] yes=13,no=14,missing=13
			13:[mvaFall17V2noIso<0.991544724] yes=27,no=28,missing=27
				27:leaf=-0.0612926073
				28:leaf=-0.011117219
			14:[jetPtRelv2<4.26350594] yes=29,no=30,missing=29
				29:leaf=-0.089466475
				30:leaf=-0.0568458252
booster[38]:
0:[jetPtRelv2<4.44586611] yes=1,no=2,missing=1
	1:[jetPtRatio<0.591077089] yes=3,no=4,missing=3
		3:[sip3d<1.41299057] yes=7,no=8,missing=7
			7:[jetPtRelv2<3.02159977] yes=15,no=16,missing=15
				15:leaf=-0.0475257412
				16:leaf=0.0083653843
			8:[jetBTag<0.429503798] yes=17,no=18,missing=17
				17:leaf=-0.0630843863
				18:leaf=-0.0920874774
		4:[pt<26.8324776] yes=9,no=10,missing=9
			9:[jetBTag<0.725028992] yes=19,no=20,missing=19
				19:leaf=0.0479951315
				20:leaf=-0.0874077529
			10:[jetBTag<0.0784591585] yes=21,no=22,missing=21
				21:leaf=0.020050237
				22:leaf=-0.0703431591
	2:[mvaFall17V2noIso<0.999840736] yes=5,no=6,missing=5
		5:[pt<35.4535904] yes=11,no=12,missing=11
			11:[dz<-5.22253132] yes=23,no=24,missing=23
				23:leaf=0.0575823486
				24:leaf=0.00538186496
			12:[jetPtRelv2<12.065752] yes=25,no=26,missing=25
				25:leaf=-0.0552396737
				26:leaf=0.023069052
		6:[jetBTag<0.0782269388] yes=13,no=14,missing=13
			13:[pfRelIso03_all<0.0343170837] yes=27,no=28,missing=27
				27:leaf=0.0965411887
				28:leaf=0.0715007856
			14:[jetPtRelv2<13.2675323] yes=29,no=30,missing=29
				29:leaf=0.0204314031
				30:leaf=0.0842663795
booster[39]:
0:[miniRelIsoNeutral<0.0101356488] yes=1,no=2,missing=1
	1:[mvaFall17V2noIso<0.999992967] yes=3,no=4,missing=3
		3:[jetBTag<0.717710137] yes=7,no=8,missing=7
			7:[miniRelIsoCharged<0.237470567] yes=15,no=16,missing=15
				15:leaf=0.0281971544
				16:leaf=-0.043185886
			8:[jetPtRatio<0.334872603] yes=17,no=18,missing=17
				17:leaf=0.0475137606
				18:leaf=-0.0699940473
		4:[jetBTag<0.0964890048] yes=9,no=10,missing=9
			9:[jetPtRelv2<9.32495308] yes=19,no=20,missing=19
				19:leaf=0.0780663341
				20:leaf=0.0982478932
			10:[jetPtRelv2<6.72488928] yes=21,no=22,missing=21
				21:leaf=0.00741621992
				22:leaf=0.0681708306
	2:[sip3d<1.52697587] yes=5,no=6,missing=5
		5:[jetNDauChargedMVASel<1.5] yes=11,no=12,missing=11
			11:[jetBTag<0.490064144] yes=23,no=24,missing=23
				23:leaf=0.0434266627
				24:leaf=-0.0554774217
			12:[jetPtRelv2<3.72160029] yes=25,no=26,missing=25
				25:leaf=-0.0418725573
				26:leaf=0.0178816672
		6:[jetBTag<0.341012657] yes=13,no=14,missing=13
			13:[jetNDauChargedMVASel<1.5] yes=27,no=28,missing=27
				27:leaf=7.88825273e-05
				28:leaf=-0.0464386754
			14:[jetPtRelv2<12.3835888] yes=29,no=30,missing=29
				29:leaf=-0.0779012889
				30:leaf=-0.00596460281
booster[40]:
0:[mvaFall17V2noIso<0.999753237] yes=1,no=2,missing=1
	1:[jetNDauChargedMVASel<1.5] yes=3,no=4,missing=3
		3:[dz<-4.55803585] yes=7,no=8,missing=7
			7:[mvaFall17V2noIso<-0.997133791] yes=15,no=16,missing=15
				15:leaf=-0.0723805204
				16:leaf=0.0350396819
			8:[mvaFall17V2noIso<-0.576040566] yes=17,no=18,missing=17
				17:leaf=-0.0630722716
				18:leaf=-0.00919100456
		4:[jetPtRelv2<3.12962866] yes=9,no=10,missing=9
			9:[jetPtRatio<0.566378891] yes=19,no=20,missing=19
				19:leaf=-0.078480415
				20:leaf=-0.0270688534
			10:[jetPtRatio<0.406306982] yes=21,no=22,missing=21
				21:leaf=0.0419428907
				22:leaf=-0.0348506458
	2:[jetBTag<0.0926658064] yes=5,no=6,missing=5
		5:[pfRelIso03_all<0.0339072123] yes=11,no=12,missing=11
			11:[jetPtRatio<0.898753524] yes=23,no=24,missing=23
				23:leaf=0.0745105296
				24:leaf=0.0967964754
			12:[jetPtRelv2<2.23097372] yes=25,no=26,missing=25
				25:leaf=0.0105505949
				26:leaf=0.0564127564
		6:[jetPtRelv2<3.59791231] yes=13,no=14,missing=13
			13:[jetNDauChargedMVASel<1.5] yes=27,no=28,missing=27
				27:leaf=0.0154791344
				28:leaf=-0.0560553931
			14:[miniRelIsoNeutral<0.000615366618] yes=29,no=30,missing=29
				29:leaf=0.0457850955
				30:leaf=-0.00274994317
booster[41]:
0:[dxy<-5.71389151] yes=1,no=2,missing=1
	1:[jetPtRelv2<7.96600246] yes=3,no=4,missing=3
		3:[jetNDauChargedMVASel<1.5] yes=7,no=8,missing=7
			7:[jetBTag<0.775077343] yes=15,no=16,missing=15
				15:leaf=0.0477834046
				16:leaf=-0.0795295089
			8:[jetPtRelv2<2.56130457] yes=17,no=18,missing=17
				17:leaf=-0.0381535031
				18:leaf=0.00455522491
		4:[miniRelIsoCharged<0.0163310505] yes=9,no=10,missing=9
			9:[dz<-4.46170998] yes=19,no=20,missing=19
				19:leaf=0.0884127989
				20:leaf=0.0373376273
			10:[jetPtRatio<0.612657726] yes=21,no=22,missing=21
				21:leaf=0.0581510924
				22:leaf=0.000758276496
	2:[jetBTag<0.665278316] yes=5,no=6,missing=5
		5:[jetNDauChargedMVASel<1.5] yes=11,no=12,missing=11
			11:[jetPtRatio<0.54815805] yes=23,no=24,missing=23
				23:leaf=-0.0420223176
				24:leaf=0.0223130696
			12:[jetPtRelv2<3.15739965] yes=25,no=26,missing=25
				25:leaf=-0.0611725636
				26:leaf=-0.0122180367
		6:[jetPtRelv2<6.12161207] yes=13,no=14,missing=13
			13:[jetPtRelv2<3.58767843] yes=27,no=28,missing=27
				27:leaf=-0.0939515829
				28:leaf=-0.0721149147
			14:[jetPtRatio<0.48517713] yes=29,no=30,missing=29
				29:leaf=0.0310266223
				30:leaf=-0.0666497573
booster[42]:
0:[mvaFall17V2noIso<-0.526938558] yes=1,no=2,missing=1
	1:[mvaFall17V2noIso<-0.994319916] yes=3,no=4,missing=3
		3:[jetBTag<0.0519355983] yes=7,no=8,missing=7
			7:[jetPtRelv2<8.57870388] yes=15,no=16,missing=15
				15:leaf=-0.0675415322
				16:leaf=-0.0154106766
			8:[dz<-5.18309689] yes=17,no=18,missing=17
				17:leaf=-0.0774424672
				18:leaf=-0.0927227065
		4:[sip3d<2.20465803] yes=9,no=10,missing=9
			9:[pt<18.6993828] yes=19,no=20,missing=19
				19:leaf=0.0234379154
				20:leaf=-0.0341938995
			10:[dxy<-2.6912961] yes=21,no=22,missing=21
				21:leaf=-0.0764328018
				22:leaf=0.0289771706
	2:[jetPtRelv2<10.136116] yes=5,no=6,missing=5
		5:[jetBTag<0.634826124] yes=11,no=12,missing=11
			11:[jetNDauChargedMVASel<1.5] yes=23,no=24,missing=23
				23:leaf=0.0349962935
				24:leaf=-0.00886470731
			12:[jetPtRatio<0.309306532] yes=25,no=26,missing=25
				25:leaf=0.0727598891
				26:leaf=-0.0644842535
		6:[mvaFall17V2noIso<0.999987364] yes=13,no=14,missing=13
			13:[dz<-5.16942406] yes=27,no=28,missing=27
				27:leaf=0.0606549643
				28:leaf=0.0114986561
			14:[dxy<-4.75075006] yes=29,no=30,missing=29
				29:leaf=0.0896305889
				30:leaf=0.00917450339
booster[43]:
0:[dz<-5.16542006] yes=1,no=2,missing=1
	1:[miniRelIsoNeutral<0.00473387633] yes=3,no=4,missing=3
		3:[jetBTag<0.117415011] yes=7,no=8,missing=7
			7:[mvaFall17V2noIso<0.999996305] yes=15,no=16,missing=15
				15:leaf=0.0506208725
				16:leaf=0.0892761126
			8:[miniRelIsoCharged<0.223650143] yes=17,no=18,missing=17
				17:leaf=0.0310896728
				18:leaf=-0.0465180501
		4:[jetNDauChargedMVASel<1.5] yes=9,no=10,missing=9
			9:[jetBTag<0.507443547] yes=19,no=20,missing=19
				19:leaf=0.0332981758
				20:leaf=-0.0451249406
			10:[jetPtRelv2<3.41324568] yes=21,no=22,missing=21
				21:leaf=-0.0421931818
				22:leaf=0.00806904677
	2:[jetBTag<0.73350811] yes=5,no=6,missing=5
		5:[mvaFall17V2noIso<0.989510655] yes=11,no=12,missing=11
			11:[pt<26.2165642] yes=23,no=24,missing=23
				23:leaf=-0.0244578253
				24:leaf=-0.0660754815
			12:[miniRelIsoCharged<0.0157691687] yes=25,no=26,missing=25
				25:leaf=0.0238356739
				26:leaf=-0.0216017999
		6:[jetPtRelv2<5.75246239] yes=13,no=14,missing=13
			13:[jetPtRelv2<3.48412609] yes=27,no=28,missing=27
				27:leaf=-0.0950007886
				28:leaf=-0.0776939467
			14:[jetPtRatio<0.424495786] yes=29,no=30,missing=29
				29:leaf=0.0382161699
				30:leaf=-0.0627766997
booster[44]:
0:[sip3d<5.55352592] yes=1,no=2,missing=1
	1:[jetPtRatio<0.88291204] yes=3,no=4,missing=3
		3:[mvaFall17V2noIso<-0.953743696] yes=7,no=8,missing=7
			7:[mvaFall17V2noIso<-0.998926878] yes=15,no=16,missing=15
				15:leaf=-0.0799260512
				16:leaf=-0.0482126996
			8:[jetPtRelv2<11.166254] yes=17,no=18,missing=17
				17:leaf=0.000737163646
				18:leaf=0.0638059676
		4:[mvaFall17V2noIso<0.999943376] yes=9,no=10,missing=9
			9:[pfRelIso03_all<0.021630913] yes=19,no=20,missing=19
				19:leaf=0.0555873811
				20:leaf=0.0111454045
			10:[jetBTag<0.0773490742] yes=21,no=22,missing=21
				21:leaf=0.0931604728
				22:leaf=0.0565867014
	2:[pfRelIso03_all<0.0305015743] yes=5,no=6,missing=5
		5:[pt<14.0243044] yes=11,no=12,missing=11
			11:leaf=-0.0736734644
			12:[jetBTag<0.0553768352] yes=23,no=24,missing=23
				23:leaf=0.0686359629
				24:leaf=-0.00841311645
		6:[sip3d<8.14415359] yes=13,no=14,missing=13
			13:[miniRelIsoCharged<0.0838739425] yes=25,no=26,missing=25
				25:leaf=-0.0325019173
				26:leaf=-0.0799623057
			14:[dxy<-2.80199242] yes=27,no=28,missing=27
				27:leaf=-0.0893967301
				28:leaf=-0.0346195698
booster[45]:
0:[dxy<-5.98199987] yes=1,no=2,missing=1
	1:[jetPtRelv2<7.96600246] yes=3,no=4,missing=3
		3:[jetNDauChargedMVASel<1.5] yes=7,no=8,missing=7
			7:[jetPtRatio<0.548437595] yes=15,no=16,missing=15
				15:leaf=-0.00622060057
				16:leaf=0.0479553938
			8:[jetBTag<0.124999262] yes=17,no=18,missing=17
				17:leaf=0.0135795642
				18:leaf=-0.0248310864
		4:[miniRelIsoCharged<0.0130726527] yes=9,no=10,missing=9
			9:[mvaFall17V2noIso<0.999993682] yes=19,no=20,missing=19
				19:leaf=0.0623900704
				20:leaf=0.0926146358
			10:[jetPtRatio<0.628350139] yes=21,no=22,missing=21
				21:leaf=0.0537328981
				22:leaf=0.00156026112
	2:[jetBTag<0.708226085] yes=5,no=6,missing=5
		5:[miniRelIsoNeutral<0.000837033731] yes=11,no=12,missing=11
			11:[miniRelIsoCharged<0.237275794] yes=23,no=24,missing=23
				23:leaf=0.0201506466
				24:leaf=-0.0475677364
			12:[jetNDauChargedMVASel<1.5] yes=25,no=26,missing=25
				25:leaf=-0.00802617054
				26:leaf=-0.0440843292
		6:[jetPtRelv2<5.94611454] yes=13,no=14,missing=13
			13:[jetPtRelv2<3.37695789] yes=27,no=28,missing=27
				27:leaf=-0.091505155
				28:leaf=-0.0662395433
			14:[jetPtRatio<0.544310212] yes=29,no=30,missing=29
				29:leaf=0.0236846618
				30:leaf=-0.0678550974
booster[46]:
0:[mvaFall17V2noIso<-0.702149987] yes=1,no=2,missing=1
	1:[mvaFall17V2noIso<-0.99764812] yes=3,no=4,missing=3
		3:[jetBTag<0.0518859401] yes=7,no=8,missing=7
			7:[jetPtRelv2<7.05086517] yes=15,no=16,missing=15
				15:leaf=-0.0656881109
				16:leaf=-0.0190682225
			8:[jetPtRelv2<2.84765482] yes=17,no=18,missing=17
				17:leaf=-0.0923032984
				18:leaf=-0.0759583935
		4:[sip3d<1.92055285] yes=9,no=10,missing=9
			9:[pt<18.8974609] yes=19,no=20,missing=19
				19:leaf=0.0201517995
				20:leaf=-0.0312628672
			10:[dxy<-2.56347322] yes=21,no=22,missing=21
				21:leaf=-0.0714650527
				22:leaf=0.0349745303
	2:[jetPtRelv2<12.4240894] yes=5,no=6,missing=5
		5:[jetBTag<0.741086125] yes=11,no=12,missing=11
			11:[jetNDauChargedMVASel<1.5] yes=23,no=24,missing=23
				23:leaf=0.028152192
				24:leaf=-0.00668775663
			12:[jetPtRatio<0.332934469] yes=25,no=26,missing=25
				25:leaf=0.0647539347
				26:leaf=-0.0639946759
		6:[mvaFall17V2noIso<0.999991775] yes=13,no=14,missing=13
			13:[miniRelIsoCharged<0.0129253119] yes=27,no=28,missing=27
				27:leaf=0.0612449646
				28:leaf=0.00743689016
			14:[dxy<-5.03645134] yes=29,no=30,missing=29
				29:leaf=0.0921223462
				30:leaf=0.0403835662
booster[47]:
0:[sip3d<5.55352592] yes=1,no=2,missing=1
	1:[mvaFall17V2noIso<0.999992609] yes=3,no=4,missing=3
		3:[mvaFall17V2noIso<-0.975136578] yes=7,no=8,missing=7
			7:[mvaFall17V2noIso<-0.999434352] yes=15,no=16,missing=15
				15:leaf=-0.0771920606
				16:leaf=-0.0443908274
			8:[pt<30.2086067] yes=17,no=18,missing=17
				17:leaf=0.0145742549
				18:leaf=-0.0187042784
		4:[jetBTag<0.0625366718] yes=9,no=10,missing=9
			9:[pfRelIso03_all<0.0488639884] yes=19,no=20,missing=19
				19:leaf=0.0931698009
				20:leaf=0.0608853474
			10:[jetPtRelv2<10.9711714] yes=21,no=22,missing=21
				21:leaf=0.009237119
				22:leaf=0.0741847679
	2:[pfRelIso03_all<0.0210980475] yes=5,no=6,missing=5
		5:[pt<16.0939198] yes=11,no=12,missing=11
			11:leaf=-0.0570281632
			12:[jetPtRelv2<16.3752403] yes=23,no=24,missing=23
				23:leaf=-0.00160477345
				24:leaf=0.0576140545
		6:[sip3d<8.2597599] yes=13,no=14,missing=13
			13:[miniRelIsoCharged<0.0838739425] yes=25,no=26,missing=25
				25:leaf=-0.0281133801
				26:leaf=-0.076009348
			14:[dxy<-2.83024287] yes=27,no=28,missing=27
				27:leaf=-0.0864357874
				28:leaf=-0.0267499071
booster[48]:
0:[jetPtRelv2<3.58070493] yes=1,no=2,missing=1
	1:[jetPtRatio<0.569160342] yes=3,no=4,missing=3
		3:[jetBTag<0.12180794] yes=7,no=8,missing=7
			7:[jetPtRelv2<2.10358953] yes=15,no=16,missing=15
				15:leaf=-0.0451743677
				16:leaf=-0.00375620089
			8:[sip3d<3.31914854] yes=17,no=18,missing=17
				17:leaf=-0.0621757917
				18:leaf=-0.0879822075
		4:[pt<26.2179108] yes=9,no=10,missing=9
			9:[jetBTag<0.631885171] yes=19,no=20,missing=19
				19:leaf=0.0364779085
				20:leaf=-0.0608624332
			10:[jetBTag<0.073563844] yes=21,no=22,missing=21
				21:leaf=0.0116266087
				22:leaf=-0.0635083541
	2:[jetBTag<0.0489397943] yes=5,no=6,missing=5
		5:[mvaFall17V2noIso<0.999967694] yes=11,no=12,missing=11
			11:[pfRelIso03_all<0.0227192789] yes=23,no=24,missing=23
				23:leaf=0.0719920099
				24:leaf=0.017731946
			12:[pfRelIso03_all<0.0522586107] yes=25,no=26,missing=25
				25:leaf=0.0933007896
				26:leaf=0.0644631684
		6:[pt<35.581749] yes=13,no=14,missing=13
			13:[sip3d<8.26677132] yes=27,no=28,missing=27
				27:leaf=0.032926403
				28:leaf=-0.0487564132
			14:[jetPtRelv2<13.9484005] yes=29,no=30,missing=29
				29:leaf=-0.0382713191
				30:leaf=0.0406431966
booster[49]:
0:[dz<-5.35884237] yes=1,no=2,missing=1
	1:[miniRelIsoNeutral<0.000829609111] yes=3,no=4,missing=3
		3:[jetPtRelv2<6.65426779] yes=7,no=8,missing=7
			7:[miniRelIsoCharged<0.342151582] yes=15,no=16,missing=15
				15:leaf=0.0322741754
				16:leaf=-0.0334637724
			8:[miniRelIsoCharged<0.0249730367] yes=17,no=18,missing=17
				17:leaf=0.078564629
				18:leaf=0.0287121721
		4:[jetBTag<0.0624609664] yes=9,no=10,missing=9
			9:[mvaFall17V2noIso<0.999972105] yes=19,no=20,missing=19
				19:leaf=0.00922700576
				20:leaf=0.0537339635
			10:[pt<25.1458378] yes=21,no=22,missing=21
				21:leaf=0.00775947282
				22:leaf=-0.026452763
	2:[jetBTag<0.791903377] yes=5,no=6,missing=5
		5:[mvaFall17V2noIso<0.996629238] yes=11,no=12,missing=11
			11:[pt<24.2419357] yes=23,no=24,missing=23
				23:leaf=-0.0143192057
				24:leaf=-0.0531322733
			12:[jetPtRelv2<2.82503104] yes=25,no=26,missing=25
				25:leaf=-0.0227731187
				26:leaf=0.0204160362
		6:[jetPtRelv2<5.16019249] yes=13,no=14,missing=13
			13:[jetPtRatio<0.273743033] yes=27,no=28,missing=27
				27:leaf=-0.0576428957
				28:leaf=-0.0896451622
			14:[jetPtRatio<0.491702706] yes=29,no=30,missing=29
				29:leaf=0.0269464757
				30:leaf=-0.0666929036
booster[50]:
0:[dxy<-6.02814865] yes=1,no=2,missing=1
	1:[jetPtRelv2<4.86703253] yes=3,no=4,missing=3
		3:[jetNDauChargedMVASel<2.5] yes=7,no=8,missing=7
			7:[jetBTag<0.593499303] yes=15,no=16,missing=15
				15:leaf=0.0272276681
				16:leaf=-0.0470920168
			8:[jetPtRelv2<2.09500647] yes=17,no=18,missing=17
				17:leaf=-0.0491196141
				18:leaf=-0.00393268
		4:[miniRelIsoCharged<0.0144691914] yes=9,no=10,missing=9
			9:[mvaFall17V2noIso<0.999995351] yes=19,no=20,missing=19
				19:leaf=0.0456464998
				20:leaf=0.0829251036
			10:[jetPtRatio<0.619092703] yes=21,no=22,missing=21
				21:leaf=0.046217043
				22:leaf=-0.00949677639
	2:[miniRelIsoCharged<0.186271191] yes=5,no=6,missing=5
		5:[sip3d<7.16057205] yes=11,no=12,missing=11
			11:[miniRelIsoNeutral<3.68120964e-05] yes=23,no=24,missing=23
				23:leaf=0.016536342
				24:leaf=-0.0164578538
			12:[dxy<-2.72998667] yes=25,no=26,missing=25
				25:leaf=-0.0638495907
				26:leaf=0.0243318621
		6:[jetBTag<0.0960274339] yes=13,no=14,missing=13
			13:[jetPtRelv2<2.0420742] yes=27,no=28,missing=27
				27:leaf=-0.0530420654
				28:leaf=0.000759884657
			14:[sip3d<3.24793553] yes=29,no=30,missing=29
				29:leaf=-0.0509726293
				30:leaf=-0.0835398585
booster[51]:
0:[mvaFall17V2noIso<0.999931693] yes=1,no=2,missing=1
	1:[mvaFall17V2noIso<-0.975136161] yes=3,no=4,missing=3
		3:[dxy<-1.63997042] yes=7,no=8,missing=7
			7:[sip3d<2.88009691] yes=15,no=16,missing=15
				15:leaf=-0.0509924553
				16:leaf=-0.0869781598
			8:leaf=0.0164710712
		4:[pt<27.4631615] yes=9,no=10,missing=9
			9:[jetPtRatio<0.552582383] yes=17,no=18,missing=17
				17:leaf=-0.0225776695
				18:leaf=0.0267436691
			10:[jetPtRelv2<7.88699913] yes=19,no=20,missing=19
				19:leaf=-0.0448244847
				20:leaf=0.0160148498
	2:[jetBTag<0.0625366718] yes=5,no=6,missing=5
		5:[pfRelIso03_all<0.0333779454] yes=11,no=12,missing=11
			11:[jetPtRatio<0.914951682] yes=21,no=22,missing=21
				21:leaf=0.0736278221
				22:leaf=0.0952791125
			12:[mvaFall17V2noIso<0.999998331] yes=23,no=24,missing=23
				23:leaf=0.0300773084
				24:leaf=0.0608806573
		6:[miniRelIsoNeutral<4.56514044e-08] yes=13,no=14,missing=13
			13:[jetBTag<0.923484087] yes=25,no=26,missing=25
				25:leaf=0.0357243158
				26:leaf=-0.0300638527
			14:[dxy<-4.79973125] yes=27,no=28,missing=27
				27:leaf=-0.00319420616
				28:leaf=-0.061144527
booster[52]:
0:[jetBTag<0.110777482] yes=1,no=2,missing=1
	1:[jetPtRatio<0.901056111] yes=3,no=4,missing=3
		3:[mvaFall17V2noIso<0.99999404] yes=7,no=8,missing=7
			7:[pt<35.6908951] yes=15,no=16,missing=15
				15:leaf=0.0147691984
				16:leaf=-0.0180084258
			8:[jetPtRelv2<10.0789118] yes=17,no=18,missing=17
				17:leaf=0.0365124531
				18:leaf=0.079771474
		4:[mvaFall17V2noIso<0.998846292] yes=9,no=10,missing=9
			9:[jetBTag<0.0275847055] yes=19,no=20,missing=19
				19:leaf=0.0638910159
				20:leaf=0.0211104676
			10:[pfRelIso03_all<0.0342068076] yes=21,no=22,missing=21
				21:leaf=0.0876419693
				22:leaf=0.0535780899
	2:[sip3d<7.16001987] yes=5,no=6,missing=5
		5:[miniRelIsoCharged<0.205858558] yes=11,no=12,missing=11
			11:[jetPtRatio<0.283314705] yes=23,no=24,missing=23
				23:leaf=0.0772428811
				24:leaf=-0.00414099265
			12:[jetPtRelv2<2.53735304] yes=25,no=26,missing=25
				25:leaf=-0.0737024471
				26:leaf=-0.0225809012
		6:[jetNDauChargedMVASel<1.5] yes=13,no=14,missing=13
			13:[dxy<-4.68566895] yes=27,no=28,missing=27
				27:leaf=-0.00167414441
				28:leaf=-0.0610037111
			14:[jetPtRelv2<6.39198399] yes=29,no=30,missing=29
				29:leaf=-0.0873505697
				30:leaf=-0.0612148419
booster[53]:
0:[dz<-5.47764587] yes=1,no=2,missing=1
	1:[jetPtRelv2<10.6729612] yes=3,no=4,missing=3
		3:[jetNDauChargedMVASel<1.5] yes=7,no=8,missing=7
			7:[jetBTag<0.732358873] yes=15,no=16,missing=15
				15:leaf=0.0351427756
				16:leaf=-0.0547150932
			8:[jetPtRelv2<2.50616217] yes=17,no=18,missing=17
				17:leaf=-0.0262135696
				18:leaf=0.0117111662
		4:[miniRelIsoCharged<0.0130701717] yes=9,no=10,missing=9
			9:[sip3d<2.64406252] yes=19,no=20,missing=19
				19:leaf=0.082828261
				20:leaf=0.0331832245
			10:[dxy<-6.51881409] yes=21,no=22,missing=21
				21:leaf=0.0609154701
				22:leaf=0.0147493277
	2:[jetBTag<0.798849165] yes=5,no=6,missing=5
		5:[mvaFall17V2noIso<0.676481664] yes=11,no=12,missing=11
			11:[dxy<-1.73834634] yes=23,no=24,missing=23
				23:leaf=-0.045564007
				24:leaf=0.0467472374
			12:[jetNDauChargedMVASel<1.5] yes=25,no=26,missing=25
				25:leaf=0.0150151569
				26:leaf=-0.0154457344
		6:[jetPtRelv2<5.01093197] yes=13,no=14,missing=13
			13:[sip3d<3.3218832] yes=27,no=28,missing=27
				27:leaf=-0.0705631748
				28:leaf=-0.0920655951
			14:[jetPtRatio<0.531180501] yes=29,no=30,missing=29
				29:leaf=0.0253608059
				30:leaf=-0.0660114512
booster[54]:
0:[jetPtRelv2<3.13481617] yes=1,no=2,missing=1
	1:[jetPtRatio<0.552659214] yes=3,no=4,missing=3
		3:[jetBTag<0.0965176225] yes=7,no=8,missing=7
			7:[miniRelIsoCharged<0.381766438] yes=15,no=16,missing=15
				15:leaf=-0.0160633605
				16:leaf=-0.050171759
			8:[sip3d<3.88195205] yes=17,no=18,missing=17
				17:leaf=-0.0611397214
				18:leaf=-0.0859334841
		4:[pt<23.0238476] yes=9,no=10,missing=9
			9:[jetBTag<0.53802681] yes=19,no=20,missing=19
				19:leaf=0.0332753882
				20:leaf=-0.0391344056
			10:[jetBTag<0.0943124741] yes=21,no=22,missing=21
				21:leaf=0.00710914377
				22:leaf=-0.0548985191
	2:[jetBTag<0.0393912196] yes=5,no=6,missing=5
		5:[pfRelIso03_all<0.0271100402] yes=11,no=12,missing=11
			11:[mvaFall17V2noIso<0.999991536] yes=23,no=24,missing=23
				23:leaf=0.0705486089
				24:leaf=0.095167309
			12:[jetPtRatio<0.632448614] yes=25,no=26,missing=25
				25:leaf=0.0534449592
				26:leaf=0.0124660796
		6:[pt<36.7988434] yes=13,no=14,missing=13
			13:[miniRelIsoCharged<0.247036859] yes=27,no=28,missing=27
				27:leaf=0.0261654556
				28:leaf=-0.0229174159
			14:[jetPtRelv2<13.1138] yes=29,no=30,missing=29
				29:leaf=-0.0352153592
				30:leaf=0.0344871394
booster[55]:
0:[dxy<-6.04138947] yes=1,no=2,missing=1
	1:[mvaFall17V2noIso<0.999996305] yes=3,no=4,missing=3
		3:[dz<-5.79621649] yes=7,no=8,missing=7
			7:[jetPtRatio<0.281837016] yes=15,no=16,missing=15
				15:leaf=0.0775942802
				16:leaf=0.0182989668
			8:[pt<35.8761559] yes=17,no=18,missing=17
				17:leaf=0.00327179069
				18:leaf=-0.0272622146
		4:[jetPtRelv2<10.9517059] yes=9,no=10,missing=9
			9:[jetBTag<0.0982742459] yes=19,no=20,missing=19
				19:leaf=0.0543082654
				20:leaf=0.0135215372
			10:[miniRelIsoCharged<0.0167136416] yes=21,no=22,missing=21
				21:leaf=0.0904109105
				22:leaf=0.0637397394
	2:[jetBTag<0.740879178] yes=5,no=6,missing=5
		5:[pfRelIso03_all<0.0207203105] yes=11,no=12,missing=11
			11:[pt<12.8726444] yes=23,no=24,missing=23
				23:leaf=-0.0400793999
				24:leaf=0.0312462952
			12:[pt<41.0875015] yes=25,no=26,missing=25
				25:leaf=-0.00528958952
				26:leaf=-0.0392066836
		6:[jetPtRelv2<5.1345768] yes=13,no=14,missing=13
			13:[sip3d<3.2431879] yes=27,no=28,missing=27
				27:leaf=-0.0609403066
				28:leaf=-0.0886878818
			14:[jetPtRatio<0.512894452] yes=29,no=30,missing=29
				29:leaf=0.0312492307
				30:leaf=-0.0560372137
booster[56]:
0:[mvaFall17V2noIso<-0.959662318] yes=1,no=2,missing=1
	1:[mvaFall17V2noIso<-0.99956882] yes=3,no=4,missing=3
		3:[jetNDauChargedMVASel<6.5] yes=7,no=8,missing=7
			7:[jetBTag<0.0518127754] yes=15,no=16,missing=15
				15:leaf=-0.0597394593
				16:leaf=-0.0849422738
			8:leaf=-0.0380774401
		4:[pfRelIso03_all<0.0943645835] yes=9,no=10,missing=9
			9:[jetBTag<0.186221853] yes=17,no=18,missing=17
				17:leaf=0.030806521
				18:leaf=-0.0463271886
			10:[sip3d<2.73763227] yes=19,no=20,missing=19
				19:leaf=-0.035062857
				20:leaf=-0.0754439682
	2:[jetPtRelv2<13.8133583] yes=5,no=6,missing=5
		5:[sip3d<1.26640904] yes=11,no=12,missing=11
			11:[jetPtRatio<0.269688666] yes=21,no=22,missing=21
				21:leaf=0.0785503238
				22:leaf=0.0148851145
			12:[jetBTag<0.836631298] yes=23,no=24,missing=23
				23:leaf=-0.00551730301
				24:leaf=-0.0582412183
		6:[miniRelIsoCharged<0.0129253119] yes=13,no=14,missing=13
			13:[mvaFall17V2noIso<0.999359608] yes=25,no=26,missing=25
				25:leaf=0.0415658504
				26:leaf=0.0812531337
			14:[miniRelIsoNeutral<0.227169096] yes=27,no=28,missing=27
				27:leaf=-0.00607835548
				28:leaf=0.0578976236
booster[57]:
0:[jetPtRelv2<2.45271826] yes=1,no=2,missing=1
	1:[jetPtRatio<0.533568025] yes=3,no=4,missing=3
		3:[jetBTag<0.0562552512] yes=7,no=8,missing=7
			7:[jetNDauChargedMVASel<1.5] yes=15,no=16,missing=15
				15:leaf=0.0108912261
				16:leaf=-0.0390373617
			8:[jetPtRatio<0.470725685] yes=17,no=18,missing=17
				17:leaf=-0.0779875517
				18:leaf=-0.0537496507
		4:[pt<20.7518005] yes=9,no=10,missing=9
			9:[pfRelIso03_all<0.11379151] yes=19,no=20,missing=19
				19:leaf=-0.00300669554
				20:leaf=0.043331854
			10:[jetBTag<0.154106408] yes=21,no=22,missing=21
				21:leaf=-0.00199771277
				22:leaf=-0.0627185479
	2:[jetBTag<0.0444115847] yes=5,no=6,missing=5
		5:[pfRelIso03_all<0.0230927654] yes=11,no=12,missing=11
			11:[mvaFall17V2noIso<0.999952197] yes=23,no=24,missing=23
				23:leaf=0.0607278123
				24:leaf=0.0914560482
			12:[mvaFall17V2noIso<0.999872446] yes=25,no=26,missing=25
				25:leaf=0.0125116436
				26:leaf=0.0465991311
		6:[pt<41.0882492] yes=13,no=14,missing=13
			13:[miniRelIsoNeutral<0.126866102] yes=27,no=28,missing=27
				27:leaf=0.0202002749
				28:leaf=-0.0177352224
			14:[jetPtRelv2<14.2796841] yes=29,no=30,missing=29
				29:leaf=-0.0396481976
				30:leaf=0.032801684
booster[58]:
0:[sip3d<6.21770763] yes=1,no=2,missing=1
	1:[mvaFall17V2noIso<0.999997497] yes=3,no=4,missing=3
		3:[mvaFall17V2noIso<-0.994334698] yes=7,no=8,missing=7
			7:[mvaFall17V2noIso<-0.999646068] yes=13,no=14,missing=13
				13:leaf=-0.0679210126
				14:leaf=-0.0389622822
			8:[pt<34.3978729] yes=15,no=16,missing=15
				15:leaf=0.00941033382
				16:leaf=-0.0155541496
		4:[jetPtRelv2<7.6270318] yes=9,no=10,missing=9
			9:[jetBTag<0.31986475] yes=17,no=18,missing=17
				17:leaf=0.0327687114
				18:leaf=-0.0146343177
			10:[jetPtRelv2<16.8120918] yes=19,no=20,missing=19
				19:leaf=0.0538398623
				20:leaf=0.0903534517
	2:[dxy<-2.57065821] yes=5,no=6,missing=5
		5:[dxy<-4.6221776] yes=11,no=12,missing=11
			11:[miniRelIsoCharged<0.0438909903] yes=21,no=22,missing=21
				21:leaf=-7.1701761e-05
				22:leaf=-0.0692659095
			12:[dxy<-3.23313141] yes=23,no=24,missing=23
				23:leaf=-0.072621353
				24:leaf=-0.0271033142
		6:leaf=0.0471281633
booster[59]:
0:[jetPtRelv2<3.99948883] yes=1,no=2,missing=1
	1:[jetPtRatio<0.611458182] yes=3,no=4,missing=3
		3:[jetBTag<0.297727078] yes=7,no=8,missing=7
			7:[jetPtRelv2<2.16156912] yes=15,no=16,missing=15
				15:leaf=-0.0337731354
				16:leaf=-0.0050122356
			8:[jetPtRelv2<2.5265348] yes=17,no=18,missing=17
				17:leaf=-0.0726075768
				18:leaf=-0.0402872227
		4:[pt<32.9287148] yes=9,no=10,missing=9
			9:[jetBTag<0.801360786] yes=19,no=20,missing=19
				19:leaf=0.0261656437
				20:leaf=-0.0774964541
			10:[jetBTag<0.0466101989] yes=21,no=22,missing=21
				21:leaf=0.0138875907
				22:leaf=-0.056730289
	2:[mvaFall17V2noIso<0.999926209] yes=5,no=6,missing=5
		5:[jetPtRatio<0.512818217] yes=11,no=12,missing=11
			11:[sip3d<7.38826847] yes=23,no=24,missing=23
				23:leaf=0.0410283394
				24:leaf=-0.0446586572
			12:[pt<37.2036057] yes=25,no=26,missing=25
				25:leaf=0.0133020878
				26:leaf=-0.0354303941
		6:[pfRelIso03_all<0.0224714279] yes=13,no=14,missing=13
			13:[jetBTag<0.0635720268] yes=27,no=28,missing=27
				27:leaf=0.0873572752
				28:leaf=0.0485596806
			14:[dxy<-4.71553946] yes=29,no=30,missing=29
				29:leaf=0.0258231442
				30:leaf=-0.0249100663
booster[60]:
0:[dz<-5.59682274] yes=1,no=2,missing=1
	1:[jetPtRatio<0.909250975] yes=3,no=4,missing=3
		3:[dxy<-6.32141018] yes=7,no=8,missing=7
			7:[jetPtRelv2<10.6726332] yes=15,no=16,missing=15
				15:leaf=0.0175817218
				16:leaf=0.0603074431
			8:[miniRelIsoNeutral<1.06835869e-05] yes=17,no=18,missing=17
				17:leaf=0.0129645457
				18:leaf=-0.0103347581
		4:[pt<15.291503] yes=9,no=10,missing=9
			9:leaf=-0.00487543317
			10:[pfRelIso03_all<0.0259866118] yes=19,no=20,missing=19
				19:leaf=0.0800216347
				20:leaf=0.0425649919
	2:[sip3d<8.25986671] yes=5,no=6,missing=5
		5:[mvaFall17V2noIso<-0.987369597] yes=11,no=12,missing=11
			11:[dxy<-2.71838808] yes=21,no=22,missing=21
				21:leaf=-0.066009067
				22:leaf=-0.0105627198
			12:[miniRelIsoCharged<0.0138889812] yes=23,no=24,missing=23
				23:leaf=0.00748802116
				24:leaf=-0.0170920677
		6:[dxy<-2.76124954] yes=13,no=14,missing=13
			13:[miniRelIsoCharged<0.0499662794] yes=25,no=26,missing=25
				25:leaf=-0.0495826006
				26:leaf=-0.0835666284
			14:leaf=0.0207182691
booster[61]:
0:[jetBTag<0.0965854302] yes=1,no=2,missing=1
	1:[jetPtRatio<0.920502424] yes=3,no=4,missing=3
		3:[mvaFall17V2noIso<0.999708056] yes=7,no=8,missing=7
			7:[jetPtRatio<0.16145581] yes=15,no=16,missing=15
				15:leaf=0.0856521875
				16:leaf=-0.00300928229
			8:[mvaFall17V2noIso<0.999999523] yes=17,no=18,missing=17
				17:leaf=0.0186527874
				18:leaf=0.0510073602
		4:[mvaFall17V2noIso<0.998846292] yes=9,no=10,missing=9
			9:[jetBTag<0.0297251083] yes=19,no=20,missing=19
				19:leaf=0.0589549914
				20:leaf=0.0153264543
			10:[jetBTag<0.0409096628] yes=21,no=22,missing=21
				21:leaf=0.088704221
				22:leaf=0.062631689
	2:[sip3d<8.25986671] yes=5,no=6,missing=5
		5:[miniRelIsoCharged<0.208695889] yes=11,no=12,missing=11
			11:[pt<37.5362854] yes=23,no=24,missing=23
				23:leaf=0.00656979484
				24:leaf=-0.025703026
			12:[jetPtRelv2<2.38460255] yes=25,no=26,missing=25
				25:leaf=-0.0647217929
				26:leaf=-0.0170765314
		6:[jetNDauChargedMVASel<1.5] yes=13,no=14,missing=13
			13:[dxy<-4.91746616] yes=27,no=28,missing=27
				27:leaf=-0.0015462999
				28:leaf=-0.0561656319
			14:[dz<-2.92927647] yes=29,no=30,missing=29
				29:leaf=-0.0808852836
				30:leaf=-0.0515360534
booster[62]:
0:[jetPtRelv2<4.46611691] yes=1,no=2,missing=1
	1:[jetPtRatio<0.61609304] yes=3,no=4,missing=3
		3:[jetBTag<0.297727078] yes=7,no=8,missing=7
			7:[jetPtRatio<0.197522581] yes=15,no=16,missing=15
				15:leaf=0.0776391551
				16:leaf=-0.0193943996
			8:[jetPtRelv2<2.98922396] yes=17,no=18,missing=17
				17:leaf=-0.0643423125
				18:leaf=-0.0240515508
		4:[pt<35.6254578] yes=9,no=10,missing=9
			9:[jetBTag<0.814833879] yes=19,no=20,missing=19
				19:leaf=0.0231269989
				20:leaf=-0.0765370131
			10:[jetBTag<0.0466564074] yes=21,no=22,missing=21
				21:leaf=0.0064908932
				22:leaf=-0.0566336177
	2:[jetPtRatio<0.567703664] yes=5,no=6,missing=5
		5:[miniRelIsoCharged<0.14487502] yes=11,no=12,missing=11
			11:[miniRelIsoNeutral<0.0860322714] yes=23,no=24,missing=23
				23:leaf=0.0668415576
				24:leaf=0.0123953996
			12:[pt<96.304306] yes=25,no=26,missing=25
				25:leaf=0.00884605944
				26:leaf=0.100258268
		6:[pfRelIso03_all<0.0229588971] yes=13,no=14,missing=13
			13:[jetBTag<0.071087718] yes=27,no=28,missing=27
				27:leaf=0.0674225911
				28:leaf=0.0181535631
			14:[pt<51.497345] yes=29,no=30,missing=29
				29:leaf=0.00864487514
				30:leaf=-0.0365810506
booster[63]:
0:[dz<-5.0718174] yes=1,no=2,missing=1
	1:[jetPtRelv2<7.78876972] yes=3,no=4,missing=3
		3:[jetNDauChargedMVASel<1.5] yes=7,no=8,missing=7
			7:[jetBTag<0.0367323607] yes=15,no=16,missing=15
				15:leaf=0.0580903068
				16:leaf=0.0147598116
			8:[pt<29.6641922] yes=17,no=18,missing=17
				17:leaf=0.00570254121
				18:leaf=-0.0217268355
		4:[miniRelIsoCharged<0.0165535286] yes=9,no=10,missing=9
			9:[jetPtRelv2<19.3223572] yes=19,no=20,missing=19
				19:leaf=0.0396253765
				20:leaf=0.0834085047
			10:[jetPtRatio<0.62892735] yes=21,no=22,missing=21
				21:leaf=0.0311408527
				22:leaf=-0.00883099716
	2:[jetBTag<0.798849165] yes=5,no=6,missing=5
		5:[mvaFall17V2noIso<0.963797688] yes=11,no=12,missing=11
			11:[dxy<-1.66930628] yes=23,no=24,missing=23
				23:leaf=-0.0332750231
				24:leaf=0.0483253114
			12:[dxy<-4.72615528] yes=25,no=26,missing=25
				25:leaf=0.00770569686
				26:leaf=-0.0232319236
		6:[jetPtRelv2<7.10817719] yes=13,no=14,missing=13
			13:[jetPtRatio<0.34589684] yes=27,no=28,missing=27
				27:leaf=-0.0350077786
				28:leaf=-0.0777422562
			14:[jetPtRatio<0.606824815] yes=29,no=30,missing=29
				29:leaf=0.0246352162
				30:leaf=-0.0586255454
booster[64]:
0:[mvaFall17V2noIso<-0.994319916] yes=1,no=2,missing=1
	1:[dxy<-2.23396325] yes=3,no=4,missing=3
		3:[dz<-4.70617867] yes=7,no=8,missing=7
			7:[jetPtRelv2<1.84490621] yes=13,no=14,missing=13
				13:leaf=-0.0641618446
				14:leaf=-0.030836124
			8:[mvaFall17V2noIso<-0.999576449] yes=15,no=16,missing=15
				15:leaf=-0.0834910721
				16:leaf=-0.0665232614
		4:leaf=-0.00224448484
	2:[jetBTag<0.0388241485] yes=5,no=6,missing=5
		5:[miniRelIsoCharged<0.0160984285] yes=9,no=10,missing=9
			9:[jetPtRatio<0.925257564] yes=17,no=18,missing=17
				17:leaf=0.041537758
				18:leaf=0.0815826878
			10:[jetNDauChargedMVASel<5.5] yes=19,no=20,missing=19
				19:leaf=0.00222192681
				20:leaf=0.0450535305
		6:[miniRelIsoNeutral<1.58995613e-06] yes=11,no=12,missing=11
			11:[miniRelIsoCharged<0.310277462] yes=21,no=22,missing=21
				21:leaf=0.0128221186
				22:leaf=-0.0378608294
			12:[sip3d<5.99267864] yes=23,no=24,missing=23
				23:leaf=-0.00891824253
				24:leaf=-0.0485646874
booster[65]:
0:[mvaFall17V2noIso<0.99999547] yes=1,no=2,missing=1
	1:[mvaFall17V2noIso<-0.998911023] yes=3,no=4,missing=3
		3:[jetBTag<0.0518127754] yes=7,no=8,missing=7
			7:[mvaFall17V2noIso<-0.999905229] yes=15,no=16,missing=15
				15:leaf=-0.0487580486
				16:leaf=-0.0174074024
			8:[jetPtRelv2<7.99414682] yes=17,no=18,missing=17
				17:leaf=-0.0736515447
				18:leaf=-0.0453025065
		4:[pt<33.6371727] yes=9,no=10,missing=9
			9:[pfRelIso03_all<0.406015515] yes=19,no=20,missing=19
				19:leaf=0.0141567662
				20:leaf=-0.0238951575
			10:[jetPtRelv2<10.7922392] yes=21,no=22,missing=21
				21:leaf=-0.0299087949
				22:leaf=0.0224320646
	2:[jetPtRelv2<14.7427044] yes=5,no=6,missing=5
		5:[jetBTag<0.32043469] yes=11,no=12,missing=11
			11:[jetPtRatio<0.901166677] yes=23,no=24,missing=23
				23:leaf=0.0244872924
				24:leaf=0.0708342716
			12:[dxy<-4.67775297] yes=25,no=26,missing=25
				25:leaf=-0.00114985136
				26:leaf=-0.0722057521
		6:[miniRelIsoCharged<0.00829161331] yes=13,no=14,missing=13
			13:[jetPtRelv2<20.286087] yes=27,no=28,missing=27
				27:leaf=0.0675105602
				28:leaf=0.091582872
			14:leaf=0.0502494238
booster[66]:
0:[dxy<-6.21596241] yes=1,no=2,missing=1
	1:[mvaFall17V2noIso<0.999999523] yes=3,no=4,missing=3
		3:[dz<-5.9050951] yes=7,no=8,missing=7
			7:[jetPtRatio<0.303310037] yes=15,no=16,missing=15
				15:leaf=0.0615955181
				16:leaf=0.0168891754
			8:[jetNDauChargedMVASel<1.5] yes=17,no=18,missing=17
				17:leaf=0.0128668845
				18:leaf=-0.00777773047
		4:[miniRelIsoCharged<0.0162829421] yes=9,no=10,missing=9
			9:[miniRelIsoNeutral<0.0203415193] yes=19,no=20,missing=19
				19:leaf=0.0798202455
				20:leaf=0.0358259045
			10:[jetBTag<0.0429453105] yes=21,no=22,missing=21
				21:leaf=0.0533026345
				22:leaf=0.0201614406
	2:[jetBTag<0.352757692] yes=5,no=6,missing=5
		5:[mvaFall17V2noIso<0.999981999] yes=11,no=12,missing=11
			11:[pt<41.2783279] yes=23,no=24,missing=23
				23:leaf=0.000371081958
				24:leaf=-0.0252363365
			12:[pfRelIso03_all<0.0263771061] yes=25,no=26,missing=25
				25:leaf=0.0496498086
				26:leaf=0.0110795563
		6:[jetPtRatio<0.271737278] yes=13,no=14,missing=13
			13:[miniRelIsoCharged<0.166846588] yes=27,no=28,missing=27
				27:leaf=0.0721742138
				28:leaf=-0.0118534109
			14:[jetBTag<0.916801572] yes=29,no=30,missing=29
				29:leaf=-0.0211488735
				30:leaf=-0.057317853
booster[67]:
0:[jetPtRelv2<2.45132542] yes=1,no=2,missing=1
	1:[jetPtRatio<0.505665898] yes=3,no=4,missing=3
		3:[jetBTag<0.0548410974] yes=7,no=8,missing=7
			7:[miniRelIsoCharged<0.534028053] yes=15,no=16,missing=15
				15:leaf=-0.0120586846
				16:leaf=-0.0499500036
			8:[sip3d<2.93444252] yes=17,no=18,missing=17
				17:leaf=-0.0568718985
				18:leaf=-0.0779036656
		4:[pt<20.083168] yes=9,no=10,missing=9
			9:[pfRelIso03_all<0.113788918] yes=19,no=20,missing=19
				19:leaf=-0.00877759513
				20:leaf=0.03613564
			10:[jetBTag<0.0939614773] yes=21,no=22,missing=21
				21:leaf=0.00153499877
				22:leaf=-0.0453996956
	2:[jetBTag<0.0339926332] yes=5,no=6,missing=5
		5:[pfRelIso03_all<0.0272824615] yes=11,no=12,missing=11
			11:[jetPtRatio<0.94685328] yes=23,no=24,missing=23
				23:leaf=0.0526329465
				24:leaf=0.0856701508
			12:[jetPtRatio<0.70746547] yes=25,no=26,missing=25
				25:leaf=0.0376875997
				26:leaf=-0.000167429374
		6:[pt<45.2223587] yes=13,no=14,missing=13
			13:[miniRelIsoNeutral<0.165055677] yes=27,no=28,missing=27
				27:leaf=0.014861322
				28:leaf=-0.0164618474
			14:[jetPtRatio<0.565480292] yes=29,no=30,missing=29
				29:leaf=0.0318286568
				30:leaf=-0.0342074744
booster[68]:
0:[jetPtRelv2<3.85923195] yes=1,no=2,missing=1
	1:[jetPtRatio<0.569160342] yes=3,no=4,missing=3
		3:[jetBTag<0.0620079115] yes=7,no=8,missing=7
			7:[jetPtRelv2<2.00113344] yes=15,no=16,missing=15
				15:leaf=-0.0221483503
				16:leaf=0.0158377457
			8:[sip3d<4.07492256] yes=17,no=18,missing=17
				17:leaf=-0.0342520922
				18:leaf=-0.0691037402
		4:[pt<22.73489] yes=9,no=10,missing=9
			9:[pfRelIso03_all<0.115842462] yes=19,no=20,missing=19
				19:leaf=0.000557131134
				20:leaf=0.0373608321
			10:[jetBTag<0.270151317] yes=21,no=22,missing=21
				21:leaf=-0.00374081917
				22:leaf=-0.0551539622
	2:[jetPtRatio<0.511740029] yes=5,no=6,missing=5
		5:[jetNDauChargedMVASel<0.5] yes=11,no=12,missing=11
			11:leaf=-0.0449590795
			12:[sip3d<8.47902107] yes=23,no=24,missing=23
				23:leaf=0.0379937328
				24:leaf=-0.0409823358
		6:[jetBTag<0.911092341] yes=13,no=14,missing=13
			13:[mvaFall17V2noIso<0.999789834] yes=25,no=26,missing=25
				25:leaf=-0.0103989607
				26:leaf=0.0248845201
			14:[jetPtRelv2<12.8650208] yes=27,no=28,missing=27
				27:leaf=-0.0679427311
				28:leaf=0.00990617741
booster[69]:
0:[dz<-5.74077988] yes=1,no=2,missing=1
	1:[jetPtRelv2<15.1458225] yes=3,no=4,missing=3
		3:[jetPtRatio<0.26281929] yes=7,no=8,missing=7
			7:[jetBTag<0.550326347] yes=15,no=16,missing=15
				15:leaf=0.0323535465
				16:leaf=0.102311723
			8:[jetNDauChargedMVASel<1.5] yes=17,no=18,missing=17
				17:leaf=0.0220109206
				18:leaf=-0.000861940149
		4:[miniRelIsoCharged<0.0169676915] yes=9,no=10,missing=9
			9:[mvaFall17V2noIso<0.999998212] yes=19,no=20,missing=19
				19:leaf=0.0616224483
				20:leaf=0.0895949528
			10:[miniRelIsoNeutral<0.145636797] yes=21,no=22,missing=21
				21:leaf=-0.0077165789
				22:leaf=0.0462618619
	2:[jetNDauChargedMVASel<1.5] yes=5,no=6,missing=5
		5:[mvaFall17V2noIso<0.999937057] yes=11,no=12,missing=11
			11:[mvaFall17V2noIso<-0.999679923] yes=23,no=24,missing=23
				23:leaf=-0.0733199865
				24:leaf=-0.00143048947
			12:[dxy<-4.44746733] yes=25,no=26,missing=25
				25:leaf=0.0352523588
				26:leaf=-0.0438767634
		6:[jetPtRelv2<4.80133343] yes=13,no=14,missing=13
			13:[jetBTag<0.315867722] yes=27,no=28,missing=27
				27:leaf=-0.0186242759
				28:leaf=-0.048848711
			14:[jetPtRatio<0.648410976] yes=29,no=30,missing=29
				29:leaf=0.0219270848
				30:leaf=-0.0258421749
booster[70]:
0:[dxy<-6.51898479] yes=1,no=2,missing=1
	1:[mvaFall17V2noIso<0.999998689] yes=3,no=4,missing=3
		3:[dz<-5.90608788] yes=7,no=8,missing=7
			7:[jetBTag<0.972979367] yes=15,no=16,missing=15
				15:leaf=0.0167773776
				16:leaf=0.0772513151
			8:[pt<43.8249969] yes=17,no=18,missing=17
				17:leaf=0.00533524761
				18:leaf=-0.015884066
		4:[jetPtRelv2<10.3038139] yes=9,no=10,missing=9
			9:[jetPtRatio<0.866384625] yes=19,no=20,missing=19
				19:leaf=0.0227382239
				20:leaf=0.0720540807
			10:[jetPtRelv2<16.7809296] yes=21,no=22,missing=21
				21:leaf=0.0604305975
				22:leaf=0.0890959278
	2:[sip3d<9.17776489] yes=5,no=6,missing=5
		5:[mvaFall17V2noIso<-0.994419098] yes=11,no=12,missing=11
			11:[dxy<-3.02151728] yes=23,no=24,missing=23
				23:leaf=-0.0544973724
				24:leaf=-0.0117233014
			12:[jetNDauChargedMVASel<1.5] yes=25,no=26,missing=25
				25:leaf=0.00856742542
				26:leaf=-0.00949486531
		6:[dxy<-2.9264698] yes=13,no=14,missing=13
			13:[dz<-2.86712313] yes=27,no=28,missing=27
				27:leaf=-0.0724001303
				28:leaf=-0.0375821702
			14:leaf=0.0241276007
booster[71]:
0:[jetBTag<0.0550531298] yes=1,no=2,missing=1
	1:[pfRelIso03_all<0.0146657657] yes=3,no=4,missing=3
		3:[pt<24.2430592] yes=7,no=8,missing=7
			7:leaf=0.00208915118
			8:[jetBTag<0.0261161178] yes=15,no=16,missing=15
				15:leaf=0.0816545561
				16:leaf=0.0498382375
		4:[mvaFall17V2noIso<0.999074399] yes=9,no=10,missing=9
			9:[dxy<-3.2944963] yes=17,no=18,missing=17
				17:leaf=-0.00498876907
				18:leaf=0.0643403903
			10:[miniRelIsoCharged<0.0159959458] yes=19,no=20,missing=19
				19:leaf=0.0372210033
				20:leaf=0.0151448837
	2:[miniRelIsoNeutral<1.58995613e-06] yes=5,no=6,missing=5
		5:[miniRelIsoCharged<0.303778052] yes=11,no=12,missing=11
			11:[pt<12.1648941] yes=21,no=22,missing=21
				21:leaf=-0.020625243
				22:leaf=0.0118890628
			12:[jetPtRelv2<2.0160296] yes=23,no=24,missing=23
				23:leaf=-0.0601781122
				24:leaf=-0.0275123455
		6:[pt<20.1531219] yes=13,no=14,missing=13
			13:[pfRelIso03_all<0.43128854] yes=25,no=26,missing=25
				25:leaf=0.0190754738
				26:leaf=-0.0338807963
			14:[jetPtRelv2<4.75328207] yes=27,no=28,missing=27
				27:leaf=-0.0347690545
				28:leaf=-0.00547690084
booster[72]:
0:[jetPtRelv2<2.10358953] yes=1,no=2,missing=1
	1:[jetPtRatio<0.502516031] yes=3,no=4,missing=3
		3:[jetBTag<0.0791281685] yes=7,no=8,missing=7
			7:[jetNDauChargedMVASel<2.5] yes=15,no=16,missing=15
				15:leaf=-0.00763554126
				16:leaf=-0.0471638404
			8:[jetNDauChargedMVASel<1.5] yes=17,no=18,missing=17
				17:leaf=-0.042825453
				18:leaf=-0.0702173933
		4:[jetNDauChargedMVASel<2.5] yes=9,no=10,missing=9
			9:[pfRelIso03_all<0.118110985] yes=19,no=20,missing=19
				19:leaf=-0.0106038097
				20:leaf=0.0212150495
			10:[jetBTag<0.141419962] yes=21,no=22,missing=21
				21:leaf=-0.0157021992
				22:leaf=-0.0553265214
	2:[jetBTag<0.0531484932] yes=5,no=6,missing=5
		5:[jetPtRatio<0.925378919] yes=11,no=12,missing=11
			11:[jetPtRatio<0.73989284] yes=23,no=24,missing=23
				23:leaf=0.0245921947
				24:leaf=-0.0010724332
			12:[mvaFall17V2noIso<0.927307725] yes=25,no=26,missing=25
				25:leaf=0.0275020543
				26:leaf=0.072747454
		6:[jetPtRatio<0.303363442] yes=13,no=14,missing=13
			13:[jetBTag<0.605603218] yes=27,no=28,missing=27
				27:leaf=0.0188496765
				28:leaf=0.0798240528
			14:[pt<42.1304932] yes=29,no=30,missing=29
				29:leaf=0.0043555242
				30:leaf=-0.0216145273
booster[73]:
0:[mvaFall17V2noIso<0.999998808] yes=1,no=2,missing=1
	1:[mvaFall17V2noIso<-0.998921633] yes=3,no=4,missing=3
		3:[jetPtRelv2<7.99414682] yes=7,no=8,missing=7
			7:[jetPtRatio<0.296741664] yes=13,no=14,missing=13
				13:leaf=-0.0254248437
				14:leaf=-0.0663816556
			8:leaf=-0.0261597019
		4:[sip3d<8.54144478] yes=9,no=10,missing=9
			9:[jetPtRatio<0.234121755] yes=15,no=16,missing=15
				15:leaf=0.0458249822
				16:leaf=-0.00109655911
			10:[dxy<-3.15656137] yes=17,no=18,missing=17
				17:leaf=-0.0518233255
				18:leaf=0.0164546575
	2:[dxy<-4.95250702] yes=5,no=6,missing=5
		5:[jetPtRelv2<12.9838448] yes=11,no=12,missing=11
			11:[jetNDauChargedMVASel<1.5] yes=19,no=20,missing=19
				19:leaf=0.0498128571
				20:leaf=0.0158576481
			12:[jetPtRelv2<20.8136063] yes=21,no=22,missing=21
				21:leaf=0.0589323305
				22:leaf=0.08971674
		6:leaf=-0.0345133543
booster[74]:
0:[dxy<-6.10885954] yes=1,no=2,missing=1
	1:[miniRelIsoNeutral<4.12298868e-06] yes=3,no=4,missing=3
		3:[mvaFall17V2noIso<0.999999166] yes=7,no=8,missing=7
			7:[pt<51.1051216] yes=15,no=16,missing=15
				15:leaf=0.0195238944
				16:leaf=-0.0122133838
			8:[miniRelIsoCharged<0.0441616178] yes=17,no=18,missing=17
				17:leaf=0.0689778924
				18:leaf=0.0246641431
		4:[pt<133.518158] yes=9,no=10,missing=9
			9:[jetBTag<0.030096937] yes=19,no=20,missing=19
				19:leaf=0.0188078657
				20:leaf=-0.00342463492
			10:leaf=0.064230375
	2:[jetBTag<0.383107841] yes=5,no=6,missing=5
		5:[jetNDauChargedMVASel<2.5] yes=11,no=12,missing=11
			11:[eta<2.35116434] yes=21,no=22,missing=21
				21:leaf=0.00659535173
				22:leaf=-0.0467764325
			12:[jetPtRelv2<2.0428772] yes=23,no=24,missing=23
				23:leaf=-0.0486606024
				24:leaf=-0.00284448639
		6:[jetPtRatio<0.283671677] yes=13,no=14,missing=13
			13:[pfRelIso03_all<0.385926396] yes=25,no=26,missing=25
				25:leaf=0.0660385415
				26:leaf=0.00121082459
			14:[jetBTag<0.916801572] yes=27,no=28,missing=27
				27:leaf=-0.0177545026
				28:leaf=-0.0518593676
booster[75]:
0:[dz<-5.63860798] yes=1,no=2,missing=1
	1:[jetPtRelv2<7.49621773] yes=3,no=4,missing=3
		3:[pt<25.7111912] yes=7,no=8,missing=7
			7:[pfRelIso03_all<0.410089672] yes=15,no=16,missing=15
				15:leaf=0.0221329797
				16:leaf=-0.0070097181
			8:[mvaFall17V2noIso<0.999758005] yes=17,no=18,missing=17
				17:leaf=-0.0251946133
				18:leaf=0.00596378697
		4:[miniRelIsoCharged<0.0247301608] yes=9,no=10,missing=9
			9:[jetPtRatio<0.619153202] yes=19,no=20,missing=19
				19:leaf=0.0750806183
				20:leaf=0.0300834775
			10:[miniRelIsoNeutral<0.234356612] yes=21,no=22,missing=21
				21:leaf=0.000383468519
				22:leaf=0.0390177667
	2:[jetBTag<0.878232837] yes=5,no=6,missing=5
		5:[mvaFall17V2noIso<0.999982953] yes=11,no=12,missing=11
			11:[pt<39.3412285] yes=23,no=24,missing=23
				23:leaf=-0.0032010898
				24:leaf=-0.027399445
			12:[dxy<-4.32843018] yes=25,no=26,missing=25
				25:leaf=0.0195285194
				26:leaf=-0.0534547642
		6:[jetPtRatio<0.426481247] yes=13,no=14,missing=13
			13:[jetPtRelv2<3.64157486] yes=27,no=28,missing=27
				27:leaf=-0.0614901967
				28:leaf=0.0415147655
			14:[jetPtRelv2<11.336174] yes=29,no=30,missing=29
				29:leaf=-0.0680831224
				30:leaf=-0.00863584038
booster[76]:
0:[jetPtRelv2<18.3338623] yes=1,no=2,missing=1
	1:[pt<57.7039642] yes=3,no=4,missing=3
		3:[miniRelIsoCharged<0.288499773] yes=7,no=8,missing=7
			7:[miniRelIsoNeutral<0.124619037] yes=15,no=16,missing=15
				15:leaf=0.010048274
				16:leaf=-0.0107852696
			8:[jetPtRelv2<2.04577017] yes=17,no=18,missing=17
				17:leaf=-0.0467161015
				18:leaf=-0.00917043444
		4:[miniRelIsoNeutral<0.247179776] yes=9,no=10,missing=9
			9:[mvaFall17V2noIso<0.999997616] yes=19,no=20,missing=19
				19:leaf=-0.0564839318
				20:leaf=0.00471969461
			10:[jetBTag<0.0330938473] yes=21,no=22,missing=21
				21:leaf=0.0820303187
				22:leaf=0.0221982487
	2:[miniRelIsoCharged<0.0129253119] yes=5,no=6,missing=5
		5:[pt<39.9018173] yes=11,no=12,missing=11
			11:leaf=0.00132253987
			12:[jetPtRatio<0.793228626] yes=23,no=24,missing=23
				23:leaf=0.0902329907
				24:leaf=0.0495771691
		6:[miniRelIsoNeutral<0.145574167] yes=13,no=14,missing=13
			13:[miniRelIsoCharged<0.0685411468] yes=25,no=26,missing=25
				25:leaf=-0.00462083099
				26:leaf=-0.0531847067
			14:[pt<84.8808136] yes=27,no=28,missing=27
				27:leaf=-0.0014881118
				28:leaf=0.0576310046
booster[77]:
0:[jetBTag<0.0778608322] yes=1,no=2,missing=1
	1:[pfRelIso03_all<0.0196413994] yes=3,no=4,missing=3
		3:[pt<23.281208] yes=7,no=8,missing=7
			7:leaf=-0.0070781135
			8:[eta<1.74944568] yes=15,no=16,missing=15
				15:leaf=0.0592202656
				16:leaf=0.00843302812
		4:[mvaFall17V2noIso<0.944210768] yes=9,no=10,missing=9
			9:[lostHits<0.5] yes=17,no=18,missing=17
				17:leaf=-0.0133024231
				18:leaf=0.0417695753
			10:[pfRelIso03_all<0.121469006] yes=19,no=20,missing=19
				19:leaf=-0.00467299018
				20:leaf=0.0168057922
	2:[pt<25.6214638] yes=5,no=6,missing=5
		5:[pfRelIso03_all<0.345260978] yes=11,no=12,missing=11
			11:[pfRelIso03_all<0.119881928] yes=21,no=22,missing=21
				21:leaf=-0.00254453789
				22:leaf=0.029752478
			12:[jetPtRelv2<3.20141888] yes=23,no=24,missing=23
				23:leaf=-0.0376034416
				24:leaf=0.0022068955
		6:[jetPtRelv2<6.41907215] yes=13,no=14,missing=13
			13:[mvaFall17V2noIso<0.998940229] yes=25,no=26,missing=25
				25:leaf=-0.0556801669
				26:leaf=-0.0147938682
			14:[jetPtRatio<0.624848843] yes=27,no=28,missing=27
				27:leaf=0.0288162064
				28:leaf=-0.015202065
booster[78]:
0:[mvaFall17V2noIso<-0.999454141] yes=1,no=2,missing=1
	1:[jetNDauChargedMVASel<5.5] yes=3,no=4,missing=3
		3:[jetBTag<0.120988414] yes=7,no=8,missing=7
			7:[mvaFall17V2noIso<-0.999959707] yes=13,no=14,missing=13
				13:leaf=-0.0574260019
				14:leaf=-0.0307737179
			8:[jetPtRelv2<3.38058329] yes=15,no=16,missing=15
				15:leaf=-0.078190729
				16:leaf=-0.059130501
		4:leaf=-0.0173368119
	2:[sip3d<9.17776489] yes=5,no=6,missing=5
		5:[jetPtRelv2<16.8120937] yes=9,no=10,missing=9
			9:[pt<58.6880798] yes=17,no=18,missing=17
				17:leaf=0.00358693162
				18:leaf=-0.0220430605
			10:[miniRelIsoCharged<0.0339597538] yes=19,no=20,missing=19
				19:leaf=0.052896779
				20:leaf=-0.00109556259
		6:[dxy<-3.05392551] yes=11,no=12,missing=11
			11:[dz<-3.05981541] yes=21,no=22,missing=21
				21:leaf=-0.066876933
				22:leaf=-0.0263499022
			12:leaf=0.0196185987
booster[79]:
0:[dxy<-6.64708042] yes=1,no=2,missing=1
	1:[mvaFall17V2noIso<0.999999762] yes=3,no=4,missing=3
		3:[dz<-6.04811859] yes=7,no=8,missing=7
			7:[jetBTag<0.964963377] yes=15,no=16,missing=15
				15:leaf=0.0158806201
				16:leaf=0.0670342743
			8:[miniRelIsoCharged<0.00781035796] yes=17,no=18,missing=17
				17:leaf=0.0108604962
				18:leaf=-0.00370157952
		4:[miniRelIsoNeutral<0.00708125532] yes=9,no=10,missing=9
			9:leaf=0.0636886358
			10:leaf=0.0261564795
	2:[jetBTag<0.352757692] yes=5,no=6,missing=5
		5:[lostHits<0.5] yes=11,no=12,missing=11
			11:[mvaFall17V2noIso<0.999987006] yes=19,no=20,missing=19
				19:leaf=-0.00582405273
				20:leaf=0.0148288971
			12:[jetPtRelv2<6.16862774] yes=21,no=22,missing=21
				21:leaf=0.0139301941
				22:leaf=0.054304488
		6:[jetPtRatio<0.35096249] yes=13,no=14,missing=13
			13:[jetPtRelv2<2.79028273] yes=23,no=24,missing=23
				23:leaf=-0.062019188
				24:leaf=0.0443481021
			14:[jetBTag<0.917211533] yes=25,no=26,missing=25
				25:leaf=-0.0150505202
				26:leaf=-0.0472348183
booster[80]:
0:[jetPtRelv2<2.15710378] yes=1,no=2,missing=1
	1:[jetPtRatio<0.487555623] yes=3,no=4,missing=3
		3:[jetBTag<0.0547968224] yes=7,no=8,missing=7
			7:[jetNDauChargedMVASel<1.5] yes=15,no=16,missing=15
				15:leaf=0.0141766621
				16:leaf=-0.032858599
			8:[jetNDauChargedMVASel<1.5] yes=17,no=18,missing=17
				17:leaf=-0.0406901352
				18:leaf=-0.0627978519
		4:[pt<19.631752] yes=9,no=10,missing=9
			9:[pfRelIso03_all<0.0891505554] yes=19,no=20,missing=19
				19:leaf=-0.0156154949
				20:leaf=0.0268085394
			10:[jetBTag<0.0935365558] yes=21,no=22,missing=21
				21:leaf=-0.001795099
				22:leaf=-0.0384143069
	2:[jetBTag<0.0306023043] yes=5,no=6,missing=5
		5:[miniRelIsoCharged<0.0197435319] yes=11,no=12,missing=11
			11:[jetPtRatio<0.928872347] yes=23,no=24,missing=23
				23:leaf=0.0345392264
				24:leaf=0.0744607151
			12:[jetPtRatio<0.737743139] yes=25,no=26,missing=25
				25:leaf=0.0238677096
				26:leaf=-0.0286685973
		6:[pt<47.3828049] yes=13,no=14,missing=13
			13:[miniRelIsoNeutral<0.187271848] yes=27,no=28,missing=27
				27:leaf=0.0100115491
				28:leaf=-0.016050145
			14:[jetPtRatio<0.613555253] yes=29,no=30,missing=29
				29:leaf=0.0227093697
				30:leaf=-0.0316262878
booster[81]:
0:[mvaFall17V2noIso<0.999999166] yes=1,no=2,missing=1
	1:[mvaFall17V2noIso<-0.999646068] yes=3,no=4,missing=3
		3:[jetNDauChargedMVASel<4.5] yes=7,no=8,missing=7
			7:[jetBTag<0.124892622] yes=15,no=16,missing=15
				15:leaf=-0.0469643995
				16:leaf=-0.0677353963
			8:leaf=-0.0249986928
		4:[jetPtRatio<0.199531823] yes=9,no=10,missing=9
			9:[miniRelIsoCharged<0.247640491] yes=17,no=18,missing=17
				17:leaf=0.0632495806
				18:leaf=-0.0082080774
			10:[jetNDauChargedMVASel<2.5] yes=19,no=20,missing=19
				19:leaf=0.00342935021
				20:leaf=-0.0111774262
	2:[jetPtRelv2<14.3877926] yes=5,no=6,missing=5
		5:[dxy<-4.95454311] yes=11,no=12,missing=11
			11:[jetPtRatio<0.901180863] yes=21,no=22,missing=21
				21:leaf=0.0172089394
				22:leaf=0.0678537712
			12:leaf=-0.0376412086
		6:[jetPtRelv2<21.8074074] yes=13,no=14,missing=13
			13:leaf=0.0500944927
			14:leaf=0.0826982483
booster[82]:
0:[dz<-4.81724644] yes=1,no=2,missing=1
	1:[jetPtRatio<0.92220211] yes=3,no=4,missing=3
		3:[jetPtRatio<0.257614702] yes=7,no=8,missing=7
			7:[pfRelIso03_all<0.387056172] yes=15,no=16,missing=15
				15:leaf=0.0707105249
				16:leaf=0.010290199
			8:[jetPtRelv2<19.3693466] yes=17,no=18,missing=17
				17:leaf=0.000201462724
				18:leaf=0.0454874672
		4:[pt<14.4674053] yes=9,no=10,missing=9
			9:leaf=-0.0377816781
			10:[sip3d<2.84122825] yes=19,no=20,missing=19
				19:leaf=0.0560302921
				20:leaf=0.00790433958
	2:[mvaFall17V2noIso<0.825891614] yes=5,no=6,missing=5
		5:[dxy<-1.59694552] yes=11,no=12,missing=11
			11:[pt<19.6803436] yes=21,no=22,missing=21
				21:leaf=-0.0084484918
				22:leaf=-0.0520636104
			12:leaf=0.037087366
		6:[sip3d<2.56323671] yes=13,no=14,missing=13
			13:[dz<-4.1591773] yes=23,no=24,missing=23
				23:leaf=-0.0115880361
				24:leaf=-0.0408647619
			14:[eta<1.4686054] yes=25,no=26,missing=25
				25:leaf=-0.00558311818
				26:leaf=0.0375099368
booster[83]:
0:[sip3d<9.64946461] yes=1,no=2,missing=1
	1:[jetPtRelv2<7.45682096] yes=3,no=4,missing=3
		3:[pt<35.4235764] yes=7,no=8,missing=7
			7:[jetPtRatio<0.628870726] yes=13,no=14,missing=13
				13:leaf=-0.00896205194
				14:leaf=0.0150813432
			8:[jetBTag<0.0329290852] yes=15,no=16,missing=15
				15:leaf=0.0154393464
				16:leaf=-0.0261086207
		4:[pt<15.7268753] yes=9,no=10,missing=9
			9:leaf=-0.0622525811
			10:[miniRelIsoCharged<0.0118127102] yes=17,no=18,missing=17
				17:leaf=0.0300166216
				18:leaf=0.00451358082
	2:[dxy<-3.18951821] yes=5,no=6,missing=5
		5:[dz<-3.02240944] yes=11,no=12,missing=11
			11:[jetBTag<0.355585575] yes=19,no=20,missing=19
				19:leaf=-0.0518705621
				20:leaf=-0.076191321
			12:[mvaFall17V2noIso<0.996629179] yes=21,no=22,missing=21
				21:leaf=-0.0549350865
				22:leaf=-0.00396049395
		6:leaf=0.00888904184
booster[84]:
0:[jetBTag<0.11039485] yes=1,no=2,missing=1
	1:[jetPtRatio<0.925609112] yes=3,no=4,missing=3
		3:[jetPtRatio<0.74769634] yes=7,no=8,missing=7
			7:[miniRelIsoNeutral<0.0729045868] yes=15,no=16,missing=15
				15:leaf=0.0189402103
				16:leaf=0.000358949299
			8:[pt<53.0500069] yes=17,no=18,missing=17
				17:leaf=0.00829422846
				18:leaf=-0.0382722579
		4:[dz<-4.28466225] yes=9,no=10,missing=9
			9:[mvaFall17V2noIso<0.99995935] yes=19,no=20,missing=19
				19:leaf=0.0377740115
				20:leaf=0.0687669441
			10:leaf=-0.00157461909
	2:[jetPtRelv2<3.36053038] yes=5,no=6,missing=5
		5:[jetPtRatio<0.6429708] yes=11,no=12,missing=11
			11:[pt<18.430685] yes=21,no=22,missing=21
				21:leaf=-0.0171752982
				22:leaf=-0.0518982522
			12:[pt<34.0406723] yes=23,no=24,missing=23
				23:leaf=0.00948917586
				24:leaf=-0.0418859012
		6:[jetPtRatio<0.419409215] yes=13,no=14,missing=13
			13:[jetBTag<0.594578862] yes=25,no=26,missing=25
				25:leaf=0.00602075038
				26:leaf=0.057939209
			14:[mvaFall17V2noIso<0.946099401] yes=27,no=28,missing=27
				27:leaf=-0.0286348015
				28:leaf=0.000230110207
booster[85]:
0:[dxy<-6.54880524] yes=1,no=2,missing=1
	1:[pt<159.204895] yes=3,no=4,missing=3
		3:[dz<-6.10233116] yes=7,no=8,missing=7
			7:[jetBTag<0.969144583] yes=13,no=14,missing=13
				13:leaf=0.0144829517
				14:leaf=0.0576027147
			8:[mvaFall17V2noIso<-0.99121654] yes=15,no=16,missing=15
				15:leaf=-0.0359994695
				16:leaf=0.00370348175
