booster[0]:
0:[jetPtRatio<0.781972528] yes=1,no=2,missing=1
	1:[jetPtRelv2<7.6529808] yes=3,no=4,missing=3
		3:[jetBTag<0.0475519784] yes=7,no=8,missing=7
			7:[pfRelIso03_all<0.148784429] yes=15,no=16,missing=15
				15:leaf=0.0548467897
				16:leaf=-0.115780525
			8:[jetBTag<0.132652432] yes=17,no=18,missing=17
				17:leaf=-0.15329425
				18:leaf=-0.193988949
		4:[sip3d<2.78392386] yes=9,no=10,missing=9
			9:[miniRelIsoCharged<0.0830171257] yes=19,no=20,missing=19
				19:leaf=0.173274904
				20:leaf=-0.0226791836
			10:[miniRelIsoCharged<0.0226299483] yes=21,no=22,missing=21
				21:leaf=0.00447726902
				22:leaf=-0.165332258
	2:[jetBTag<0.143898517] yes=5,no=6,missing=5
		5:[jetBTag<0.0263531469] yes=11,no=12,missing=11
			11:[miniRelIsoCharged<0.0720488504] yes=23,no=24,missing=23
				23:leaf=0.195257917
				24:leaf=0.0833092779
			12:[pfRelIso03_all<0.0993820429] yes=25,no=26,missing=25
				25:leaf=0.154541254
				26:leaf=0.0159143358
		6:[jetPtRelv2<10.6722689] yes=13,no=14,missing=13
			13:[jetBTag<0.518159151] yes=27,no=28,missing=27
				27:leaf=-0.0779004619
				28:leaf=-0.18251951
			14:leaf=0.0756758377
booster[1]:
0:[jetPtRatio<0.778921723] yes=1,no=2,missing=1
	1:[jetPtRelv2<7.11725283] yes=3,no=4,missing=3
		3:[jetBTag<0.0429006666] yes=7,no=8,missing=7
			7:[pfRelIso03_all<0.179309919] yes=15,no=16,missing=15
				15:leaf=0.0379232764
				16:leaf=-0.111679211
			8:[jetBTag<0.119581595] yes=17,no=18,missing=17
				17:leaf=-0.135956183
				18:leaf=-0.176503301
		4:[sip3d<2.65838432] yes=9,no=10,missing=9
			9:[miniRelIsoCharged<0.0688503161] yes=19,no=20,missing=19
				19:leaf=0.156680718
				20:leaf=-0.0159963127
			10:[jetBTag<0.14918229] yes=21,no=22,missing=21
				21:leaf=0.0417138413
				22:leaf=-0.139140248
	2:[jetBTag<0.170633674] yes=5,no=6,missing=5
		5:[jetBTag<0.0307254251] yes=11,no=12,missing=11
			11:[pfRelIso03_all<0.108566716] yes=23,no=24,missing=23
				23:leaf=0.17810975
				24:leaf=0.123913221
			12:[pfRelIso03_all<0.0762712359] yes=25,no=26,missing=25
				25:leaf=0.137807325
				26:leaf=0.0117515782
		6:[jetPtRelv2<12.1388931] yes=13,no=14,missing=13
			13:[jetBTag<0.534041405] yes=27,no=28,missing=27
				27:leaf=-0.0819663554
				28:leaf=-0.167136312
			14:leaf=0.0801947638
booster[2]:
0:[jetPtRatio<0.771798611] yes=1,no=2,missing=1
	1:[jetPtRelv2<6.74963617] yes=3,no=4,missing=3
		3:[jetBTag<0.0519879498] yes=7,no=8,missing=7
			7:[miniRelIsoCharged<0.0568053946] yes=15,no=16,missing=15
				15:leaf=0.00242738775
				16:leaf=-0.129429951
			8:[jetBTag<0.154154941] yes=17,no=18,missing=17
				17:leaf=-0.135433123
				18:leaf=-0.164156049
		4:[sip3d<2.38510323] yes=9,no=10,missing=9
			9:[miniRelIsoCharged<0.0637383759] yes=19,no=20,missing=19
				19:leaf=0.144161507
				20:leaf=-0.012584189
			10:[jetBTag<0.158162445] yes=21,no=22,missing=21
				21:leaf=0.0351101123
				22:leaf=-0.128626302
	2:[jetBTag<0.109623216] yes=5,no=6,missing=5
		5:[miniRelIsoCharged<0.0597342849] yes=11,no=12,missing=11
			11:[pt<15.1693306] yes=23,no=24,missing=23
				23:leaf=0.0833332464
				24:leaf=0.162199706
			12:[miniRelIsoCharged<0.122950435] yes=25,no=26,missing=25
				25:leaf=0.063554652
				26:leaf=-0.0665384158
		6:[jetPtRelv2<8.17344666] yes=13,no=14,missing=13
			13:[jetBTag<0.300979972] yes=27,no=28,missing=27
				27:leaf=-0.0391377695
				28:leaf=-0.137243718
			14:[jetBTag<0.401423216] yes=29,no=30,missing=29
				29:leaf=0.103017442
				30:leaf=-0.0336655155
booster[3]:
0:[jetPtRatio<0.790624797] yes=1,no=2,missing=1
	1:[jetPtRelv2<6.56697845] yes=3,no=4,missing=3
		3:[jetBTag<0.0448247269] yes=7,no=8,missing=7
			7:[pfRelIso03_all<0.126754493] yes=15,no=16,missing=15
				15:leaf=0.0534138493
				16:leaf=-0.0878925249
			8:[jetBTag<0.110798344] yes=17,no=18,missing=17
				17:leaf=-0.114453293
				18:leaf=-0.152572855
		4:[dxy<-6.07113266] yes=9,no=10,missing=9
			9:[miniRelIsoCharged<0.0864407569] yes=19,no=20,missing=19
				19:leaf=0.128129348
				20:leaf=-0.0403488055
			10:[jetBTag<0.111771971] yes=21,no=22,missing=21
				21:leaf=0.0251752082
				22:leaf=-0.127254277
	2:[jetBTag<0.170633674] yes=5,no=6,missing=5
		5:[jetBTag<0.0444133878] yes=11,no=12,missing=11
			11:[pfRelIso03_all<0.0901894569] yes=23,no=24,missing=23
				23:leaf=0.154087767
				24:leaf=0.109229796
			12:[pfRelIso03_all<0.067381762] yes=25,no=26,missing=25
				25:leaf=0.11053931
				26:leaf=-0.00988926273
		6:[jetPtRelv2<12.4256392] yes=13,no=14,missing=13
			13:[pfRelIso03_all<0.0639798269] yes=27,no=28,missing=27
				27:leaf=-0.0520294793
				28:leaf=-0.138262182
			14:leaf=0.0702200681
booster[4]:
0:[jetPtRatio<0.765571177] yes=1,no=2,missing=1
	1:[jetPtRelv2<8.13243675] yes=3,no=4,missing=3
		3:[jetBTag<0.039912831] yes=7,no=8,missing=7
			7:[miniRelIsoCharged<0.0497205481] yes=15,no=16,missing=15
				15:leaf=0.017258985
				16:leaf=-0.103608727
			8:[jetBTag<0.0992054269] yes=17,no=18,missing=17
				17:leaf=-0.102823727
				18:leaf=-0.143120736
		4:[miniRelIsoCharged<0.052863352] yes=9,no=10,missing=9
			9:[miniRelIsoNeutral<0.0600848794] yes=19,no=20,missing=19
				19:leaf=0.139846623
				20:leaf=0.000644044077
			10:[sip3d<1.87513089] yes=21,no=22,missing=21
				21:leaf=0.0313662402
				22:leaf=-0.123364165
	2:[jetBTag<0.0984866321] yes=5,no=6,missing=5
		5:[miniRelIsoCharged<0.0511861853] yes=11,no=12,missing=11
			11:[pt<15.1775055] yes=23,no=24,missing=23
				23:leaf=0.0702939853
				24:leaf=0.143555656
			12:[miniRelIsoCharged<0.110628814] yes=25,no=26,missing=25
				25:leaf=0.0648763776
				26:leaf=-0.0461645983
		6:[jetPtRelv2<7.6918602] yes=13,no=14,missing=13
			13:[jetBTag<0.486745179] yes=27,no=28,missing=27
				27:leaf=-0.0509898439
				28:leaf=-0.137262687
			14:[jetBTag<0.412004441] yes=29,no=30,missing=29
				29:leaf=0.0897513106
				30:leaf=-0.0399431661
booster[5]:
0:[jetPtRatio<0.79600203] yes=1,no=2,missing=1
	1:[jetPtRelv2<6.11570072] yes=3,no=4,missing=3
		3:[jetBTag<0.0527613573] yes=7,no=8,missing=7
			7:[jetPtRatio<0.675835311] yes=15,no=16,missing=15
				15:leaf=-0.0872367546
				16:leaf=0.0427620597
			8:[jetBTag<0.155427366] yes=17,no=18,missing=17
				17:leaf=-0.108885579
				18:leaf=-0.138393253
		4:[sip3d<2.25875854] yes=9,no=10,missing=9
			9:[miniRelIsoCharged<0.104042947] yes=19,no=20,missing=19
				19:leaf=0.112832189
				20:leaf=-0.0397141613
			10:[jetBTag<0.136716262] yes=21,no=22,missing=21
				21:leaf=0.0287083685
				22:leaf=-0.110706545
	2:[jetBTag<0.0965999663] yes=5,no=6,missing=5
		5:[pt<16.0533962] yes=11,no=12,missing=11
			11:[pfRelIso03_all<0.149686038] yes=23,no=24,missing=23
				23:leaf=0.0772309527
				24:leaf=-0.033610709
			12:[jetPtRatio<0.864331841] yes=25,no=26,missing=25
				25:leaf=0.10988804
				26:leaf=0.14046526
		6:[pfRelIso03_all<0.0639916584] yes=13,no=14,missing=13
			13:[jetBTag<0.475018024] yes=27,no=28,missing=27
				27:leaf=0.0574990697
				28:leaf=-0.0839081481
			14:[jetBTag<0.213209897] yes=29,no=30,missing=29
				29:leaf=-0.0455989279
				30:leaf=-0.118338183
booster[6]:
0:[jetPtRatio<0.760566115] yes=1,no=2,missing=1
	1:[jetPtRelv2<8.83036613] yes=3,no=4,missing=3
		3:[jetBTag<0.0600088462] yes=7,no=8,missing=7
			7:[pfRelIso03_all<0.102907076] yes=15,no=16,missing=15
				15:leaf=0.0493476838
				16:leaf=-0.0727527067
			8:[jetPtRelv2<5.06394863] yes=17,no=18,missing=17
				17:leaf=-0.130681217
				18:leaf=-0.0953733921
		4:[miniRelIsoNeutral<0.0437937118] yes=9,no=10,missing=9
			9:[miniRelIsoCharged<0.151732177] yes=19,no=20,missing=19
				19:leaf=0.127121136
				20:leaf=-0.0635604486
			10:[sip3d<1.86107206] yes=21,no=22,missing=21
				21:leaf=0.0343143605
				22:leaf=-0.109966151
	2:[jetBTag<0.0882086903] yes=5,no=6,missing=5
		5:[pfRelIso03_all<0.0890201554] yes=11,no=12,missing=11
			11:[pt<15.590476] yes=23,no=24,missing=23
				23:leaf=0.0737584829
				24:leaf=0.132648259
			12:[jetBTag<0.0239451937] yes=25,no=26,missing=25
				25:leaf=0.0924680755
				26:leaf=0.00964455213
		6:[pfRelIso03_all<0.0749823749] yes=13,no=14,missing=13
			13:[jetBTag<0.490362823] yes=27,no=28,missing=27
				27:leaf=0.0417042933
				28:leaf=-0.08930289
			14:[jetPtRelv2<8.59480286] yes=29,no=30,missing=29
				29:leaf=-0.113709152
				30:leaf=-0.00973664597
booster[7]:
0:[jetPtRatio<0.80333811] yes=1,no=2,missing=1
	1:[jetBTag<0.0393083021] yes=3,no=4,missing=3
		3:[jetPtRelv2<4.38172054] yes=7,no=8,missing=7
			7:[jetNDauChargedMVASel<1.5] yes=15,no=16,missing=15
				15:leaf=0.0416388921
				16:leaf=-0.0826277137
			8:[miniRelIsoNeutral<0.0648468062] yes=17,no=18,missing=17
				17:leaf=0.112962298
				18:leaf=0.00735865626
		4:[jetPtRelv2<10.1575565] yes=9,no=10,missing=9
			9:[jetBTag<0.135439098] yes=19,no=20,missing=19
				19:leaf=-0.0814484581
				20:leaf=-0.124788128
			10:[miniRelIsoCharged<0.0392497778] yes=21,no=22,missing=21
				21:leaf=0.110403195
				22:leaf=-0.0472230278
	2:[jetBTag<0.182869524] yes=5,no=6,missing=5
		5:[jetBTag<0.0251709651] yes=11,no=12,missing=11
			11:[pfRelIso03_all<0.0951528028] yes=23,no=24,missing=23
				23:leaf=0.129536167
				24:leaf=0.0937568396
			12:[pfRelIso03_all<0.0569935106] yes=25,no=26,missing=25
				25:leaf=0.0994802937
				26:leaf=0.0217658076
		6:[jetPtRelv2<13.6210938] yes=13,no=14,missing=13
			13:[jetBTag<0.579278588] yes=27,no=28,missing=27
				27:leaf=-0.0366657786
				28:leaf=-0.122424655
			14:leaf=0.068582058
booster[8]:
0:[jetPtRatio<0.753064752] yes=1,no=2,missing=1
	1:[jetPtRelv2<5.87197495] yes=3,no=4,missing=3
		3:[jetBTag<0.064421609] yes=7,no=8,missing=7
			7:[jetNDauChargedMVASel<1.5] yes=15,no=16,missing=15
				15:leaf=0.0252001863
				16:leaf=-0.0804717019
			8:[jetBTag<0.173803791] yes=17,no=18,missing=17
				17:leaf=-0.100452498
				18:leaf=-0.124262206
		4:[sip3d<2.25875854] yes=9,no=10,missing=9
			9:[miniRelIsoCharged<0.0473726019] yes=19,no=20,missing=19
				19:leaf=0.10666918
				20:leaf=-0.00442949636
			10:[miniRelIsoCharged<0.0227967761] yes=21,no=22,missing=21
				21:leaf=-0.00751172891
				22:leaf=-0.111315228
	2:[jetBTag<0.0785687864] yes=5,no=6,missing=5
		5:[miniRelIsoCharged<0.0511861853] yes=11,no=12,missing=11
			11:[miniRelIsoNeutral<0.0417732298] yes=23,no=24,missing=23
				23:leaf=0.122095361
				24:leaf=0.0631730855
			12:[miniRelIsoCharged<0.134295836] yes=25,no=26,missing=25
				25:leaf=0.0378240868
				26:leaf=-0.0696323141
		6:[jetBTag<0.275491565] yes=13,no=14,missing=13
			13:[miniRelIsoCharged<0.0350805745] yes=27,no=28,missing=27
				27:leaf=0.0437196419
				28:leaf=-0.0847300291
			14:[jetPtRelv2<13.1067162] yes=29,no=30,missing=29
				29:leaf=-0.0952725932
				30:leaf=0.0645191595
booster[9]:
0:[jetPtRatio<0.807710052] yes=1,no=2,missing=1
	1:[jetBTag<0.0514277965] yes=3,no=4,missing=3
		3:[jetPtRelv2<4.10232067] yes=7,no=8,missing=7
			7:[jetPtRatio<0.663590193] yes=15,no=16,missing=15
				15:leaf=-0.0840191469
				16:leaf=0.0205771793
			8:[miniRelIsoNeutral<0.0404893383] yes=17,no=18,missing=17
				17:leaf=0.101585291
				18:leaf=0.00732987886
		4:[jetPtRelv2<10.56847] yes=9,no=10,missing=9
			9:[jetBTag<0.17276369] yes=19,no=20,missing=19
				19:leaf=-0.0795889124
				20:leaf=-0.116975866
			10:[miniRelIsoCharged<0.0589964204] yes=21,no=22,missing=21
				21:leaf=0.0987973064
				22:leaf=-0.0537512191
	2:[jetBTag<0.0768401921] yes=5,no=6,missing=5
		5:[pt<16.0423851] yes=11,no=12,missing=11
			11:[pt<12.1689892] yes=23,no=24,missing=23
				23:leaf=-0.000443938276
				24:leaf=0.0685783625
			12:[jetPtRatio<0.868267834] yes=25,no=26,missing=25
				25:leaf=0.0929069147
				26:leaf=0.122318707
		6:[pfRelIso03_all<0.0808238536] yes=13,no=14,missing=13
			13:[dxy<-5.18840218] yes=27,no=28,missing=27
				27:leaf=0.0505848639
				28:leaf=-0.0625871792
			14:[jetBTag<0.218934089] yes=29,no=30,missing=29
				29:leaf=-0.0369922034
				30:leaf=-0.100850299
booster[10]:
0:[jetPtRatio<0.811431289] yes=1,no=2,missing=1
	1:[jetBTag<0.0624041483] yes=3,no=4,missing=3
		3:[miniRelIsoCharged<0.0701328814] yes=7,no=8,missing=7
			7:[miniRelIsoNeutral<0.0686485693] yes=15,no=16,missing=15
				15:leaf=0.0751054808
				16:leaf=-0.042572882
			8:[jetPtRelv2<4.9528532] yes=17,no=18,missing=17
				17:leaf=-0.09482719
				18:leaf=0.00968886167
		4:[jetPtRelv2<9.76233959] yes=9,no=10,missing=9
			9:[jetPtRelv2<4.90070248] yes=19,no=20,missing=19
				19:leaf=-0.112871818
				20:leaf=-0.0694041848
			10:[miniRelIsoNeutral<0.0295729879] yes=21,no=22,missing=21
				21:leaf=0.094178386
				22:leaf=-0.0445014499
	2:[jetBTag<0.0626132712] yes=5,no=6,missing=5
		5:[pt<17.9452667] yes=11,no=12,missing=11
			11:[pt<12.1690378] yes=23,no=24,missing=23
				23:leaf=0.00479989406
				24:leaf=0.0741669014
			12:[pfRelIso03_all<0.0620800257] yes=25,no=26,missing=25
				25:leaf=0.119259261
				26:leaf=0.0889713317
		6:[jetBTag<0.41512996] yes=13,no=14,missing=13
			13:[pt<16.6456394] yes=27,no=28,missing=27
				27:leaf=-0.0651075616
				28:leaf=0.0556082241
			14:[sip3d<2.51233196] yes=29,no=30,missing=29
				29:leaf=0.00815181714
				30:leaf=-0.0898318514
booster[11]:
0:[jetPtRatio<0.744424701] yes=1,no=2,missing=1
	1:[jetPtRelv2<5.44807339] yes=3,no=4,missing=3
		3:[jetBTag<0.0786991417] yes=7,no=8,missing=7
			7:[jetNDauChargedMVASel<1.5] yes=15,no=16,missing=15
				15:leaf=0.0171939321
				16:leaf=-0.0750365704
			8:[jetBTag<0.209109217] yes=17,no=18,missing=17
				17:leaf=-0.0946679339
				18:leaf=-0.115369536
		4:[dxy<-6.03770447] yes=9,no=10,missing=9
			9:[miniRelIsoCharged<0.0413167402] yes=19,no=20,missing=19
				19:leaf=0.0953104347
				20:leaf=-0.0106872991
			10:[jetBTag<0.224410176] yes=21,no=22,missing=21
				21:leaf=-0.0248041283
				22:leaf=-0.105285801
	2:[jetBTag<0.0958151966] yes=5,no=6,missing=5
		5:[pfRelIso03_all<0.0884380341] yes=11,no=12,missing=11
			11:[jetBTag<0.0215167161] yes=23,no=24,missing=23
				23:leaf=0.11586199
				24:leaf=0.0798669383
			12:[jetBTag<0.0210709386] yes=25,no=26,missing=25
				25:leaf=0.0720640644
				26:leaf=4.5235065e-05
		6:[pfRelIso03_all<0.0807376951] yes=13,no=14,missing=13
			13:[jetBTag<0.535436153] yes=27,no=28,missing=27
				27:leaf=0.0300286915
				28:leaf=-0.0785782933
			14:[miniRelIsoCharged<0.0457302704] yes=29,no=30,missing=29
				29:leaf=-0.0595641211
				30:leaf=-0.109717406
booster[12]:
0:[jetPtRatio<0.821021438] yes=1,no=2,missing=1
	1:[jetBTag<0.0355560891] yes=3,no=4,missing=3
		3:[miniRelIsoCharged<0.0965174139] yes=7,no=8,missing=7
			7:[miniRelIsoNeutral<0.0493430905] yes=15,no=16,missing=15
				15:leaf=0.0783005431
				16:leaf=-0.0224104133
			8:[jetPtRelv2<4.96160507] yes=17,no=18,missing=17
				17:leaf=-0.0865686461
				18:leaf=0.0136635005
		4:[jetPtRelv2<9.12907219] yes=9,no=10,missing=9
			9:[jetBTag<0.154079393] yes=19,no=20,missing=19
				19:leaf=-0.0606007092
				20:leaf=-0.107307248
			10:[miniRelIsoNeutral<0.0227603428] yes=21,no=22,missing=21
				21:leaf=0.0877203718
				22:leaf=-0.0365724713
	2:[jetBTag<0.0526202358] yes=5,no=6,missing=5
		5:[pt<17.9452667] yes=11,no=12,missing=11
			11:[pt<12.1589336] yes=23,no=24,missing=23
				23:leaf=0.0051654391
				24:leaf=0.0697086975
			12:[pfRelIso03_all<0.05956541] yes=25,no=26,missing=25
				25:leaf=0.114380471
				26:leaf=0.086830087
		6:[pt<16.0790977] yes=13,no=14,missing=13
			13:[pt<12.6915646] yes=27,no=28,missing=27
				27:leaf=-0.0965824351
				28:leaf=-0.0393369384
			14:[miniRelIsoCharged<0.0234895982] yes=29,no=30,missing=29
				29:leaf=0.0586524121
				30:leaf=-0.0547957718
booster[13]:
0:[jetPtRatio<0.734404922] yes=1,no=2,missing=1
	1:[jetPtRelv2<5.17679834] yes=3,no=4,missing=3
		3:[jetBTag<0.0881443322] yes=7,no=8,missing=7
			7:[pfRelIso03_all<0.0844200999] yes=15,no=16,missing=15
				15:leaf=0.0226729121
				16:leaf=-0.0687300116
			8:[jetBTag<0.241599262] yes=17,no=18,missing=17
				17:leaf=-0.0930543542
				18:leaf=-0.111218192
		4:[sip3d<2.07741189] yes=9,no=10,missing=9
			9:[miniRelIsoCharged<0.112334445] yes=19,no=20,missing=19
				19:leaf=0.0811950862
				20:leaf=-0.0322326161
			10:[miniRelIsoCharged<0.0325590447] yes=21,no=22,missing=21
				21:leaf=-0.0141936336
				22:leaf=-0.0994554535
	2:[jetBTag<0.123170614] yes=5,no=6,missing=5
		5:[pfRelIso03_all<0.065529421] yes=11,no=12,missing=11
			11:[pt<16.3415642] yes=23,no=24,missing=23
				23:leaf=0.0447474867
				24:leaf=0.108765744
			12:[jetBTag<0.0210709386] yes=25,no=26,missing=25
				25:leaf=0.0720917806
				26:leaf=0.0044666389
		6:[miniRelIsoCharged<0.0286085196] yes=13,no=14,missing=13
			13:[jetBTag<0.585114956] yes=27,no=28,missing=27
				27:leaf=0.00998296309
				28:leaf=-0.0811828002
			14:[jetBTag<0.236346617] yes=29,no=30,missing=29
				29:leaf=-0.0619331002
				30:leaf=-0.104866229
booster[14]:
0:[jetPtRatio<0.829151928] yes=1,no=2,missing=1
	1:[jetBTag<0.0768866464] yes=3,no=4,missing=3
		3:[jetPtRelv2<3.78440857] yes=7,no=8,missing=7
			7:[jetPtRatio<0.645171225] yes=15,no=16,missing=15
				15:leaf=-0.075957559
				16:leaf=0.00711267674
			8:[miniRelIsoNeutral<0.0334166512] yes=17,no=18,missing=17
				17:leaf=0.0819514394
				18:leaf=0.00133859704
		4:[jetPtRelv2<10.9548893] yes=9,no=10,missing=9
			9:[jetPtRelv2<4.73775721] yes=19,no=20,missing=19
				19:leaf=-0.102745906
				20:leaf=-0.0570848398
			10:[miniRelIsoCharged<0.0352626517] yes=21,no=22,missing=21
				21:leaf=0.092046909
				22:leaf=-0.0334731899
	2:[jetBTag<0.0387770906] yes=5,no=6,missing=5
		5:[pt<20.5241146] yes=11,no=12,missing=11
			11:[pfRelIso03_all<0.117461286] yes=23,no=24,missing=23
				23:leaf=0.0724628195
				24:leaf=0.000311237032
			12:[jetPtRatio<0.886767983] yes=25,no=26,missing=25
				25:leaf=0.0903041437
				26:leaf=0.111669935
		6:[pt<17.2363052] yes=13,no=14,missing=13
			13:[pt<13.5609617] yes=27,no=28,missing=27
				27:leaf=-0.0680103526
				28:leaf=-0.00970085245
			14:[miniRelIsoNeutral<0.00896399189] yes=29,no=30,missing=29
				29:leaf=0.070775561
				30:leaf=-0.0293437336
booster[15]:
0:[jetPtRatio<0.830373764] yes=1,no=2,missing=1
	1:[jetBTag<0.0931263641] yes=3,no=4,missing=3
		3:[miniRelIsoCharged<0.0434383675] yes=7,no=8,missing=7
			7:[miniRelIsoNeutral<0.0802898705] yes=15,no=16,missing=15
				15:leaf=0.0622522905
				16:leaf=-0.0342440307
			8:[jetPtRelv2<4.21033478] yes=17,no=18,missing=17
				17:leaf=-0.0753916726
				18:leaf=-0.00286244811
		4:[jetPtRelv2<9.62735844] yes=9,no=10,missing=9
			9:[jetPtRelv2<4.96777487] yes=19,no=20,missing=19
				19:leaf=-0.101173677
				20:leaf=-0.0561489426
			10:[dxy<-5.84337997] yes=21,no=22,missing=21
				21:leaf=0.0686059818
				22:leaf=-0.0775957033
	2:[jetBTag<0.0331147686] yes=5,no=6,missing=5
		5:[pt<20.5241146] yes=11,no=12,missing=11
			11:[pt<12.8634596] yes=23,no=24,missing=23
				23:leaf=0.0155437877
				24:leaf=0.0748543441
			12:[miniRelIsoCharged<0.0372215249] yes=25,no=26,missing=25
				25:leaf=0.107990734
				26:leaf=0.0574505404
		6:[dxy<-5.23574114] yes=13,no=14,missing=13
			13:[pt<18.3715057] yes=27,no=28,missing=27
				27:leaf=-0.0101583702
				28:leaf=0.0646729991
			14:[pfRelIso03_all<0.038041532] yes=29,no=30,missing=29
				29:leaf=-0.0210996401
				30:leaf=-0.0947241411
booster[16]:
0:[pfRelIso03_all<0.0936952308] yes=1,no=2,missing=1
	1:[jetBTag<0.212591261] yes=3,no=4,missing=3
		3:[miniRelIsoNeutral<0.0344436094] yes=7,no=8,missing=7
			7:[pt<16.3381844] yes=15,no=16,missing=15
				15:leaf=0.0291994307
				16:leaf=0.100967936
			8:[jetPtRatio<0.640746832] yes=17,no=18,missing=17
				17:leaf=-0.061524298
				18:leaf=0.030899981
		4:[jetPtRelv2<12.3898544] yes=9,no=10,missing=9
			9:[jetBTag<0.579204977] yes=19,no=20,missing=19
				19:leaf=-0.0284547452
				20:leaf=-0.097097002
			10:[sip3d<1.28145552] yes=21,no=22,missing=21
				21:leaf=0.119133703
				22:leaf=0.0331529826
	2:[jetBTag<0.0314896032] yes=5,no=6,missing=5
		5:[jetPtRelv2<3.56387043] yes=11,no=12,missing=11
			11:[jetPtRatio<0.618257523] yes=23,no=24,missing=23
				23:leaf=-0.0817618594
				24:leaf=-0.00108768872
			12:[miniRelIsoCharged<0.131287992] yes=25,no=26,missing=25
				25:leaf=0.058400806
				26:leaf=-0.0228477027
		6:[jetPtRelv2<6.20527315] yes=13,no=14,missing=13
			13:[jetBTag<0.164394587] yes=27,no=28,missing=27
				27:leaf=-0.0728963166
				28:leaf=-0.103967898
			14:[dxy<-6.3998003] yes=29,no=30,missing=29
				29:leaf=0.0276678931
				30:leaf=-0.0716794059
booster[17]:
0:[jetPtRatio<0.839268029] yes=1,no=2,missing=1
	1:[sip3d<1.71396828] yes=3,no=4,missing=3
		3:[miniRelIsoCharged<0.0788617656] yes=7,no=8,missing=7
			7:[miniRelIsoNeutral<0.0408241525] yes=15,no=16,missing=15
				15:leaf=0.0620963983
				16:leaf=-0.0181112625
			8:[jetPtRelv2<4.72740507] yes=17,no=18,missing=17
				17:leaf=-0.0784098133
				18:leaf=-0.0131446794
		4:[jetBTag<0.230821177] yes=9,no=10,missing=9
			9:[pfRelIso03_all<0.131065309] yes=19,no=20,missing=19
				19:leaf=-0.00109889661
				20:leaf=-0.0783686116
			10:[jetPtRelv2<13.7330704] yes=21,no=22,missing=21
				21:leaf=-0.102858067
				22:leaf=0.0167155545
	2:[jetBTag<0.0263531469] yes=5,no=6,missing=5
		5:[pfRelIso03_all<0.0603908747] yes=11,no=12,missing=11
			11:[pt<17.7991142] yes=23,no=24,missing=23
				23:leaf=0.0670853183
				24:leaf=0.106368951
			12:[pt<20.9386406] yes=25,no=26,missing=25
				25:leaf=0.0249499213
				26:leaf=0.0812262818
		6:[dxy<-5.11201143] yes=13,no=14,missing=13
			13:[pfRelIso03_all<0.047114376] yes=27,no=28,missing=27
				27:leaf=0.0647693723
				28:leaf=0.00140621641
			14:[pfRelIso03_all<0.0247006454] yes=29,no=30,missing=29
				29:leaf=-0.0270912051
				30:leaf=-0.0870162174
booster[18]:
0:[jetBTag<0.028455954] yes=1,no=2,missing=1
	1:[pfRelIso03_all<0.0948818475] yes=3,no=4,missing=3
		3:[miniRelIsoNeutral<0.028754862] yes=7,no=8,missing=7
			7:[pt<14.5238848] yes=15,no=16,missing=15
				15:leaf=0.0127204303
				16:leaf=0.101014473
			8:[jetPtRatio<0.675024152] yes=17,no=18,missing=17
				17:leaf=-0.0294838436
				18:leaf=0.059027046
		4:[jetPtRelv2<4.64173889] yes=9,no=10,missing=9
			9:[jetPtRatio<0.636233509] yes=19,no=20,missing=19
				19:leaf=-0.0639936104
				20:leaf=0.0120062819
			10:[miniRelIsoNeutral<0.0123648904] yes=21,no=22,missing=21
				21:leaf=0.0823757797
				22:leaf=0.0276602935
	2:[jetPtRelv2<5.29425716] yes=5,no=6,missing=5
		5:[jetNDauChargedMVASel<1.5] yes=11,no=12,missing=11
			11:[jetBTag<0.503623724] yes=23,no=24,missing=23
				23:leaf=-0.00140379032
				24:leaf=-0.0959337875
			12:[jetBTag<0.214920521] yes=25,no=26,missing=25
				25:leaf=-0.0738286972
				26:leaf=-0.102657557
		6:[miniRelIsoCharged<0.0335422829] yes=13,no=14,missing=13
			13:[dxy<-5.4269824] yes=27,no=28,missing=27
				27:leaf=0.0670132861
				28:leaf=-0.0423939526
			14:[sip3d<1.37167168] yes=29,no=30,missing=29
				29:leaf=-0.00792656653
				30:leaf=-0.0798908621
booster[19]:
0:[jetPtRatio<0.725390613] yes=1,no=2,missing=1
	1:[sip3d<1.86130702] yes=3,no=4,missing=3
		3:[jetPtRelv2<4.25849771] yes=7,no=8,missing=7
			7:[jetNDauChargedMVASel<1.5] yes=15,no=16,missing=15
				15:leaf=0.00710643781
				16:leaf=-0.0666194558
			8:[miniRelIsoCharged<0.120204516] yes=17,no=18,missing=17
				17:leaf=0.061217349
				18:leaf=-0.0345905647
		4:[jetPtRelv2<9.66667747] yes=9,no=10,missing=9
			9:[jetBTag<0.2537359] yes=19,no=20,missing=19
				19:leaf=-0.0725081712
				20:leaf=-0.10304302
			10:[miniRelIsoNeutral<0.0174852796] yes=21,no=22,missing=21
				21:leaf=0.0641137436
				22:leaf=-0.0593411513
	2:[jetBTag<0.0251709651] yes=5,no=6,missing=5
		5:[miniRelIsoCharged<0.0348925255] yes=11,no=12,missing=11
			11:[miniRelIsoNeutral<0.0335121937] yes=23,no=24,missing=23
				23:leaf=0.100222863
				24:leaf=0.0525232144
			12:[miniRelIsoNeutral<0.0079126358] yes=25,no=26,missing=25
				25:leaf=0.0463732406
				26:leaf=-0.0237607583
		6:[jetBTag<0.310201585] yes=13,no=14,missing=13
			13:[miniRelIsoNeutral<0.0176714249] yes=27,no=28,missing=27
				27:leaf=0.0464502871
				28:leaf=-0.0275295731
			14:[jetBTag<0.662442207] yes=29,no=30,missing=29
				29:leaf=-0.0281280074
				30:leaf=-0.0902066752
booster[20]:
0:[jetPtRatio<0.848658383] yes=1,no=2,missing=1
	1:[sip3d<1.82491922] yes=3,no=4,missing=3
		3:[miniRelIsoCharged<0.109460056] yes=7,no=8,missing=7
			7:[miniRelIsoNeutral<0.0227984861] yes=15,no=16,missing=15
				15:leaf=0.0553352423
				16:leaf=-0.0154764522
			8:[jetPtRelv2<4.35130072] yes=17,no=18,missing=17
				17:leaf=-0.0787311122
				18:leaf=-0.0269037187
		4:[jetBTag<0.241945028] yes=9,no=10,missing=9
			9:[jetPtRelv2<3.60833931] yes=19,no=20,missing=19
				19:leaf=-0.0720394775
				20:leaf=0.00173956959
			10:[jetPtRelv2<12.7441559] yes=21,no=22,missing=21
				21:leaf=-0.0978589281
				22:leaf=0.00453231018
	2:[jetBTag<0.0215346254] yes=5,no=6,missing=5
		5:[pfRelIso03_all<0.0585193634] yes=11,no=12,missing=11
			11:[pt<20.9201679] yes=23,no=24,missing=23
				23:leaf=0.0689885691
				24:leaf=0.103483737
			12:[miniRelIsoCharged<0.0320260972] yes=25,no=26,missing=25
				25:leaf=0.0822318718
				26:leaf=0.0357304513
		6:[pt<13.3798904] yes=13,no=14,missing=13
			13:[sip3d<1.62917876] yes=27,no=28,missing=27
				27:leaf=0.0154646067
				28:leaf=-0.0776206404
			14:[jetBTag<0.54558754] yes=29,no=30,missing=29
				29:leaf=0.0568131022
				30:leaf=-0.0512547754
booster[21]:
0:[pfRelIso03_all<0.0717064142] yes=1,no=2,missing=1
	1:[jetBTag<0.0225830562] yes=3,no=4,missing=3
		3:[pt<15.5655499] yes=7,no=8,missing=7
			7:leaf=-0.0253981408
			8:[miniRelIsoNeutral<0.0180871729] yes=15,no=16,missing=15
				15:leaf=0.100009456
				16:leaf=0.0569717064
		4:[miniRelIsoNeutral<0.00895625353] yes=9,no=10,missing=9
			9:[jetBTag<0.607644618] yes=17,no=18,missing=17
				17:leaf=0.0533566065
				18:leaf=-0.0422459133
			10:[jetBTag<0.153199688] yes=19,no=20,missing=19
				19:leaf=-0.00703796139
				20:leaf=-0.0752266198
	2:[sip3d<1.61135983] yes=5,no=6,missing=5
		5:[miniRelIsoCharged<0.132038087] yes=11,no=12,missing=11
			11:[jetPtRelv2<3.93959141] yes=21,no=22,missing=21
				21:leaf=-0.0184063595
				22:leaf=0.0478414819
			12:[jetPtRelv2<4.80785227] yes=23,no=24,missing=23
				23:leaf=-0.0774361566
				24:leaf=-0.0253460165
		6:[jetBTag<0.190134645] yes=13,no=14,missing=13
			13:[jetPtRelv2<4.54978752] yes=25,no=26,missing=25
				25:leaf=-0.0699841455
				26:leaf=-0.00307674916
			14:[jetPtRelv2<12.7815008] yes=27,no=28,missing=27
				27:leaf=-0.0984875336
				28:leaf=-0.0166602787
booster[22]:
0:[jetPtRatio<0.852886081] yes=1,no=2,missing=1
	1:[jetBTag<0.120244458] yes=3,no=4,missing=3
		3:[miniRelIsoCharged<0.0296060313] yes=7,no=8,missing=7
			7:[miniRelIsoNeutral<0.0904809535] yes=15,no=16,missing=15
				15:leaf=0.0463035554
				16:leaf=-0.0229166467
			8:[miniRelIsoCharged<0.162192106] yes=17,no=18,missing=17
				17:leaf=-0.0179384537
				18:leaf=-0.0724525377
		4:[jetPtRelv2<5.72174358] yes=9,no=10,missing=9
			9:[jetNDauChargedMVASel<1.5] yes=19,no=20,missing=19
				19:leaf=-0.0563704483
				20:leaf=-0.0937059447
			10:[miniRelIsoNeutral<0.0138518661] yes=21,no=22,missing=21
				21:leaf=0.0440686792
				22:leaf=-0.0470230095
	2:[jetBTag<0.0201684702] yes=5,no=6,missing=5
		5:[pfRelIso03_all<0.0586998872] yes=11,no=12,missing=11
			11:[pt<31.4572544] yes=23,no=24,missing=23
				23:leaf=0.0870732516
				24:leaf=0.102750279
			12:[miniRelIsoCharged<0.0299435109] yes=25,no=26,missing=25
				25:leaf=0.0805388018
				26:leaf=0.0355678089
		6:[pt<13.8233776] yes=13,no=14,missing=13
			13:[sip3d<1.58623743] yes=27,no=28,missing=27
				27:leaf=0.0174443461
				28:leaf=-0.069254443
			14:[dxy<-5.01346397] yes=29,no=30,missing=29
				29:leaf=0.055750329
				30:leaf=-0.0455046296
booster[23]:
0:[jetBTag<0.0267795753] yes=1,no=2,missing=1
	1:[jetPtRatio<0.863759637] yes=3,no=4,missing=3
		3:[jetPtRelv2<2.78005576] yes=7,no=8,missing=7
			7:[jetNDauChargedMVASel<1.5] yes=15,no=16,missing=15
				15:leaf=0.0260086041
				16:leaf=-0.0427076258
			8:[miniRelIsoNeutral<0.0128393238] yes=17,no=18,missing=17
				17:leaf=0.0686263293
				18:leaf=0.0184753481
		4:[pt<21.4484406] yes=9,no=10,missing=9
			9:[pfRelIso03_all<0.0394954979] yes=19,no=20,missing=19
				19:leaf=0.0652232766
				20:leaf=0.0188511368
			10:[jetPtRatio<0.905288875] yes=21,no=22,missing=21
				21:leaf=0.0804418176
				22:leaf=0.101670042
	2:[miniRelIsoCharged<0.0496088043] yes=5,no=6,missing=5
		5:[miniRelIsoNeutral<0.0461843237] yes=11,no=12,missing=11
			11:[jetPtRelv2<3.92796659] yes=23,no=24,missing=23
				23:leaf=-0.020321941
				24:leaf=0.0487275645
			12:[dxy<-5.62294531] yes=25,no=26,missing=25
				25:leaf=-0.0451170318
				26:leaf=-0.0936930031
		6:[sip3d<2.62031293] yes=13,no=14,missing=13
			13:[miniRelIsoCharged<0.146812797] yes=27,no=28,missing=27
				27:leaf=-0.039827358
				28:leaf=-0.0838393047
			14:[jetBTag<0.446624547] yes=29,no=30,missing=29
				29:leaf=-0.0892683938
				30:leaf=-0.104028121
booster[24]:
0:[jetPtRatio<0.706988335] yes=1,no=2,missing=1
	1:[jetPtRelv2<4.91864634] yes=3,no=4,missing=3
		3:[jetBTag<0.133241236] yes=7,no=8,missing=7
			7:[jetNDauChargedMVASel<1.5] yes=15,no=16,missing=15
				15:leaf=0.00421426632
				16:leaf=-0.0538361929
			8:[jetBTag<0.477711916] yes=17,no=18,missing=17
				17:leaf=-0.0801052079
				18:leaf=-0.098370485
		4:[dxy<-5.84422398] yes=9,no=10,missing=9
			9:[miniRelIsoNeutral<0.087928772] yes=19,no=20,missing=19
				19:leaf=0.055061806
				20:leaf=-0.0310205352
			10:[miniRelIsoNeutral<0.0136101469] yes=21,no=22,missing=21
				21:leaf=-0.029132003
				22:leaf=-0.0870885774
	2:[jetBTag<0.0208707675] yes=5,no=6,missing=5
		5:[miniRelIsoCharged<0.0243403986] yes=11,no=12,missing=11
			11:[miniRelIsoNeutral<0.0137696592] yes=23,no=24,missing=23
				23:leaf=0.0968962312
				24:leaf=0.0585780255
			12:[miniRelIsoNeutral<0.00906627811] yes=25,no=26,missing=25
				25:leaf=0.0482990183
				26:leaf=-0.01337412
		6:[jetBTag<0.543805122] yes=13,no=14,missing=13
			13:[miniRelIsoNeutral<0.00723487698] yes=27,no=28,missing=27
				27:leaf=0.0389357135
				28:leaf=-0.0156065738
			14:[jetPtRelv2<8.97833443] yes=29,no=30,missing=29
				29:leaf=-0.0873959139
				30:leaf=0.00392940314
booster[25]:
0:[pfRelIso03_all<0.0653662309] yes=1,no=2,missing=1
	1:[jetBTag<0.0202283897] yes=3,no=4,missing=3
		3:[pt<17.9489079] yes=7,no=8,missing=7
			7:leaf=-0.0301847011
			8:[miniRelIsoNeutral<0.0170632973] yes=15,no=16,missing=15
				15:leaf=0.0965522975
				16:leaf=0.0525927246
		4:[dxy<-5.18840361] yes=9,no=10,missing=9
			9:[miniRelIsoNeutral<0.0198341217] yes=17,no=18,missing=17
				17:leaf=0.0453811996
				18:leaf=-0.0200626608
			10:[jetBTag<0.654570103] yes=19,no=20,missing=19
				19:leaf=-0.0381249748
				20:leaf=-0.102587536
	2:[dxy<-6.23500347] yes=5,no=6,missing=5
		5:[miniRelIsoCharged<0.120415218] yes=11,no=12,missing=11
			11:[miniRelIsoNeutral<0.070310533] yes=21,no=22,missing=21
				21:leaf=0.0328612141
				22:leaf=-0.0242461078
			12:[jetBTag<0.0304068495] yes=23,no=24,missing=23
				23:leaf=-0.0271628834
				24:leaf=-0.0761502311
		6:[jetBTag<0.273880601] yes=13,no=14,missing=13
			13:[miniRelIsoCharged<0.0998753905] yes=25,no=26,missing=25
				25:leaf=-0.0396453775
				26:leaf=-0.0867789388
			14:[jetPtRelv2<6.33134031] yes=27,no=28,missing=27
				27:leaf=-0.0976701081
				28:leaf=-0.0685406625
booster[26]:
0:[jetPtRelv2<5.88766289] yes=1,no=2,missing=1
	1:[jetBTag<0.153310388] yes=3,no=4,missing=3
		3:[jetPtRatio<0.619156182] yes=7,no=8,missing=7
			7:[jetPtRelv2<3.06660461] yes=15,no=16,missing=15
				15:leaf=-0.0633512288
				16:leaf=-0.0150632551
			8:[jetNDauChargedMVASel<1.5] yes=17,no=18,missing=17
				17:leaf=0.0431322418
				18:leaf=-0.00898168236
		4:[jetNDauChargedMVASel<1.5] yes=9,no=10,missing=9
			9:[jetBTag<0.610858262] yes=19,no=20,missing=19
				19:leaf=-0.0131155625
				20:leaf=-0.0936169922
			10:[sip3d<1.3967663] yes=21,no=22,missing=21
				21:leaf=-0.0619240515
				22:leaf=-0.0946826339
	2:[miniRelIsoCharged<0.0222690161] yes=5,no=6,missing=5
		5:[dxy<-5.63372135] yes=11,no=12,missing=11
			11:[miniRelIsoNeutral<0.020064557] yes=23,no=24,missing=23
				23:leaf=0.0912167951
				24:leaf=0.0415463597
			12:[jetBTag<0.497886419] yes=25,no=26,missing=25
				25:leaf=0.0153019177
				26:leaf=-0.0755107701
		6:[dxy<-6.50399256] yes=13,no=14,missing=13
			13:[miniRelIsoNeutral<0.0184613876] yes=27,no=28,missing=27
				27:leaf=0.0503509231
				28:leaf=-0.0129193384
			14:[pt<57.6362839] yes=29,no=30,missing=29
				29:leaf=-0.0352293029
				30:leaf=-0.0962871239
booster[27]:
0:[jetPtRatio<0.868041515] yes=1,no=2,missing=1
	1:[dxy<-6.16983461] yes=3,no=4,missing=3
		3:[miniRelIsoCharged<0.0330120847] yes=7,no=8,missing=7
			7:[jetPtRelv2<3.54469538] yes=15,no=16,missing=15
				15:leaf=-0.0027788179
				16:leaf=0.0515472963
			8:[miniRelIsoCharged<0.169432804] yes=17,no=18,missing=17
				17:leaf=-0.0157697462
				18:leaf=-0.0652624369
		4:[jetBTag<0.509871423] yes=9,no=10,missing=9
			9:[pfRelIso03_all<0.162473261] yes=19,no=20,missing=19
				19:leaf=-0.0174880493
				20:leaf=-0.0709510371
			10:[jetPtRelv2<7.61012745] yes=21,no=22,missing=21
				21:leaf=-0.0973971561
				22:leaf=-0.0545889623
	2:[pt<20.5001278] yes=5,no=6,missing=5
		5:[sip3d<1.41860032] yes=11,no=12,missing=11
			11:[pt<12.4249048] yes=23,no=24,missing=23
				23:leaf=-0.00783174019
				24:leaf=0.0480468534
			12:[pt<14.0961494] yes=25,no=26,missing=25
				25:leaf=-0.0661098883
				26:leaf=0.00278833322
		6:[jetBTag<0.0446234718] yes=13,no=14,missing=13
			13:[jetPtRatio<0.92217052] yes=27,no=28,missing=27
				27:leaf=0.0753629804
				28:leaf=0.099154748
			14:[dxy<-5.26564312] yes=29,no=30,missing=29
				29:leaf=0.055310227
				30:leaf=-0.0121270576
booster[28]:
0:[jetBTag<0.023155665] yes=1,no=2,missing=1
	1:[jetPtRatio<0.875187278] yes=3,no=4,missing=3
		3:[jetPtRelv2<7.83066654] yes=7,no=8,missing=7
			7:[jetNDauChargedMVASel<1.5] yes=15,no=16,missing=15
				15:leaf=0.0406875797
				16:leaf=-0.00796531979
			8:[miniRelIsoNeutral<0.03627529] yes=17,no=18,missing=17
				17:leaf=0.0861017928
				18:leaf=0.0434186831
		4:[pt<21.4870148] yes=9,no=10,missing=9
			9:leaf=0.0383120924
			10:[jetPtRatio<0.922578573] yes=19,no=20,missing=19
				19:leaf=0.0784158334
				20:leaf=0.0989752561
	2:[miniRelIsoCharged<0.065126583] yes=5,no=6,missing=5
		5:[miniRelIsoNeutral<0.0578313321] yes=11,no=12,missing=11
			11:[dxy<-5.36234617] yes=21,no=22,missing=21
				21:leaf=0.025037894
				22:leaf=-0.0449719764
			12:[sip3d<3.09662771] yes=23,no=24,missing=23
				23:leaf=-0.0347749777
				24:leaf=-0.0836290121
		6:[sip3d<2.25834727] yes=13,no=14,missing=13
			13:[miniRelIsoCharged<0.174748361] yes=25,no=26,missing=25
				25:leaf=-0.0325202569
				26:leaf=-0.0748523995
			14:[jetBTag<0.354589641] yes=27,no=28,missing=27
				27:leaf=-0.0793709606
				28:leaf=-0.0997036248
booster[29]:
0:[jetPtRelv2<7.83097982] yes=1,no=2,missing=1
	1:[jetBTag<0.173262998] yes=3,no=4,missing=3
		3:[jetPtRatio<0.63563478] yes=7,no=8,missing=7
			7:[jetPtRelv2<3.0944128] yes=15,no=16,missing=15
				15:leaf=-0.054204978
				16:leaf=-0.00544158882
			8:[miniRelIsoCharged<0.0241210349] yes=17,no=18,missing=17
				17:leaf=0.0375837348
				18:leaf=-0.00871088728
		4:[jetPtRelv2<4.05313683] yes=9,no=10,missing=9
			9:[jetNDauChargedMVASel<1.5] yes=19,no=20,missing=19
				19:leaf=-0.0456260741
				20:leaf=-0.0913935974
			10:[jetPtRatio<0.358633161] yes=21,no=22,missing=21
				21:leaf=0.0812399462
				22:leaf=-0.048436407
	2:[jetBTag<0.0199485067] yes=5,no=6,missing=5
		5:[miniRelIsoNeutral<0.0316333696] yes=11,no=12,missing=11
			11:[jetPtRelv2<12.6500225] yes=23,no=24,missing=23
				23:leaf=0.0840078369
				24:leaf=0.0995819792
			12:[jetPtRelv2<10.372261] yes=25,no=26,missing=25
				25:leaf=0.0328547284
				26:leaf=0.0675874874
		6:[miniRelIsoNeutral<0.0138540249] yes=13,no=14,missing=13
			13:[pt<16.5653687] yes=27,no=28,missing=27
				27:leaf=-0.0303887278
				28:leaf=0.0642819703
			14:[pt<60.0334091] yes=29,no=30,missing=29
				29:leaf=0.0195689909
				30:leaf=-0.0615792237
booster[30]:
0:[jetPtRelv2<7.83097982] yes=1,no=2,missing=1
	1:[jetBTag<0.197697952] yes=3,no=4,missing=3
		3:[jetNDauChargedMVASel<1.5] yes=7,no=8,missing=7
			7:[miniRelIsoNeutral<0.0342586786] yes=15,no=16,missing=15
				15:leaf=0.0460411236
				16:leaf=0.00193822838
			8:[miniRelIsoNeutral<0.0198553354] yes=17,no=18,missing=17
				17:leaf=-0.00109026826
				18:leaf=-0.0448244028
		4:[jetPtRelv2<4.05293846] yes=9,no=10,missing=9
			9:[jetPtRatio<0.734097481] yes=19,no=20,missing=19
				19:leaf=-0.088730529
				20:leaf=-0.035327673
			10:[jetPtRatio<0.328634143] yes=21,no=22,missing=21
				21:leaf=0.0823959932
				22:leaf=-0.0467608087
	2:[jetBTag<0.016690053] yes=5,no=6,missing=5
		5:[miniRelIsoNeutral<0.0126687773] yes=11,no=12,missing=11
			11:[jetPtRelv2<12.6499834] yes=23,no=24,missing=23
				23:leaf=0.0861219093
				24:leaf=0.0997302681
			12:[jetNDauChargedMVASel<1.5] yes=25,no=26,missing=25
				25:leaf=0.0819812045
				26:leaf=0.0451858565
		6:[miniRelIsoNeutral<0.0227905083] yes=13,no=14,missing=13
			13:[dxy<-5.42861366] yes=27,no=28,missing=27
				27:leaf=0.0611132681
				28:leaf=-0.0189394224
			14:[pt<63.8971863] yes=29,no=30,missing=29
				29:leaf=0.0126134893
				30:leaf=-0.0657715723
booster[31]:
0:[jetBTag<0.023155665] yes=1,no=2,missing=1
	1:[jetPtRatio<0.875187278] yes=3,no=4,missing=3
		3:[miniRelIsoNeutral<0.0125888251] yes=7,no=8,missing=7
			7:[miniRelIsoCharged<0.210078359] yes=15,no=16,missing=15
				15:leaf=0.052998811
				16:leaf=-0.0411488526
			8:[dxy<-6.69152832] yes=17,no=18,missing=17
				17:leaf=0.0111009954
				18:leaf=-0.0396875478
		4:[pt<21.6501865] yes=9,no=10,missing=9
			9:leaf=0.0308347885
			10:[jetPtRatio<0.924175858] yes=19,no=20,missing=19
				19:leaf=0.073165141
				20:leaf=0.0970021337
	2:[miniRelIsoCharged<0.0790443569] yes=5,no=6,missing=5
		5:[miniRelIsoNeutral<0.0177327488] yes=11,no=12,missing=11
			11:[pt<14.106534] yes=21,no=22,missing=21
				21:leaf=-0.0291459095
				22:leaf=0.0352743529
			12:[dxy<-5.48792648] yes=23,no=24,missing=23
				23:leaf=-0.0229611378
				24:leaf=-0.0805160627
		6:[sip3d<1.82343364] yes=13,no=14,missing=13
			13:[jetPtRatio<0.327981532] yes=25,no=26,missing=25
				25:leaf=0.0325885601
				26:leaf=-0.0494444631
			14:[jetBTag<0.274054766] yes=27,no=28,missing=27
				27:leaf=-0.0726841912
				28:leaf=-0.0963784084
booster[32]:
0:[jetPtRelv2<9.11728859] yes=1,no=2,missing=1
	1:[jetNDauChargedMVASel<1.5] yes=3,no=4,missing=3
		3:[jetBTag<0.629455686] yes=7,no=8,missing=7
			7:[miniRelIsoNeutral<0.0906423852] yes=15,no=16,missing=15
				15:leaf=0.0377059355
				16:leaf=-0.0137730837
			8:[jetBTag<0.835838079] yes=17,no=18,missing=17
				17:leaf=-0.0717231035
				18:leaf=-0.0974360481
		4:[sip3d<2.26703787] yes=9,no=10,missing=9
			9:[jetPtRelv2<3.09088755] yes=19,no=20,missing=19
				19:leaf=-0.0409141779
				20:leaf=0.00362418569
			10:[jetBTag<0.453603834] yes=21,no=22,missing=21
				21:leaf=-0.0581904352
				22:leaf=-0.095488511
	2:[jetBTag<0.0448536985] yes=5,no=6,missing=5
		5:[miniRelIsoCharged<0.0223674737] yes=11,no=12,missing=11
			11:[pt<24.6317291] yes=23,no=24,missing=23
				23:leaf=0.0402296111
				24:leaf=0.0930938348
			12:[jetBTag<0.0129272416] yes=25,no=26,missing=25
				25:leaf=0.0620688498
				26:leaf=0.025931133
		6:[dxy<-5.63259888] yes=13,no=14,missing=13
			13:[jetPtRelv2<14.3571243] yes=27,no=28,missing=27
				27:leaf=0.0163748562
				28:leaf=0.0730022639
			14:[jetBTag<0.235144138] yes=29,no=30,missing=29
				29:leaf=0.00377144595
				30:leaf=-0.0657599866
booster[33]:
0:[jetPtRelv2<4.7421236] yes=1,no=2,missing=1
	1:[jetBTag<0.163678899] yes=3,no=4,missing=3
		3:[jetPtRatio<0.593280911] yes=7,no=8,missing=7
			7:[jetPtRelv2<2.66239882] yes=15,no=16,missing=15
				15:leaf=-0.058015611
				16:leaf=-0.0215743277
			8:[miniRelIsoCharged<0.149097219] yes=17,no=18,missing=17
				17:leaf=0.0173146557
				18:leaf=-0.0457709245
		4:[jetNDauChargedMVASel<1.5] yes=9,no=10,missing=9
			9:[jetBTag<0.607500553] yes=19,no=20,missing=19
				19:leaf=-0.00406093569
				20:leaf=-0.0882220492
			10:[sip3d<1.41006243] yes=21,no=22,missing=21
				21:leaf=-0.0595910437
				22:leaf=-0.0891885385
	2:[jetBTag<0.0156681444] yes=5,no=6,missing=5
		5:[pfRelIso03_all<0.0443191305] yes=11,no=12,missing=11
			11:[jetPtRatio<0.925630093] yes=23,no=24,missing=23
				23:leaf=0.0798708946
				24:leaf=0.0982435569
			12:[jetPtRelv2<10.5718203] yes=25,no=26,missing=25
				25:leaf=0.0327652618
				26:leaf=0.077099815
		6:[miniRelIsoCharged<0.014553233] yes=13,no=14,missing=13
			13:[dxy<-5.10012913] yes=27,no=28,missing=27
				27:leaf=0.0421921983
				28:leaf=-0.0464668833
			14:[pt<59.512558] yes=29,no=30,missing=29
				29:leaf=-0.00375461555
				30:leaf=-0.0665406212
booster[34]:
0:[jetPtRatio<0.892204046] yes=1,no=2,missing=1
	1:[dxy<-5.84955311] yes=3,no=4,missing=3
		3:[miniRelIsoCharged<0.149098217] yes=7,no=8,missing=7
			7:[miniRelIsoNeutral<0.0998655036] yes=15,no=16,missing=15
				15:leaf=0.0226734672
				16:leaf=-0.0284062009
			8:[jetBTag<0.0343921259] yes=17,no=18,missing=17
				17:leaf=-0.0249394458
				18:leaf=-0.0666500553
		4:[jetBTag<0.616633952] yes=9,no=10,missing=9
			9:[jetNDauChargedMVASel<1.5] yes=19,no=20,missing=19
				19:leaf=-0.0125489449
				20:leaf=-0.0633922666
			10:[jetPtRelv2<6.6342988] yes=21,no=22,missing=21
				21:leaf=-0.0970182717
				22:leaf=-0.068454586
	2:[pt<18.2814121] yes=5,no=6,missing=5
		5:[pt<11.6588564] yes=11,no=12,missing=11
			11:leaf=-0.0653095394
			12:[sip3d<1.41914463] yes=23,no=24,missing=23
				23:leaf=0.0348453708
				24:leaf=-0.0223711953
		6:[jetBTag<0.0147865824] yes=13,no=14,missing=13
			13:[jetPtRatio<0.924502254] yes=25,no=26,missing=25
				25:leaf=0.0763694867
				26:leaf=0.0967416912
			14:[pfRelIso03_all<0.03017582] yes=27,no=28,missing=27
				27:leaf=0.068255201
				28:leaf=0.026817007
booster[35]:
0:[jetPtRelv2<9.97118855] yes=1,no=2,missing=1
	1:[jetBTag<0.268726915] yes=3,no=4,missing=3
		3:[jetPtRatio<0.603171229] yes=7,no=8,missing=7
			7:[jetPtRelv2<3.28470826] yes=15,no=16,missing=15
				15:leaf=-0.0499266088
				16:leaf=-0.000398226985
			8:[miniRelIsoNeutral<0.00504103117] yes=17,no=18,missing=17
				17:leaf=0.0335606448
				18:leaf=-0.00236386689
		4:[jetPtRatio<0.278511852] yes=9,no=10,missing=9
			9:leaf=0.0561264344
			10:[jetBTag<0.636479199] yes=19,no=20,missing=19
				19:leaf=-0.03819656
				20:leaf=-0.0812938958
	2:[jetBTag<0.0446440093] yes=5,no=6,missing=5
		5:[miniRelIsoNeutral<0.0476408973] yes=11,no=12,missing=11
			11:[pt<26.9466019] yes=21,no=22,missing=21
				21:leaf=0.0367815606
				22:leaf=0.090809837
			12:leaf=0.0301717501
		6:[dxy<-5.34160805] yes=13,no=14,missing=13
			13:[miniRelIsoNeutral<0.0684235096] yes=23,no=24,missing=23
				23:leaf=0.0530182384
				24:leaf=-0.0216627307
			14:leaf=-0.0440359339
booster[36]:
0:[miniRelIsoCharged<0.0235073939] yes=1,no=2,missing=1
	1:[jetBTag<0.0127348984] yes=3,no=4,missing=3
		3:[miniRelIsoNeutral<0.0126707088] yes=7,no=8,missing=7
			7:[pt<29.6946678] yes=15,no=16,missing=15
				15:leaf=0.0362008512
				16:leaf=0.0921539739
			8:[jetNDauChargedMVASel<1.5] yes=17,no=18,missing=17
				17:leaf=0.0578299724
				18:leaf=0.0113610653
		4:[jetPtRelv2<3.36349916] yes=9,no=10,missing=9
			9:[jetPtRatio<0.566822529] yes=19,no=20,missing=19
				19:leaf=-0.061110992
				20:leaf=0.00214237487
			10:[jetPtRelv2<15.3224506] yes=21,no=22,missing=21
				21:leaf=0.0171722006
				22:leaf=0.0757070258
	2:[sip3d<2.63720608] yes=5,no=6,missing=5
		5:[miniRelIsoNeutral<0.0523000136] yes=11,no=12,missing=11
			11:[miniRelIsoCharged<0.207777202] yes=23,no=24,missing=23
				23:leaf=0.0115171922
				24:leaf=-0.0532930307
			12:[pt<52.7976074] yes=25,no=26,missing=25
				25:leaf=-0.0351081528
				26:leaf=-0.0727618039
		6:[jetBTag<0.536838889] yes=13,no=14,missing=13
			13:[miniRelIsoCharged<0.114061847] yes=27,no=28,missing=27
				27:leaf=-0.0378071405
				28:leaf=-0.0820128918
			14:[jetPtRelv2<6.01365185] yes=29,no=30,missing=29
				29:leaf=-0.0974962115
				30:leaf=-0.081326209
booster[37]:
0:[jetBTag<0.0167714357] yes=1,no=2,missing=1
	1:[jetPtRatio<0.876833677] yes=3,no=4,missing=3
		3:[miniRelIsoNeutral<0.00788493175] yes=7,no=8,missing=7
			7:[pt<16.8090801] yes=15,no=16,missing=15
				15:leaf=-0.0264910609
				16:leaf=0.0561291277
			8:[dxy<-6.71020031] yes=17,no=18,missing=17
				17:leaf=0.01467962
				18:leaf=-0.0315687284
		4:[pfRelIso03_all<0.0365299247] yes=9,no=10,missing=9
			9:[pt<35.9380302] yes=19,no=20,missing=19
				19:leaf=0.0692286566
				20:leaf=0.0946831629
			10:[jetBTag<0.00849919021] yes=21,no=22,missing=21
				21:leaf=0.0690809712
				22:leaf=0.0407648012
	2:[miniRelIsoCharged<0.110049784] yes=5,no=6,missing=5
		5:[miniRelIsoNeutral<0.114506364] yes=11,no=12,missing=11
			11:[pt<12.6749859] yes=23,no=24,missing=23
				23:leaf=-0.0355245136
				24:leaf=0.01465673
			12:[sip3d<1.4212296] yes=25,no=26,missing=25
				25:leaf=-0.0224812534
				26:leaf=-0.0649307147
		6:[sip3d<1.75362659] yes=13,no=14,missing=13
			13:[jetPtRelv2<3.63553882] yes=27,no=28,missing=27
				27:leaf=-0.0516777225
				28:leaf=-0.0129613969
			14:[jetBTag<0.249073744] yes=29,no=30,missing=29
				29:leaf=-0.0681588575
				30:leaf=-0.0924374014
booster[38]:
0:[dxy<-6.53270721] yes=1,no=2,missing=1
	1:[jetPtRelv2<10.6067715] yes=3,no=4,missing=3
		3:[jetNDauChargedMVASel<1.5] yes=7,no=8,missing=7
			7:[jetBTag<0.00959279109] yes=15,no=16,missing=15
				15:leaf=0.0803988129
				16:leaf=0.0227888282
			8:[jetPtRelv2<3.25161886] yes=17,no=18,missing=17
				17:leaf=-0.0267288834
				18:leaf=0.00897677522
		4:[miniRelIsoNeutral<0.0708323345] yes=9,no=10,missing=9
			9:[pt<32.011673] yes=19,no=20,missing=19
				19:leaf=0.0355302915
				20:leaf=0.0864267871
			10:leaf=0.0094429478
	2:[jetBTag<0.579201698] yes=5,no=6,missing=5
		5:[jetNDauChargedMVASel<1.5] yes=11,no=12,missing=11
			11:[miniRelIsoNeutral<0.0166492052] yes=21,no=22,missing=21
				21:leaf=0.0258272626
				22:leaf=-0.0191592891
			12:[jetPtRelv2<3.0933876] yes=23,no=24,missing=23
				23:leaf=-0.0597299524
				24:leaf=-0.0193463471
		6:[jetPtRatio<0.339687794] yes=13,no=14,missing=13
			13:leaf=-0.0141063426
			14:[jetBTag<0.711858511] yes=25,no=26,missing=25
				25:leaf=-0.0622433834
				26:leaf=-0.0928990692
booster[39]:
0:[miniRelIsoCharged<0.0197218582] yes=1,no=2,missing=1
	1:[jetBTag<0.0126297306] yes=3,no=4,missing=3
		3:[miniRelIsoNeutral<0.0103362929] yes=7,no=8,missing=7
			7:[pt<30.8038406] yes=15,no=16,missing=15
				15:leaf=0.0354740396
				16:leaf=0.0897481963
			8:[jetNDauChargedMVASel<1.5] yes=17,no=18,missing=17
				17:leaf=0.0520209968
				18:leaf=0.0101466291
		4:[dxy<-5.10019445] yes=9,no=10,missing=9
			9:[pt<13.3517208] yes=19,no=20,missing=19
				19:leaf=-0.0254996922
				20:leaf=0.0214240905
			10:[jetBTag<0.692109942] yes=21,no=22,missing=21
				21:leaf=-0.0396726951
				22:leaf=-0.0961279273
	2:[sip3d<2.83126402] yes=5,no=6,missing=5
		5:[miniRelIsoNeutral<0.0184848197] yes=11,no=12,missing=11
			11:[miniRelIsoCharged<0.219583988] yes=23,no=24,missing=23
				23:leaf=0.0149896843
				24:leaf=-0.0490903519
			12:[pt<59.5811386] yes=25,no=26,missing=25
				25:leaf=-0.0251375474
				26:leaf=-0.0702235922
		6:[jetBTag<0.547065496] yes=13,no=14,missing=13
			13:[miniRelIsoCharged<0.115095779] yes=27,no=28,missing=27
				27:leaf=-0.0345986001
				28:leaf=-0.0777502209
			14:[jetPtRelv2<5.62697506] yes=29,no=30,missing=29
				29:leaf=-0.0965793058
				30:leaf=-0.0790036768
booster[40]:
0:[jetPtRelv2<11.7078667] yes=1,no=2,missing=1
	1:[sip3d<1.23923755] yes=3,no=4,missing=3
		3:[jetBTag<0.0321336091] yes=7,no=8,missing=7
			7:[jetPtRatio<0.897465229] yes=13,no=14,missing=13
				13:leaf=0.0183347128
				14:leaf=0.0674485788
			8:[jetPtRatio<0.304682672] yes=15,no=16,missing=15
				15:leaf=0.100205496
				16:leaf=-0.0156451706
		4:[jetBTag<0.58841753] yes=9,no=10,missing=9
			9:[jetNDauChargedMVASel<1.5] yes=17,no=18,missing=17
				17:leaf=0.00684176013
				18:leaf=-0.034488447
			10:[jetPtRatio<0.341167808] yes=19,no=20,missing=19
				19:leaf=-0.0136480378
				20:leaf=-0.085895896
	2:[pt<23.4528923] yes=5,no=6,missing=5
		5:leaf=-0.0223357342
		6:[miniRelIsoCharged<0.0180915743] yes=11,no=12,missing=11
			11:[dxy<-5.71524239] yes=21,no=22,missing=21
				21:leaf=0.0860828087
				22:leaf=0.0298188776
			12:[pt<65.7144547] yes=23,no=24,missing=23
				23:leaf=0.0610340908
				24:leaf=-0.034559086
booster[41]:
0:[jetPtRelv2<4.42337704] yes=1,no=2,missing=1
	1:[jetBTag<0.47864297] yes=3,no=4,missing=3
		3:[jetPtRatio<0.567177415] yes=7,no=8,missing=7
			7:[sip3d<1.43999445] yes=15,no=16,missing=15
				15:leaf=-0.0284077954
				16:leaf=-0.0616928153
			8:[miniRelIsoCharged<0.18255204] yes=17,no=18,missing=17
				17:leaf=0.00852105673
				18:leaf=-0.0505358241
		4:[jetPtRatio<0.761852801] yes=9,no=10,missing=9
			9:[sip3d<1.34844232] yes=19,no=20,missing=19
				19:leaf=-0.0541124344
				20:leaf=-0.089251481
			10:leaf=-0.0314864777
	2:[miniRelIsoNeutral<0.0071055647] yes=5,no=6,missing=5
		5:[pt<15.3797703] yes=11,no=12,missing=11
			11:[pt<12.2617817] yes=21,no=22,missing=21
				21:leaf=-0.0621045195
				22:leaf=-0.00692341337
			12:[jetPtRelv2<13.0618801] yes=23,no=24,missing=23
				23:leaf=0.0383267589
				24:leaf=0.0815018937
		6:[pt<57.7951813] yes=13,no=14,missing=13
			13:[dxy<-5.45600319] yes=25,no=26,missing=25
				25:leaf=0.0195101313
				26:leaf=-0.050282795
			14:[jetPtRelv2<12.2339048] yes=27,no=28,missing=27
				27:leaf=-0.0608646348
				28:leaf=0.00114196702
booster[42]:
0:[pfRelIso03_all<0.0394383594] yes=1,no=2,missing=1
	1:[jetBTag<0.0147792036] yes=3,no=4,missing=3
		3:[miniRelIsoNeutral<0.0149260741] yes=7,no=8,missing=7
			7:[pt<30.3112831] yes=15,no=16,missing=15
				15:leaf=0.0439531729
				16:leaf=0.0890137851
			8:leaf=0.0242588166
		4:[miniRelIsoNeutral<0.000609252602] yes=9,no=10,missing=9
			9:[pt<14.1308317] yes=17,no=18,missing=17
				17:leaf=-0.0093108518
				18:leaf=0.0427721813
			10:[jetBTag<0.475602835] yes=19,no=20,missing=19
				19:leaf=-0.00219846307
				20:leaf=-0.0623210743
	2:[dxy<-6.41443157] yes=5,no=6,missing=5
		5:[jetPtRelv2<2.77944207] yes=11,no=12,missing=11
			11:[jetPtRatio<0.593631864] yes=21,no=22,missing=21
				21:leaf=-0.0482228138
				22:leaf=-0.0012064887
			12:[dz<-5.89434528] yes=23,no=24,missing=23
				23:leaf=0.025352193
				24:leaf=-0.00530138006
		6:[jetBTag<0.537310362] yes=13,no=14,missing=13
			13:[miniRelIsoCharged<0.148892239] yes=25,no=26,missing=25
				25:leaf=-0.0220874716
				26:leaf=-0.0660220012
			14:[jetPtRatio<0.370394588] yes=27,no=28,missing=27
				27:leaf=-0.0244087335
				28:leaf=-0.0856143758
booster[43]:
0:[miniRelIsoNeutral<0.00848718081] yes=1,no=2,missing=1
	1:[pt<18.0958996] yes=3,no=4,missing=3
		3:[pfRelIso03_all<0.327425569] yes=7,no=8,missing=7
			7:[pt<11.3875771] yes=15,no=16,missing=15
				15:leaf=-0.0381872319
				16:leaf=0.00746540353
			8:[sip3d<1.11046672] yes=17,no=18,missing=17
				17:leaf=-0.0254408773
				18:leaf=-0.0675817281
		4:[miniRelIsoCharged<0.120383084] yes=9,no=10,missing=9
			9:[jetBTag<0.0130147003] yes=19,no=20,missing=19
				19:leaf=0.0766864941
				20:leaf=0.0356041975
			10:[sip3d<1.98885095] yes=21,no=22,missing=21
				21:leaf=-0.0108328629
				22:leaf=-0.0681500807
	2:[sip3d<3.09657097] yes=5,no=6,missing=5
		5:[miniRelIsoCharged<0.0172283743] yes=11,no=12,missing=11
			11:[dxy<-6.76683331] yes=23,no=24,missing=23
				23:leaf=0.016916072
				24:leaf=-0.0117068235
			12:[jetPtRelv2<3.31464005] yes=25,no=26,missing=25
				25:leaf=-0.0398241393
				26:leaf=-0.0109269638
		6:[jetBTag<0.537310362] yes=13,no=14,missing=13
			13:[jetNDauChargedMVASel<1.5] yes=27,no=28,missing=27
				27:leaf=-0.0216996931
				28:leaf=-0.062456198
			14:[jetPtRelv2<5.22945595] yes=29,no=30,missing=29
				29:leaf=-0.0946519002
				30:leaf=-0.0721005872
booster[44]:
0:[jetPtRelv2<12.2340641] yes=1,no=2,missing=1
	1:[dxy<-5.63467598] yes=3,no=4,missing=3
		3:[jetNDauChargedMVASel<1.5] yes=7,no=8,missing=7
			7:[jetBTag<0.00959023647] yes=13,no=14,missing=13
				13:leaf=0.0692407191
				14:leaf=0.0135632223
			8:[jetPtRatio<0.241488561] yes=15,no=16,missing=15
				15:leaf=0.0632810742
				16:leaf=-0.013816691
		4:[jetNDauChargedMVASel<1.5] yes=9,no=10,missing=9
			9:[dxy<-4.78176594] yes=17,no=18,missing=17
				17:leaf=-0.00243262225
				18:leaf=-0.0620353296
			10:[jetBTag<0.553710938] yes=19,no=20,missing=19
				19:leaf=-0.0542097688
				20:leaf=-0.091105096
	2:[pt<26.9184189] yes=5,no=6,missing=5
		5:leaf=-0.0187385716
		6:[miniRelIsoCharged<0.0180915743] yes=11,no=12,missing=11
			11:[sip3d<3.35592437] yes=21,no=22,missing=21
				21:leaf=0.0839366019
				22:leaf=0.0323080532
			12:leaf=0.01438428
booster[45]:
0:[miniRelIsoNeutral<0.00505989883] yes=1,no=2,missing=1
	1:[pt<16.7150879] yes=3,no=4,missing=3
		3:[pfRelIso03_all<0.327550769] yes=7,no=8,missing=7
			7:[jetPtRatio<0.781206727] yes=15,no=16,missing=15
				15:leaf=0.00998754334
				16:leaf=-0.0282854978
			8:[sip3d<1.11046672] yes=17,no=18,missing=17
				17:leaf=-0.0269201789
				18:leaf=-0.0652377605
		4:[miniRelIsoCharged<0.0164924506] yes=9,no=10,missing=9
			9:[jetBTag<0.0132819898] yes=19,no=20,missing=19
				19:leaf=0.0809741542
				20:leaf=0.0405786484
			10:[miniRelIsoCharged<0.195374042] yes=21,no=22,missing=21
				21:leaf=0.0169204753
				22:leaf=-0.0437087677
	2:[sip3d<2.68577909] yes=5,no=6,missing=5
		5:[miniRelIsoCharged<0.0179653242] yes=11,no=12,missing=11
			11:[jetPtRelv2<2.73108697] yes=23,no=24,missing=23
				23:leaf=-0.0103538325
				24:leaf=0.016482722
			12:[pt<66.6408463] yes=25,no=26,missing=25
				25:leaf=-0.016080752
				26:leaf=-0.0658364296
		6:[jetBTag<0.518539667] yes=13,no=14,missing=13
			13:[jetPtRelv2<2.9316411] yes=27,no=28,missing=27
				27:leaf=-0.0571868531
				28:leaf=-0.0179256536
			14:[jetPtRelv2<5.67257977] yes=29,no=30,missing=29
				29:leaf=-0.091072686
				30:leaf=-0.0588638894
booster[46]:
0:[dxy<-6.81248474] yes=1,no=2,missing=1
	1:[jetPtRelv2<10.6077499] yes=3,no=4,missing=3
		3:[jetBTag<0.0322930105] yes=7,no=8,missing=7
			7:[jetPtRatio<0.902431965] yes=15,no=16,missing=15
				15:leaf=0.0154498294
				16:leaf=0.0609234385
			8:[jetPtRatio<0.299590528] yes=17,no=18,missing=17
				17:leaf=0.0776222944
				18:leaf=-0.0139297023
		4:[miniRelIsoNeutral<0.0563792475] yes=9,no=10,missing=9
			9:[jetPtRelv2<17.0752754] yes=19,no=20,missing=19
				19:leaf=0.0555323325
				20:leaf=0.0858465061
			10:leaf=0.0159406327
	2:[jetBTag<0.655005693] yes=5,no=6,missing=5
		5:[miniRelIsoNeutral<0.0605603382] yes=11,no=12,missing=11
			11:[miniRelIsoCharged<0.16190362] yes=21,no=22,missing=21
				21:leaf=0.00650045648
				22:leaf=-0.0508395806
			12:[pt<45.9494247] yes=23,no=24,missing=23
				23:leaf=-0.0301395655
				24:leaf=-0.0716470033
		6:[jetPtRatio<0.360581398] yes=13,no=14,missing=13
			13:leaf=0.0193368345
			14:[sip3d<3.19599915] yes=25,no=26,missing=25
				25:leaf=-0.0631095991
				26:leaf=-0.0913689807
booster[47]:
0:[jetPtRelv2<3.44184589] yes=1,no=2,missing=1
	1:[jetPtRatio<0.566731036] yes=3,no=4,missing=3
		3:[jetBTag<0.0826756135] yes=7,no=8,missing=7
			7:[jetBTag<0.00817691535] yes=15,no=16,missing=15
				15:leaf=0.017799018
				16:leaf=-0.0391670167
			8:[sip3d<3.49071503] yes=17,no=18,missing=17
				17:leaf=-0.0651939213
				18:leaf=-0.0866998509
		4:[jetBTag<0.592232227] yes=9,no=10,missing=9
			9:[pt<34.0296021] yes=19,no=20,missing=19
				19:leaf=0.00915504992
				20:leaf=-0.0315271355
			10:[jetBTag<0.863053977] yes=21,no=22,missing=21
				21:leaf=-0.0719317123
				22:leaf=-0.0924903825
	2:[jetBTag<0.012087239] yes=5,no=6,missing=5
		5:[jetPtRatio<0.905288815] yes=11,no=12,missing=11
			11:[pt<53.3465462] yes=23,no=24,missing=23
				23:leaf=0.0401667543
				24:leaf=0.010038631
			12:[jetPtRatio<0.942081332] yes=25,no=26,missing=25
				25:leaf=0.0665118918
				26:leaf=0.0914812982
		6:[miniRelIsoNeutral<0.113881253] yes=13,no=14,missing=13
			13:[dxy<-5.02608347] yes=27,no=28,missing=27
				27:leaf=0.0161658842
				28:leaf=-0.0475721918
			14:[pt<29.5820618] yes=29,no=30,missing=29
				29:leaf=0.00418256875
				30:leaf=-0.0503950417
booster[48]:
0:[jetPtRelv2<12.2340641] yes=1,no=2,missing=1
	1:[sip3d<1.17198312] yes=3,no=4,missing=3
		3:[jetPtRatio<0.897465229] yes=7,no=8,missing=7
			7:[pt<44.0479431] yes=13,no=14,missing=13
				13:leaf=0.0125905294
				14:leaf=-0.0224449411
			8:[pt<21.3998108] yes=15,no=16,missing=15
				15:leaf=0.0170679521
				16:leaf=0.069852598
		4:[jetBTag<0.655006111] yes=9,no=10,missing=9
			9:[pfRelIso03_all<0.246957511] yes=17,no=18,missing=17
				17:leaf=-0.0011846975
				18:leaf=-0.0349677615
			10:[jetPtRatio<0.377159178] yes=19,no=20,missing=19
				19:leaf=-0.0011157674
				20:leaf=-0.0810208917
	2:[pt<27.9193954] yes=5,no=6,missing=5
		5:leaf=-0.0200601034
		6:[miniRelIsoCharged<0.0125155784] yes=11,no=12,missing=11
			11:[miniRelIsoNeutral<0.00593006611] yes=21,no=22,missing=21
				21:leaf=0.0817912072
				22:leaf=0.0408453979
			12:[pt<65.3055496] yes=23,no=24,missing=23
				23:leaf=0.05668661
				24:leaf=-0.0298788156
booster[49]:
0:[jetPtRelv2<2.77944207] yes=1,no=2,missing=1
	1:[jetPtRatio<0.58261919] yes=3,no=4,missing=3
		3:[jetBTag<0.0324161537] yes=7,no=8,missing=7
			7:[miniRelIsoNeutral<0.035347797] yes=15,no=16,missing=15
				15:leaf=-0.00418884028
				16:leaf=-0.0415664464
			8:[jetBTag<0.299610168] yes=17,no=18,missing=17
				17:leaf=-0.0558971837
				18:leaf=-0.0849308893
		4:[jetBTag<0.563993871] yes=9,no=10,missing=9
			9:[pt<34.5767326] yes=19,no=20,missing=19
				19:leaf=0.00487214373
				20:leaf=-0.0298816711
			10:leaf=-0.0795335397
	2:[jetBTag<0.0142393904] yes=5,no=6,missing=5
		5:[jetPtRatio<0.921821833] yes=11,no=12,missing=11
			11:[miniRelIsoNeutral<0.00531779975] yes=21,no=22,missing=21
				21:leaf=0.0424131714
				22:leaf=0.015283592
			12:[pt<70.3925323] yes=23,no=24,missing=23
				23:leaf=0.074519217
				24:leaf=0.0954975486
		6:[sip3d<5.29868841] yes=13,no=14,missing=13
			13:[jetPtRatio<0.298983067] yes=25,no=26,missing=25
				25:leaf=0.0611992888
				26:leaf=0.003770262
			14:[jetBTag<0.717454612] yes=27,no=28,missing=27
				27:leaf=-0.0238710418
				28:leaf=-0.0942860991
booster[50]:
0:[miniRelIsoNeutral<0.00200915057] yes=1,no=2,missing=1
	1:[pt<15.5904951] yes=3,no=4,missing=3
		3:[pt<11.4719429] yes=7,no=8,missing=7
			7:[jetPtRatio<0.781217217] yes=15,no=16,missing=15
				15:leaf=-0.024526285
				16:leaf=-0.0661537647
			8:[pfRelIso03_all<0.378233194] yes=17,no=18,missing=17
				17:leaf=0.00279433629
				18:leaf=-0.0459870957
		4:[miniRelIsoCharged<0.01649189] yes=9,no=10,missing=9
			9:[jetBTag<0.0113963494] yes=19,no=20,missing=19
				19:leaf=0.077023454
				20:leaf=0.0356637388
			10:[miniRelIsoCharged<0.217522174] yes=21,no=22,missing=21
				21:leaf=0.0139910672
				22:leaf=-0.0428829044
	2:[dxy<-5.59861088] yes=5,no=6,missing=5
		5:[miniRelIsoCharged<0.0172207933] yes=11,no=12,missing=11
			11:[jetBTag<0.00802927744] yes=23,no=24,missing=23
				23:leaf=0.0425313376
				24:leaf=0.0014206866
			12:[pt<53.923233] yes=25,no=26,missing=25
				25:leaf=-0.0134609044
				26:leaf=-0.0486431532
		6:[jetNDauChargedMVASel<1.5] yes=13,no=14,missing=13
			13:[dxy<-4.93854332] yes=27,no=28,missing=27
				27:leaf=-0.0131942509
				28:leaf=-0.0633310601
			14:[dxy<-5.13742733] yes=29,no=30,missing=29
				29:leaf=-0.0563468523
				30:leaf=-0.085560672
booster[51]:
0:[dxy<-6.90160942] yes=1,no=2,missing=1
	1:[jetPtRelv2<9.99852562] yes=3,no=4,missing=3
		3:[dz<-5.50561905] yes=7,no=8,missing=7
			7:[miniRelIsoNeutral<0.00101645803] yes=15,no=16,missing=15
				15:leaf=0.0289077107
				16:leaf=0.00520548737
			8:[jetNDauChargedMVASel<1.5] yes=17,no=18,missing=17
				17:leaf=0.00493059587
				18:leaf=-0.0246567782
		4:[jetPtRelv2<17.0604401] yes=9,no=10,missing=9
			9:[pt<71.149292] yes=19,no=20,missing=19
				19:leaf=0.0509639457
				20:leaf=0.0046276967
			10:[pfRelIso03_all<0.0570498332] yes=21,no=22,missing=21
				21:leaf=0.0863157436
				22:leaf=0.0555853322
	2:[jetNDauChargedMVASel<1.5] yes=5,no=6,missing=5
		5:[pt<12.1548929] yes=11,no=12,missing=11
			11:[jetPtRatio<0.781164348] yes=23,no=24,missing=23
				23:leaf=-0.00729779154
				24:leaf=-0.0585793927
			12:[miniRelIsoNeutral<0.0300887823] yes=25,no=26,missing=25
				25:leaf=0.0236720368
				26:leaf=-0.0107173277
		6:[dxy<-5.25709248] yes=13,no=14,missing=13
			13:[jetPtRelv2<3.14550066] yes=27,no=28,missing=27
				27:leaf=-0.0360518955
				28:leaf=-0.00789690111
			14:[jetBTag<0.648044109] yes=29,no=30,missing=29
				29:leaf=-0.0604444854
				30:leaf=-0.0920399725
booster[52]:
0:[miniRelIsoCharged<0.180188596] yes=1,no=2,missing=1
	1:[miniRelIsoNeutral<0.121953353] yes=3,no=4,missing=3
		3:[jetPtRelv2<15.3039045] yes=7,no=8,missing=7
			7:[pt<12.2063007] yes=15,no=16,missing=15
				15:leaf=-0.0241192169
				16:leaf=0.0112068802
			8:[pt<43.1980057] yes=17,no=18,missing=17
				17:leaf=0.00183071138
				18:leaf=0.0748341158
		4:[jetPtRatio<0.684505105] yes=9,no=10,missing=9
			9:[sip3d<2.56476593] yes=19,no=20,missing=19
				19:leaf=-0.0282549392
				20:leaf=-0.0679087266
			10:[jetBTag<0.0108097745] yes=21,no=22,missing=21
				21:leaf=0.0475543402
				22:leaf=-0.00809331704
	2:[jetBTag<0.0343915895] yes=5,no=6,missing=5
		5:[jetPtRelv2<1.94597125] yes=11,no=12,missing=11
			11:leaf=-0.0407201946
			12:[miniRelIsoCharged<0.264346272] yes=23,no=24,missing=23
				23:leaf=0.0106837368
				24:leaf=-0.0247987807
		6:[jetPtRelv2<3.61477613] yes=13,no=14,missing=13
			13:[jetBTag<0.0858328491] yes=25,no=26,missing=25
				25:leaf=-0.0570976697
				26:leaf=-0.0812368691
			14:[sip3d<1.364676] yes=27,no=28,missing=27
				27:leaf=-0.0147071052
				28:leaf=-0.0564976521
booster[53]:
0:[sip3d<4.95774841] yes=1,no=2,missing=1
	1:[jetPtRelv2<13.1559486] yes=3,no=4,missing=3
		3:[jetNDauChargedMVASel<1.5] yes=7,no=8,missing=7
			7:[jetBTag<0.00826245546] yes=13,no=14,missing=13
				13:leaf=0.0633848384
				14:leaf=0.00979210995
			8:[jetPtRatio<0.261572838] yes=15,no=16,missing=15
				15:leaf=0.0447845608
				16:leaf=-0.011693419
		4:[pt<34.3936234] yes=9,no=10,missing=9
			9:leaf=-0.00706382468
			10:[miniRelIsoNeutral<0.00713158865] yes=17,no=18,missing=17
				17:leaf=0.0755856112
				18:leaf=0.021934839
	2:[jetBTag<0.727029145] yes=5,no=6,missing=5
		5:[jetPtRatio<0.664560676] yes=11,no=12,missing=11
			11:[miniRelIsoNeutral<0.0238347761] yes=19,no=20,missing=19
				19:leaf=-0.0416178666
				20:leaf=-0.0744244382
			12:[dz<-3.60484433] yes=21,no=22,missing=21
				21:leaf=-0.0274451282
				22:leaf=0.0250367913
		6:leaf=-0.0938464627
booster[54]:
0:[dxy<-6.90195704] yes=1,no=2,missing=1
	1:[jetPtRelv2<9.4072628] yes=3,no=4,missing=3
		3:[jetBTag<0.0252801683] yes=7,no=8,missing=7
			7:[dz<-5.79974365] yes=15,no=16,missing=15
				15:leaf=0.0243547354
				16:leaf=-0.00187226851
			8:[pt<36.2922058] yes=17,no=18,missing=17
				17:leaf=0.00512884883
				18:leaf=-0.0366457254
		4:[jetBTag<0.00925350934] yes=9,no=10,missing=9
			9:[jetPtRatio<0.937437773] yes=19,no=20,missing=19
				19:leaf=0.0552485064
				20:leaf=0.0888685808
			10:[dz<-5.5491848] yes=21,no=22,missing=21
				21:leaf=0.044322338
				22:leaf=0.0052634473
	2:[jetBTag<0.655005693] yes=5,no=6,missing=5
		5:[pfRelIso03_all<0.0294674188] yes=11,no=12,missing=11
			11:[pt<12.3589602] yes=23,no=24,missing=23
				23:leaf=-0.023011826
				24:leaf=0.0208646134
			12:[pt<52.5301208] yes=25,no=26,missing=25
				25:leaf=-0.0103263361
				26:leaf=-0.0482091568
		6:[jetPtRatio<0.379231006] yes=13,no=14,missing=13
			13:leaf=0.0302004758
			14:[jetPtRelv2<5.13905907] yes=27,no=28,missing=27
				27:leaf=-0.0845621452
				28:leaf=-0.0535617173
booster[55]:
0:[jetPtRelv2<2.63259363] yes=1,no=2,missing=1
	1:[jetPtRatio<0.5648036] yes=3,no=4,missing=3
		3:[jetBTag<0.0329769254] yes=7,no=8,missing=7
			7:[miniRelIsoNeutral<0.0348299891] yes=15,no=16,missing=15
				15:leaf=-0.00746905757
				16:leaf=-0.0419494919
			8:[jetBTag<0.165492982] yes=17,no=18,missing=17
				17:leaf=-0.0519060194
				18:leaf=-0.0780658051
		4:[jetBTag<0.519241571] yes=9,no=10,missing=9
			9:[pt<26.4429665] yes=19,no=20,missing=19
				19:leaf=0.00673560193
				20:leaf=-0.0203594733
			10:leaf=-0.0706556439
	2:[miniRelIsoNeutral<0.000608513597] yes=5,no=6,missing=5
		5:[pt<18.0924683] yes=11,no=12,missing=11
			11:[jetPtRatio<0.780949235] yes=21,no=22,missing=21
				21:leaf=0.016126873
				22:leaf=-0.0262932274
			12:[miniRelIsoCharged<0.014549898] yes=23,no=24,missing=23
				23:leaf=0.0436505638
				24:leaf=0.0123194214
		6:[pt<52.511673] yes=13,no=14,missing=13
			13:[sip3d<5.27792263] yes=25,no=26,missing=25
				25:leaf=0.0091802543
				26:leaf=-0.0460033827
			14:[pfRelIso03_all<0.477145016] yes=27,no=28,missing=27
				27:leaf=-0.0428218953
				28:leaf=0.0257298406
booster[56]:
0:[miniRelIsoCharged<0.195369482] yes=1,no=2,missing=1
	1:[miniRelIsoNeutral<0.116146013] yes=3,no=4,missing=3
		3:[jetBTag<0.0147775095] yes=7,no=8,missing=7
			7:[jetPtRatio<0.924502254] yes=15,no=16,missing=15
				15:leaf=0.0225388967
				16:leaf=0.0747011602
			8:[jetPtRatio<0.781185985] yes=17,no=18,missing=17
				17:leaf=0.0122955702
				18:leaf=-0.0116278995
		4:[jetBTag<0.0313991718] yes=9,no=10,missing=9
			9:[jetPtRatio<0.546656191] yes=19,no=20,missing=19
				19:leaf=-0.0325738117
				20:leaf=0.00295727863
			10:[pt<27.5728455] yes=21,no=22,missing=21
				21:leaf=-0.0234877877
				22:leaf=-0.0548187867
	2:[sip3d<1.94797301] yes=5,no=6,missing=5
		5:[jetPtRelv2<3.61421871] yes=11,no=12,missing=11
			11:[jetBTag<0.0407464653] yes=23,no=24,missing=23
				23:leaf=-0.02479201
				24:leaf=-0.0644022226
			12:[pfRelIso03_all<0.479095608] yes=25,no=26,missing=25
				25:leaf=-0.0272768773
				26:leaf=0.0201229621
		6:[jetBTag<0.268110842] yes=13,no=14,missing=13
			13:leaf=-0.0567607693
			14:leaf=-0.083638832
booster[57]:
0:[dxy<-4.93240643] yes=1,no=2,missing=1
	1:[jetPtRelv2<2.55743551] yes=3,no=4,missing=3
		3:[jetNDauChargedMVASel<2.5] yes=7,no=8,missing=7
			7:[jetPtRatio<0.526947856] yes=11,no=12,missing=11
				11:leaf=-0.0313555114
				12:leaf=0.00279723434
			8:[jetBTag<0.0302845892] yes=13,no=14,missing=13
				13:leaf=-0.0184781644
				14:leaf=-0.0598319769
		4:[jetPtRelv2<16.4689941] yes=9,no=10,missing=9
			9:[pt<57.7007408] yes=15,no=16,missing=15
				15:leaf=0.0106235975
				16:leaf=-0.0232977699
			10:[miniRelIsoCharged<0.0040310896] yes=17,no=18,missing=17
				17:leaf=0.0660572872
				18:leaf=0.00329583371
	2:[jetNDauChargedMVASel<1.5] yes=5,no=6,missing=5
		5:leaf=-0.0364814736
		6:leaf=-0.0796669573
booster[58]:
0:[dz<-5.89440632] yes=1,no=2,missing=1
	1:[jetPtRelv2<10.8102646] yes=3,no=4,missing=3
		3:[jetPtRatio<0.241421491] yes=7,no=8,missing=7
			7:leaf=0.0676446706
			8:[jetBTag<0.0321126357] yes=15,no=16,missing=15
				15:leaf=0.0140975146
				16:leaf=-0.00838876422
		4:[jetBTag<0.00835414417] yes=9,no=10,missing=9
			9:leaf=0.0765356421
			10:[miniRelIsoCharged<0.0248984993] yes=17,no=18,missing=17
				17:leaf=0.045822788
				18:leaf=0.0117725823
	2:[jetBTag<0.697002769] yes=5,no=6,missing=5
		5:[miniRelIsoNeutral<0.0166910011] yes=11,no=12,missing=11
			11:[pt<14.8977041] yes=19,no=20,missing=19
				19:leaf=-0.0204287656
				20:leaf=0.0152740926
			12:[pt<45.9104118] yes=21,no=22,missing=21
				21:leaf=-0.0135637149
				22:leaf=-0.0479074381
		6:[jetPtRatio<0.402930111] yes=13,no=14,missing=13
			13:leaf=0.0180692654
			14:[sip3d<3.09913015] yes=23,no=24,missing=23
				23:leaf=-0.0509874225
				24:leaf=-0.0887674168
booster[59]:
0:[miniRelIsoCharged<0.224282891] yes=1,no=2,missing=1
	1:[miniRelIsoNeutral<0.0885785073] yes=3,no=4,missing=3
		3:[pt<12.322258] yes=7,no=8,missing=7
			7:[jetPtRatio<0.779570937] yes=13,no=14,missing=13
				13:leaf=-0.0107131256
				14:leaf=-0.0412697047
			8:[jetPtRatio<0.938372314] yes=15,no=16,missing=15
				15:leaf=0.00915922876
				16:leaf=0.0448527783
		4:[sip3d<3.22097206] yes=9,no=10,missing=9
			9:[pt<29.588726] yes=17,no=18,missing=17
				17:leaf=0.00185335323
				18:leaf=-0.0279289633
			10:[jetPtRatio<0.665451348] yes=19,no=20,missing=19
				19:leaf=-0.0651650652
				20:leaf=-0.0244705267
	2:[sip3d<2.6757102] yes=5,no=6,missing=5
		5:[jetPtRelv2<3.01698208] yes=11,no=12,missing=11
			11:[jetBTag<0.0302122105] yes=21,no=22,missing=21
				21:leaf=-0.033073552
				22:leaf=-0.0651115105
			12:[pfRelIso03_all<0.481528729] yes=23,no=24,missing=23
				23:leaf=-0.0345177427
				24:leaf=0.002976964
		6:leaf=-0.0760130361
booster[60]:
0:[dxy<-5.24958849] yes=1,no=2,missing=1
	1:[miniRelIsoCharged<0.0154641364] yes=3,no=4,missing=3
		3:[jetPtRelv2<15.3039045] yes=7,no=8,missing=7
			7:[jetNDauChargedMVASel<1.5] yes=13,no=14,missing=13
				13:leaf=0.0168415066
				14:leaf=-0.00514889276
			8:[pt<57.386055] yes=15,no=16,missing=15
				15:leaf=0.0245501902
				16:leaf=0.0748337731
		4:[pt<67.8637085] yes=9,no=10,missing=9
			9:[jetPtRelv2<5.29997063] yes=17,no=18,missing=17
				17:leaf=-0.0116125494
				18:leaf=0.0157915931
			10:[pfRelIso03_all<0.194952384] yes=19,no=20,missing=19
				19:leaf=-0.0922854766
				20:leaf=-0.0301030129
	2:[jetBTag<0.740855098] yes=5,no=6,missing=5
		5:[pt<36.5213318] yes=11,no=12,missing=11
			11:[jetPtRatio<0.603444219] yes=21,no=22,missing=21
				21:leaf=-0.0532382615
				22:leaf=0.00762351323
			12:leaf=-0.068263188
		6:leaf=-0.0895015076
booster[61]:
0:[dxy<-6.90160942] yes=1,no=2,missing=1
	1:[jetPtRatio<0.904233336] yes=3,no=4,missing=3
		3:[dz<-5.38998413] yes=7,no=8,missing=7
			7:[jetPtRatio<0.329176366] yes=15,no=16,missing=15
				15:leaf=0.0566486418
				16:leaf=0.00841704942
			8:[miniRelIsoNeutral<0.00850256532] yes=17,no=18,missing=17
				17:leaf=-0.00143003371
				18:leaf=-0.0216264296
		4:[pt<21.4841576] yes=9,no=10,missing=9
			9:leaf=0.00243331562
			10:[jetPtRatio<0.944376349] yes=19,no=20,missing=19
				19:leaf=0.0439557657
				20:leaf=0.0773596168
	2:[jetBTag<0.703676343] yes=5,no=6,missing=5
		5:[jetNDauChargedMVASel<1.5] yes=11,no=12,missing=11
			11:[jetPtRelv2<2.49079442] yes=21,no=22,missing=21
				21:leaf=-0.0105607277
				22:leaf=0.01291316
			12:[dxy<-5.1247344] yes=23,no=24,missing=23
				23:leaf=-0.0130574694
				24:leaf=-0.0555751026
		6:[jetPtRatio<0.400551498] yes=13,no=14,missing=13
			13:leaf=0.030488072
			14:[sip3d<3.19529152] yes=25,no=26,missing=25
				25:leaf=-0.0524869375
				26:leaf=-0.0860244483
booster[62]:
0:[sip3d<5.81844234] yes=1,no=2,missing=1
	1:[miniRelIsoCharged<0.224282891] yes=3,no=4,missing=3
		3:[miniRelIsoNeutral<0.143062577] yes=7,no=8,missing=7
			7:[jetPtRelv2<16.4689941] yes=13,no=14,missing=13
				13:leaf=0.00611602003
				14:leaf=0.0497485921
			8:[jetPtRatio<0.685932636] yes=15,no=16,missing=15
				15:leaf=-0.029863134
				16:leaf=0.00967157353
		4:[jetBTag<0.0170362219] yes=9,no=10,missing=9
			9:leaf=-0.011051177
			10:[sip3d<1.13628864] yes=17,no=18,missing=17
				17:leaf=-0.0306482445
				18:leaf=-0.0572673865
	2:[dz<-3.62027073] yes=5,no=6,missing=5
		5:[sip3d<6.49106216] yes=11,no=12,missing=11
			11:leaf=-0.0518544391
			12:leaf=-0.080787763
		6:leaf=-0.00907989684
booster[63]:
0:[dxy<-4.83523464] yes=1,no=2,missing=1
	1:[miniRelIsoNeutral<0.000260549103] yes=3,no=4,missing=3
		3:[pt<18.4213905] yes=7,no=8,missing=7
			7:[jetPtRatio<0.787005067] yes=11,no=12,missing=11
				11:leaf=0.00543722417
				12:leaf=-0.0261145867
			8:[miniRelIsoCharged<0.014549898] yes=13,no=14,missing=13
				13:leaf=0.0365415178
				14:leaf=0.00706617767
		4:[pt<63.5401154] yes=9,no=10,missing=9
			9:[jetPtRelv2<3.78418684] yes=15,no=16,missing=15
				15:leaf=-0.0126916813
				16:leaf=0.00988522824
			10:[pfRelIso03_all<0.257997394] yes=17,no=18,missing=17
				17:leaf=-0.0558891259
				18:leaf=-0.0104897479
	2:[jetNDauChargedMVASel<1.5] yes=5,no=6,missing=5
		5:leaf=-0.0379332528
		6:leaf=-0.0773121566
booster[64]:
0:[dz<-6.01873207] yes=1,no=2,missing=1
	1:[jetBTag<0.00946703553] yes=3,no=4,missing=3
		3:[pfRelIso03_all<0.0363122411] yes=7,no=8,missing=7
			7:leaf=0.0644460991
			8:[jetNDauChargedMVASel<1.5] yes=15,no=16,missing=15
				15:leaf=0.0449861996
				16:leaf=0.0166934393
		4:[jetPtRatio<0.286737323] yes=9,no=10,missing=9
			9:leaf=0.0545290671
			10:[pt<36.2479095] yes=17,no=18,missing=17
				17:leaf=0.00859461725
				18:leaf=-0.0145614715
	2:[jetBTag<0.637265921] yes=5,no=6,missing=5
		5:[jetPtRatio<0.555568457] yes=11,no=12,missing=11
			11:[jetPtRelv2<3.86717463] yes=19,no=20,missing=19
				19:leaf=-0.0396188609
				20:leaf=-0.00219433638
			12:[jetPtRatio<0.781441808] yes=21,no=22,missing=21
				21:leaf=0.0102066649
				22:leaf=-0.0111753922
		6:[jetPtRatio<0.423474371] yes=13,no=14,missing=13
			13:leaf=0.0180142894
			14:[sip3d<2.72414351] yes=23,no=24,missing=23
				23:leaf=-0.0431573093
				24:leaf=-0.0766237155
booster[65]:
0:[miniRelIsoCharged<0.179114476] yes=1,no=2,missing=1
	1:[miniRelIsoNeutral<0.143062577] yes=3,no=4,missing=3
		3:[jetPtRatio<0.776429236] yes=7,no=8,missing=7
			7:[jetPtRelv2<2.41296339] yes=13,no=14,missing=13
				13:leaf=-0.00290061324
				14:leaf=0.0198411327
			8:[jetPtRatio<0.897465229] yes=15,no=16,missing=15
				15:leaf=-0.0181389451
				16:leaf=0.0199244302
		4:[jetPtRatio<0.66087091] yes=9,no=10,missing=9
			9:[sip3d<2.55998683] yes=17,no=18,missing=17
				17:leaf=-0.0238171797
				18:leaf=-0.0579347871
			10:[jetBTag<0.0116358455] yes=19,no=20,missing=19
				19:leaf=0.0473537222
				20:leaf=-0.00736926123
	2:[sip3d<2.68267608] yes=5,no=6,missing=5
		5:[miniRelIsoCharged<0.2679362] yes=11,no=12,missing=11
			11:[pfRelIso03_all<0.493357003] yes=21,no=22,missing=21
				21:leaf=-0.0174841844
				22:leaf=0.0204269979
			12:[jetBTag<0.0197374076] yes=23,no=24,missing=23
				23:leaf=-0.0212531891
				24:leaf=-0.0471994504
		6:leaf=-0.0658370331
booster[66]:
0:[dxy<-6.89640903] yes=1,no=2,missing=1
	1:[jetPtRelv2<8.51786423] yes=3,no=4,missing=3
		3:[pt<38.2990646] yes=7,no=8,missing=7
			7:[dz<-5.38998508] yes=15,no=16,missing=15
				15:leaf=0.0139768869
				16:leaf=-0.00646976754
			8:[jetBTag<0.00926592574] yes=17,no=18,missing=17
				17:leaf=0.0254700426
				18:leaf=-0.0312626883
		4:[dz<-5.41223478] yes=9,no=10,missing=9
			9:[jetPtRelv2<20.8053455] yes=19,no=20,missing=19
				19:leaf=0.0313660242
				20:leaf=0.0696721375
			10:leaf=0.000731521868
	2:[jetBTag<0.712240577] yes=5,no=6,missing=5
		5:[jetNDauChargedMVASel<2.5] yes=11,no=12,missing=11
			11:[jetPtRatio<0.77965951] yes=21,no=22,missing=21
				21:leaf=0.00929583982
				22:leaf=-0.0112898396
			12:[jetPtRelv2<4.89727116] yes=23,no=24,missing=23
				23:leaf=-0.0323091559
				24:leaf=-0.00312419678
		6:[jetPtRatio<0.404372782] yes=13,no=14,missing=13
			13:leaf=0.0260853358
			14:[jetPtRelv2<5.5288434] yes=25,no=26,missing=25
				25:leaf=-0.080373019
				26:leaf=-0.0437101163
booster[67]:
0:[dxy<-4.79816198] yes=1,no=2,missing=1
	1:[miniRelIsoCharged<0.0140939113] yes=3,no=4,missing=3
		3:[pt<13.5094328] yes=7,no=8,missing=7
			7:[jetPtRatio<0.490130693] yes=11,no=12,missing=11
				11:leaf=-0.0404141657
				12:leaf=-0.00646248693
			8:[jetPtRatio<0.942379355] yes=13,no=14,missing=13
				13:leaf=0.0098174056
				14:leaf=0.0486123748
		4:[pt<79.2039261] yes=9,no=10,missing=9
			9:[jetNDauChargedMVASel<5.5] yes=15,no=16,missing=15
				15:leaf=-0.00803692453
				16:leaf=0.0256474148
			10:[pfRelIso03_all<0.287580431] yes=17,no=18,missing=17
				17:leaf=-0.0803038701
				18:leaf=-0.0324593782
	2:[jetPtRatio<0.675970435] yes=5,no=6,missing=5
		5:leaf=-0.0710086972
		6:leaf=-0.0374862514
booster[68]:
0:[jetPtRelv2<2.00065827] yes=1,no=2,missing=1
	1:[jetPtRatio<0.528949201] yes=3,no=4,missing=3
		3:[jetBTag<0.0239273887] yes=7,no=8,missing=7
			7:[miniRelIsoNeutral<0.0403012559] yes=15,no=16,missing=15
				15:leaf=0.00345852668
				16:leaf=-0.0420313925
			8:[jetNDauChargedMVASel<2.5] yes=17,no=18,missing=17
				17:leaf=-0.0500480533
				18:leaf=-0.0718646497
		4:[jetBTag<0.437110215] yes=9,no=10,missing=9
			9:[pt<23.5568867] yes=19,no=20,missing=19
				19:leaf=0.00362997502
				20:leaf=-0.0156267658
			10:leaf=-0.0545165949
	2:[jetBTag<0.00835166126] yes=5,no=6,missing=5
		5:[jetPtRatio<0.898154259] yes=11,no=12,missing=11
			11:[pfRelIso03_all<0.201919138] yes=21,no=22,missing=21
				21:leaf=0.00151941832
				22:leaf=0.0317818932
			12:leaf=0.0681902394
		6:[pt<38.5455818] yes=13,no=14,missing=13
			13:[jetPtRatio<0.794314384] yes=23,no=24,missing=23
				23:leaf=0.0136367157
				24:leaf=-0.0101461736
			14:[jetPtRelv2<8.22947693] yes=25,no=26,missing=25
				25:leaf=-0.0321287178
				26:leaf=0.0138418917
booster[69]:
0:[miniRelIsoCharged<0.224282891] yes=1,no=2,missing=1
	1:[miniRelIsoNeutral<0.128299475] yes=3,no=4,missing=3
		3:[pt<11.0819435] yes=7,no=8,missing=7
			7:[jetPtRatio<0.781206846] yes=13,no=14,missing=13
				13:leaf=-0.0170076601
				14:leaf=-0.0502820499
			8:[jetPtRatio<0.288921058] yes=15,no=16,missing=15
				15:leaf=0.0447039045
				16:leaf=0.00556697557
		4:[jetPtRatio<0.660891175] yes=9,no=10,missing=9
			9:[pt<23.5602932] yes=17,no=18,missing=17
				17:leaf=-0.0126570538
				18:leaf=-0.0380546153
			10:[jetBTag<0.01040655] yes=19,no=20,missing=19
				19:leaf=0.040937528
				20:leaf=-0.0063438341
	2:[sip3d<2.14088202] yes=5,no=6,missing=5
		5:[pfRelIso03_all<0.524117827] yes=11,no=12,missing=11
			11:[jetBTag<0.0617523454] yes=21,no=22,missing=21
				21:leaf=-0.0228544381
				22:leaf=-0.0493335687
			12:leaf=-0.00280237943
		6:leaf=-0.0597478151
booster[70]:
0:[sip3d<5.81868553] yes=1,no=2,missing=1
	1:[miniRelIsoNeutral<5.13135965e-05] yes=3,no=4,missing=3
		3:[pt<20.5266647] yes=7,no=8,missing=7
			7:[jetPtRatio<0.7919842] yes=13,no=14,missing=13
				13:leaf=0.00549355568
				14:leaf=-0.0196127705
			8:[jetPtRatio<0.942848504] yes=15,no=16,missing=15
				15:leaf=0.0173562597
				16:leaf=0.0612832308
		4:[pt<50.8214111] yes=9,no=10,missing=9
			9:[jetPtRelv2<4.77520084] yes=17,no=18,missing=17
				17:leaf=-0.00653840601
				18:leaf=0.0144497007
			10:[pfRelIso03_all<0.477145016] yes=19,no=20,missing=19
				19:leaf=-0.0332736857
				20:leaf=0.0369369127
	2:[dz<-3.62027073] yes=5,no=6,missing=5
		5:[jetPtRatio<0.691359758] yes=11,no=12,missing=11
			11:leaf=-0.0761215314
			12:leaf=-0.0480268858
		6:leaf=-0.00446300581
booster[71]:
0:[dz<-6.01873207] yes=1,no=2,missing=1
	1:[jetBTag<0.0132733211] yes=3,no=4,missing=3
		3:[jetPtRatio<0.927053452] yes=7,no=8,missing=7
			7:[miniRelIsoNeutral<0.0485543013] yes=15,no=16,missing=15
				15:leaf=0.0259298589
				16:leaf=0.00735310419
			8:leaf=0.0677282661
		4:[jetPtRatio<0.329515874] yes=9,no=10,missing=9
			9:[jetBTag<0.150594518] yes=17,no=18,missing=17
				17:leaf=0.00395334279
				18:leaf=0.0867947266
			10:[pt<28.8009014] yes=19,no=20,missing=19
				19:leaf=0.0073629804
				20:leaf=-0.0126673644
	2:[jetNDauChargedMVASel<1.5] yes=5,no=6,missing=5
		5:[pt<10.7797079] yes=11,no=12,missing=11
			11:leaf=-0.0339461528
			12:[miniRelIsoCharged<0.0120289214] yes=21,no=22,missing=21
				21:leaf=0.0127785532
				22:leaf=-0.0125796786
		6:[dxy<-5.5327878] yes=13,no=14,missing=13
			13:[jetPtRelv2<5.96819401] yes=23,no=24,missing=23
				23:leaf=-0.0169447791
				24:leaf=0.00168276043
			14:[jetBTag<0.614790201] yes=25,no=26,missing=25
				25:leaf=-0.0315681212
				26:leaf=-0.0734910592
booster[72]:
0:[dxy<-7.0640192] yes=1,no=2,missing=1
	1:[jetPtRelv2<12.6590366] yes=3,no=4,missing=3
		3:[sip3d<0.138274819] yes=7,no=8,missing=7
			7:leaf=-0.0327058956
			8:[dz<-6.26353168] yes=15,no=16,missing=15
				15:leaf=0.0156982094
				16:leaf=-0.000562162255
		4:[miniRelIsoCharged<0.00139938819] yes=9,no=10,missing=9
			9:leaf=0.0508350097
			10:leaf=0.018023707
	2:[jetNDauChargedMVASel<1.5] yes=5,no=6,missing=5
		5:[miniRelIsoCharged<0.0118924575] yes=11,no=12,missing=11
			11:[pt<10.7259941] yes=17,no=18,missing=17
				17:leaf=-0.0305422079
				18:leaf=0.0109889479
			12:[pt<30.3222809] yes=19,no=20,missing=19
				19:leaf=-0.00832429808
				20:leaf=-0.0414818376
		6:[dxy<-5.41652298] yes=13,no=14,missing=13
			13:[jetPtRatio<0.781517982] yes=21,no=22,missing=21
				21:leaf=-0.00557197444
				22:leaf=-0.0287414547
			14:[jetBTag<0.616473675] yes=23,no=24,missing=23
				23:leaf=-0.0315202139
				24:leaf=-0.0719349235
booster[73]:
0:[miniRelIsoCharged<0.25228256] yes=1,no=2,missing=1
	1:[miniRelIsoNeutral<0.0408217087] yes=3,no=4,missing=3
		3:[pt<14.1012917] yes=7,no=8,missing=7
			7:[pfRelIso03_all<0.358383954] yes=13,no=14,missing=13
				13:leaf=-0.00699755875
				14:leaf=-0.04591012
			8:[jetPtRelv2<20.9639187] yes=15,no=16,missing=15
				15:leaf=0.0102084726
				16:leaf=0.0530805774
		4:[pt<29.5861664] yes=9,no=10,missing=9
			9:[jetPtRatio<0.566849113] yes=17,no=18,missing=17
				17:leaf=-0.015573117
				18:leaf=0.0141673824
			10:[pfRelIso03_all<0.534377217] yes=19,no=20,missing=19
				19:leaf=-0.0276261456
				20:leaf=0.0523551702
	2:[jetBTag<0.0153965577] yes=5,no=6,missing=5
		5:leaf=-0.0125011606
		6:[jetPtRelv2<3.85193539] yes=11,no=12,missing=11
			11:leaf=-0.0536669306
			12:leaf=-0.0291892942
booster[74]:
0:[dxy<-4.70448971] yes=1,no=2,missing=1
	1:[miniRelIsoCharged<0.160017759] yes=3,no=4,missing=3
		3:[jetPtRatio<0.233741149] yes=5,no=6,missing=5
			5:[jetBTag<0.0604361817] yes=9,no=10,missing=9
				9:leaf=0.014409109
				10:leaf=0.0795083717
			6:[miniRelIsoNeutral<0.167694211] yes=11,no=12,missing=11
				11:leaf=0.00405785954
				12:leaf=-0.0153581221
		4:[jetBTag<0.0537911505] yes=7,no=8,missing=7
			7:[miniRelIsoCharged<0.297110081] yes=13,no=14,missing=13
				13:leaf=0.00208475976
				14:leaf=-0.0316758044
			8:[jetPtRelv2<3.59526491] yes=15,no=16,missing=15
				15:leaf=-0.0574260354
				16:leaf=-0.0175621584
	2:leaf=-0.0541436188
booster[75]:
0:[sip3d<5.85497379] yes=1,no=2,missing=1
	1:[jetPtRelv2<2.06097412] yes=3,no=4,missing=3
		3:[jetPtRatio<0.527307034] yes=7,no=8,missing=7
			7:[jetBTag<0.0124594308] yes=11,no=12,missing=11
				11:leaf=-0.000542701338
				12:leaf=-0.0450754426
			8:[jetBTag<0.120238692] yes=13,no=14,missing=13
				13:leaf=0.000959411846
				14:leaf=-0.0249798484
		4:[jetPtRatio<0.777920008] yes=9,no=10,missing=9
			9:[pt<43.2018509] yes=15,no=16,missing=15
				15:leaf=0.0135906106
				16:leaf=-0.00575732207
			10:[jetPtRatio<0.892204046] yes=17,no=18,missing=17
				17:leaf=-0.0159255434
				18:leaf=0.013128208
	2:[dz<-3.66229725] yes=5,no=6,missing=5
		5:leaf=-0.0572495349
		6:leaf=-0.00470187794
booster[76]:
0:[jetBTag<0.0142393904] yes=1,no=2,missing=1
	1:[pt<17.8345814] yes=3,no=4,missing=3
		3:leaf=-0.0275150724
		4:[jetPtRatio<0.927973866] yes=7,no=8,missing=7
			7:[dz<-5.17770672] yes=13,no=14,missing=13
				13:leaf=0.0160871781
				14:leaf=-0.0212925971
			8:leaf=0.0622679964
	2:[miniRelIsoCharged<0.134112656] yes=5,no=6,missing=5
		5:[jetPtRatio<0.78151536] yes=9,no=10,missing=9
			9:[miniRelIsoNeutral<0.153875917] yes=15,no=16,missing=15
				15:leaf=0.00894973334
				16:leaf=-0.0170089658
			10:[jetPtRatio<0.892204046] yes=17,no=18,missing=17
				17:leaf=-0.0185828339
				18:leaf=0.00307374308
		6:[sip3d<3.6953783] yes=11,no=12,missing=11
			11:[jetBTag<0.0572761372] yes=19,no=20,missing=19
				19:leaf=-0.00465265615
				20:leaf=-0.0273538884
			12:leaf=-0.0638173893
booster[77]:
0:[dxy<-7.0640192] yes=1,no=2,missing=1
	1:[jetBTag<0.017326355] yes=3,no=4,missing=3
		3:[jetPtRatio<0.930935025] yes=7,no=8,missing=7
			7:[miniRelIsoNeutral<0.0125888251] yes=15,no=16,missing=15
				15:leaf=0.0237055086
				16:leaf=0.00682617212
			8:leaf=0.0589353628
		4:[jetPtRatio<0.328173012] yes=9,no=10,missing=9
			9:leaf=0.0410544313
			10:[pt<27.3806591] yes=17,no=18,missing=17
				17:leaf=0.00516891293
				18:leaf=-0.0115074087
	2:[jetBTag<0.711864591] yes=5,no=6,missing=5
		5:[jetPtRatio<0.527476788] yes=11,no=12,missing=11
			11:[jetPtRelv2<3.1938138] yes=19,no=20,missing=19
				19:leaf=-0.0363709517
				20:leaf=-0.00491777994
			12:[jetPtRatio<0.779656768] yes=21,no=22,missing=21
				21:leaf=0.00885958038
				22:leaf=-0.0106418869
		6:[jetPtRatio<0.449295968] yes=13,no=14,missing=13
			13:leaf=0.0260134321
			14:[sip3d<3.18661499] yes=23,no=24,missing=23
				23:leaf=-0.0446257293
				24:leaf=-0.0805058405
booster[78]:
0:[jetNDauChargedMVASel<1.5] yes=1,no=2,missing=1
	1:[jetBTag<0.00771780498] yes=3,no=4,missing=3
		3:[pt<53.5316315] yes=7,no=8,missing=7
			7:leaf=0.0336551704
			8:leaf=0.0692333654
		4:[jetBTag<0.623975515] yes=9,no=10,missing=9
			9:[jetPtRatio<0.489825189] yes=15,no=16,missing=15
				15:leaf=-0.023622511
				16:leaf=0.00808968768
			10:leaf=-0.0527778529
	2:[sip3d<4.43980885] yes=5,no=6,missing=5
		5:[jetBTag<0.987842143] yes=11,no=12,missing=11
			11:[jetPtRatio<0.776451588] yes=17,no=18,missing=17
				17:leaf=-0.000213859865
				18:leaf=-0.019990433
			12:leaf=0.0588743798
		6:[jetBTag<0.637256324] yes=13,no=14,missing=13
			13:[miniRelIsoNeutral<0.0229993127] yes=19,no=20,missing=19
				19:leaf=-0.00633684779
				20:leaf=-0.0447954163
			14:leaf=-0.0758304298
booster[79]:
0:[miniRelIsoNeutral<5.13135965e-05] yes=1,no=2,missing=1
	1:[pt<15.5904808] yes=3,no=4,missing=3
		3:[pfRelIso03_all<0.380096465] yes=7,no=8,missing=7
			7:[jetPtRatio<0.775568962] yes=15,no=16,missing=15
				15:leaf=0.00656866888
				16:leaf=-0.0188256856
			8:leaf=-0.0392094329
		4:[miniRelIsoCharged<0.121853665] yes=9,no=10,missing=9
			9:[jetPtRelv2<19.0401268] yes=17,no=18,missing=17
				17:leaf=0.0149202719
				18:leaf=0.0549972951
			10:[jetBTag<0.0573323444] yes=19,no=20,missing=19
				19:leaf=0.00447691465
				20:leaf=-0.0276855137
	2:[pt<67.7433319] yes=5,no=6,missing=5
		5:[jetPtRelv2<5.35737705] yes=11,no=12,missing=11
			11:[pt<27.7047634] yes=21,no=22,missing=21
				21:leaf=0.00110228045
				22:leaf=-0.023905037
			12:[pfRelIso03_all<0.572420359] yes=23,no=24,missing=23
				23:leaf=0.00582243269
				24:leaf=0.054543443
		6:[pfRelIso03_all<0.20005241] yes=13,no=14,missing=13
			13:[jetPtRatio<0.801141143] yes=25,no=26,missing=25
				25:leaf=-0.0734408647
				26:leaf=-0.0395574123
			14:[pt<84.4709015] yes=27,no=28,missing=27
				27:leaf=0.00625313027
				28:leaf=-0.0273255315
booster[80]:
0:[dz<-6.27632332] yes=1,no=2,missing=1
	1:[jetBTag<0.940129936] yes=3,no=4,missing=3
		3:[jetBTag<0.026865568] yes=7,no=8,missing=7
			7:[jetPtRatio<0.932279944] yes=13,no=14,missing=13
				13:leaf=0.0108939437
				14:leaf=0.0419577174
			8:[miniRelIsoNeutral<0.16519776] yes=15,no=16,missing=15
				15:leaf=0.000291287026
				16:leaf=-0.0293174274
		4:leaf=0.0511485711
	2:[jetNDauChargedMVASel<1.5] yes=5,no=6,missing=5
		5:[pt<10.7273064] yes=9,no=10,missing=9
			9:leaf=-0.0289929658
			10:[miniRelIsoCharged<0.0127138365] yes=17,no=18,missing=17
				17:leaf=0.0103919329
				18:leaf=-0.0100111868
		6:[sip3d<5.30216312] yes=11,no=12,missing=11
			11:[miniRelIsoNeutral<0.182432353] yes=19,no=20,missing=19
				19:leaf=-0.00692399591
				20:leaf=-0.0310029387
			12:leaf=-0.0426618047
booster[81]:
0:[eta<2.29351759] yes=1,no=2,missing=1
	1:[miniRelIsoCharged<0.25228256] yes=3,no=4,missing=3
		3:[jetPtRatio<0.170793027] yes=5,no=6,missing=5
			5:leaf=0.0544261523
			6:[miniRelIsoNeutral<0.0753210187] yes=9,no=10,missing=9
				9:leaf=0.00437400211
				10:leaf=-0.00803498831
		4:[jetPtRelv2<2.20368838] yes=7,no=8,missing=7
			7:leaf=-0.0475267656
			8:[pfRelIso03_all<0.443970293] yes=11,no=12,missing=11
				11:leaf=-0.0329236202
				12:leaf=-0.00716020633
	2:leaf=-0.0492049754
booster[82]:
0:[dxy<-4.69806099] yes=1,no=2,missing=1
	1:[eta<-2.30164671] yes=3,no=4,missing=3
		3:leaf=-0.0491325632
		4:[jetPtRelv2<1.99391305] yes=5,no=6,missing=5
			5:[jetNDauChargedMVASel<2.5] yes=7,no=8,missing=7
				7:leaf=-0.00223616674
				8:leaf=-0.0302167293
			6:[jetPtRatio<0.780334234] yes=9,no=10,missing=9
				9:leaf=0.00818360038
				10:leaf=-0.00468028523
	2:leaf=-0.047435943
booster[83]:
0:[dxy<-7.26102161] yes=1,no=2,missing=1
	1:[sip3d<0.167052418] yes=3,no=4,missing=3
		3:[pt<27.7178192] yes=7,no=8,missing=7
			7:leaf=0.000264843256
			8:leaf=-0.0486194529
		4:[dz<-5.50556803] yes=9,no=10,missing=9
			9:[jetBTag<0.85549891] yes=15,no=16,missing=15
				15:leaf=0.0112303076
				16:leaf=0.0535845757
			10:[pt<12.6004486] yes=17,no=18,missing=17
				17:leaf=-0.0262058228
				18:leaf=-0.0016964695
	2:[jetNDauChargedMVASel<1.5] yes=5,no=6,missing=5
		5:[miniRelIsoCharged<0.0118924575] yes=11,no=12,missing=11
			11:[pt<10.7695637] yes=19,no=20,missing=19
				19:leaf=-0.0243378934
				20:leaf=0.00975292735
			12:[pt<30.6592789] yes=21,no=22,missing=21
				21:leaf=-0.00623665284
				22:leaf=-0.0358079635
		6:[dxy<-5.25709248] yes=13,no=14,missing=13
			13:[jetPtRatio<0.802234173] yes=23,no=24,missing=23
				23:leaf=-0.00474792207
				24:leaf=-0.0242439304
			14:[pfRelIso03_all<0.155070484] yes=25,no=26,missing=25
				25:leaf=-0.0214762129
				26:leaf=-0.0534532182
booster[84]:
0:[miniRelIsoCharged<0.265490592] yes=1,no=2,missing=1
	1:[jetNDauChargedMVASel<5.5] yes=3,no=4,missing=3
		3:[jetBTag<0.716254592] yes=7,no=8,missing=7
			7:[jetNDauChargedMVASel<2.5] yes=11,no=12,missing=11
				11:leaf=0.00471414952
				12:leaf=-0.00937411841
			8:[jetPtRatio<0.481511116] yes=13,no=14,missing=13
				13:leaf=0.0345319919
				14:leaf=-0.0561243854
		4:[jetBTag<0.713959754] yes=9,no=10,missing=9
			9:[miniRelIsoNeutral<0.101014383] yes=15,no=16,missing=15
				15:leaf=0.0226793084
				16:leaf=-0.0197012052
			10:leaf=0.0632525161
	2:[sip3d<1.31723285] yes=5,no=6,missing=5
		5:leaf=-0.0199008603
		6:leaf=-0.0442804806
booster[85]:
0:[jetBTag<0.00986083876] yes=1,no=2,missing=1
	1:[jetNDauChargedMVASel<1.5] yes=3,no=4,missing=3
		3:[pt<40.4745865] yes=7,no=8,missing=7
			7:leaf=0.0105513185
			8:leaf=0.0495840907
		4:[jetNDauChargedMVASel<4.5] yes=9,no=10,missing=9
			9:[miniRelIsoNeutral<0.00371614844] yes=15,no=16,missing=15
				15:leaf=0.0145109659
				16:leaf=-0.00890792161
			10:leaf=0.0312574171
	2:[pt<40.9794884] yes=5,no=6,missing=5
		5:[pfRelIso03_all<0.297454178] yes=11,no=12,missing=11
			11:[jetPtRatio<0.787914515] yes=17,no=18,missing=17
				17:leaf=0.0106946463
				18:leaf=-0.00702836318
			12:[jetPtRelv2<3.83909297] yes=19,no=20,missing=19
				19:leaf=-0.023714954
				20:leaf=0.00346358237
		6:[jetPtRelv2<7.7937665] yes=13,no=14,missing=13
			13:[jetNDauChargedMVASel<4.5] yes=21,no=22,missing=21
				21:leaf=-0.0390186049
				22:leaf=0.0130832419
			14:[pt<74.4511261] yes=23,no=24,missing=23
				23:leaf=0.0218790993
				24:leaf=-0.0122152371
booster[86]:
0:[eta<2.29351759] yes=1,no=2,missing=1
	1:[miniRelIsoNeutral<5.13135965e-05] yes=3,no=4,missing=3
		3:[pt<23.3052979] yes=5,no=6,missing=5
			5:[pfRelIso03_all<0.239732757] yes=9,no=10,missing=9
				9:leaf=0.0029186653
				10:leaf=-0.0181927271
			6:[miniRelIsoCharged<0.0642188787] yes=11,no=12,missing=11
				11:leaf=0.0258262586
				12:leaf=-0.00271805213
		4:[pt<63.8424835] yes=7,no=8,missing=7
			7:[jetPtRelv2<4.4224596] yes=13,no=14,missing=13
				13:leaf=-0.00672256574
				14:leaf=0.00812332705
			8:[pfRelIso03_all<0.257997394] yes=15,no=16,missing=15
				15:leaf=-0.0442194901
				16:leaf=-0.00274668937
	2:leaf=-0.0447459705
booster[87]:
0:[dxy<-4.68757582] yes=1,no=2,missing=1
	1:[eta<-2.30164671] yes=3,no=4,missing=3
		3:leaf=-0.0449485891
		4:[jetPtRelv2<25.4091053] yes=5,no=6,missing=5
			5:[jetPtRatio<0.170793027] yes=7,no=8,missing=7
				7:leaf=0.045473855
				8:leaf=-2.29160323e-05
			6:leaf=0.0443981104
	2:leaf=-0.0440696329
booster[88]:
0:[dz<-6.66905212] yes=1,no=2,missing=1
	1:[eta<1.26401222] yes=3,no=4,missing=3
		3:[eta<-1.35538781] yes=7,no=8,missing=7
			7:[sip3d<0.338166773] yes=15,no=16,missing=15
				15:leaf=-0.0356035568
				16:leaf=-0.00345789129
			8:[dxy<-6.61366367] yes=17,no=18,missing=17
				17:leaf=0.0188651066
				18:leaf=8.56935294e-05
		4:[pt<29.1028023] yes=9,no=10,missing=9
			9:[jetPtRatio<0.652632952] yes=19,no=20,missing=19
				19:leaf=-0.010236877
				20:leaf=0.0112650301
			10:leaf=-0.0345197693
	2:[jetNDauChargedMVASel<1.5] yes=5,no=6,missing=5
		5:[jetPtRatio<0.489829242] yes=11,no=12,missing=11
			11:leaf=-0.0230987109
			12:[jetPtRatio<0.781165659] yes=21,no=22,missing=21
				21:leaf=0.0135162575
				22:leaf=-0.00268330541
		6:[sip3d<5.11987114] yes=13,no=14,missing=13
			13:[jetPtRatio<0.781783104] yes=23,no=24,missing=23
				23:leaf=-0.00348003837
				24:leaf=-0.0188315641
			14:[jetBTag<0.331839442] yes=25,no=26,missing=25
				25:leaf=-0.0166546386
				26:leaf=-0.0563013367
booster[89]:
0:[jetBTag<0.0142393904] yes=1,no=2,missing=1
	1:[pt<17.8345814] yes=3,no=4,missing=3
		3:leaf=-0.0250870287
		4:[jetPtRatio<0.928604245] yes=7,no=8,missing=7
			7:[jetPtRatio<0.780101776] yes=13,no=14,missing=13
				13:leaf=0.0165288989
				14:leaf=-0.00101126393
			8:leaf=0.053009361
	2:[miniRelIsoCharged<0.180143327] yes=5,no=6,missing=5
		5:[jetPtRatio<0.241421491] yes=9,no=10,missing=9
			9:leaf=0.0326600261
			10:[miniRelIsoNeutral<0.197182447] yes=15,no=16,missing=15
				15:leaf=-4.19349781e-05
				16:leaf=-0.0201486722
		6:[sip3d<1.75068963] yes=11,no=12,missing=11
			11:[pt<20.3628769] yes=17,no=18,missing=17
				17:leaf=0.00593424495
				18:leaf=-0.0236125123
			12:leaf=-0.0384208784
booster[90]:
0:[jetPtRelv2<2.00065827] yes=1,no=2,missing=1
	1:[jetBTag<0.46202302] yes=3,no=4,missing=3
		3:[jetPtRatio<0.488312185] yes=7,no=8,missing=7
			7:[jetBTag<0.0252715126] yes=13,no=14,missing=13
				13:leaf=-0.0135421026
				14:leaf=-0.0495206267
			8:[pfRelIso03_all<0.0761321411] yes=15,no=16,missing=15
				15:leaf=-0.0117099611
				16:leaf=0.00421649171
		4:leaf=-0.0589840114
	2:[jetPtRatio<0.776429236] yes=5,no=6,missing=5
		5:[jetPtRatio<0.687324643] yes=9,no=10,missing=9
			9:[miniRelIsoNeutral<0.200708851] yes=17,no=18,missing=17
				17:leaf=0.00422208011
				18:leaf=-0.0229014084
			10:[pt<36.0986633] yes=19,no=20,missing=19
				19:leaf=0.0296812356
				20:leaf=-0.00810728315
		6:[jetNDauChargedMVASel<1.5] yes=11,no=12,missing=11
			11:[jetBTag<0.00834921747] yes=21,no=22,missing=21
				21:leaf=0.0474188291
				22:leaf=-0.00155579171
			12:[miniRelIsoNeutral<0.0282235015] yes=23,no=24,missing=23
				23:leaf=-0.0120227635
				24:leaf=-0.0332984142
booster[91]:
0:[eta<2.29351759] yes=1,no=2,missing=1
	1:[miniRelIsoNeutral<5.13135965e-05] yes=3,no=4,missing=3
		3:[pt<20.5370045] yes=5,no=6,missing=5
			5:[jetPtRelv2<7.26084518] yes=9,no=10,missing=9
				9:leaf=-0.000487219164
				10:leaf=-0.0377641283
			6:[miniRelIsoCharged<0.0673569292] yes=11,no=12,missing=11
				11:leaf=0.0210427828
				12:leaf=-0.00192152138
		4:[pt<55.586792] yes=7,no=8,missing=7
			7:[jetPtRelv2<5.35737705] yes=13,no=14,missing=13
				13:leaf=-0.0044980864
				14:leaf=0.0111052096
			8:[pfRelIso03_all<0.260127008] yes=15,no=16,missing=15
				15:leaf=-0.0359858721
				16:leaf=0.00382956467
	2:leaf=-0.0403053872
booster[92]:
0:[dxy<-7.26102161] yes=1,no=2,missing=1
	1:[sip3d<0.300130874] yes=3,no=4,missing=3
		3:[pfRelIso03_all<0.0888952315] yes=7,no=8,missing=7
			7:[pt<27.7033691] yes=15,no=16,missing=15
				15:leaf=-0.00882075168
				16:leaf=-0.0629366562
			8:[jetNDauChargedMVASel<3.5] yes=17,no=18,missing=17
				17:leaf=-0.00313066016
				18:leaf=0.0242005568
		4:[dz<-6.32354164] yes=9,no=10,missing=9
			9:[pfRelIso03_all<0.0455470271] yes=19,no=20,missing=19
				19:leaf=0.0339658409
				20:leaf=0.0156864282
			10:[jetNDauChargedMVASel<1.5] yes=21,no=22,missing=21
				21:leaf=0.00960056484
				22:leaf=-0.00308103231
	2:[jetBTag<0.703676343] yes=5,no=6,missing=5
		5:[jetPtRatio<0.527476788] yes=11,no=12,missing=11
			11:[jetPtRelv2<2.95830393] yes=23,no=24,missing=23
				23:leaf=-0.0290033668
				24:leaf=-0.0055318377
			12:[jetPtRatio<0.787753344] yes=25,no=26,missing=25
				25:leaf=0.00729849888
				26:leaf=-0.00835986994
		6:[jetPtRatio<0.481058002] yes=13,no=14,missing=13
			13:leaf=0.0221629124
			14:[pt<36.4074898] yes=27,no=28,missing=27
				27:leaf=-0.0699467361
				28:leaf=-0.0353355519
booster[93]:
0:[eta<-2.30164671] yes=1,no=2,missing=1
	1:leaf=-0.0409683324
	2:[miniRelIsoCharged<0.267942369] yes=3,no=4,missing=3
		3:[pt<10.7073774] yes=5,no=6,missing=5
			5:[jetPtRatio<0.780283034] yes=9,no=10,missing=9
				9:leaf=-0.0133666219
				10:leaf=-0.0416387878
			6:[miniRelIsoNeutral<0.0360695645] yes=11,no=12,missing=11
				11:leaf=0.00607927749
				12:leaf=-0.00420259498
		4:[pfRelIso03_all<0.466556728] yes=7,no=8,missing=7
			7:leaf=-0.0351632498
			8:leaf=-0.0121699609
booster[94]:
0:[dxy<-4.66773129] yes=1,no=2,missing=1
	1:[jetPtRatio<0.166016608] yes=3,no=4,missing=3
		3:leaf=0.0408450402
		4:[jetPtRelv2<24.9508228] yes=5,no=6,missing=5
			5:[jetNDauChargedMVASel<1.5] yes=7,no=8,missing=7
				7:leaf=0.00466776406
				8:leaf=-0.00409298809
			6:leaf=0.0381512158
	2:leaf=-0.0404178351
booster[95]:
0:[jetBTag<0.00835166126] yes=1,no=2,missing=1
	1:[jetNDauChargedMVASel<1.5] yes=3,no=4,missing=3
		3:[pt<50.8011169] yes=7,no=8,missing=7
			7:leaf=0.0195277557
			8:leaf=0.0552610867
		4:[dz<-6.38476849] yes=9,no=10,missing=9
			9:[miniRelIsoNeutral<0.0444860533] yes=15,no=16,missing=15
				15:leaf=0.0220537763
				16:leaf=0.00308420998
			10:[pfRelIso03_all<0.204042554] yes=17,no=18,missing=17
				17:leaf=-0.0153296115
				18:leaf=0.00748425862
	2:[pt<41.7724915] yes=5,no=6,missing=5
		5:[jetPtRatio<0.612878203] yes=11,no=12,missing=11
			11:[jetPtRelv2<4.3831296] yes=19,no=20,missing=19
				19:leaf=-0.0170175098
				20:leaf=0.013122472
			12:[jetBTag<0.744653285] yes=21,no=22,missing=21
				21:leaf=0.00696779927
				22:leaf=-0.0785498768
		6:[pfRelIso03_all<0.487309039] yes=13,no=14,missing=13
			13:[miniRelIsoNeutral<0.0303246249] yes=23,no=24,missing=23
				23:leaf=0.00151948712
				24:leaf=-0.0360629559
			14:leaf=0.0446122214
booster[96]:
0:[eta<2.30235934] yes=1,no=2,missing=1
	1:[sip3d<5.97943735] yes=3,no=4,missing=3
		3:[eta<-2.29734635] yes=5,no=6,missing=5
			5:leaf=-0.0380192474
			6:[jetPtRelv2<21.0830841] yes=9,no=10,missing=9
				9:leaf=0.00104219955
				10:leaf=0.033134684
		4:[dz<-3.64831066] yes=7,no=8,missing=7
			7:leaf=-0.0486460403
			8:leaf=0.00510408031
	2:leaf=-0.0386026949
booster[97]:
0:[dz<-6.66905212] yes=1,no=2,missing=1
	1:[sip3d<0.138274819] yes=3,no=4,missing=3
		3:leaf=-0.0249443334
		4:[jetPtRatio<0.330879629] yes=7,no=8,missing=7
			7:leaf=0.0326508395
			8:[jetBTag<0.0215160958] yes=13,no=14,missing=13
				13:leaf=0.0138440793
				14:leaf=0.00092676963
	2:[jetPtRatio<0.658903718] yes=5,no=6,missing=5
		5:[jetPtRelv2<5.04712963] yes=9,no=10,missing=9
			9:[jetBTag<0.242186368] yes=15,no=16,missing=15
				15:leaf=-0.00926060136
				16:leaf=-0.0386213176
			10:[pt<76.3379974] yes=17,no=18,missing=17
				17:leaf=0.0124190133
				18:leaf=-0.0333724059
		6:[jetBTag<0.785479188] yes=11,no=12,missing=11
			11:[jetPtRatio<0.775269151] yes=19,no=20,missing=19
				19:leaf=0.0147048682
				20:leaf=-0.00613008998
			12:leaf=-0.062931858
booster[98]:
0:[miniRelIsoCharged<0.282530308] yes=1,no=2,missing=1
	1:[jetNDauChargedMVASel<5.5] yes=3,no=4,missing=3
		3:[jetBTag<0.761047006] yes=7,no=8,missing=7
			7:[jetNDauChargedMVASel<2.5] yes=11,no=12,missing=11
				11:leaf=0.0035292164
				12:leaf=-0.00800487306
			8:[jetPtRatio<0.477152705] yes=13,no=14,missing=13
				13:leaf=0.033298362
				14:leaf=-0.0484319255
		4:[jetBTag<0.713959754] yes=9,no=10,missing=9
			9:[jetPtRatio<0.478999943] yes=15,no=16,missing=15
				15:leaf=-0.0109997904
				16:leaf=0.027300626
			10:leaf=0.0540224873
	2:[jetBTag<0.0299391467] yes=5,no=6,missing=5
		5:leaf=-0.0162950065
		6:leaf=-0.0356668904
booster[99]:
0:[jetPtRelv2<1.72747135] yes=1,no=2,missing=1
	1:[jetPtRatio<0.68781507] yes=3,no=4,missing=3
		3:[jetBTag<0.128653675] yes=7,no=8,missing=7
			7:[jetNDauChargedMVASel<2.5] yes=15,no=16,missing=15
				15:leaf=-0.00413740939
				16:leaf=-0.0279805046
			8:leaf=-0.0495462678
		4:[jetPtRatio<0.774986625] yes=9,no=10,missing=9
			9:[pfRelIso03_all<0.0761167705] yes=17,no=18,missing=17
				17:leaf=-0.00322972983
				18:leaf=0.0206044596
			10:[jetPtRatio<0.870065331] yes=19,no=20,missing=19
				19:leaf=-0.0167345833
				20:leaf=0.0100671789
	2:[jetPtRatio<0.77160114] yes=5,no=6,missing=5
		5:[jetPtRatio<0.699125946] yes=11,no=12,missing=11
			11:[miniRelIsoNeutral<0.197973445] yes=21,no=22,missing=21
				21:leaf=0.00374880107
				22:leaf=-0.0187480338
			12:[pt<34.8272018] yes=23,no=24,missing=23
				23:leaf=0.0270182434
				24:leaf=-0.00438951841
		6:[jetPtRatio<0.902679861] yes=13,no=14,missing=13
			13:[sip3d<3.68689227] yes=25,no=26,missing=25
				25:leaf=-0.0136814294
				26:leaf=0.0157536454
			14:[pt<32.0187073] yes=27,no=28,missing=27
				27:leaf=-0.00866928604
				28:leaf=0.033476878
booster[100]:
0:[dxy<-7.26102161] yes=1,no=2,missing=1
	1:[sip3d<0.329418421] yes=3,no=4,missing=3
