booster[0]:
0:[jetPtRatio<0.804416776] yes=1,no=2,missing=1
	1:[jetPtRelv2<8.11141205] yes=3,no=4,missing=3
		3:[pfRelIso03_all<0.128759533] yes=7,no=8,missing=7
			7:[jetBTag<0.300441802] yes=15,no=16,missing=15
				15:leaf=0.0170468986
				16:leaf=-0.151458085
			8:[jetBTag<0.18767558] yes=17,no=18,missing=17
				17:leaf=-0.14351131
				18:leaf=-0.190686867
		4:[mvaFall17V2noIso<0.997423768] yes=9,no=10,missing=9
			9:[mvaFall17V2noIso<0.85904026] yes=19,no=20,missing=19
				19:leaf=-0.1776568
				20:leaf=-0.0554935709
			10:[miniRelIsoCharged<0.0586330295] yes=21,no=22,missing=21
				21:leaf=0.167453378
				22:leaf=-0.0280523989
	2:[mvaFall17V2noIso<0.944165707] yes=5,no=6,missing=5
		5:[pfRelIso03_all<0.0428792238] yes=11,no=12,missing=11
			11:[mvaFall17V2noIso<-0.932844281] yes=23,no=24,missing=23
				23:leaf=-0.122311197
				24:leaf=0.0826849863
			12:[pt<38.4594879] yes=25,no=26,missing=25
				25:leaf=-0.0672917888
				26:leaf=-0.172196209
		6:[jetBTag<0.522288442] yes=13,no=14,missing=13
			13:[pfRelIso03_all<0.090278402] yes=27,no=28,missing=27
				27:leaf=0.190909088
				28:leaf=0.0907210782
			14:[jetBTag<0.646319032] yes=29,no=30,missing=29
				29:leaf=-0.0475197099
				30:leaf=-0.163860604
booster[1]:
0:[jetPtRatio<0.8110286] yes=1,no=2,missing=1
	1:[jetPtRelv2<7.58836746] yes=3,no=4,missing=3
		3:[pfRelIso03_all<0.14887023] yes=7,no=8,missing=7
			7:[jetBTag<0.439813733] yes=15,no=16,missing=15
				15:leaf=-0.00519152964
				16:leaf=-0.160056874
			8:[jetBTag<0.232267201] yes=17,no=18,missing=17
				17:leaf=-0.13703534
				18:leaf=-0.175461143
		4:[mvaFall17V2noIso<0.998171806] yes=9,no=10,missing=9
			9:[mvaFall17V2noIso<0.911745429] yes=19,no=20,missing=19
				19:leaf=-0.160137951
				20:leaf=-0.0494512543
			10:[miniRelIsoCharged<0.0699774623] yes=21,no=22,missing=21
				21:leaf=0.146836385
				22:leaf=-0.0454616658
	2:[jetBTag<0.194211885] yes=5,no=6,missing=5
		5:[mvaFall17V2noIso<0.632356644] yes=11,no=12,missing=11
			11:[pfRelIso03_all<0.02876487] yes=23,no=24,missing=23
				23:leaf=0.0488260649
				24:leaf=-0.12582384
			12:[miniRelIsoCharged<0.0528215133] yes=25,no=26,missing=25
				25:leaf=0.174761981
				26:leaf=0.0580142923
		6:[pfRelIso03_all<0.0558251888] yes=13,no=14,missing=13
			13:[jetBTag<0.611375213] yes=27,no=28,missing=27
				27:leaf=0.0913572684
				28:leaf=-0.12482474
			14:[jetBTag<0.531695485] yes=29,no=30,missing=29
				29:leaf=-0.0631815866
				30:leaf=-0.162984818
booster[2]:
0:[jetPtRatio<0.796273112] yes=1,no=2,missing=1
	1:[jetPtRelv2<8.71831036] yes=3,no=4,missing=3
		3:[pfRelIso03_all<0.112152621] yes=7,no=8,missing=7
			7:[jetBTag<0.4806481] yes=15,no=16,missing=15
				15:leaf=0.00508715957
				16:leaf=-0.149001122
			8:[jetBTag<0.187242985] yes=17,no=18,missing=17
				17:leaf=-0.115860954
				18:leaf=-0.159648672
		4:[mvaFall17V2noIso<0.992708802] yes=9,no=10,missing=9
			9:[mvaFall17V2noIso<0.568653107] yes=19,no=20,missing=19
				19:leaf=-0.152919218
				20:leaf=-0.0642773733
			10:[miniRelIsoCharged<0.0493309796] yes=21,no=22,missing=21
				21:leaf=0.144922182
				22:leaf=-0.00981234293
	2:[jetBTag<0.20857358] yes=5,no=6,missing=5
		5:[mvaFall17V2noIso<0.913388193] yes=11,no=12,missing=11
			11:[pfRelIso03_all<0.0481187738] yes=23,no=24,missing=23
				23:leaf=0.0529426448
				24:leaf=-0.111200429
			12:[pfRelIso03_all<0.0817079246] yes=25,no=26,missing=25
				25:leaf=0.163409635
				26:leaf=0.0968381315
		6:[pfRelIso03_all<0.0633201078] yes=13,no=14,missing=13
			13:[jetBTag<0.576866865] yes=27,no=28,missing=27
				27:leaf=0.0771712884
				28:leaf=-0.10741359
			14:[pt<25.3608513] yes=29,no=30,missing=29
				29:leaf=-0.0563732386
				30:leaf=-0.14292863
booster[3]:
0:[pfRelIso03_all<0.0867525637] yes=1,no=2,missing=1
	1:[jetBTag<0.208562553] yes=3,no=4,missing=3
		3:[mvaFall17V2noIso<0.605336308] yes=7,no=8,missing=7
			7:[mvaFall17V2noIso<-0.933913827] yes=15,no=16,missing=15
				15:leaf=-0.152048677
				16:leaf=-0.0189458281
			8:[mvaFall17V2noIso<0.99925983] yes=17,no=18,missing=17
				17:leaf=0.0999737903
				18:leaf=0.153842673
		4:[jetBTag<0.564883113] yes=9,no=10,missing=9
			9:[mvaFall17V2noIso<0.790253282] yes=19,no=20,missing=19
				19:leaf=-0.0998680219
				20:leaf=0.0464940891
			10:[jetPtRelv2<11.7112732] yes=21,no=22,missing=21
				21:leaf=-0.137489602
				22:leaf=0.0675590783
	2:[jetPtRelv2<6.55935955] yes=5,no=6,missing=5
		5:[jetPtRatio<0.749134243] yes=11,no=12,missing=11
			11:[sip3d<1.73580205] yes=23,no=24,missing=23
				23:leaf=-0.12142197
				24:leaf=-0.152840301
			12:[jetBTag<0.1901346] yes=25,no=26,missing=25
				25:leaf=0.0176271182
				26:leaf=-0.121268891
		6:[mvaFall17V2noIso<0.999494433] yes=13,no=14,missing=13
			13:[mvaFall17V2noIso<0.940870941] yes=27,no=28,missing=27
				27:leaf=-0.144805104
				28:leaf=-0.0654234216
			14:[sip3d<2.87541628] yes=29,no=30,missing=29
				29:leaf=0.109295264
				30:leaf=-0.0711055845
booster[4]:
0:[jetPtRatio<0.814575672] yes=1,no=2,missing=1
	1:[jetPtRelv2<6.8903904] yes=3,no=4,missing=3
		3:[jetPtRatio<0.72072804] yes=7,no=8,missing=7
			7:[sip3d<1.88084531] yes=15,no=16,missing=15
				15:leaf=-0.108633779
				16:leaf=-0.144199118
			8:[jetBTag<0.462237358] yes=17,no=18,missing=17
				17:leaf=-0.0026146872
				18:leaf=-0.134091482
		4:[mvaFall17V2noIso<0.999386072] yes=9,no=10,missing=9
			9:[miniRelIsoCharged<0.0193122029] yes=19,no=20,missing=19
				19:leaf=-0.0301475525
				20:leaf=-0.130921319
			10:[miniRelIsoCharged<0.0755707473] yes=21,no=22,missing=21
				21:leaf=0.118139699
				22:leaf=-0.0482458137
	2:[mvaFall17V2noIso<0.979332566] yes=5,no=6,missing=5
		5:[jetNDauChargedMVASel<1.5] yes=11,no=12,missing=11
			11:[mvaFall17V2noIso<-0.755238831] yes=23,no=24,missing=23
				23:leaf=-0.0894970596
				24:leaf=0.0600815527
			12:[miniRelIsoCharged<0.014960737] yes=25,no=26,missing=25
				25:leaf=-0.0783365816
				26:leaf=-0.147995099
		6:[jetBTag<0.504894793] yes=13,no=14,missing=13
			13:[jetBTag<0.151790738] yes=27,no=28,missing=27
				27:leaf=0.143587679
				28:leaf=0.0775249898
			14:[sip3d<2.31080198] yes=29,no=30,missing=29
				29:leaf=-0.0107773347
				30:leaf=-0.123533808
booster[5]:
0:[pfRelIso03_all<0.0954952687] yes=1,no=2,missing=1
	1:[jetBTag<0.189541996] yes=3,no=4,missing=3
		3:[mvaFall17V2noIso<0.828267515] yes=7,no=8,missing=7
			7:[jetPtRatio<0.875248432] yes=15,no=16,missing=15
				15:leaf=-0.096650444
				16:leaf=0.0336241014
			8:[mvaFall17V2noIso<0.999613166] yes=17,no=18,missing=17
				17:leaf=0.0945407972
				18:leaf=0.138937116
		4:[sip3d<2.7163341] yes=9,no=10,missing=9
			9:[mvaFall17V2noIso<0.791179895] yes=19,no=20,missing=19
				19:leaf=-0.0841403529
				20:leaf=0.0461639203
			10:[jetBTag<0.406203836] yes=21,no=22,missing=21
				21:leaf=-0.0353358947
				22:leaf=-0.125114664
	2:[jetPtRelv2<6.25120592] yes=5,no=6,missing=5
		5:[jetPtRatio<0.739801526] yes=11,no=12,missing=11
			11:[jetBTag<0.380186707] yes=23,no=24,missing=23
				23:leaf=-0.110509634
				24:leaf=-0.140249148
			12:[jetBTag<0.170624256] yes=25,no=26,missing=25
				25:leaf=0.00230633491
				26:leaf=-0.110084333
		6:[mvaFall17V2noIso<0.999743104] yes=13,no=14,missing=13
			13:[mvaFall17V2noIso<0.980291247] yes=27,no=28,missing=27
				27:leaf=-0.126328573
				28:leaf=-0.0472006053
			14:[sip3d<2.58971167] yes=29,no=30,missing=29
				29:leaf=0.0962320715
				30:leaf=-0.0609564967
booster[6]:
0:[pfRelIso03_all<0.0769378543] yes=1,no=2,missing=1
	1:[jetBTag<0.216363341] yes=3,no=4,missing=3
		3:[mvaFall17V2noIso<0.376926363] yes=7,no=8,missing=7
			7:[mvaFall17V2noIso<-0.981015027] yes=15,no=16,missing=15
				15:leaf=-0.141450986
				16:leaf=-0.0235029869
			8:[mvaFall17V2noIso<0.998947859] yes=17,no=18,missing=17
				17:leaf=0.0802132785
				18:leaf=0.132398292
		4:[jetBTag<0.621029615] yes=9,no=10,missing=9
			9:[dz<-4.21203136] yes=19,no=20,missing=19
				19:leaf=0.0566408001
				20:leaf=-0.0537056737
			10:[jetPtRelv2<13.1189308] yes=21,no=22,missing=21
				21:leaf=-0.123567156
				22:leaf=0.0748150572
	2:[jetBTag<0.164996251] yes=5,no=6,missing=5
		5:[mvaFall17V2noIso<0.999503016] yes=11,no=12,missing=11
			11:[mvaFall17V2noIso<0.845497251] yes=23,no=24,missing=23
				23:leaf=-0.131402001
				24:leaf=-0.0648299307
			12:[miniRelIsoCharged<0.0885372162] yes=25,no=26,missing=25
				25:leaf=0.0888973549
				26:leaf=-0.06622684
		6:[jetPtRelv2<11.4922142] yes=13,no=14,missing=13
			13:[jetBTag<0.480895698] yes=27,no=28,missing=27
				27:leaf=-0.104274154
				28:leaf=-0.133727774
			14:[mvaFall17V2noIso<0.997874141] yes=29,no=30,missing=29
				29:leaf=-0.109284639
				30:leaf=0.0820107162
booster[7]:
0:[jetPtRatio<0.820567489] yes=1,no=2,missing=1
	1:[miniRelIsoCharged<0.0351902992] yes=3,no=4,missing=3
		3:[mvaFall17V2noIso<0.999893546] yes=7,no=8,missing=7
			7:[sip3d<2.05773354] yes=15,no=16,missing=15
				15:leaf=-0.0321108215
				16:leaf=-0.109095231
			8:[jetBTag<0.236988187] yes=17,no=18,missing=17
				17:leaf=0.105164647
				18:leaf=-0.0342097767
		4:[jetBTag<0.214154333] yes=9,no=10,missing=9
			9:[mvaFall17V2noIso<0.999837279] yes=19,no=20,missing=19
				19:leaf=-0.115856446
				20:leaf=-0.0337952487
			10:[sip3d<2.04777479] yes=21,no=22,missing=21
				21:leaf=-0.115895607
				22:leaf=-0.13184993
	2:[mvaFall17V2noIso<0.98999083] yes=5,no=6,missing=5
		5:[jetNDauChargedMVASel<1.5] yes=11,no=12,missing=11
			11:[mvaFall17V2noIso<-0.92908597] yes=23,no=24,missing=23
				23:leaf=-0.0928584933
				24:leaf=0.0558407307
			12:[miniRelIsoCharged<0.0149685442] yes=25,no=26,missing=25
				25:leaf=-0.0559919849
				26:leaf=-0.12818256
		6:[jetBTag<0.522288442] yes=13,no=14,missing=13
			13:[jetBTag<0.116659783] yes=27,no=28,missing=27
				27:leaf=0.12771903
				28:leaf=0.0809507966
			14:[jetBTag<0.671266198] yes=29,no=30,missing=29
				29:leaf=-0.00408874592
				30:leaf=-0.101730086
booster[8]:
0:[pfRelIso03_all<0.0733889788] yes=1,no=2,missing=1
	1:[jetBTag<0.164910734] yes=3,no=4,missing=3
		3:[mvaFall17V2noIso<0.378760576] yes=7,no=8,missing=7
			7:[jetPtRatio<0.909829617] yes=15,no=16,missing=15
				15:leaf=-0.0863287374
				16:leaf=0.0326863602
			8:[mvaFall17V2noIso<0.997578621] yes=17,no=18,missing=17
				17:leaf=0.0713798404
				18:leaf=0.123417832
		4:[jetBTag<0.628563404] yes=9,no=10,missing=9
			9:[dz<-4.04995537] yes=19,no=20,missing=19
				19:leaf=0.0544390567
				20:leaf=-0.0452314615
			10:[jetPtRelv2<10.1200657] yes=21,no=22,missing=21
				21:leaf=-0.117094718
				22:leaf=0.0569215901
	2:[jetBTag<0.166354805] yes=5,no=6,missing=5
		5:[mvaFall17V2noIso<0.998297215] yes=11,no=12,missing=11
			11:[mvaFall17V2noIso<0.398698449] yes=23,no=24,missing=23
				23:leaf=-0.12529543
				24:leaf=-0.0688611642
			12:[miniRelIsoCharged<0.0953733698] yes=25,no=26,missing=25
				25:leaf=0.0686654449
				26:leaf=-0.0680182502
		6:[jetPtRelv2<10.6177769] yes=13,no=14,missing=13
			13:[jetBTag<0.460065424] yes=27,no=28,missing=27
				27:leaf=-0.092135489
				28:leaf=-0.123920493
			14:[mvaFall17V2noIso<0.999742508] yes=29,no=30,missing=29
				29:leaf=-0.0859926045
				30:leaf=0.0815003291
booster[9]:
0:[jetPtRatio<0.831501126] yes=1,no=2,missing=1
	1:[jetPtRelv2<5.49283218] yes=3,no=4,missing=3
		3:[jetPtRatio<0.707698166] yes=7,no=8,missing=7
			7:[jetNDauChargedMVASel<1.5] yes=15,no=16,missing=15
				15:leaf=-0.0763029084
				16:leaf=-0.115016714
			8:[sip3d<2.13387871] yes=17,no=18,missing=17
				17:leaf=0.0109557481
				18:leaf=-0.0912095904
		4:[mvaFall17V2noIso<0.991805017] yes=9,no=10,missing=9
			9:[mvaFall17V2noIso<0.527757645] yes=19,no=20,missing=19
				19:leaf=-0.115017764
				20:leaf=-0.0530446284
			10:[miniRelIsoCharged<0.0445788763] yes=21,no=22,missing=21
				21:leaf=0.0888751373
				22:leaf=-0.0362555198
	2:[mvaFall17V2noIso<0.993275404] yes=5,no=6,missing=5
		5:[pfRelIso03_all<0.0299091432] yes=11,no=12,missing=11
			11:[dz<-4.13164806] yes=23,no=24,missing=23
				23:leaf=0.0882056579
				24:leaf=0.00401726412
			12:[pt<43.725174] yes=25,no=26,missing=25
				25:leaf=-0.000922207895
				26:leaf=-0.0983924568
		6:[jetBTag<0.162665084] yes=13,no=14,missing=13
			13:[miniRelIsoCharged<0.0386572927] yes=27,no=28,missing=27
				27:leaf=0.12038251
				28:leaf=0.062459439
			14:[jetBTag<0.64963901] yes=29,no=30,missing=29
				29:leaf=0.0624278076
				30:leaf=-0.0836726129
booster[10]:
0:[pfRelIso03_all<0.106035769] yes=1,no=2,missing=1
	1:[jetBTag<0.162740931] yes=3,no=4,missing=3
		3:[mvaFall17V2noIso<0.973070621] yes=7,no=8,missing=7
			7:[mvaFall17V2noIso<-0.610228002] yes=15,no=16,missing=15
				15:leaf=-0.0904233456
				16:leaf=0.0275073741
			8:[mvaFall17V2noIso<0.999924898] yes=17,no=18,missing=17
				17:leaf=0.0861176178
				18:leaf=0.117841147
		4:[sip3d<2.88671327] yes=9,no=10,missing=9
			9:[mvaFall17V2noIso<0.538543582] yes=19,no=20,missing=19
				19:leaf=-0.0760245547
				20:leaf=0.0390613936
			10:[jetBTag<0.334486514] yes=21,no=22,missing=21
				21:leaf=-0.0203836914
				22:leaf=-0.101936795
	2:[jetPtRelv2<6.05010223] yes=5,no=6,missing=5
		5:[jetBTag<0.301055074] yes=11,no=12,missing=11
			11:[pfRelIso03_all<0.211765766] yes=23,no=24,missing=23
				23:leaf=-0.0139801847
				24:leaf=-0.0908798426
			12:[jetBTag<0.500794172] yes=25,no=26,missing=25
				25:leaf=-0.0999604985
				26:leaf=-0.120107472
		6:[mvaFall17V2noIso<0.999892831] yes=13,no=14,missing=13
			13:[miniRelIsoCharged<0.0155472681] yes=27,no=28,missing=27
				27:leaf=-0.0132443896
				28:leaf=-0.0964101106
			14:[sip3d<2.970294] yes=29,no=30,missing=29
				29:leaf=0.0795268789
				30:leaf=-0.0708995387
booster[11]:
0:[jetPtRatio<0.834227562] yes=1,no=2,missing=1
	1:[miniRelIsoCharged<0.0410646684] yes=3,no=4,missing=3
		3:[sip3d<2.41055727] yes=7,no=8,missing=7
			7:[mvaFall17V2noIso<0.979191244] yes=15,no=16,missing=15
				15:leaf=-0.0672929212
				16:leaf=0.0543713532
			8:[jetPtRelv2<11.8371267] yes=17,no=18,missing=17
				17:leaf=-0.0948384032
				18:leaf=0.0537709706
		4:[sip3d<1.90253067] yes=9,no=10,missing=9
			9:[jetPtRelv2<5.11868477] yes=19,no=20,missing=19
				19:leaf=-0.0914884582
				20:leaf=-0.0238598026
			10:[jetBTag<0.287695587] yes=21,no=22,missing=21
				21:leaf=-0.102983676
				22:leaf=-0.118580475
	2:[mvaFall17V2noIso<0.996462464] yes=5,no=6,missing=5
		5:[jetNDauChargedMVASel<1.5] yes=11,no=12,missing=11
			11:[sip3d<2.46824694] yes=23,no=24,missing=23
				23:leaf=0.0709248707
				24:leaf=-0.0132518997
			12:[miniRelIsoCharged<0.00976779498] yes=25,no=26,missing=25
				25:leaf=-0.0275585949
				26:leaf=-0.107359074
		6:[jetBTag<0.132860914] yes=13,no=14,missing=13
			13:[pfRelIso03_all<0.0468829572] yes=27,no=28,missing=27
				27:leaf=0.117030494
				28:leaf=0.0908859223
			14:[pfRelIso03_all<0.0458574854] yes=29,no=30,missing=29
				29:leaf=0.08023002
				30:leaf=-0.00541447848
booster[12]:
0:[pfRelIso03_all<0.069605194] yes=1,no=2,missing=1
	1:[jetBTag<0.164910734] yes=3,no=4,missing=3
		3:[mvaFall17V2noIso<0.949450254] yes=7,no=8,missing=7
			7:[mvaFall17V2noIso<-0.912221432] yes=15,no=16,missing=15
				15:leaf=-0.0901388675
				16:leaf=0.0281408224
			8:[mvaFall17V2noIso<0.999828458] yes=17,no=18,missing=17
				17:leaf=0.079884015
				18:leaf=0.11294198
		4:[jetBTag<0.633419514] yes=9,no=10,missing=9
			9:[mvaFall17V2noIso<0.101886526] yes=19,no=20,missing=19
				19:leaf=-0.0765908882
				20:leaf=0.0389449932
			10:[jetPtRelv2<10.1200657] yes=21,no=22,missing=21
				21:leaf=-0.105946101
				22:leaf=0.0509413742
	2:[jetBTag<0.214197427] yes=5,no=6,missing=5
		5:[mvaFall17V2noIso<0.997564912] yes=11,no=12,missing=11
			11:[mvaFall17V2noIso<0.0625267997] yes=23,no=24,missing=23
				23:leaf=-0.112887017
				24:leaf=-0.056644883
			12:[miniRelIsoCharged<0.10912659] yes=25,no=26,missing=25
				25:leaf=0.052299615
				26:leaf=-0.0604788959
		6:[jetPtRelv2<10.2112875] yes=13,no=14,missing=13
			13:[jetBTag<0.498347491] yes=27,no=28,missing=27
				27:leaf=-0.0794798061
				28:leaf=-0.112419955
			14:[mvaFall17V2noIso<0.984043479] yes=29,no=30,missing=29
				29:leaf=-0.0959474742
				30:leaf=0.0486476123
booster[13]:
0:[jetPtRatio<0.841240346] yes=1,no=2,missing=1
	1:[miniRelIsoCharged<0.0518055595] yes=3,no=4,missing=3
		3:[sip3d<2.44846797] yes=7,no=8,missing=7
			7:[mvaFall17V2noIso<0.905386567] yes=15,no=16,missing=15
				15:leaf=-0.0720550641
				16:leaf=0.0419076048
			8:[jetPtRelv2<12.1906748] yes=17,no=18,missing=17
				17:leaf=-0.0882184133
				18:leaf=0.0444970131
		4:[sip3d<1.83665276] yes=9,no=10,missing=9
			9:[mvaFall17V2noIso<0.997529864] yes=19,no=20,missing=19
				19:leaf=-0.0999462232
				20:leaf=-0.0481078438
			10:[jetBTag<0.288305104] yes=21,no=22,missing=21
				21:leaf=-0.0971485302
				22:leaf=-0.113802768
	2:[mvaFall17V2noIso<0.998520017] yes=5,no=6,missing=5
		5:[jetNDauChargedMVASel<1.5] yes=11,no=12,missing=11
			11:[dz<-4.14450884] yes=23,no=24,missing=23
				23:leaf=0.071718134
				24:leaf=-0.00331634399
			12:[miniRelIsoCharged<0.013907738] yes=25,no=26,missing=25
				25:leaf=-0.0147912046
				26:leaf=-0.097807467
		6:[jetBTag<0.117101677] yes=13,no=14,missing=13
			13:[pfRelIso03_all<0.0519524328] yes=27,no=28,missing=27
				27:leaf=0.112825528
				28:leaf=0.0884933695
			14:[sip3d<3.70645475] yes=29,no=30,missing=29
				29:leaf=0.0733517557
				30:leaf=-0.0220220499
booster[14]:
0:[jetPtRatio<0.779781222] yes=1,no=2,missing=1
	1:[jetPtRelv2<5.82430506] yes=3,no=4,missing=3
		3:[jetNDauChargedMVASel<1.5] yes=7,no=8,missing=7
			7:[jetPtRatio<0.645477295] yes=15,no=16,missing=15
				15:leaf=-0.0755878314
				16:leaf=0.0116738547
			8:[jetBTag<0.287065417] yes=17,no=18,missing=17
				17:leaf=-0.0753502101
				18:leaf=-0.108198121
		4:[mvaFall17V2noIso<0.983342707] yes=9,no=10,missing=9
			9:[mvaFall17V2noIso<-0.533524275] yes=19,no=20,missing=19
				19:leaf=-0.106455706
				20:leaf=-0.0413736664
			10:[sip3d<2.98794317] yes=21,no=22,missing=21
				21:leaf=0.0713279173
				22:leaf=-0.0507545955
	2:[pfRelIso03_all<0.0522485375] yes=5,no=6,missing=5
		5:[jetBTag<0.132860333] yes=11,no=12,missing=11
			11:[mvaFall17V2noIso<0.970178723] yes=23,no=24,missing=23
				23:leaf=0.0431683324
				24:leaf=0.108518116
			12:[jetBTag<0.643669248] yes=25,no=26,missing=25
				25:leaf=0.0547932051
				26:leaf=-0.0784365684
		6:[sip3d<2.50850868] yes=13,no=14,missing=13
			13:[mvaFall17V2noIso<0.998893857] yes=27,no=28,missing=27
				27:leaf=-0.0195445754
				28:leaf=0.0662980303
			14:[jetBTag<0.292868406] yes=29,no=30,missing=29
				29:leaf=-0.0391663425
				30:leaf=-0.101548932
booster[15]:
0:[pfRelIso03_all<0.117703423] yes=1,no=2,missing=1
	1:[jetBTag<0.149209887] yes=3,no=4,missing=3
		3:[mvaFall17V2noIso<0.993236303] yes=7,no=8,missing=7
			7:[mvaFall17V2noIso<-0.406302035] yes=15,no=16,missing=15
				15:leaf=-0.0711026415
				16:leaf=0.031660419
			8:[jetPtRatio<0.886350989] yes=17,no=18,missing=17
				17:leaf=0.076011911
				18:leaf=0.107556835
		4:[jetBTag<0.5487445] yes=9,no=10,missing=9
			9:[dz<-4.14300489] yes=19,no=20,missing=19
				19:leaf=0.038551759
				20:leaf=-0.0347914323
			10:[jetPtRelv2<14.6045704] yes=21,no=22,missing=21
				21:leaf=-0.086877875
				22:leaf=0.0673515424
	2:[jetBTag<0.268240601] yes=5,no=6,missing=5
		5:[mvaFall17V2noIso<0.986339331] yes=11,no=12,missing=11
			11:[mvaFall17V2noIso<-0.337850749] yes=23,no=24,missing=23
				23:leaf=-0.108546317
				24:leaf=-0.0650276244
			12:[jetPtRelv2<4.28647757] yes=25,no=26,missing=25
				25:leaf=-0.0360842645
				26:leaf=0.0488350876
		6:[jetPtRelv2<9.80368137] yes=13,no=14,missing=13
			13:[jetBTag<0.480895698] yes=27,no=28,missing=27
				27:leaf=-0.0793956071
				28:leaf=-0.106392644
			14:[miniRelIsoCharged<0.0165067874] yes=29,no=30,missing=29
				29:leaf=0.0665439665
				30:leaf=-0.0660083219
booster[16]:
0:[jetPtRatio<0.849151731] yes=1,no=2,missing=1
	1:[miniRelIsoCharged<0.0287421718] yes=3,no=4,missing=3
		3:[sip3d<2.72400618] yes=7,no=8,missing=7
			7:[mvaFall17V2noIso<0.737730622] yes=15,no=16,missing=15
				15:leaf=-0.0676127672
				16:leaf=0.0406935215
			8:[jetPtRelv2<11.7651482] yes=17,no=18,missing=17
				17:leaf=-0.0808345452
				18:leaf=0.0405433625
		4:[sip3d<2.01641393] yes=9,no=10,missing=9
			9:[miniRelIsoCharged<0.119180202] yes=19,no=20,missing=19
				19:leaf=-0.0248993989
				20:leaf=-0.0831231102
			10:[jetBTag<0.426516056] yes=21,no=22,missing=21
				21:leaf=-0.0891295895
				22:leaf=-0.109202079
	2:[mvaFall17V2noIso<0.99967587] yes=5,no=6,missing=5
		5:[pfRelIso03_all<0.0250619166] yes=11,no=12,missing=11
			11:[dz<-3.56732464] yes=23,no=24,missing=23
				23:leaf=0.0767095163
				24:leaf=0.0043661301
			12:[sip3d<2.15911078] yes=25,no=26,missing=25
				25:leaf=0.0201825779
				26:leaf=-0.0645942464
		6:[jetBTag<0.117101677] yes=13,no=14,missing=13
			13:[pfRelIso03_all<0.0468829572] yes=27,no=28,missing=27
				27:leaf=0.108326808
				28:leaf=0.0866943449
			14:[pfRelIso03_all<0.0364124626] yes=29,no=30,missing=29
				29:leaf=0.0816206932
				30:leaf=0.0134173771
booster[17]:
0:[pfRelIso03_all<0.0604052432] yes=1,no=2,missing=1
	1:[jetBTag<0.132857114] yes=3,no=4,missing=3
		3:[mvaFall17V2noIso<0.997236609] yes=7,no=8,missing=7
			7:[jetPtRatio<0.926849484] yes=15,no=16,missing=15
				15:leaf=-0.00214685756
				16:leaf=0.0780697986
			8:[mvaFall17V2noIso<0.999955058] yes=17,no=18,missing=17
				17:leaf=0.0813412294
				18:leaf=0.105896428
		4:[jetBTag<0.643776476] yes=9,no=10,missing=9
			9:[mvaFall17V2noIso<-0.635993838] yes=19,no=20,missing=19
				19:leaf=-0.0796313658
				20:leaf=0.0358931683
			10:[jetPtRelv2<10.1519947] yes=21,no=22,missing=21
				21:leaf=-0.0937367976
				22:leaf=0.0452371836
	2:[jetBTag<0.288249314] yes=5,no=6,missing=5
		5:[mvaFall17V2noIso<0.999937296] yes=11,no=12,missing=11
			11:[mvaFall17V2noIso<0.656983852] yes=23,no=24,missing=23
				23:leaf=-0.0919734836
				24:leaf=-0.0251240376
			12:[jetPtRelv2<4.39437389] yes=25,no=26,missing=25
				25:leaf=-0.000425136095
				26:leaf=0.0761526152
		6:[jetPtRelv2<9.76562405] yes=13,no=14,missing=13
			13:[jetBTag<0.54216814] yes=27,no=28,missing=27
				27:leaf=-0.0682149604
				28:leaf=-0.102852263
			14:[mvaFall17V2noIso<0.999983072] yes=29,no=30,missing=29
				29:leaf=-0.0500636995
				30:leaf=0.0722735152
booster[18]:
0:[jetPtRatio<0.767747045] yes=1,no=2,missing=1
	1:[jetPtRelv2<5.32142925] yes=3,no=4,missing=3
		3:[jetNDauChargedMVASel<1.5] yes=7,no=8,missing=7
			7:[sip3d<1.92478871] yes=15,no=16,missing=15
				15:leaf=0.0109891081
				16:leaf=-0.0692138299
			8:[sip3d<1.68296719] yes=17,no=18,missing=17
				17:leaf=-0.0675316602
				18:leaf=-0.10054256
		4:[sip3d<2.54140568] yes=9,no=10,missing=9
			9:[mvaFall17V2noIso<0.568653107] yes=19,no=20,missing=19
				19:leaf=-0.072028026
				20:leaf=0.0601048283
			10:[miniRelIsoCharged<0.0151072089] yes=21,no=22,missing=21
				21:leaf=-0.0047265999
				22:leaf=-0.0839030892
	2:[miniRelIsoCharged<0.0229088068] yes=5,no=6,missing=5
		5:[mvaFall17V2noIso<0.999752164] yes=11,no=12,missing=11
			11:[sip3d<2.96449804] yes=23,no=24,missing=23
				23:leaf=0.049663417
				24:leaf=-0.0267272871
			12:[jetBTag<0.107318997] yes=25,no=26,missing=25
				25:leaf=0.102898918
				26:leaf=0.0534293614
		6:[pt<53.4188385] yes=13,no=14,missing=13
			13:[sip3d<2.4056406] yes=27,no=28,missing=27
				27:leaf=0.0303940605
				28:leaf=-0.0568359084
			14:[mvaFall17V2noIso<0.999995589] yes=29,no=30,missing=29
				29:leaf=-0.120427363
				30:leaf=0.000280845765
booster[19]:
0:[jetPtRatio<0.861421108] yes=1,no=2,missing=1
	1:[miniRelIsoCharged<0.0603354424] yes=3,no=4,missing=3
		3:[sip3d<2.9080987] yes=7,no=8,missing=7
			7:[mvaFall17V2noIso<0.999796271] yes=15,no=16,missing=15
				15:leaf=-0.0175004657
				16:leaf=0.0540022813
			8:[jetPtRelv2<13.4635057] yes=17,no=18,missing=17
				17:leaf=-0.0770517513
				18:leaf=0.0325303487
		4:[jetBTag<0.233770788] yes=9,no=10,missing=9
			9:[mvaFall17V2noIso<0.996925831] yes=19,no=20,missing=19
				19:leaf=-0.0880397409
				20:leaf=-0.0249545816
			10:[sip3d<2.49603939] yes=21,no=22,missing=21
				21:leaf=-0.0845857784
				22:leaf=-0.105310999
	2:[mvaFall17V2noIso<0.999749422] yes=5,no=6,missing=5
		5:[mvaFall17V2noIso<-0.945259631] yes=11,no=12,missing=11
			11:leaf=-0.0886452347
			12:[pfRelIso03_all<0.0216978248] yes=23,no=24,missing=23
				23:leaf=0.0677008107
				24:leaf=0.00872972608
		6:[jetBTag<0.094269298] yes=13,no=14,missing=13
			13:[pfRelIso03_all<0.041988492] yes=25,no=26,missing=25
				25:leaf=0.105387472
				26:leaf=0.0867035016
			14:[sip3d<3.63530779] yes=27,no=28,missing=27
				27:leaf=0.07376232
				28:leaf=-0.00552042946
booster[20]:
0:[pfRelIso03_all<0.136688501] yes=1,no=2,missing=1
	1:[jetBTag<0.115022093] yes=3,no=4,missing=3
		3:[mvaFall17V2noIso<0.993239522] yes=7,no=8,missing=7
			7:[mvaFall17V2noIso<-0.647293806] yes=15,no=16,missing=15
				15:leaf=-0.0724003017
				16:leaf=0.023694342
			8:[jetPtRatio<0.906833053] yes=17,no=18,missing=17
				17:leaf=0.0700814351
				18:leaf=0.102465168
		4:[jetBTag<0.59113121] yes=9,no=10,missing=9
			9:[dz<-4.45989275] yes=19,no=20,missing=19
				19:leaf=0.0381922461
				20:leaf=-0.0203271117
			10:[jetPtRelv2<16.0010262] yes=21,no=22,missing=21
				21:leaf=-0.0826051384
				22:leaf=0.0627040267
	2:[sip3d<2.01274562] yes=5,no=6,missing=5
		5:[jetPtRelv2<4.62247276] yes=11,no=12,missing=11
			11:[jetNDauChargedMVASel<1.5] yes=23,no=24,missing=23
				23:leaf=0.00610632682
				24:leaf=-0.0701630712
			12:[mvaFall17V2noIso<0.939402401] yes=25,no=26,missing=25
				25:leaf=-0.0623791516
				26:leaf=0.0426455922
		6:[jetBTag<0.38820827] yes=13,no=14,missing=13
			13:[mvaFall17V2noIso<0.961421669] yes=27,no=28,missing=27
				27:leaf=-0.0931426212
				28:leaf=-0.0464220978
			14:[jetPtRelv2<13.386673] yes=29,no=30,missing=29
				29:leaf=-0.102562048
				30:leaf=-0.035650976
booster[21]:
0:[pfRelIso03_all<0.052205734] yes=1,no=2,missing=1
	1:[mvaFall17V2noIso<0.999791503] yes=3,no=4,missing=3
		3:[jetNDauChargedMVASel<1.5] yes=7,no=8,missing=7
			7:[jetBTag<0.606374979] yes=15,no=16,missing=15
				15:leaf=0.0427192785
				16:leaf=-0.0851200819
			8:[jetPtRelv2<4.09794712] yes=17,no=18,missing=17
				17:leaf=-0.0825482383
				18:leaf=-0.0114005702
		4:[jetBTag<0.26209116] yes=9,no=10,missing=9
			9:[jetBTag<0.0808858275] yes=19,no=20,missing=19
				19:leaf=0.102001429
				20:leaf=0.0748236328
			10:[jetPtRelv2<8.77425575] yes=21,no=22,missing=21
				21:leaf=-0.00353792007
				22:leaf=0.0932186395
	2:[jetBTag<0.363664955] yes=5,no=6,missing=5
		5:[mvaFall17V2noIso<0.970867157] yes=11,no=12,missing=11
			11:[mvaFall17V2noIso<-0.553965211] yes=23,no=24,missing=23
				23:leaf=-0.0974266678
				24:leaf=-0.0432982668
			12:[miniRelIsoCharged<0.119503513] yes=25,no=26,missing=25
				25:leaf=0.0283779781
				26:leaf=-0.0533416346
		6:[jetPtRelv2<9.46067238] yes=13,no=14,missing=13
			13:[jetBTag<0.551137209] yes=27,no=28,missing=27
				27:leaf=-0.0611560754
				28:leaf=-0.0966307148
			14:[dxy<-5.34017754] yes=29,no=30,missing=29
				29:leaf=0.0532847606
				30:leaf=-0.0585517846
booster[22]:
0:[jetPtRatio<0.872261465] yes=1,no=2,missing=1
	1:[miniRelIsoCharged<0.0719263107] yes=3,no=4,missing=3
		3:[miniRelIsoNeutral<0.0207442231] yes=7,no=8,missing=7
			7:[dz<-4.35281849] yes=15,no=16,missing=15
				15:leaf=0.0499155261
				16:leaf=-0.0312543251
			8:[sip3d<1.72596502] yes=17,no=18,missing=17
				17:leaf=-0.0107685672
				18:leaf=-0.0707782805
		4:[jetBTag<0.206177711] yes=9,no=10,missing=9
			9:[mvaFall17V2noIso<0.999526262] yes=19,no=20,missing=19
				19:leaf=-0.0754657462
				20:leaf=-0.0124971187
			10:[sip3d<2.68414116] yes=21,no=22,missing=21
				21:leaf=-0.079504624
				22:leaf=-0.102618389
	2:[mvaFall17V2noIso<0.99976933] yes=5,no=6,missing=5
		5:[miniRelIsoCharged<0.0189310536] yes=11,no=12,missing=11
			11:[sip3d<3.0461235] yes=23,no=24,missing=23
				23:leaf=0.0598740764
				24:leaf=-0.00227028294
			12:[pt<39.4749985] yes=25,no=26,missing=25
				25:leaf=0.010661806
				26:leaf=-0.106511913
		6:[jetBTag<0.0933846086] yes=13,no=14,missing=13
			13:[pfRelIso03_all<0.0402803943] yes=27,no=28,missing=27
				27:leaf=0.102544904
				28:leaf=0.0827627629
			14:[sip3d<3.75770998] yes=29,no=30,missing=29
				29:leaf=0.0689904988
				30:leaf=-0.00154477451
booster[23]:
0:[jetPtRatio<0.872261465] yes=1,no=2,missing=1
	1:[miniRelIsoCharged<0.0248585492] yes=3,no=4,missing=3
		3:[jetPtRelv2<4.59537125] yes=7,no=8,missing=7
			7:[jetPtRatio<0.649193525] yes=15,no=16,missing=15
				15:leaf=-0.0712611601
				16:leaf=0.0160618145
			8:[miniRelIsoNeutral<0.034800943] yes=17,no=18,missing=17
				17:leaf=0.0658951029
				18:leaf=-0.0124480557
		4:[sip3d<2.34599495] yes=9,no=10,missing=9
			9:[mvaFall17V2noIso<0.985834956] yes=19,no=20,missing=19
				19:leaf=-0.0775500238
				20:leaf=-0.0199133102
			10:[jetBTag<0.498348355] yes=21,no=22,missing=21
				21:leaf=-0.0768058077
				22:leaf=-0.101448372
	2:[mvaFall17V2noIso<0.999863744] yes=5,no=6,missing=5
		5:[mvaFall17V2noIso<-0.979684055] yes=11,no=12,missing=11
			11:leaf=-0.093447201
			12:[pfRelIso03_all<0.0217508283] yes=23,no=24,missing=23
				23:leaf=0.0612196214
				24:leaf=0.00796736591
		6:[jetBTag<0.0933846086] yes=13,no=14,missing=13
			13:[pfRelIso03_all<0.041988492] yes=25,no=26,missing=25
				25:leaf=0.101754539
				26:leaf=0.0807564855
			14:[pfRelIso03_all<0.021648597] yes=27,no=28,missing=27
				27:leaf=0.0772772357
				28:leaf=0.0270562675
booster[24]:
0:[jetPtRatio<0.878108144] yes=1,no=2,missing=1
	1:[jetBTag<0.480901361] yes=3,no=4,missing=3
		3:[mvaFall17V2noIso<0.790384531] yes=7,no=8,missing=7
			7:[mvaFall17V2noIso<-0.856400907] yes=15,no=16,missing=15
				15:leaf=-0.0974747092
				16:leaf=-0.044571314
			8:[miniRelIsoNeutral<0.0103662498] yes=17,no=18,missing=17
				17:leaf=0.0396708511
				18:leaf=-0.0194487032
		4:[jetPtRelv2<9.76564693] yes=9,no=10,missing=9
			9:[jetPtRatio<0.255973876] yes=19,no=20,missing=19
				19:leaf=0.021327775
				20:leaf=-0.0878213644
			10:[sip3d<3.47040343] yes=21,no=22,missing=21
				21:leaf=0.0562337153
				22:leaf=-0.0678346381
	2:[mvaFall17V2noIso<0.999853611] yes=5,no=6,missing=5
		5:[dz<-4.5339489] yes=11,no=12,missing=11
			11:[jetNDauChargedMVASel<1.5] yes=23,no=24,missing=23
				23:leaf=0.0645797774
				24:leaf=0.00438525295
			12:[jetNDauChargedMVASel<1.5] yes=25,no=26,missing=25
				25:leaf=0.0121615371
				26:leaf=-0.0829814225
		6:[jetBTag<0.0933846086] yes=13,no=14,missing=13
			13:[pfRelIso03_all<0.041988492] yes=27,no=28,missing=27
				27:leaf=0.100928441
				28:leaf=0.0792644694
			14:[sip3d<3.0914619] yes=29,no=30,missing=29
				29:leaf=0.06870085
				30:leaf=0.00949278846
booster[25]:
0:[pfRelIso03_all<0.174004108] yes=1,no=2,missing=1
	1:[mvaFall17V2noIso<0.999962449] yes=3,no=4,missing=3
		3:[jetNDauChargedMVASel<1.5] yes=7,no=8,missing=7
			7:[jetBTag<0.643636286] yes=15,no=16,missing=15
				15:leaf=0.0360320583
				16:leaf=-0.0887026414
			8:[dz<-4.56318474] yes=17,no=18,missing=17
				17:leaf=-0.0174894389
				18:leaf=-0.074888207
		4:[jetBTag<0.109746277] yes=9,no=10,missing=9
			9:[miniRelIsoNeutral<0.0207846649] yes=19,no=20,missing=19
				19:leaf=0.0954284295
				20:leaf=0.0560323894
			10:[jetPtRelv2<11.2842207] yes=21,no=22,missing=21
				21:leaf=0.00443427218
				22:leaf=0.0907077789
	2:[jetPtRelv2<5.03962326] yes=5,no=6,missing=5
		5:[jetBTag<0.418354779] yes=11,no=12,missing=11
			11:[jetNDauChargedMVASel<1.5] yes=23,no=24,missing=23
				23:leaf=-0.00424246071
				24:leaf=-0.0633308366
			12:[sip3d<1.5914228] yes=25,no=26,missing=25
				25:leaf=-0.0840514973
				26:leaf=-0.100247435
		6:[dxy<-5.35469151] yes=13,no=14,missing=13
			13:[miniRelIsoNeutral<0.0425747931] yes=27,no=28,missing=27
				27:leaf=0.0612397976
				28:leaf=-0.0134231895
			14:[sip3d<3.76734877] yes=29,no=30,missing=29
				29:leaf=-0.0234398432
				30:leaf=-0.0830282569
booster[26]:
0:[miniRelIsoCharged<0.0227272343] yes=1,no=2,missing=1
	1:[jetBTag<0.107337639] yes=3,no=4,missing=3
		3:[mvaFall17V2noIso<0.183042839] yes=7,no=8,missing=7
			7:[mvaFall17V2noIso<-0.969074845] yes=15,no=16,missing=15
				15:leaf=-0.0909224674
				16:leaf=-0.0187223647
			8:[mvaFall17V2noIso<0.999973893] yes=17,no=18,missing=17
				17:leaf=0.0485934056
				18:leaf=0.0924008563
		4:[sip3d<3.44516611] yes=9,no=10,missing=9
			9:[miniRelIsoNeutral<0.0106949881] yes=19,no=20,missing=19
				19:leaf=0.0339436606
				20:leaf=-0.0231398512
			10:[jetBTag<0.401273549] yes=21,no=22,missing=21
				21:leaf=-0.0330558047
				22:leaf=-0.087188907
	2:[sip3d<2.3957479] yes=5,no=6,missing=5
		5:[miniRelIsoCharged<0.145901948] yes=11,no=12,missing=11
			11:[miniRelIsoNeutral<0.0245873481] yes=23,no=24,missing=23
				23:leaf=0.0226833392
				24:leaf=-0.0471745543
			12:[jetBTag<0.160582602] yes=25,no=26,missing=25
				25:leaf=-0.0504624024
				26:leaf=-0.0844841674
		6:[jetBTag<0.392380923] yes=13,no=14,missing=13
			13:[miniRelIsoNeutral<0.00305644795] yes=27,no=28,missing=27
				27:leaf=-0.0433213003
				28:leaf=-0.0836866871
			14:[sip3d<3.59290504] yes=29,no=30,missing=29
				29:leaf=-0.0875253603
				30:leaf=-0.101207733
booster[27]:
0:[jetPtRatio<0.89327544] yes=1,no=2,missing=1
	1:[miniRelIsoCharged<0.0952269137] yes=3,no=4,missing=3
		3:[sip3d<3.17979407] yes=7,no=8,missing=7
			7:[mvaFall17V2noIso<-0.404289484] yes=15,no=16,missing=15
				15:leaf=-0.0751793236
				16:leaf=0.0210953988
			8:[jetBTag<0.426743329] yes=17,no=18,missing=17
				17:leaf=-0.0390094742
				18:leaf=-0.086733453
		4:[jetBTag<0.168695986] yes=9,no=10,missing=9
			9:[mvaFall17V2noIso<0.999394715] yes=19,no=20,missing=19
				19:leaf=-0.0689486787
				20:leaf=-0.00595476618
			10:[sip3d<2.68468761] yes=21,no=22,missing=21
				21:leaf=-0.0731731579
				22:leaf=-0.0982315466
	2:[mvaFall17V2noIso<0.999827862] yes=5,no=6,missing=5
		5:[mvaFall17V2noIso<-0.0727661848] yes=11,no=12,missing=11
			11:leaf=-0.0373428427
			12:[pt<12.7640352] yes=23,no=24,missing=23
				23:leaf=-0.0452741347
				24:leaf=0.0526589565
		6:[jetBTag<0.0800731629] yes=13,no=14,missing=13
			13:[pfRelIso03_all<0.0300262086] yes=25,no=26,missing=25
				25:leaf=0.100055218
				26:leaf=0.0820253938
			14:[pfRelIso03_all<0.0210329294] yes=27,no=28,missing=27
				27:leaf=0.0738148168
				28:leaf=0.0310237892
booster[28]:
0:[jetPtRelv2<4.75715065] yes=1,no=2,missing=1
	1:[jetPtRatio<0.67839241] yes=3,no=4,missing=3
		3:[sip3d<1.44537652] yes=7,no=8,missing=7
			7:[jetNDauChargedMVASel<1.5] yes=15,no=16,missing=15
				15:leaf=-0.00660056481
				16:leaf=-0.0586795211
			8:[jetBTag<0.55112505] yes=17,no=18,missing=17
				17:leaf=-0.0723647699
				18:leaf=-0.0999724716
		4:[jetNDauChargedMVASel<1.5] yes=9,no=10,missing=9
			9:[sip3d<2.46909523] yes=19,no=20,missing=19
				19:leaf=0.0505966134
				20:leaf=-0.0150844026
			10:[pt<32.5345268] yes=21,no=22,missing=21
				21:leaf=0.0024741122
				22:leaf=-0.0658884123
	2:[mvaFall17V2noIso<0.997915268] yes=5,no=6,missing=5
		5:[mvaFall17V2noIso<-0.55486089] yes=11,no=12,missing=11
			11:[mvaFall17V2noIso<-0.990809381] yes=23,no=24,missing=23
				23:leaf=-0.099735789
				24:leaf=-0.0555161014
			12:[miniRelIsoCharged<0.0149381347] yes=25,no=26,missing=25
				25:leaf=0.0269232132
				26:leaf=-0.0397982746
		6:[miniRelIsoNeutral<0.0124932434] yes=13,no=14,missing=13
			13:[jetBTag<0.0987939239] yes=27,no=28,missing=27
				27:leaf=0.0916749164
				28:leaf=0.0494963415
			14:[jetBTag<0.0790971369] yes=29,no=30,missing=29
				29:leaf=0.0486501753
				30:leaf=-0.018606199
booster[29]:
0:[jetPtRelv2<8.20871544] yes=1,no=2,missing=1
	1:[jetNDauChargedMVASel<1.5] yes=3,no=4,missing=3
		3:[jetBTag<0.605444551] yes=7,no=8,missing=7
			7:[mvaFall17V2noIso<-0.653016925] yes=15,no=16,missing=15
				15:leaf=-0.0649448633
				16:leaf=0.0359545499
			8:[jetBTag<0.751315951] yes=17,no=18,missing=17
				17:leaf=-0.0501685627
				18:leaf=-0.100090101
		4:[jetBTag<0.321500659] yes=9,no=10,missing=9
			9:[mvaFall17V2noIso<0.999906063] yes=19,no=20,missing=19
				19:leaf=-0.047851
				20:leaf=0.00715197623
			10:[jetPtRelv2<4.17329597] yes=21,no=22,missing=21
				21:leaf=-0.0891310573
				22:leaf=-0.0510869585
	2:[mvaFall17V2noIso<0.747083902] yes=5,no=6,missing=5
		5:[mvaFall17V2noIso<-0.984839797] yes=11,no=12,missing=11
			11:leaf=-0.0942421854
			12:[dz<-4.85356045] yes=23,no=24,missing=23
				23:leaf=0.0253184047
				24:leaf=-0.0512077399
		6:[miniRelIsoCharged<0.0159780253] yes=13,no=14,missing=13
			13:[jetPtRelv2<14.7877083] yes=25,no=26,missing=25
				25:leaf=0.0621676259
				26:leaf=0.0968462303
			14:[pt<63.8909607] yes=27,no=28,missing=27
				27:leaf=0.0458876677
				28:leaf=-0.0416035764
booster[30]:
0:[pfRelIso03_all<0.0344761983] yes=1,no=2,missing=1
	1:[jetBTag<0.100703105] yes=3,no=4,missing=3
		3:[mvaFall17V2noIso<0.997236609] yes=7,no=8,missing=7
			7:[jetPtRatio<0.924923062] yes=15,no=16,missing=15
				15:leaf=-0.00120953971
				16:leaf=0.0637681931
			8:[jetPtRatio<0.910404325] yes=17,no=18,missing=17
				17:leaf=0.0699113011
				18:leaf=0.0960643962
		4:[pt<13.1537991] yes=9,no=10,missing=9
			9:[sip3d<1.66645741] yes=19,no=20,missing=19
				19:leaf=-0.00633326406
				20:leaf=-0.0658009499
			10:[jetBTag<0.734655678] yes=21,no=22,missing=21
				21:leaf=0.0344621986
				22:leaf=-0.0533840172
	2:[sip3d<1.93571055] yes=5,no=6,missing=5
		5:[mvaFall17V2noIso<-0.510218799] yes=11,no=12,missing=11
			11:[mvaFall17V2noIso<-0.953445613] yes=23,no=24,missing=23
				23:leaf=-0.0926266238
				24:leaf=-0.0516196303
			12:[miniRelIsoCharged<0.145902514] yes=25,no=26,missing=25
				25:leaf=0.0221376009
				26:leaf=-0.046774175
		6:[jetBTag<0.507181346] yes=13,no=14,missing=13
			13:[mvaFall17V2noIso<0.736257911] yes=27,no=28,missing=27
				27:leaf=-0.0776936039
				28:leaf=-0.024288753
			14:[jetPtRelv2<13.9952393] yes=29,no=30,missing=29
				29:leaf=-0.0911958516
				30:leaf=-0.00452798698
booster[31]:
0:[jetPtRelv2<4.43776608] yes=1,no=2,missing=1
	1:[jetPtRatio<0.670487642] yes=3,no=4,missing=3
		3:[jetBTag<0.499573439] yes=7,no=8,missing=7
			7:[jetNDauChargedMVASel<1.5] yes=15,no=16,missing=15
				15:leaf=-0.0250383746
				16:leaf=-0.064332217
			8:[jetPtRelv2<3.43484831] yes=17,no=18,missing=17
				17:leaf=-0.0968064815
				18:leaf=-0.0758008063
		4:[jetBTag<0.592941344] yes=9,no=10,missing=9
			9:[pt<31.4077606] yes=19,no=20,missing=19
				19:leaf=0.0328128934
				20:leaf=-0.0198466834
			10:[jetBTag<0.705503881] yes=21,no=22,missing=21
				21:leaf=-0.0488493256
				22:leaf=-0.0972344279
	2:[mvaFall17V2noIso<0.999985814] yes=5,no=6,missing=5
		5:[miniRelIsoCharged<0.0149033871] yes=11,no=12,missing=11
			11:[mvaFall17V2noIso<-0.135481581] yes=23,no=24,missing=23
				23:leaf=-0.041663941
				24:leaf=0.0358620547
			12:[pt<37.3641815] yes=25,no=26,missing=25
				25:leaf=0.0194541663
				26:leaf=-0.0694461688
		6:[miniRelIsoNeutral<0.0268649347] yes=13,no=14,missing=13
			13:[jetBTag<0.109510824] yes=27,no=28,missing=27
				27:leaf=0.0930668265
				28:leaf=0.0501693375
			14:[dxy<-5.32394743] yes=29,no=30,missing=29
				29:leaf=0.0329862945
				30:leaf=-0.049177099
booster[32]:
0:[jetPtRelv2<8.9192791] yes=1,no=2,missing=1
	1:[jetNDauChargedMVASel<1.5] yes=3,no=4,missing=3
		3:[dz<-4.02058983] yes=7,no=8,missing=7
			7:[jetBTag<0.665306091] yes=15,no=16,missing=15
				15:leaf=0.0367955007
				16:leaf=-0.079477489
			8:[jetPtRatio<0.671584785] yes=17,no=18,missing=17
				17:leaf=-0.0680916607
				18:leaf=-0.0171985105
		4:[sip3d<2.65597606] yes=9,no=10,missing=9
			9:[jetPtRelv2<3.61525822] yes=19,no=20,missing=19
				19:leaf=-0.0462883338
				20:leaf=0.000360924081
			10:[sip3d<3.95010257] yes=21,no=22,missing=21
				21:leaf=-0.0649198294
				22:leaf=-0.0927023068
	2:[mvaFall17V2noIso<0.99996233] yes=5,no=6,missing=5
		5:[mvaFall17V2noIso<-0.278714925] yes=11,no=12,missing=11
			11:[mvaFall17V2noIso<-0.994649231] yes=23,no=24,missing=23
				23:leaf=-0.0936646834
				24:leaf=-0.033132568
			12:[miniRelIsoCharged<0.0160380937] yes=25,no=26,missing=25
				25:leaf=0.0480728112
				26:leaf=-0.0171285961
		6:[miniRelIsoNeutral<0.0562393107] yes=13,no=14,missing=13
			13:[sip3d<4.14514446] yes=27,no=28,missing=27
				27:leaf=0.0911193267
				28:leaf=0.0293835904
			14:leaf=0.00379541563
booster[33]:
0:[miniRelIsoNeutral<0.00948483124] yes=1,no=2,missing=1
	1:[mvaFall17V2noIso<0.99996829] yes=3,no=4,missing=3
		3:[miniRelIsoCharged<0.136416972] yes=7,no=8,missing=7
			7:[jetBTag<0.662285328] yes=15,no=16,missing=15
				15:leaf=0.0204062667
				16:leaf=-0.0624621212
			8:[dz<-4.85474396] yes=17,no=18,missing=17
				17:leaf=-0.037053179
				18:leaf=-0.080845885
		4:[jetBTag<0.11710088] yes=9,no=10,missing=9
			9:[mvaFall17V2noIso<0.999997854] yes=19,no=20,missing=19
				19:leaf=0.0685204342
				20:leaf=0.0935008228
			10:[miniRelIsoCharged<0.118895963] yes=21,no=22,missing=21
				21:leaf=0.0394410901
				22:leaf=-0.0558541007
	2:[jetBTag<0.134502798] yes=5,no=6,missing=5
		5:[mvaFall17V2noIso<0.337044269] yes=11,no=12,missing=11
			11:[mvaFall17V2noIso<-0.90380609] yes=23,no=24,missing=23
				23:leaf=-0.0882007331
				24:leaf=-0.0442033559
			12:[miniRelIsoCharged<0.0140240546] yes=25,no=26,missing=25
				25:leaf=0.0253096074
				26:leaf=-0.0227953866
		6:[sip3d<3.17944336] yes=13,no=14,missing=13
			13:[jetPtRatio<0.291446865] yes=27,no=28,missing=27
				27:leaf=0.0655286461
				28:leaf=-0.0443509743
			14:[jetBTag<0.426743329] yes=29,no=30,missing=29
				29:leaf=-0.0710935742
				30:leaf=-0.0957474038
booster[34]:
0:[jetPtRatio<0.91470778] yes=1,no=2,missing=1
	1:[dxy<-5.32562828] yes=3,no=4,missing=3
		3:[mvaFall17V2noIso<0.999983788] yes=7,no=8,missing=7
			7:[pt<35.0341568] yes=15,no=16,missing=15
				15:leaf=0.0101434384
				16:leaf=-0.0407068953
			8:[miniRelIsoNeutral<0.0345024616] yes=17,no=18,missing=17
				17:leaf=0.0601524599
				18:leaf=0.00367655093
		4:[jetBTag<0.618053615] yes=9,no=10,missing=9
			9:[mvaFall17V2noIso<-0.856400907] yes=19,no=20,missing=19
				19:leaf=-0.0856836289
				20:leaf=-0.0186696611
			10:[jetPtRatio<0.33554095] yes=21,no=22,missing=21
				21:leaf=-0.0125664761
				22:leaf=-0.0886526555
	2:[jetBTag<0.0851548463] yes=5,no=6,missing=5
		5:[mvaFall17V2noIso<0.994917929] yes=11,no=12,missing=11
			11:[dz<-4.73811817] yes=23,no=24,missing=23
				23:leaf=0.0671115592
				24:leaf=0.0001538387
			12:[pfRelIso03_all<0.0273622349] yes=25,no=26,missing=25
				25:leaf=0.0949971005
				26:leaf=0.0676838458
		6:[pt<12.8845406] yes=13,no=14,missing=13
			13:leaf=-0.0447856523
			14:[pt<40.21315] yes=27,no=28,missing=27
				27:leaf=0.0473416634
				28:leaf=-0.0344705358
booster[35]:
0:[miniRelIsoCharged<0.0196197964] yes=1,no=2,missing=1
	1:[jetPtRelv2<10.7426891] yes=3,no=4,missing=3
		3:[jetBTag<0.653275192] yes=7,no=8,missing=7
			7:[jetPtRatio<0.633671403] yes=15,no=16,missing=15
				15:leaf=-0.0235930663
				16:leaf=0.0265167058
			8:[jetPtRatio<0.395272762] yes=17,no=18,missing=17
				17:leaf=0.00927194301
				18:leaf=-0.0825967342
		4:[mvaFall17V2noIso<0.968336344] yes=9,no=10,missing=9
			9:[dz<-4.76672077] yes=19,no=20,missing=19
				19:leaf=0.0509428494
				20:leaf=-0.0309741441
			10:[mvaFall17V2noIso<0.999990821] yes=21,no=22,missing=21
				21:leaf=0.0626863167
				22:leaf=0.0934159085
	2:[dz<-4.57704258] yes=5,no=6,missing=5
		5:[miniRelIsoNeutral<0.000200517476] yes=11,no=12,missing=11
			11:[miniRelIsoCharged<0.208770156] yes=23,no=24,missing=23
				23:leaf=0.030745104
				24:leaf=-0.0516104214
			12:[jetBTag<0.150326774] yes=25,no=26,missing=25
				25:leaf=-0.0186071377
				26:leaf=-0.0567645431
		6:[jetBTag<0.537294805] yes=13,no=14,missing=13
			13:[mvaFall17V2noIso<-0.336627305] yes=27,no=28,missing=27
				27:leaf=-0.0892055258
				28:leaf=-0.0464219525
			14:[jetPtRelv2<4.81217384] yes=29,no=30,missing=29
				29:leaf=-0.0965659395
				30:leaf=-0.0763871446
booster[36]:
0:[miniRelIsoNeutral<0.0071054413] yes=1,no=2,missing=1
	1:[mvaFall17V2noIso<0.999956727] yes=3,no=4,missing=3
		3:[miniRelIsoCharged<0.136416972] yes=7,no=8,missing=7
			7:[dz<-3.93174958] yes=15,no=16,missing=15
				15:leaf=0.0225894228
				16:leaf=-0.0321185961
			8:[dz<-4.85474396] yes=17,no=18,missing=17
				17:leaf=-0.0315236412
				18:leaf=-0.0757022128
		4:[jetBTag<0.11710088] yes=9,no=10,missing=9
			9:[jetPtRelv2<10.5204525] yes=19,no=20,missing=19
				19:leaf=0.065559417
				20:leaf=0.0944953337
			10:[miniRelIsoCharged<0.140847743] yes=21,no=22,missing=21
				21:leaf=0.0317474529
				22:leaf=-0.0587237664
	2:[sip3d<2.87478471] yes=5,no=6,missing=5
		5:[jetNDauChargedMVASel<1.5] yes=11,no=12,missing=11
			11:[mvaFall17V2noIso<-0.856400907] yes=23,no=24,missing=23
				23:leaf=-0.0739098862
				24:leaf=0.0198834091
			12:[jetPtRelv2<4.04066181] yes=25,no=26,missing=25
				25:leaf=-0.054706078
				26:leaf=-0.00401749182
		6:[jetNDauChargedMVASel<0.5] yes=13,no=14,missing=13
			13:leaf=-0.00104158162
			14:[sip3d<4.35413742] yes=27,no=28,missing=27
				27:leaf=-0.0567089319
				28:leaf=-0.089257136
booster[37]:
0:[jetPtRelv2<4.17322826] yes=1,no=2,missing=1
	1:[jetPtRatio<0.649191082] yes=3,no=4,missing=3
		3:[jetBTag<0.480995506] yes=7,no=8,missing=7
			7:[jetPtRatio<0.570631921] yes=15,no=16,missing=15
				15:leaf=-0.0623324029
				16:leaf=-0.0273312461
			8:[jetPtRelv2<3.12662911] yes=17,no=18,missing=17
				17:leaf=-0.0934785455
				18:leaf=-0.0727712959
		4:[jetBTag<0.592987418] yes=9,no=10,missing=9
			9:[pt<31.4017029] yes=19,no=20,missing=19
				19:leaf=0.0264913496
				20:leaf=-0.0216011312
			10:[jetBTag<0.713296771] yes=21,no=22,missing=21
				21:leaf=-0.0435055532
				22:leaf=-0.0927716568
	2:[mvaFall17V2noIso<0.992062032] yes=5,no=6,missing=5
		5:[pt<32.4490356] yes=11,no=12,missing=11
			11:[dz<-3.92740464] yes=23,no=24,missing=23
				23:leaf=0.0390055031
				24:leaf=-0.0233049951
			12:[jetPtRelv2<10.5376682] yes=25,no=26,missing=25
				25:leaf=-0.067512013
				26:leaf=-0.0107066128
		6:[jetBTag<0.0622622892] yes=13,no=14,missing=13
			13:[pfRelIso03_all<0.0255047102] yes=27,no=28,missing=27
				27:leaf=0.0914211795
				28:leaf=0.051297415
			14:[miniRelIsoNeutral<0.000187825062] yes=29,no=30,missing=29
				29:leaf=0.0397010036
				30:leaf=-0.00792110525
booster[38]:
0:[dxy<-5.48381233] yes=1,no=2,missing=1
	1:[jetPtRelv2<9.2676754] yes=3,no=4,missing=3
		3:[jetNDauChargedMVASel<1.5] yes=7,no=8,missing=7
			7:[mvaFall17V2noIso<-0.406341255] yes=15,no=16,missing=15
				15:leaf=-0.036018189
				16:leaf=0.0403261222
			8:[pt<45.0573349] yes=17,no=18,missing=17
				17:leaf=0.00183717348
				18:leaf=-0.0483404845
		4:[mvaFall17V2noIso<0.999988914] yes=9,no=10,missing=9
			9:[miniRelIsoCharged<0.0149202859] yes=19,no=20,missing=19
				19:leaf=0.058128871
				20:leaf=-0.00277434685
			10:[jetPtRelv2<13.6931658] yes=21,no=22,missing=21
				21:leaf=0.0716449246
				22:leaf=0.096868135
	2:[jetNDauChargedMVASel<1.5] yes=5,no=6,missing=5
		5:[mvaFall17V2noIso<-0.943630338] yes=11,no=12,missing=11
			11:[mvaFall17V2noIso<-0.99622345] yes=23,no=24,missing=23
				23:leaf=-0.0987434909
				24:leaf=-0.0509883724
			12:[jetBTag<0.706580877] yes=25,no=26,missing=25
				25:leaf=0.0130025437
				26:leaf=-0.0845046416
		6:[sip3d<3.66858268] yes=13,no=14,missing=13
			13:[jetPtRelv2<3.32635546] yes=27,no=28,missing=27
				27:leaf=-0.0575094186
				28:leaf=-0.0149465743
			14:[jetPtRelv2<12.6859837] yes=29,no=30,missing=29
				29:leaf=-0.0851677656
				30:leaf=-0.0281150192
booster[39]:
0:[dz<-4.52030373] yes=1,no=2,missing=1
	1:[jetPtRelv2<10.6303663] yes=3,no=4,missing=3
		3:[jetNDauChargedMVASel<1.5] yes=7,no=8,missing=7
			7:[jetBTag<0.705453992] yes=15,no=16,missing=15
				15:leaf=0.0324393846
				16:leaf=-0.0719902292
			8:[pt<52.3755722] yes=17,no=18,missing=17
				17:leaf=-0.00394347403
				18:leaf=-0.0587130599
		4:[mvaFall17V2noIso<0.999983668] yes=9,no=10,missing=9
			9:[miniRelIsoCharged<0.0121272448] yes=19,no=20,missing=19
				19:leaf=0.0577379949
				20:leaf=-0.00250107679
			10:[miniRelIsoCharged<0.016747389] yes=21,no=22,missing=21
				21:leaf=0.0920992419
				22:leaf=0.0577295013
	2:[jetNDauChargedMVASel<1.5] yes=5,no=6,missing=5
		5:[mvaFall17V2noIso<-0.954077244] yes=11,no=12,missing=11
			11:leaf=-0.0841136724
			12:[jetBTag<0.531923532] yes=23,no=24,missing=23
				23:leaf=0.00336610689
				24:leaf=-0.0688099489
		6:[jetPtRelv2<4.19932365] yes=13,no=14,missing=13
			13:[jetPtRatio<0.680857122] yes=25,no=26,missing=25
				25:leaf=-0.0820962787
				26:leaf=-0.0485881492
			14:[jetPtRatio<0.544027686] yes=27,no=28,missing=27
				27:leaf=0.00872665364
				28:leaf=-0.0517920628
booster[40]:
0:[jetBTag<0.105782263] yes=1,no=2,missing=1
	1:[mvaFall17V2noIso<0.999990582] yes=3,no=4,missing=3
		3:[mvaFall17V2noIso<-0.212220818] yes=7,no=8,missing=7
			7:[mvaFall17V2noIso<-0.991942823] yes=15,no=16,missing=15
				15:leaf=-0.0890046284
				16:leaf=-0.0328708291
			8:[miniRelIsoCharged<0.0097572431] yes=17,no=18,missing=17
				17:leaf=0.0313570164
				18:leaf=-0.00768509228
		4:[miniRelIsoNeutral<0.0356345326] yes=9,no=10,missing=9
			9:[jetPtRatio<0.91960156] yes=19,no=20,missing=19
				19:leaf=0.0632064641
				20:leaf=0.092870295
			10:[jetBTag<0.0510221049] yes=21,no=22,missing=21
				21:leaf=0.0479705371
				22:leaf=-3.74064257e-05
	2:[sip3d<3.82972336] yes=5,no=6,missing=5
		5:[miniRelIsoCharged<0.110234916] yes=11,no=12,missing=11
			11:[miniRelIsoNeutral<0.0550932474] yes=23,no=24,missing=23
				23:leaf=0.0117521798
				24:leaf=-0.0298870336
			12:[miniRelIsoCharged<0.181044966] yes=25,no=26,missing=25
				25:leaf=-0.0351185501
				26:leaf=-0.0687788427
		6:[jetNDauChargedMVASel<0.5] yes=13,no=14,missing=13
			13:leaf=0.0265289638
			14:[dxy<-4.87726974] yes=27,no=28,missing=27
				27:leaf=-0.0446177982
				28:leaf=-0.081219703
booster[41]:
0:[miniRelIsoNeutral<0.00496394001] yes=1,no=2,missing=1
	1:[mvaFall17V2noIso<0.999993086] yes=3,no=4,missing=3
		3:[jetBTag<0.700552583] yes=7,no=8,missing=7
			7:[dz<-3.73387384] yes=15,no=16,missing=15
				15:leaf=0.0208225492
				16:leaf=-0.0297675226
			8:[jetPtRatio<0.43614015] yes=17,no=18,missing=17
				17:leaf=0.0269358903
				18:leaf=-0.0774180293
		4:[jetBTag<0.0694927797] yes=9,no=10,missing=9
			9:[miniRelIsoCharged<0.0278345626] yes=19,no=20,missing=19
				19:leaf=0.0901602805
				20:leaf=0.0597900115
			10:[jetPtRelv2<14.6884928] yes=21,no=22,missing=21
				21:leaf=0.0199960824
				22:leaf=0.0901703462
	2:[sip3d<1.56546128] yes=5,no=6,missing=5
		5:[mvaFall17V2noIso<-0.856361866] yes=11,no=12,missing=11
			11:[mvaFall17V2noIso<-0.992642999] yes=23,no=24,missing=23
				23:leaf=-0.0897512436
				24:leaf=-0.051938545
			12:[miniRelIsoCharged<0.0129772453] yes=25,no=26,missing=25
				25:leaf=0.0207758974
				26:leaf=-0.0153317405
		6:[jetBTag<0.419688046] yes=13,no=14,missing=13
			13:[mvaFall17V2noIso<-0.278682411] yes=27,no=28,missing=27
				27:leaf=-0.0744792745
				28:leaf=-0.0229502302
			14:[jetPtRatio<0.375825584] yes=29,no=30,missing=29
				29:leaf=-0.0160640012
				30:leaf=-0.0802053288
booster[42]:
0:[jetPtRelv2<3.81004858] yes=1,no=2,missing=1
	1:[jetPtRatio<0.622821689] yes=3,no=4,missing=3
		3:[jetBTag<0.466689229] yes=7,no=8,missing=7
			7:[jetPtRatio<0.552821398] yes=15,no=16,missing=15
				15:leaf=-0.0616979003
				16:leaf=-0.0312960893
			8:[jetPtRelv2<2.98915863] yes=17,no=18,missing=17
				17:leaf=-0.0916013569
				18:leaf=-0.07166747
		4:[jetBTag<0.593323648] yes=9,no=10,missing=9
			9:[pt<28.9719162] yes=19,no=20,missing=19
				19:leaf=0.0218221117
				20:leaf=-0.0215151142
			10:[jetBTag<0.759481311] yes=21,no=22,missing=21
				21:leaf=-0.0478962176
				22:leaf=-0.0922806263
	2:[dxy<-5.52591515] yes=5,no=6,missing=5
		5:[mvaFall17V2noIso<0.999997497] yes=11,no=12,missing=11
			11:[jetPtRatio<0.392370522] yes=23,no=24,missing=23
				23:leaf=0.100832097
				24:leaf=0.0164750312
			12:[jetBTag<0.0546540394] yes=25,no=26,missing=25
				25:leaf=0.0881930366
				26:leaf=0.0478552692
		6:[pfRelIso03_all<0.0198935829] yes=13,no=14,missing=13
			13:[jetBTag<0.28943783] yes=27,no=28,missing=27
				27:leaf=0.0469541289
				28:leaf=-0.00961363222
			14:[pt<43.2785034] yes=29,no=30,missing=29
				29:leaf=0.00470120227
				30:leaf=-0.0417779125
booster[43]:
0:[dz<-4.61661625] yes=1,no=2,missing=1
	1:[jetPtRelv2<12.4969492] yes=3,no=4,missing=3
		3:[jetNDauChargedMVASel<1.5] yes=7,no=8,missing=7
			7:[jetBTag<0.0482456982] yes=15,no=16,missing=15
				15:leaf=0.0592974015
				16:leaf=0.0192126445
			8:[pt<55.697876] yes=17,no=18,missing=17
				17:leaf=-0.000363148603
				18:leaf=-0.055918999
		4:[miniRelIsoCharged<0.0404644459] yes=9,no=10,missing=9
			9:[mvaFall17V2noIso<0.999983668] yes=19,no=20,missing=19
				19:leaf=0.057094194
				20:leaf=0.0909030586
			10:leaf=0.00540803
	2:[jetNDauChargedMVASel<1.5] yes=5,no=6,missing=5
		5:[mvaFall17V2noIso<-0.952352762] yes=11,no=12,missing=11
			11:leaf=-0.0759496912
			12:[jetBTag<0.491536915] yes=21,no=22,missing=21
				21:leaf=0.00497146323
				22:leaf=-0.0516823716
		6:[jetPtRelv2<5.50189018] yes=13,no=14,missing=13
			13:[jetBTag<0.644342899] yes=23,no=24,missing=23
				23:leaf=-0.0513522588
				24:leaf=-0.092012018
			14:[jetPtRatio<0.543526232] yes=25,no=26,missing=25
				25:leaf=0.0305415001
				26:leaf=-0.040940199
booster[44]:
0:[miniRelIsoNeutral<0.00018589056] yes=1,no=2,missing=1
	1:[mvaFall17V2noIso<0.999924541] yes=3,no=4,missing=3
		3:[mvaFall17V2noIso<-0.984886646] yes=7,no=8,missing=7
			7:[mvaFall17V2noIso<-0.99949199] yes=15,no=16,missing=15
				15:leaf=-0.0954613537
				16:leaf=-0.0651506856
			8:[miniRelIsoCharged<0.191311836] yes=17,no=18,missing=17
				17:leaf=0.0113000264
				18:leaf=-0.0497772023
		4:[jetBTag<0.0644377992] yes=9,no=10,missing=9
			9:[pfRelIso03_all<0.0334530063] yes=19,no=20,missing=19
				19:leaf=0.0898851603
				20:leaf=0.0554917157
			10:[jetBTag<0.790770888] yes=21,no=22,missing=21
				21:leaf=0.0339250378
				22:leaf=-0.0291462839
	2:[sip3d<3.45550346] yes=5,no=6,missing=5
		5:[miniRelIsoCharged<0.0158076454] yes=11,no=12,missing=11
			11:[jetBTag<0.0528924055] yes=23,no=24,missing=23
				23:leaf=0.0354205668
				24:leaf=-0.00426267786
			12:[mvaFall17V2noIso<0.844010592] yes=25,no=26,missing=25
				25:leaf=-0.0659543201
				26:leaf=-0.0196334105
		6:[jetBTag<0.297707051] yes=13,no=14,missing=13
			13:[dxy<-4.821558] yes=27,no=28,missing=27
				27:leaf=-0.0171776731
				28:leaf=-0.0568147488
			14:[sip3d<5.27818251] yes=29,no=30,missing=29
				29:leaf=-0.0688073933
				30:leaf=-0.0901621729
booster[45]:
0:[jetPtRelv2<3.61526775] yes=1,no=2,missing=1
	1:[jetPtRatio<0.609676003] yes=3,no=4,missing=3
		3:[jetBTag<0.44652608] yes=7,no=8,missing=7
			7:[mvaFall17V2noIso<-0.911510944] yes=15,no=16,missing=15
				15:leaf=-0.0881755948
				16:leaf=-0.0450379439
			8:[jetPtRelv2<2.78987503] yes=17,no=18,missing=17
				17:leaf=-0.0902378336
				18:leaf=-0.0706363395
		4:[jetBTag<0.631706595] yes=9,no=10,missing=9
			9:[pt<26.2140274] yes=19,no=20,missing=19
				19:leaf=0.0201312434
				20:leaf=-0.0197713654
			10:[jetBTag<0.81962502] yes=21,no=22,missing=21
				21:leaf=-0.0595283993
				22:leaf=-0.0925340652
	2:[mvaFall17V2noIso<0.99552083] yes=5,no=6,missing=5
		5:[pt<34.1058655] yes=11,no=12,missing=11
			11:[jetPtRatio<0.321633756] yes=23,no=24,missing=23
				23:leaf=0.0827332884
				24:leaf=0.0069227675
			12:[jetPtRelv2<9.38501549] yes=25,no=26,missing=25
				25:leaf=-0.0634117946
				26:leaf=-0.00840190705
		6:[jetBTag<0.0546483919] yes=13,no=14,missing=13
			13:[jetPtRatio<0.932899594] yes=27,no=28,missing=27
				27:leaf=0.0438872427
				28:leaf=0.0895834565
			14:[pt<38.5888977] yes=29,no=30,missing=29
				29:leaf=0.0297122542
				30:leaf=-0.0109628802
booster[46]:
0:[dxy<-5.62532234] yes=1,no=2,missing=1
	1:[mvaFall17V2noIso<0.999997497] yes=3,no=4,missing=3
		3:[jetPtRatio<0.262394994] yes=7,no=8,missing=7
			7:leaf=0.104648747
			8:[jetNDauChargedMVASel<1.5] yes=15,no=16,missing=15
				15:leaf=0.0254334249
				16:leaf=-0.00976219494
		4:[jetBTag<0.0702755153] yes=9,no=10,missing=9
			9:[miniRelIsoNeutral<0.0519743823] yes=17,no=18,missing=17
				17:leaf=0.0823648572
				18:leaf=0.0372521318
			10:[jetPtRelv2<13.497715] yes=19,no=20,missing=19
				19:leaf=0.014688096
				20:leaf=0.089383848
	2:[jetBTag<0.709819853] yes=5,no=6,missing=5
		5:[mvaFall17V2noIso<-0.911499798] yes=11,no=12,missing=11
			11:[mvaFall17V2noIso<-0.995180488] yes=21,no=22,missing=21
				21:leaf=-0.0915618166
				22:leaf=-0.0491922759
			12:[miniRelIsoNeutral<0.000104642364] yes=23,no=24,missing=23
				23:leaf=0.0103287818
				24:leaf=-0.0204743296
		6:[jetPtRatio<0.372692972] yes=13,no=14,missing=13
			13:leaf=0.0203143191
			14:[jetPtRelv2<9.27822113] yes=25,no=26,missing=25
				25:leaf=-0.0864326581
				26:leaf=-0.0418416001
booster[47]:
0:[miniRelIsoCharged<0.151923269] yes=1,no=2,missing=1
	1:[jetPtRelv2<12.1977243] yes=3,no=4,missing=3
		3:[sip3d<3.86158085] yes=7,no=8,missing=7
			7:[mvaFall17V2noIso<-0.943286061] yes=15,no=16,missing=15
				15:leaf=-0.066771619
				16:leaf=0.00790420733
			8:[jetNDauChargedMVASel<0.5] yes=17,no=18,missing=17
				17:leaf=0.0312008448
				18:leaf=-0.0561930649
		4:[mvaFall17V2noIso<0.968336344] yes=9,no=10,missing=9
			9:[dz<-4.78593016] yes=19,no=20,missing=19
				19:leaf=0.0288800299
				20:leaf=-0.0320852734
			10:[mvaFall17V2noIso<0.999998689] yes=21,no=22,missing=21
				21:leaf=0.0498250239
				22:leaf=0.0876723155
	2:[jetBTag<0.171986043] yes=5,no=6,missing=5
		5:[mvaFall17V2noIso<0.964967966] yes=11,no=12,missing=11
			11:[pt<26.3749123] yes=23,no=24,missing=23
				23:leaf=-0.0484475568
				24:leaf=-0.0772874355
			12:[jetPtRelv2<2.57227731] yes=25,no=26,missing=25
				25:leaf=-0.0389758907
				26:leaf=0.00112546096
		6:[sip3d<2.72567797] yes=13,no=14,missing=13
			13:[jetPtRatio<0.467089981] yes=27,no=28,missing=27
				27:leaf=-0.0246693883
				28:leaf=-0.064238213
			14:leaf=-0.0881135613
booster[48]:
0:[dz<-4.21164894] yes=1,no=2,missing=1
	1:[miniRelIsoNeutral<0.0108262468] yes=3,no=4,missing=3
		3:[jetBTag<0.131870717] yes=7,no=8,missing=7
			7:[mvaFall17V2noIso<0.999996543] yes=15,no=16,missing=15
				15:leaf=0.0272873677
				16:leaf=0.0711151585
			8:[jetPtRatio<0.317744553] yes=17,no=18,missing=17
				17:leaf=0.0932299271
				18:leaf=0.00205055601
		4:[jetBTag<0.0861870721] yes=9,no=10,missing=9
			9:[mvaFall17V2noIso<0.81507045] yes=19,no=20,missing=19
				19:leaf=-0.0305806734
				20:leaf=0.0156036271
			10:[pt<29.7273102] yes=21,no=22,missing=21
				21:leaf=-0.00351850432
				22:leaf=-0.0456597917
	2:[miniRelIsoCharged<0.0669755563] yes=5,no=6,missing=5
		5:[jetNDauChargedMVASel<0.5] yes=11,no=12,missing=11
			11:[dz<-3.25972295] yes=23,no=24,missing=23
				23:leaf=0.040806368
				24:leaf=-0.0165882483
			12:[jetBTag<0.733308196] yes=25,no=26,missing=25
				25:leaf=-0.0220246352
				26:leaf=-0.0744324401
		6:[jetBTag<0.367055923] yes=13,no=14,missing=13
			13:[pt<39.3837433] yes=27,no=28,missing=27
				27:leaf=-0.048297327
				28:leaf=-0.0766036361
			14:[miniRelIsoCharged<0.146788895] yes=29,no=30,missing=29
				29:leaf=-0.073265031
				30:leaf=-0.0909346566
booster[49]:
0:[jetPtRelv2<3.81004858] yes=1,no=2,missing=1
	1:[jetPtRatio<0.595403314] yes=3,no=4,missing=3
		3:[jetBTag<0.470469028] yes=7,no=8,missing=7
			7:[jetPtRelv2<2.8066206] yes=15,no=16,missing=15
				15:leaf=-0.0564505756
				16:leaf=-0.02002565
			8:[jetPtRelv2<2.85005665] yes=17,no=18,missing=17
				17:leaf=-0.089125894
				18:leaf=-0.0639073253
		4:[jetBTag<0.695215225] yes=9,no=10,missing=9
			9:[pt<25.8682289] yes=19,no=20,missing=19
				19:leaf=0.0178933535
				20:leaf=-0.0183748212
			10:[jetBTag<0.906166196] yes=21,no=22,missing=21
				21:leaf=-0.0724636465
				22:leaf=-0.0951380357
	2:[jetPtRatio<0.420565009] yes=5,no=6,missing=5
		5:[jetBTag<0.529524267] yes=11,no=12,missing=11
			11:[miniRelIsoNeutral<0.104396939] yes=23,no=24,missing=23
				23:leaf=0.0579643957
				24:leaf=0.00165722228
			12:leaf=0.108834423
		6:[jetBTag<0.333778322] yes=13,no=14,missing=13
			13:[mvaFall17V2noIso<0.999927878] yes=25,no=26,missing=25
				25:leaf=0.000785840675
				26:leaf=0.0407377928
			14:[pt<20.4842148] yes=27,no=28,missing=27
				27:leaf=0.0139165567
				28:leaf=-0.0436080061
booster[50]:
0:[mvaFall17V2noIso<-0.844875455] yes=1,no=2,missing=1
	1:[mvaFall17V2noIso<-0.993842959] yes=3,no=4,missing=3
		3:[mvaFall17V2noIso<-0.998806596] yes=7,no=8,missing=7
			7:leaf=-0.0909247324
			8:leaf=-0.0718539655
		4:[pfRelIso03_all<0.0869576633] yes=9,no=10,missing=9
			9:leaf=-0.00309140026
			10:[pt<23.413353] yes=17,no=18,missing=17
				17:leaf=-0.037694715
				18:leaf=-0.072137557
	2:[jetPtRelv2<14.8581791] yes=5,no=6,missing=5
		5:[sip3d<1.44416213] yes=11,no=12,missing=11
			11:[jetPtRatio<0.262704432] yes=19,no=20,missing=19
				19:leaf=0.0990522578
				20:leaf=0.0115808686
			12:[jetBTag<0.711654902] yes=21,no=22,missing=21
				21:leaf=-0.00889122579
				22:leaf=-0.0680856928
		6:[miniRelIsoCharged<0.0409896523] yes=13,no=14,missing=13
			13:[mvaFall17V2noIso<0.999991655] yes=23,no=24,missing=23
				23:leaf=0.0518000983
				24:leaf=0.0877722576
			14:leaf=-0.0241996255
booster[51]:
0:[miniRelIsoCharged<0.152684197] yes=1,no=2,missing=1
	1:[jetBTag<0.0534286201] yes=3,no=4,missing=3
		3:[mvaFall17V2noIso<0.999976277] yes=7,no=8,missing=7
			7:[pfRelIso03_all<0.0124399392] yes=15,no=16,missing=15
				15:leaf=0.0551039837
				16:leaf=0.00343102845
			8:[jetPtRatio<0.902722716] yes=17,no=18,missing=17
				17:leaf=0.0453212708
				18:leaf=0.0864033028
		4:[pt<38.6011581] yes=9,no=10,missing=9
			9:[jetPtRelv2<3.66473293] yes=19,no=20,missing=19
				19:leaf=-0.00788495783
				20:leaf=0.0241637621
			10:[jetPtRelv2<12.9890213] yes=21,no=22,missing=21
				21:leaf=-0.0505839102
				22:leaf=0.0350850448
	2:[sip3d<2.84896016] yes=5,no=6,missing=5
		5:[mvaFall17V2noIso<0.800858736] yes=11,no=12,missing=11
			11:leaf=-0.0665484592
			12:[miniRelIsoCharged<0.240706712] yes=23,no=24,missing=23
				23:leaf=-0.0118371723
				24:leaf=-0.0449193865
		6:[jetBTag<0.361020327] yes=13,no=14,missing=13
			13:leaf=-0.064664185
			14:leaf=-0.0904934555
booster[52]:
0:[dxy<-5.74784088] yes=1,no=2,missing=1
	1:[mvaFall17V2noIso<0.999997854] yes=3,no=4,missing=3
		3:[pt<39.7891388] yes=7,no=8,missing=7
			7:[jetPtRelv2<3.17242336] yes=15,no=16,missing=15
				15:leaf=-0.0016872898
				16:leaf=0.0347539745
			8:[jetPtRelv2<11.0405893] yes=17,no=18,missing=17
				17:leaf=-0.0338830613
				18:leaf=0.0364452265
		4:[jetBTag<0.039813105] yes=9,no=10,missing=9
			9:[jetPtRatio<0.928839087] yes=19,no=20,missing=19
				19:leaf=0.0655214712
				20:leaf=0.0958000273
			10:[jetPtRelv2<12.9664621] yes=21,no=22,missing=21
				21:leaf=0.0239313077
				22:leaf=0.0805208981
	2:[sip3d<4.35466337] yes=5,no=6,missing=5
		5:[jetNDauChargedMVASel<1.5] yes=11,no=12,missing=11
			11:[dz<-3.71391344] yes=23,no=24,missing=23
				23:leaf=0.0145477504
				24:leaf=-0.0268584341
			12:[jetPtRelv2<3.32635546] yes=25,no=26,missing=25
				25:leaf=-0.039245259
				26:leaf=-0.00701814983
		6:[jetNDauChargedMVASel<0.5] yes=13,no=14,missing=13
			13:leaf=0.0223387238
			14:[jetBTag<0.298701167] yes=27,no=28,missing=27
				27:leaf=-0.0426341295
				28:leaf=-0.0766920894
booster[53]:
0:[mvaFall17V2noIso<-0.911499798] yes=1,no=2,missing=1
	1:[mvaFall17V2noIso<-0.996878922] yes=3,no=4,missing=3
		3:[mvaFall17V2noIso<-0.999736786] yes=7,no=8,missing=7
			7:leaf=-0.0919384137
			8:leaf=-0.0785401016
		4:[pfRelIso03_all<0.0832137913] yes=9,no=10,missing=9
			9:leaf=-0.0041996236
			10:leaf=-0.0589416511
	2:[jetPtRelv2<10.7804804] yes=5,no=6,missing=5
		5:[jetBTag<0.766169608] yes=11,no=12,missing=11
			11:[pt<50.1591187] yes=15,no=16,missing=15
				15:leaf=0.00721604517
				16:leaf=-0.0314301029
			12:[jetPtRatio<0.390553653] yes=17,no=18,missing=17
				17:leaf=0.0639193431
				18:leaf=-0.071842961
		6:[mvaFall17V2noIso<0.999996543] yes=13,no=14,missing=13
			13:[jetPtRatio<0.518401504] yes=19,no=20,missing=19
				19:leaf=0.0680402368
				20:leaf=0.0127919139
			14:[jetPtRelv2<15.4343052] yes=21,no=22,missing=21
				21:leaf=0.0459690318
				22:leaf=0.0844442099
booster[54]:
0:[dz<-4.77203751] yes=1,no=2,missing=1
	1:[jetPtRatio<0.920329094] yes=3,no=4,missing=3
		3:[jetPtRatio<0.321913391] yes=7,no=8,missing=7
			7:[jetBTag<0.426820844] yes=15,no=16,missing=15
				15:leaf=0.0389538594
				16:leaf=0.108552508
			8:[miniRelIsoNeutral<2.61895639e-05] yes=17,no=18,missing=17
				17:leaf=0.0164317004
				18:leaf=-0.0082199527
		4:[pt<15.306591] yes=9,no=10,missing=9
			9:leaf=-0.0270780921
			10:[jetBTag<0.0345060006] yes=19,no=20,missing=19
				19:leaf=0.0847747177
				20:leaf=0.0495088175
	2:[miniRelIsoCharged<0.0812892541] yes=5,no=6,missing=5
		5:[jetBTag<0.538365066] yes=11,no=12,missing=11
			11:[mvaFall17V2noIso<-0.985930622] yes=21,no=22,missing=21
				21:leaf=-0.0727985203
				22:leaf=-0.00278352923
			12:[jetPtRelv2<6.14815617] yes=23,no=24,missing=23
				23:leaf=-0.0619714335
				24:leaf=-0.0130206812
		6:[dz<-4.16667938] yes=13,no=14,missing=13
			13:[jetBTag<0.315712154] yes=25,no=26,missing=25
				25:leaf=-0.0214375276
				26:leaf=-0.0573702566
			14:[jetBTag<0.317834198] yes=27,no=28,missing=27
				27:leaf=-0.0534923151
				28:leaf=-0.0775941834
booster[55]:
0:[miniRelIsoCharged<0.16156432] yes=1,no=2,missing=1
	1:[jetBTag<0.0678325444] yes=3,no=4,missing=3
		3:[jetPtRatio<0.930517673] yes=7,no=8,missing=7
			7:[mvaFall17V2noIso<0.999996543] yes=15,no=16,missing=15
				15:leaf=0.00654008612
				16:leaf=0.047909908
			8:[mvaFall17V2noIso<0.994897425] yes=17,no=18,missing=17
				17:leaf=0.0337556899
				18:leaf=0.0789407119
		4:[pt<35.9183693] yes=9,no=10,missing=9
			9:[pt<12.4839478] yes=19,no=20,missing=19
				19:leaf=-0.0275609549
				20:leaf=0.0111618442
			10:[jetPtRatio<0.535707712] yes=21,no=22,missing=21
				21:leaf=0.0515773781
				22:leaf=-0.042193111
	2:[jetBTag<0.126289248] yes=5,no=6,missing=5
		5:[mvaFall17V2noIso<0.979748249] yes=11,no=12,missing=11
			11:leaf=-0.0528025813
			12:[jetPtRelv2<2.57227731] yes=23,no=24,missing=23
				23:leaf=-0.033966668
				24:leaf=0.0049154656
		6:[sip3d<2.85725498] yes=13,no=14,missing=13
			13:[miniRelIsoCharged<0.222569272] yes=25,no=26,missing=25
				25:leaf=-0.0320401676
				26:leaf=-0.0576611273
			14:leaf=-0.0804934502
booster[56]:
0:[mvaFall17V2noIso<-0.980754375] yes=1,no=2,missing=1
	1:[mvaFall17V2noIso<-0.996925592] yes=3,no=4,missing=3
		3:[mvaFall17V2noIso<-0.999736786] yes=7,no=8,missing=7
			7:leaf=-0.0894627124
			8:leaf=-0.074773103
		4:leaf=-0.0449465923
	2:[jetPtRelv2<5.48691082] yes=5,no=6,missing=5
		5:[jetBTag<0.676809311] yes=9,no=10,missing=9
			9:[pfRelIso03_all<0.319110334] yes=13,no=14,missing=13
				13:leaf=0.00567601807
				14:leaf=-0.0319515765
			10:[jetPtRatio<0.449252009] yes=15,no=16,missing=15
				15:leaf=-0.0291748177
				16:leaf=-0.0736590549
		6:[jetPtRatio<0.544542909] yes=11,no=12,missing=11
			11:[miniRelIsoNeutral<0.105659492] yes=17,no=18,missing=17
				17:leaf=0.0651530102
				18:leaf=-0.00597138004
			12:[pfRelIso03_all<0.0214574896] yes=19,no=20,missing=19
				19:leaf=0.03849544
				20:leaf=-0.00412780792
booster[57]:
0:[dz<-3.89774513] yes=1,no=2,missing=1
	1:[miniRelIsoNeutral<2.55995474e-05] yes=3,no=4,missing=3
		3:[pt<13.6155062] yes=7,no=8,missing=7
			7:[jetPtRatio<0.828953147] yes=15,no=16,missing=15
				15:leaf=-0.0027540857
				16:leaf=-0.052451361
			8:[miniRelIsoCharged<0.215568289] yes=17,no=18,missing=17
				17:leaf=0.0282900836
				18:leaf=-0.0391434468
		4:[miniRelIsoCharged<0.0098834224] yes=9,no=10,missing=9
			9:[jetBTag<0.0393974334] yes=19,no=20,missing=19
				19:leaf=0.0391846783
				20:leaf=0.000699693279
			10:[pt<59.8493767] yes=21,no=22,missing=21
				21:leaf=-0.0125357872
				22:leaf=-0.0604537316
	2:[jetNDauChargedMVASel<0.5] yes=5,no=6,missing=5
		5:[dz<-3.25972295] yes=11,no=12,missing=11
			11:leaf=0.0351521187
			12:leaf=-0.014702714
		6:[mvaFall17V2noIso<-0.649978042] yes=13,no=14,missing=13
			13:leaf=-0.0720313787
			14:[miniRelIsoCharged<0.0944065675] yes=23,no=24,missing=23
				23:leaf=-0.0262452457
				24:leaf=-0.0613527782
booster[58]:
0:[dxy<-5.32458591] yes=1,no=2,missing=1
	1:[mvaFall17V2noIso<0.999999046] yes=3,no=4,missing=3
		3:[pt<44.7962036] yes=7,no=8,missing=7
			7:[jetPtRelv2<3.13879919] yes=15,no=16,missing=15
				15:leaf=-0.00411059521
				16:leaf=0.0252077263
			8:[miniRelIsoCharged<0.00976088922] yes=17,no=18,missing=17
				17:leaf=0.0103247007
				18:leaf=-0.0471114516
		4:[jetBTag<0.0422369838] yes=9,no=10,missing=9
			9:[pfRelIso03_all<0.0399857685] yes=19,no=20,missing=19
				19:leaf=0.0910962448
				20:leaf=0.0603830293
			10:[jetPtRelv2<12.6008425] yes=21,no=22,missing=21
				21:leaf=0.0217627957
				22:leaf=0.0754425898
	2:[sip3d<4.35294962] yes=5,no=6,missing=5
		5:[jetNDauChargedMVASel<1.5] yes=11,no=12,missing=11
			11:[jetPtRatio<0.594570458] yes=23,no=24,missing=23
				23:leaf=-0.0311877262
				24:leaf=0.00957087055
			12:[jetPtRelv2<5.52154589] yes=25,no=26,missing=25
				25:leaf=-0.030913515
				26:leaf=-1.1996387e-05
		6:[jetBTag<0.298701167] yes=13,no=14,missing=13
			13:[miniRelIsoNeutral<0.00531696156] yes=27,no=28,missing=27
				27:leaf=-0.0117079346
				28:leaf=-0.047640346
			14:[dxy<-4.3665967] yes=29,no=30,missing=29
				29:leaf=-0.0495959781
				30:leaf=-0.07640668
booster[59]:
0:[mvaFall17V2noIso<-0.991997004] yes=1,no=2,missing=1
	1:[mvaFall17V2noIso<-0.99937284] yes=3,no=4,missing=3
		3:leaf=-0.0850057453
		4:leaf=-0.0609003901
	2:[jetBTag<0.0849718899] yes=5,no=6,missing=5
		5:[jetPtRatio<0.930517673] yes=7,no=8,missing=7
			7:[mvaFall17V2noIso<0.999996901] yes=11,no=12,missing=11
				11:leaf=0.0039942232
				12:leaf=0.038162373
			8:[pfRelIso03_all<0.0251286682] yes=13,no=14,missing=13
				13:leaf=0.0699036717
				14:leaf=0.0223134495
		6:[pt<32.4328232] yes=9,no=10,missing=9
			9:[pfRelIso03_all<0.318470836] yes=15,no=16,missing=15
				15:leaf=0.0101995906
				16:leaf=-0.0293799471
			10:[jetPtRelv2<7.79228449] yes=17,no=18,missing=17
				17:leaf=-0.053421177
				18:leaf=0.00619969843
booster[60]:
0:[dz<-5.11459732] yes=1,no=2,missing=1
	1:[miniRelIsoNeutral<0.0404721349] yes=3,no=4,missing=3
		3:[mvaFall17V2noIso<0.999999166] yes=7,no=8,missing=7
			7:[miniRelIsoCharged<0.245080262] yes=15,no=16,missing=15
				15:leaf=0.0171910226
				16:leaf=-0.0362677984
			8:[jetBTag<0.094788] yes=17,no=18,missing=17
				17:leaf=0.0680775195
				18:leaf=0.0299260709
		4:[jetNDauChargedMVASel<1.5] yes=9,no=10,missing=9
			9:[jetBTag<0.0383104496] yes=19,no=20,missing=19
				19:leaf=0.0558086596
				20:leaf=0.00368635054
			10:[jetPtRatio<0.330586255] yes=21,no=22,missing=21
				21:leaf=0.0424400903
				22:leaf=-0.022222301
	2:[jetNDauChargedMVASel<1.5] yes=5,no=6,missing=5
		5:[dz<-3.37101531] yes=11,no=12,missing=11
			11:[jetPtRatio<0.56082046] yes=23,no=24,missing=23
				23:leaf=-0.0297912359
				24:leaf=0.0102447197
			12:[mvaFall17V2noIso<0.868749261] yes=25,no=26,missing=25
				25:leaf=-0.0496777967
				26:leaf=-0.0153872492
		6:[jetPtRelv2<3.21972084] yes=13,no=14,missing=13
			13:[jetPtRatio<0.650205731] yes=27,no=28,missing=27
				27:leaf=-0.0617665946
				28:leaf=-0.0172972716
			14:[jetPtRatio<0.360558838] yes=29,no=30,missing=29
				29:leaf=0.0382404849
				30:leaf=-0.0201217979
booster[61]:
0:[dxy<-5.74784088] yes=1,no=2,missing=1
	1:[jetPtRelv2<14.798912] yes=3,no=4,missing=3
		3:[pt<61.1332397] yes=7,no=8,missing=7
			7:[jetPtRelv2<5.41163111] yes=15,no=16,missing=15
				15:leaf=0.00593440561
				16:leaf=0.0338614099
			8:[jetBTag<0.0378146544] yes=17,no=18,missing=17
				17:leaf=0.0174713824
				18:leaf=-0.0493734889
		4:[mvaFall17V2noIso<0.999997139] yes=9,no=10,missing=9
			9:[dz<-5.2752018] yes=19,no=20,missing=19
				19:leaf=0.0544320829
				20:leaf=0.0185189992
			10:leaf=0.0816881359
	2:[jetBTag<0.761549234] yes=5,no=6,missing=5
		5:[mvaFall17V2noIso<-0.991997361] yes=11,no=12,missing=11
			11:leaf=-0.0727412552
			12:[sip3d<4.35553885] yes=21,no=22,missing=21
				21:leaf=-0.000826836505
				22:leaf=-0.0323060714
		6:[jetPtRatio<0.407473862] yes=13,no=14,missing=13
			13:leaf=0.019272564
			14:[jetPtRelv2<7.91172218] yes=23,no=24,missing=23
				23:leaf=-0.0794454813
				24:leaf=-0.0367657505
booster[62]:
0:[mvaFall17V2noIso<-0.100682884] yes=1,no=2,missing=1
	1:[pt<19.993988] yes=3,no=4,missing=3
		3:[jetPtRatio<0.558719993] yes=7,no=8,missing=7
			7:leaf=-0.0524315536
			8:[sip3d<1.38175642] yes=15,no=16,missing=15
				15:leaf=0.0450643785
				16:leaf=0.00098411995
		4:[jetBTag<0.167318389] yes=9,no=10,missing=9
			9:[miniRelIsoCharged<0.0313869119] yes=17,no=18,missing=17
				17:leaf=-0.0184260141
				18:leaf=-0.0666973889
			10:[jetPtRelv2<5.17901134] yes=19,no=20,missing=19
				19:leaf=-0.089922756
				20:leaf=-0.0610973127
	2:[jetPtRelv2<15.8136806] yes=5,no=6,missing=5
		5:[pt<57.6898499] yes=11,no=12,missing=11
			11:[jetPtRelv2<2.97284603] yes=21,no=22,missing=21
				21:leaf=-0.00919461716
				22:leaf=0.013675048
			12:[jetBTag<0.0423185974] yes=23,no=24,missing=23
				23:leaf=0.012643354
				24:leaf=-0.0531437993
		6:[miniRelIsoCharged<0.0191051662] yes=13,no=14,missing=13
			13:[pt<48.6289101] yes=25,no=26,missing=25
				25:leaf=0.0225814451
				26:leaf=0.0671862811
			14:leaf=-0.0209135376
booster[63]:
0:[jetBTag<0.388170719] yes=1,no=2,missing=1
	1:[mvaFall17V2noIso<0.999994516] yes=3,no=4,missing=3
		3:[pt<48.40448] yes=7,no=8,missing=7
			7:[pfRelIso03_all<0.31829524] yes=13,no=14,missing=13
				13:leaf=0.0114005525
				14:leaf=-0.017670149
			8:[miniRelIsoCharged<0.0106728915] yes=15,no=16,missing=15
				15:leaf=-0.00296205003
				16:leaf=-0.0532881394
		4:[jetPtRatio<0.921306968] yes=9,no=10,missing=9
			9:[miniRelIsoNeutral<0.067558296] yes=17,no=18,missing=17
				17:leaf=0.0277145188
				18:leaf=-0.00685108826
			10:[jetBTag<0.0346138477] yes=19,no=20,missing=19
				19:leaf=0.0900520012
				20:leaf=0.0491768233
	2:[jetPtRatio<0.321698219] yes=5,no=6,missing=5
		5:leaf=0.0660535097
		6:[pt<20.0568619] yes=11,no=12,missing=11
			11:[jetBTag<0.766148627] yes=21,no=22,missing=21
				21:leaf=0.00569226453
				22:leaf=-0.0779162422
			12:[jetPtRatio<0.524195254] yes=23,no=24,missing=23
				23:leaf=0.0190996565
				24:leaf=-0.0564272404
booster[64]:
0:[dz<-3.79387236] yes=1,no=2,missing=1
	1:[miniRelIsoCharged<0.185554817] yes=3,no=4,missing=3
		3:[sip3d<4.97145367] yes=7,no=8,missing=7
			7:[jetPtRelv2<14.8580179] yes=15,no=16,missing=15
				15:leaf=0.00535312528
				16:leaf=0.0463146195
			8:[jetBTag<0.325541198] yes=17,no=18,missing=17
				17:leaf=-0.0327107422
				18:leaf=-0.0762843639
		4:[jetBTag<0.126289248] yes=9,no=10,missing=9
			9:[jetPtRelv2<2.52688122] yes=19,no=20,missing=19
				19:leaf=-0.0353266671
				20:leaf=-0.00164565619
			10:[sip3d<1.62056565] yes=21,no=22,missing=21
				21:leaf=-0.0333571211
				22:leaf=-0.062109109
	2:[jetNDauChargedMVASel<0.5] yes=5,no=6,missing=5
		5:[sip3d<3.62797213] yes=11,no=12,missing=11
			11:leaf=-0.00866287109
			12:leaf=0.0379914418
		6:[miniRelIsoCharged<0.0918669701] yes=13,no=14,missing=13
			13:[mvaFall17V2noIso<0.978000641] yes=23,no=24,missing=23
				23:leaf=-0.042543374
				24:leaf=-0.0173488166
			14:leaf=-0.0605262816
booster[65]:
0:[mvaFall17V2noIso<-0.991997004] yes=1,no=2,missing=1
	1:[mvaFall17V2noIso<-0.99937284] yes=3,no=4,missing=3
		3:leaf=-0.0802325457
		4:leaf=-0.0523832329
	2:[dxy<-5.79455948] yes=5,no=6,missing=5
		5:[jetPtRatio<0.944357991] yes=7,no=8,missing=7
			7:[jetPtRatio<0.332500577] yes=11,no=12,missing=11
				11:leaf=0.0556133799
				12:leaf=0.00717304274
			8:[jetBTag<0.0632403046] yes=13,no=14,missing=13
				13:leaf=0.0775617883
				14:leaf=0.0224037785
		6:[jetBTag<0.79710567] yes=9,no=10,missing=9
			9:[miniRelIsoNeutral<2.21984083e-05] yes=15,no=16,missing=15
				15:leaf=0.00505618798
				16:leaf=-0.012183263
			10:[jetPtRatio<0.442924142] yes=17,no=18,missing=17
				17:leaf=0.0149912732
				18:leaf=-0.0668699071
booster[66]:
0:[dz<-5.41377544] yes=1,no=2,missing=1
	1:[miniRelIsoNeutral<0.0581705347] yes=3,no=4,missing=3
		3:[jetPtRelv2<19.3613243] yes=7,no=8,missing=7
			7:[pt<69.0126495] yes=15,no=16,missing=15
				15:leaf=0.0188938435
				16:leaf=-0.0306874067
			8:leaf=0.0667211562
		4:[jetNDauChargedMVASel<1.5] yes=9,no=10,missing=9
			9:[miniRelIsoCharged<0.0131457029] yes=17,no=18,missing=17
				17:leaf=0.0200997032
				18:leaf=-0.0190195348
			10:[jetPtRatio<0.392971039] yes=19,no=20,missing=19
				19:leaf=0.0189441722
				20:leaf=-0.0218222383
	2:[jetNDauChargedMVASel<1.5] yes=5,no=6,missing=5
		5:[pt<13.1379108] yes=11,no=12,missing=11
			11:[jetPtRatio<0.82619381] yes=21,no=22,missing=21
				21:leaf=-0.00281881518
				22:leaf=-0.0743166432
			12:[mvaFall17V2noIso<0.92904973] yes=23,no=24,missing=23
				23:leaf=-0.0168598574
				24:leaf=0.0146439392
		6:[jetPtRelv2<2.74229002] yes=13,no=14,missing=13
			13:[jetPtRatio<0.557903171] yes=25,no=26,missing=25
				25:leaf=-0.0708947331
				26:leaf=-0.020693792
			14:[jetPtRatio<0.335677683] yes=27,no=28,missing=27
				27:leaf=0.0347675346
				28:leaf=-0.0143741611
booster[67]:
0:[eta<-1.65456367] yes=1,no=2,missing=1
	1:[pt<34.7859993] yes=3,no=4,missing=3
		3:[jetPtRatio<0.588894963] yes=7,no=8,missing=7
			7:[jetPtRelv2<3.80968595] yes=15,no=16,missing=15
				15:leaf=-0.054901015
				16:leaf=-0.0110549275
			8:[pfRelIso03_all<0.0794721842] yes=17,no=18,missing=17
				17:leaf=-0.0193112381
				18:leaf=0.0179782826
		4:[mvaFall17V2noIso<0.999646187] yes=9,no=10,missing=9
			9:[jetPtRatio<0.697953582] yes=19,no=20,missing=19
				19:leaf=-0.0347507223
				20:leaf=-0.0709045231
			10:[jetBTag<0.0644377768] yes=21,no=22,missing=21
				21:leaf=0.0150255887
				22:leaf=-0.0385366194
	2:[miniRelIsoNeutral<0.0402762741] yes=5,no=6,missing=5
		5:[eta<1.57240081] yes=11,no=12,missing=11
			11:[pt<14.1256065] yes=23,no=24,missing=23
				23:leaf=-0.015606611
				24:leaf=0.0232398454
			12:[jetNDauChargedMVASel<1.5] yes=25,no=26,missing=25
				25:leaf=-0.00434270455
				26:leaf=-0.0318918936
		6:[eta<-1.47878647] yes=13,no=14,missing=13
			13:leaf=0.0539426766
			14:[sip3d<3.91005945] yes=27,no=28,missing=27
				27:leaf=-0.0096289767
				28:leaf=-0.047858756
booster[68]:
0:[miniRelIsoCharged<0.180056453] yes=1,no=2,missing=1
	1:[mvaFall17V2noIso<0.999999046] yes=3,no=4,missing=3
		3:[pt<48.3872948] yes=7,no=8,missing=7
			7:[pt<12.4681129] yes=15,no=16,missing=15
				15:leaf=-0.020766614
				16:leaf=0.00784445088
			8:[jetPtRelv2<13.4339552] yes=17,no=18,missing=17
				17:leaf=-0.0359776579
				18:leaf=0.0218961686
		4:[jetBTag<0.0443334281] yes=9,no=10,missing=9
			9:[pfRelIso03_all<0.0427121893] yes=19,no=20,missing=19
				19:leaf=0.083109878
				20:leaf=0.0444123559
			10:[jetPtRelv2<12.9829082] yes=21,no=22,missing=21
				21:leaf=0.0108326515
				22:leaf=0.0609971061
	2:[jetBTag<0.126289248] yes=5,no=6,missing=5
		5:[jetPtRelv2<2.51321793] yes=11,no=12,missing=11
			11:leaf=-0.0335356854
			12:[pfRelIso03_all<0.429295897] yes=23,no=24,missing=23
				23:leaf=-0.0198406186
				24:leaf=0.0176239051
		6:[sip3d<1.62056565] yes=13,no=14,missing=13
			13:[jetPtRelv2<3.28049326] yes=25,no=26,missing=25
				25:leaf=-0.0441059545
				26:leaf=-0.0167551823
			14:leaf=-0.0604690686
booster[69]:
0:[mvaFall17V2noIso<-0.993842959] yes=1,no=2,missing=1
	1:leaf=-0.0655187964
	2:[jetBTag<0.0849718899] yes=3,no=4,missing=3
		3:[jetPtRatio<0.94498992] yes=5,no=6,missing=5
			5:[eta<1.65454721] yes=9,no=10,missing=9
				9:leaf=0.0130516337
				10:leaf=-0.0164841656
			6:[pfRelIso03_all<0.0124399392] yes=11,no=12,missing=11
				11:leaf=0.0682703927
				12:leaf=0.024794016
		4:[pt<31.2775898] yes=7,no=8,missing=7
			7:[pfRelIso03_all<0.328234732] yes=13,no=14,missing=13
				13:leaf=0.00817758124
				14:leaf=-0.0241002645
			8:[jetPtRelv2<6.75476789] yes=15,no=16,missing=15
				15:leaf=-0.0482264869
				16:leaf=0.00279892678
booster[70]:
0:[jetBTag<0.388170719] yes=1,no=2,missing=1
	1:[eta<-1.57487106] yes=3,no=4,missing=3
		3:[pt<50.70541] yes=7,no=8,missing=7
			7:[eta<-2.36969137] yes=13,no=14,missing=13
				13:leaf=-0.0524202101
				14:leaf=-0.00696532428
			8:[mvaFall17V2noIso<0.998055458] yes=15,no=16,missing=15
				15:leaf=-0.0657349303
				16:leaf=-0.0222030431
		4:[eta<1.57920647] yes=9,no=10,missing=9
			9:[miniRelIsoNeutral<2.2293958e-05] yes=17,no=18,missing=17
				17:leaf=0.0259468742
				18:leaf=0.00206011999
			10:[jetNDauChargedMVASel<2.5] yes=19,no=20,missing=19
				19:leaf=-0.00607255613
				20:leaf=-0.0375663452
	2:[jetPtRatio<0.342982233] yes=5,no=6,missing=5
		5:leaf=0.0523422472
		6:[pt<20.0568619] yes=11,no=12,missing=11
			11:[jetBTag<0.783714414] yes=21,no=22,missing=21
				21:leaf=0.00574314222
				22:leaf=-0.0770525634
			12:[jetPtRatio<0.599540949] yes=23,no=24,missing=23
				23:leaf=0.00400232663
				24:leaf=-0.0576141886
booster[71]:
0:[dxy<-6.09539032] yes=1,no=2,missing=1
	1:[eta<-1.16233087] yes=3,no=4,missing=3
		3:[jetNDauChargedMVASel<1.5] yes=7,no=8,missing=7
			7:[pfRelIso03_all<0.0825134516] yes=15,no=16,missing=15
				15:leaf=-0.00910406373
				16:leaf=0.0172156785
			8:[pt<41.5594749] yes=17,no=18,missing=17
				17:leaf=-0.0145538328
				18:leaf=-0.0412614606
		4:[jetPtRelv2<3.17188239] yes=9,no=10,missing=9
			9:[jetPtRatio<0.619735539] yes=19,no=20,missing=19
				19:leaf=-0.0281626023
				20:leaf=0.011295802
			10:[eta<1.16663456] yes=21,no=22,missing=21
				21:leaf=0.0322426036
				22:leaf=-0.00309411879
	2:[sip3d<5.16137218] yes=5,no=6,missing=5
		5:[miniRelIsoCharged<0.201566339] yes=11,no=12,missing=11
			11:[mvaFall17V2noIso<-0.995180368] yes=23,no=24,missing=23
				23:leaf=-0.0635558665
				24:leaf=-0.000284342328
			12:[jetBTag<0.240652204] yes=25,no=26,missing=25
				25:leaf=-0.0283298139
				26:leaf=-0.0541838109
		6:[dxy<-4.54160881] yes=13,no=14,missing=13
			13:leaf=-0.00590161653
			14:[jetBTag<0.323390841] yes=27,no=28,missing=27
				27:leaf=-0.0387246534
				28:leaf=-0.0746043846
booster[72]:
0:[jetPtRelv2<2.51485896] yes=1,no=2,missing=1
	1:[jetPtRatio<0.559258699] yes=3,no=4,missing=3
		3:[jetPtRatio<0.514790773] yes=7,no=8,missing=7
			7:[jetBTag<0.0967370495] yes=15,no=16,missing=15
				15:leaf=-0.0491700694
				16:leaf=-0.0741323009
			8:leaf=-0.0354587696
		4:[pt<21.7608204] yes=9,no=10,missing=9
			9:[pfRelIso03_all<0.0770767629] yes=17,no=18,missing=17
				17:leaf=-0.0189106744
				18:leaf=0.0307537951
			10:[jetBTag<0.1216539] yes=19,no=20,missing=19
				19:leaf=0.00095866475
				20:leaf=-0.054841157
	2:[eta<-1.66047692] yes=5,no=6,missing=5
		5:[miniRelIsoCharged<0.00605421187] yes=11,no=12,missing=11
			11:[eta<-2.3330338] yes=21,no=22,missing=21
				21:leaf=-0.0438812189
				22:leaf=-0.00444142846
			12:[jetPtRatio<0.800266266] yes=23,no=24,missing=23
				23:leaf=-0.0235675648
				24:leaf=-0.0631168336
		6:[eta<1.63344681] yes=13,no=14,missing=13
			13:[jetPtRelv2<18.0614853] yes=25,no=26,missing=25
				25:leaf=0.0099871289
				26:leaf=0.0548062436
			14:[mvaFall17V2noIso<0.984668255] yes=27,no=28,missing=27
				27:leaf=-0.0325857028
				28:leaf=-0.00348136202
booster[73]:
0:[sip3d<1.37540579] yes=1,no=2,missing=1
	1:[jetPtRatio<0.242975503] yes=3,no=4,missing=3
		3:leaf=0.0688157305
		4:[jetNDauChargedMVASel<1.5] yes=7,no=8,missing=7
			7:[jetPtRatio<0.519886732] yes=13,no=14,missing=13
				13:leaf=-0.0268435311
				14:leaf=0.0193056148
			8:[pfRelIso03_all<0.0974261761] yes=15,no=16,missing=15
				15:leaf=-0.020214919
				16:leaf=0.00426968839
	2:[jetBTag<0.347639471] yes=5,no=6,missing=5
		5:[jetNDauChargedMVASel<0.5] yes=9,no=10,missing=9
			9:[dz<-3.47319555] yes=17,no=18,missing=17
				17:leaf=0.0369699933
				18:leaf=0.00407166965
			10:[mvaFall17V2noIso<0.999667883] yes=19,no=20,missing=19
				19:leaf=-0.0136965811
				20:leaf=0.00716734631
		6:[jetPtRatio<0.321526825] yes=11,no=12,missing=11
			11:leaf=0.0248130262
			12:[jetBTag<0.905037761] yes=21,no=22,missing=21
				21:leaf=-0.0208856929
				22:leaf=-0.0636015385
booster[74]:
0:[mvaFall17V2noIso<-0.996878922] yes=1,no=2,missing=1
	1:leaf=-0.065264225
	2:[jetBTag<0.0677924231] yes=3,no=4,missing=3
		3:[pfRelIso03_all<0.0121706668] yes=5,no=6,missing=5
			5:[pt<40.7273407] yes=9,no=10,missing=9
				9:leaf=0.0212779064
				10:leaf=0.06341324
			6:[pt<63.0366325] yes=11,no=12,missing=11
				11:leaf=0.0129380627
				12:leaf=-0.0131611032
		4:[pt<33.8233185] yes=7,no=8,missing=7
			7:[pfRelIso03_all<0.300990313] yes=13,no=14,missing=13
				13:leaf=0.00776949618
				14:leaf=-0.0179971661
			8:[jetPtRelv2<7.11946106] yes=15,no=16,missing=15
				15:leaf=-0.0418480821
				16:leaf=0.00242387014
booster[75]:
0:[mvaFall17V2noIso<0.999998808] yes=1,no=2,missing=1
	1:[pt<53.1141434] yes=3,no=4,missing=3
		3:[jetPtRelv2<4.17322636] yes=7,no=8,missing=7
			7:[jetPtRatio<0.58864218] yes=13,no=14,missing=13
				13:leaf=-0.0356344208
				14:leaf=0.00411762297
			8:[pt<12.3776455] yes=15,no=16,missing=15
				15:leaf=-0.0601050034
				16:leaf=0.0147406701
		4:[jetPtRelv2<16.5326729] yes=9,no=10,missing=9
			9:[jetBTag<0.050422892] yes=17,no=18,missing=17
				17:leaf=-0.00601250166
				18:leaf=-0.0527283326
			10:[jetPtRatio<0.812920332] yes=19,no=20,missing=19
				19:leaf=0.0436050184
				20:leaf=0.00233768369
	2:[jetPtRelv2<14.0581179] yes=5,no=6,missing=5
		5:[dxy<-4.90269566] yes=11,no=12,missing=11
			11:[jetNDauChargedMVASel<1.5] yes=21,no=22,missing=21
				21:leaf=0.0431313813
				22:leaf=0.0130246654
			12:leaf=-0.0294167846
		6:leaf=0.0665233359
booster[76]:
0:[miniRelIsoCharged<0.215283155] yes=1,no=2,missing=1
	1:[jetPtRatio<0.217548877] yes=3,no=4,missing=3
		3:leaf=0.0580740981
		4:[jetBTag<0.418835878] yes=7,no=8,missing=7
			7:[mvaFall17V2noIso<0.999997377] yes=13,no=14,missing=13
				13:leaf=0.000903385982
				14:leaf=0.0230352264
			8:[jetPtRelv2<5.51985168] yes=15,no=16,missing=15
				15:leaf=-0.0271831546
				16:leaf=0.00496031949
	2:[jetPtRelv2<3.11587381] yes=5,no=6,missing=5
		5:[pt<18.4561691] yes=9,no=10,missing=9
			9:leaf=-0.0264968034
			10:leaf=-0.0573518984
		6:[pfRelIso03_all<0.448443234] yes=11,no=12,missing=11
			11:leaf=-0.0329243205
			12:leaf=0.00484064454
booster[77]:
0:[dz<-3.48232985] yes=1,no=2,missing=1
	1:[miniRelIsoNeutral<2.55995474e-05] yes=3,no=4,missing=3
		3:[pt<12.0768728] yes=7,no=8,missing=7
			7:[pfRelIso03_all<0.0848614573] yes=15,no=16,missing=15
				15:leaf=-0.0457090065
				16:leaf=0.00728420122
			8:[eta<-1.59581828] yes=17,no=18,missing=17
				17:leaf=-0.00978730526
				18:leaf=0.0168329775
		4:[miniRelIsoCharged<0.0098834224] yes=9,no=10,missing=9
			9:[jetNDauChargedMVASel<1.5] yes=19,no=20,missing=19
				19:leaf=0.0106255021
				20:leaf=-0.00869890209
			10:[pt<70.0558472] yes=21,no=22,missing=21
				21:leaf=-0.00914630946
				22:leaf=-0.0572116189
	2:[miniRelIsoCharged<0.0161617175] yes=5,no=6,missing=5
		5:[pt<14.2217398] yes=11,no=12,missing=11
			11:leaf=-0.0438444018
			12:[eta<-1.57404578] yes=23,no=24,missing=23
				23:leaf=-0.0278172828
				24:leaf=0.00257907715
		6:[miniRelIsoCharged<0.0873932913] yes=13,no=14,missing=13
			13:leaf=-0.0331892334
			14:leaf=-0.0543262027
booster[78]:
0:[mvaFall17V2noIso<-0.996925592] yes=1,no=2,missing=1
	1:leaf=-0.0617770627
	2:[sip3d<5.3911252] yes=3,no=4,missing=3
		3:[jetPtRatio<0.205001622] yes=5,no=6,missing=5
			5:leaf=0.0584934466
			6:[mvaFall17V2noIso<0.999999166] yes=9,no=10,missing=9
				9:leaf=-0.00071972888
				10:leaf=0.0227078479
		4:[dxy<-4.36556959] yes=7,no=8,missing=7
			7:leaf=-0.00563845783
			8:[jetBTag<0.323390841] yes=11,no=12,missing=11
				11:leaf=-0.0389728956
				12:leaf=-0.073535867
booster[79]:
0:[dz<-5.53362751] yes=1,no=2,missing=1
	1:[jetPtRelv2<8.57179165] yes=3,no=4,missing=3
		3:[pt<28.8662453] yes=7,no=8,missing=7
			7:[jetPtRelv2<3.98247099] yes=15,no=16,missing=15
				15:leaf=0.00594304595
				16:leaf=0.029534841
			8:[mvaFall17V2noIso<0.99996233] yes=17,no=18,missing=17
				17:leaf=-0.0265877936
				18:leaf=0.00874297135
		4:[jetPtRatio<0.640086055] yes=9,no=10,missing=9
			9:[miniRelIsoNeutral<0.0229107514] yes=19,no=20,missing=19
				19:leaf=0.0714378357
				20:leaf=0.0328881852
			10:[jetBTag<0.0353789628] yes=21,no=22,missing=21
				21:leaf=0.0453209132
				22:leaf=-0.000144181875
	2:[jetNDauChargedMVASel<0.5] yes=5,no=6,missing=5
		5:[eta<-1.57481837] yes=11,no=12,missing=11
			11:leaf=-0.00434711343
			12:[eta<1.57920098] yes=23,no=24,missing=23
				23:leaf=0.0387172885
				24:leaf=-0.00463466672
		6:[sip3d<5.50331974] yes=13,no=14,missing=13
			13:[mvaFall17V2noIso<-0.333696723] yes=25,no=26,missing=25
				25:leaf=-0.0323273651
				26:leaf=-0.00342760957
			14:[dxy<-4.36556959] yes=27,no=28,missing=27
				27:leaf=-0.0240858402
				28:leaf=-0.0618485287
booster[80]:
0:[miniRelIsoCharged<0.222968429] yes=1,no=2,missing=1
	1:[jetBTag<0.0371130481] yes=3,no=4,missing=3
		3:[jetPtRatio<0.930464745] yes=7,no=8,missing=7
			7:[mvaFall17V2noIso<0.99952507] yes=15,no=16,missing=15
				15:leaf=-0.00206460175
				16:leaf=0.0253743175
			8:[mvaFall17V2noIso<0.999897838] yes=17,no=18,missing=17
				17:leaf=0.0322050564
				18:leaf=0.0783472136
		4:[pt<42.0602493] yes=9,no=10,missing=9
			9:[pfRelIso03_all<0.0848763287] yes=19,no=20,missing=19
				19:leaf=-0.00696368748
				20:leaf=0.0108077293
			10:[jetPtRatio<0.5877316] yes=21,no=22,missing=21
				21:leaf=0.0344635546
				22:leaf=-0.0259832647
	2:[jetPtRelv2<3.11603713] yes=5,no=6,missing=5
		5:[pt<18.8742752] yes=11,no=12,missing=11
			11:leaf=-0.0270914976
			12:leaf=-0.0547330454
		6:[pfRelIso03_all<0.448443234] yes=13,no=14,missing=13
			13:leaf=-0.0313181095
			14:leaf=0.00220727129
booster[81]:
0:[jetPtRelv2<2.49714851] yes=1,no=2,missing=1
	1:[jetPtRatio<0.549957633] yes=3,no=4,missing=3
		3:[jetBTag<0.416953504] yes=7,no=8,missing=7
			7:[jetPtRatio<0.505988836] yes=15,no=16,missing=15
				15:leaf=-0.0545717068
				16:leaf=-0.0247792955
			8:leaf=-0.0809816644
		4:[jetNDauChargedMVASel<2.5] yes=9,no=10,missing=9
			9:[pfRelIso03_all<0.0847026184] yes=17,no=18,missing=17
				17:leaf=-0.0110237179
				18:leaf=0.0158244129
			10:[jetBTag<0.285248399] yes=19,no=20,missing=19
				19:leaf=-0.0208205897
				20:leaf=-0.0631306171
	2:[eta<-1.59519172] yes=5,no=6,missing=5
		5:[pt<50.70541] yes=11,no=12,missing=11
			11:[eta<-2.30426741] yes=21,no=22,missing=21
				21:leaf=-0.0390467681
				22:leaf=-0.00389641034
			12:[jetPtRelv2<11.290823] yes=23,no=24,missing=23
				23:leaf=-0.0506949015
				24:leaf=-0.0127351582
		6:[eta<1.57188988] yes=13,no=14,missing=13
			13:[miniRelIsoNeutral<0.0675305426] yes=25,no=26,missing=25
				25:leaf=0.016181929
				26:leaf=-0.00669446215
			14:[pt<38.0783997] yes=27,no=28,missing=27
				27:leaf=-0.00186062919
				28:leaf=-0.0293113645
booster[82]:
0:[miniRelIsoCharged<0.0116079692] yes=1,no=2,missing=1
	1:[pt<14.5373306] yes=3,no=4,missing=3
		3:[jetPtRatio<0.820469856] yes=7,no=8,missing=7
			7:[jetPtRatio<0.51922518] yes=15,no=16,missing=15
				15:leaf=-0.0364598185
				16:leaf=0.00587939145
			8:[mvaFall17V2noIso<0.955414057] yes=17,no=18,missing=17
				17:leaf=-0.0081444066
				18:leaf=-0.0735674948
		4:[jetPtRelv2<19.5919647] yes=9,no=10,missing=9
			9:[jetNDauChargedMVASel<1.5] yes=19,no=20,missing=19
				19:leaf=0.016738249
				20:leaf=-0.00429045409
			10:[jetPtRatio<0.876512766] yes=21,no=22,missing=21
				21:leaf=0.0739104971
				22:leaf=0.0276695825
	2:[pt<67.8334503] yes=5,no=6,missing=5
		5:[miniRelIsoNeutral<0.13138479] yes=11,no=12,missing=11
			11:[miniRelIsoCharged<0.215283155] yes=23,no=24,missing=23
				23:leaf=0.00563596375
				24:leaf=-0.0247390326
			12:[pt<21.899086] yes=25,no=26,missing=25
				25:leaf=-0.0106637049
				26:leaf=-0.0426948331
		6:[pfRelIso03_all<0.292767853] yes=13,no=14,missing=13
			13:[jetPtRatio<0.8135885] yes=27,no=28,missing=27
				27:leaf=-0.0608148947
				28:leaf=-0.0999444351
			14:leaf=-0.00886506308
booster[83]:
0:[jetBTag<0.0985148549] yes=1,no=2,missing=1
	1:[jetPtRatio<0.94498992] yes=3,no=4,missing=3
		3:[mvaFall17V2noIso<0.859526753] yes=7,no=8,missing=7
			7:[pt<30.1296043] yes=15,no=16,missing=15
				15:leaf=0.00358427106
				16:leaf=-0.0305740684
			8:[pt<62.9181137] yes=17,no=18,missing=17
				17:leaf=0.012364435
				18:leaf=-0.0112840636
		4:[jetBTag<0.0319643207] yes=9,no=10,missing=9
			9:leaf=0.0616421476
			10:leaf=0.0211840663
	2:[pt<25.6782265] yes=5,no=6,missing=5
		5:[jetPtRatio<0.564829826] yes=11,no=12,missing=11
			11:[jetPtRelv2<3.91695714] yes=19,no=20,missing=19
				19:leaf=-0.0382171758
				20:leaf=0.024374485
			12:[jetBTag<0.779830694] yes=21,no=22,missing=21
				21:leaf=0.0113559207
				22:leaf=-0.0777230486
		6:[jetPtRelv2<5.4413681] yes=13,no=14,missing=13
			13:[mvaFall17V2noIso<0.998810947] yes=23,no=24,missing=23
				23:leaf=-0.0651989505
				24:leaf=-0.0286197811
			14:[jetPtRatio<0.638610959] yes=25,no=26,missing=25
				25:leaf=0.0307921749
				26:leaf=-0.0165948942
booster[84]:
0:[mvaFall17V2noIso<-0.996925592] yes=1,no=2,missing=1
	1:leaf=-0.0565025583
	2:[dxy<-6.09539032] yes=3,no=4,missing=3
		3:[eta<-1.16233087] yes=5,no=6,missing=5
			5:[miniRelIsoCharged<0.00629700813] yes=9,no=10,missing=9
				9:leaf=0.000953689625
				10:leaf=-0.0207924973
			6:[jetPtRelv2<5.42782879] yes=11,no=12,missing=11
				11:leaf=0.00622767117
				12:leaf=0.0250498652
		4:[jetBTag<0.862013102] yes=7,no=8,missing=7
			7:[dxy<-3.7284317] yes=13,no=14,missing=13
				13:leaf=-0.00368236168
				14:leaf=0.021879239
			8:[jetPtRatio<0.475332677] yes=15,no=16,missing=15
				15:leaf=0.0221128222
				16:leaf=-0.0644735917
booster[85]:
0:[sip3d<4.3546257] yes=1,no=2,missing=1
	1:[dxy<-3.88409567] yes=3,no=4,missing=3
		3:[mvaFall17V2noIso<0.999999404] yes=7,no=8,missing=7
			7:[pt<36.2512741] yes=13,no=14,missing=13
				13:leaf=0.00277280598
				14:leaf=-0.0132581247
			8:[miniRelIsoCharged<0.0162730552] yes=15,no=16,missing=15
				15:leaf=0.038069088
				16:leaf=0.00543921022
		4:[dz<-3.75276518] yes=9,no=10,missing=9
			9:[jetPtRatio<0.649543643] yes=17,no=18,missing=17
				17:leaf=0.0265526008
				18:leaf=0.052511286
			10:leaf=-0.00497090211
	2:[jetNDauChargedMVASel<0.5] yes=5,no=6,missing=5
		5:leaf=0.0340121835
		6:[dxy<-4.67144442] yes=11,no=12,missing=11
			11:[jetBTag<0.287563026] yes=19,no=20,missing=19
				19:leaf=0.00848403852
				20:leaf=-0.0262437295
			12:[jetBTag<0.405738264] yes=21,no=22,missing=21
				21:leaf=-0.0328908078
				22:leaf=-0.066068843
booster[86]:
0:[jetBTag<0.0557826459] yes=1,no=2,missing=1
	1:[miniRelIsoCharged<0.0187626481] yes=3,no=4,missing=3
		3:[jetPtRatio<0.952623606] yes=7,no=8,missing=7
			7:[mvaFall17V2noIso<0.999638557] yes=15,no=16,missing=15
				15:leaf=0.00589063857
				16:leaf=0.0271382071
			8:leaf=0.0547360256
		4:[jetNDauChargedMVASel<4.5] yes=9,no=10,missing=9
			9:[pt<60.2916565] yes=17,no=18,missing=17
				17:leaf=-0.00161849044
				18:leaf=-0.0619326904
			10:[jetPtRelv2<6.64274406] yes=19,no=20,missing=19
				19:leaf=0.0178790186
				20:leaf=0.0434777439
	2:[pt<30.6366119] yes=5,no=6,missing=5
		5:[pfRelIso03_all<0.34878543] yes=11,no=12,missing=11
			11:[pfRelIso03_all<0.0848020315] yes=21,no=22,missing=21
				21:leaf=-0.00783139374
				22:leaf=0.0207195375
			12:[jetPtRelv2<3.47801685] yes=23,no=24,missing=23
				23:leaf=-0.0343996547
				24:leaf=0.0047793081
		6:[jetPtRatio<0.488261521] yes=13,no=14,missing=13
			13:[miniRelIsoNeutral<0.0606780089] yes=25,no=26,missing=25
				25:leaf=0.0578762777
				26:leaf=-0.000597219449
			14:[mvaFall17V2noIso<0.999939442] yes=27,no=28,missing=27
				27:leaf=-0.0340654776
				28:leaf=-0.00446963264
booster[87]:
0:[jetPtRelv2<2.48355961] yes=1,no=2,missing=1
	1:[jetPtRatio<0.530641556] yes=3,no=4,missing=3
		3:[jetBTag<0.345783621] yes=7,no=8,missing=7
			7:[pt<14.9778347] yes=15,no=16,missing=15
				15:leaf=-0.0330439284
				16:leaf=-0.0555202328
			8:leaf=-0.0743284449
		4:[pt<20.0003586] yes=9,no=10,missing=9
			9:[pfRelIso03_all<0.0770772547] yes=17,no=18,missing=17
				17:leaf=-0.0158238634
				18:leaf=0.0243335497
			10:[jetPtRatio<0.696272969] yes=19,no=20,missing=19
				19:leaf=-0.0448281728
				20:leaf=0.000536895241
	2:[jetPtRatio<0.807014465] yes=5,no=6,missing=5
		5:[miniRelIsoNeutral<0.0973515809] yes=11,no=12,missing=11
			11:[jetPtRelv2<9.26961136] yes=21,no=22,missing=21
				21:leaf=0.00954354461
				22:leaf=0.0371870212
			12:[pt<21.9008484] yes=23,no=24,missing=23
				23:leaf=0.0128813228
				24:leaf=-0.01910959
		6:[pt<14.267416] yes=13,no=14,missing=13
			13:[mvaFall17V2noIso<0.972690582] yes=25,no=26,missing=25
				25:leaf=-0.00582837965
				26:leaf=-0.0707259476
			14:[miniRelIsoCharged<0.0384504236] yes=27,no=28,missing=27
				27:leaf=0.00488943001
				28:leaf=-0.0395061485
booster[88]:
0:[jetPtRatio<0.174233794] yes=1,no=2,missing=1
	1:leaf=0.0549001098
	2:[jetBTag<0.822533727] yes=3,no=4,missing=3
		3:[jetNDauChargedMVASel<2.5] yes=5,no=6,missing=5
			5:[eta<2.30455828] yes=9,no=10,missing=9
				9:leaf=0.00519403769
				10:leaf=-0.0399512276
			6:[jetPtRelv2<2.80694985] yes=11,no=12,missing=11
				11:leaf=-0.0323225372
				12:leaf=-0.000505476492
		4:[jetPtRatio<0.551412165] yes=7,no=8,missing=7
			7:[jetPtRelv2<5.79677916] yes=13,no=14,missing=13
				13:leaf=-0.0352825113
				14:leaf=0.0579411462
			8:[pt<34.7343292] yes=15,no=16,missing=15
				15:leaf=-0.0801301301
				16:leaf=-0.0344047248
booster[89]:
0:[jetBTag<0.0849718899] yes=1,no=2,missing=1
	1:[pfRelIso03_all<0.0124396738] yes=3,no=4,missing=3
		3:[pt<40.7914963] yes=7,no=8,missing=7
			7:leaf=0.0107741253
			8:[mvaFall17V2noIso<0.999833941] yes=15,no=16,missing=15
				15:leaf=0.0294637363
				16:leaf=0.0677431524
		4:[pt<65.3188629] yes=9,no=10,missing=9
			9:[mvaFall17V2noIso<0.814845681] yes=17,no=18,missing=17
				17:leaf=-0.0146253305
				18:leaf=0.0116088064
			10:[miniRelIsoCharged<0.00725206919] yes=19,no=20,missing=19
				19:leaf=0.00485119969
				20:leaf=-0.040240556
	2:[pt<26.4275589] yes=5,no=6,missing=5
		5:[pfRelIso03_all<0.0765169114] yes=11,no=12,missing=11
			11:[pt<14.0789299] yes=21,no=22,missing=21
				21:leaf=-0.0291684065
				22:leaf=0.00313504576
			12:[pfRelIso03_all<0.268904269] yes=23,no=24,missing=23
				23:leaf=0.0236999858
				24:leaf=-0.0120128961
		6:[jetPtRelv2<5.48678398] yes=13,no=14,missing=13
			13:[mvaFall17V2noIso<0.994608521] yes=25,no=26,missing=25
				25:leaf=-0.0634792745
				26:leaf=-0.0240821689
			14:[jetPtRatio<0.643521905] yes=27,no=28,missing=27
				27:leaf=0.024141876
				28:leaf=-0.0126620652
booster[90]:
0:[eta<-1.65456367] yes=1,no=2,missing=1
	1:[eta<-2.38003039] yes=3,no=4,missing=3
		3:leaf=-0.0457180589
		4:[sip3d<1.28447115] yes=7,no=8,missing=7
			7:[pt<20.3569603] yes=13,no=14,missing=13
				13:leaf=0.0170373525
				14:leaf=-0.0118752718
			8:[miniRelIsoCharged<0.078870073] yes=15,no=16,missing=15
				15:leaf=-0.0151914908
				16:leaf=-0.0487191565
	2:[miniRelIsoNeutral<2.55995474e-05] yes=5,no=6,missing=5
		5:[pt<15.2983189] yes=9,no=10,missing=9
			9:[jetPtRatio<0.841825843] yes=17,no=18,missing=17
				17:leaf=0.000217928624
				18:leaf=-0.0351198874
			10:[eta<1.57320046] yes=19,no=20,missing=19
				19:leaf=0.0216815751
				20:leaf=-0.0121604605
		6:[eta<-1.4749434] yes=11,no=12,missing=11
			11:leaf=0.0386175476
			12:[jetPtRelv2<2.52299929] yes=21,no=22,missing=21
				21:leaf=-0.0155038433
				22:leaf=-0.00127341109
booster[91]:
0:[mvaFall17V2noIso<-0.997420311] yes=1,no=2,missing=1
	1:leaf=-0.0530310981
	2:[jetNDauChargedMVASel<0.5] yes=3,no=4,missing=3
		3:[jetPtRatio<0.659238756] yes=5,no=6,missing=5
			5:leaf=0.00114730175
			6:[jetBTag<0.0431368276] yes=9,no=10,missing=9
				9:leaf=0.047517553
				10:leaf=0.0193059649
		4:[sip3d<5.5448494] yes=7,no=8,missing=7
			7:[jetPtRatio<0.249753267] yes=11,no=12,missing=11
				11:leaf=0.0360669382
				12:leaf=-0.000669307134
			8:[dxy<-4.36556959] yes=13,no=14,missing=13
				13:leaf=-0.0191804152
				14:leaf=-0.0553170033
booster[92]:
0:[sip3d<1.34579945] yes=1,no=2,missing=1
	1:[pt<27.6597099] yes=3,no=4,missing=3
		3:[pfRelIso03_all<0.0940240324] yes=7,no=8,missing=7
			7:[jetBTag<0.33862257] yes=15,no=16,missing=15
				15:leaf=-0.0111886626
				16:leaf=0.0246267058
			8:[pfRelIso03_all<0.275662601] yes=17,no=18,missing=17
				17:leaf=0.0313063078
				18:leaf=0.00296126097
		4:[pfRelIso03_all<0.503231108] yes=9,no=10,missing=9
			9:[jetBTag<0.125356734] yes=19,no=20,missing=19
				19:leaf=0.0025780946
				20:leaf=-0.0320472829
			10:leaf=0.0563156679
	2:[jetBTag<0.334459186] yes=5,no=6,missing=5
		5:[eta<-1.56870747] yes=11,no=12,missing=11
			11:[dxy<-3.82211065] yes=21,no=22,missing=21
				21:leaf=-0.0227464605
				22:leaf=0.00805336051
			12:[eta<-1.42767739] yes=23,no=24,missing=23
				23:leaf=0.0508629382
				24:leaf=0.00193675631
