booster[0]:
0:[MVA_btagSum<0.0426635742] yes=1,no=2,missing=2
	1:[MVA_MET<57.6893311] yes=3,no=4,missing=4
		3:[MVA_llM<109.261726] yes=7,no=8,missing=8
			7:[MVA_llM<74.9836349] yes=15,no=16,missing=16
				15:[MVA_MET<32.9237366] yes=31,no=32,missing=32
					31:leaf=0.290883929
					32:leaf=-0.16653128
				16:[MVA_llM<100.170288] yes=33,no=34,missing=34
					33:leaf=0.570192218
					34:leaf=0.317990005
			8:[MVA_MET<35.6386681] yes=17,no=18,missing=18
				17:[MVA_llM<138.126495] yes=35,no=36,missing=36
					35:leaf=0.132905871
					36:leaf=-0.236847132
				18:[MVA_llM<127.281555] yes=37,no=38,missing=38
					37:leaf=-0.271155655
					38:leaf=-0.489337951
		4:[MVA_MET<76.1309662] yes=9,no=10,missing=10
			9:[MVA_llM<99.5369415] yes=19,no=20,missing=20
				19:[MVA_llM<82.0414352] yes=39,no=40,missing=40
					39:leaf=-0.453963578
					40:leaf=0.299452722
				20:[MVA_llM<114.468834] yes=41,no=42,missing=42
					41:leaf=-0.410575122
					42:leaf=-0.569430828
			10:[MVA_MET<89.1177368] yes=21,no=22,missing=22
				21:[MVA_llM<103.060326] yes=43,no=44,missing=44
					43:leaf=-0.352750778
					44:leaf=-0.58318007
				22:leaf=-0.578871906
	2:[MVA_btagSum<0.204620361] yes=5,no=6,missing=6
		5:[MVA_MET<46.001461] yes=11,no=12,missing=12
			11:[MVA_llM<102.242714] yes=23,no=24,missing=24
				23:[MVA_llM<80.7022858] yes=45,no=46,missing=46
					45:leaf=-0.257299036
					46:leaf=0.477453023
				24:[MVA_llM<114.468834] yes=47,no=48,missing=48
					47:leaf=-0.288757086
					48:leaf=-0.510595024
			12:[MVA_MET<60.7535591] yes=25,no=26,missing=26
				25:[MVA_llM<98.4692612] yes=49,no=50,missing=50
					49:leaf=-0.140115261
					50:leaf=-0.554267824
				26:[MVA_MET<76.1309662] yes=51,no=52,missing=52
					51:leaf=-0.496681601
					52:leaf=-0.58324784
		6:[MVA_MET<31.8373852] yes=13,no=14,missing=14
			13:[MVA_llM<99.5369415] yes=27,no=28,missing=28
				27:[MVA_llM<85.5845947] yes=53,no=54,missing=54
					53:leaf=-0.515150726
					54:leaf=0.0660816506
				28:leaf=-0.581386209
			14:[MVA_MET<50.6111221] yes=29,no=30,missing=30
				29:[MVA_btagSum<0.502441406] yes=55,no=56,missing=56
					55:leaf=-0.418208867
					56:leaf=-0.566866457
				30:leaf=-0.59384799
booster[1]:
0:[MVA_btagSum<0.0571289062] yes=1,no=2,missing=2
	1:[MVA_MET<52.1616898] yes=3,no=4,missing=4
		3:[MVA_llM<107.379295] yes=7,no=8,missing=8
			7:[MVA_llM<71.4450989] yes=15,no=16,missing=16
				15:[MVA_llDr<1.77954793] yes=31,no=32,missing=32
					31:leaf=-0.135631308
					32:leaf=0.240022868
				16:[MVA_llM<82.4529648] yes=33,no=34,missing=34
					33:leaf=0.299766451
					34:leaf=0.441986889
			8:[MVA_MET<31.5749817] yes=17,no=18,missing=18
				17:[MVA_Ht<30.9091129] yes=35,no=36,missing=36
					35:leaf=0.102050334
					36:leaf=-0.240631625
				18:[MVA_llM<134.940857] yes=37,no=38,missing=38
					37:leaf=-0.162928626
					38:leaf=-0.353348792
		4:[MVA_MET<67.6171951] yes=9,no=10,missing=10
			9:[MVA_llM<97.546524] yes=19,no=20,missing=20
				19:[MVA_llM<84.541832] yes=39,no=40,missing=40
					39:leaf=-0.279749572
					40:leaf=0.336941749
				20:[MVA_llM<114.468834] yes=41,no=42,missing=42
					41:leaf=-0.238700837
					42:leaf=-0.421357065
			10:[MVA_llM<97.9669571] yes=21,no=22,missing=22
				21:[MVA_llM<86.6123734] yes=43,no=44,missing=44
					43:leaf=-0.437930495
					44:leaf=-0.0357166193
				22:leaf=-0.457392722
	2:[MVA_btagSum<0.303222656] yes=5,no=6,missing=6
		5:[MVA_MET<43.0761185] yes=11,no=12,missing=12
			11:[MVA_llM<102.242714] yes=23,no=24,missing=24
				23:[MVA_llM<81.6098328] yes=45,no=46,missing=46
					45:leaf=-0.199664608
					46:leaf=0.358692229
				24:[MVA_Ht<40.5242081] yes=47,no=48,missing=48
					47:leaf=-0.178116411
					48:leaf=-0.402006358
			12:[MVA_MET<60.7535591] yes=25,no=26,missing=26
				25:[MVA_llM<97.1204758] yes=49,no=50,missing=50
					49:leaf=-0.125747815
					50:leaf=-0.432651013
				26:[MVA_llM<100.170288] yes=51,no=52,missing=52
					51:leaf=-0.408154339
					52:leaf=-0.463752717
		6:[MVA_MET<25.9307556] yes=13,no=14,missing=14
			13:[MVA_llM<96.7388763] yes=27,no=28,missing=28
				27:[MVA_llM<80.7022858] yes=53,no=54,missing=54
					53:leaf=-0.418644309
					54:leaf=0.0422752909
				28:leaf=-0.451461464
			14:[MVA_MET<44.2985573] yes=29,no=30,missing=30
				29:[MVA_llM<97.9669571] yes=55,no=56,missing=56
					55:leaf=-0.363977015
					56:leaf=-0.462065816
				30:leaf=-0.458171844
booster[2]:
0:[MVA_btagSum<0.0343322754] yes=1,no=2,missing=2
	1:[MVA_MET<49.6487083] yes=3,no=4,missing=4
		3:[MVA_llM<109.261726] yes=7,no=8,missing=8
			7:[MVA_llM<79.1732025] yes=15,no=16,missing=16
				15:[MVA_llDr<1.87595725] yes=31,no=32,missing=32
					31:leaf=-0.0562765412
					32:leaf=0.233273268
				16:[MVA_llM<96.7388763] yes=33,no=34,missing=34
					33:leaf=0.386894077
					34:leaf=0.23998557
			8:[MVA_llM<127.281555] yes=17,no=18,missing=18
				17:[MVA_MET<31.8373852] yes=35,no=36,missing=36
					35:leaf=0.178365082
					36:leaf=-0.0980785787
				18:[MVA_MET<22.8981724] yes=37,no=38,missing=38
					37:leaf=-0.0413923189
					38:leaf=-0.2237937
		4:[MVA_MET<69.7957153] yes=9,no=10,missing=10
			9:[MVA_llM<100.842751] yes=19,no=20,missing=20
				19:[MVA_llM<81.1753769] yes=39,no=40,missing=40
					39:leaf=-0.248211488
					40:leaf=0.240176916
				20:[MVA_llM<104.725906] yes=41,no=42,missing=42
					41:leaf=-0.121318258
					42:leaf=-0.331292808
			10:[MVA_MET<86.360672] yes=21,no=22,missing=22
				21:[MVA_llM<96.7388763] yes=43,no=44,missing=44
					43:leaf=-0.128852546
					44:leaf=-0.365953505
				22:leaf=-0.38280943
	2:[MVA_MET<36.9223709] yes=5,no=6,missing=6
		5:[MVA_btagSum<0.472167969] yes=11,no=12,missing=12
			11:[MVA_llM<98.4692612] yes=23,no=24,missing=24
				23:[MVA_llM<84.257988] yes=45,no=46,missing=46
					45:leaf=-0.113355935
					46:leaf=0.34454149
				24:[MVA_llM<105.644005] yes=47,no=48,missing=48
					47:leaf=-0.0871187672
					48:leaf=-0.317529082
			12:[MVA_Ht<43.8565254] yes=25,no=26,missing=26
				25:[MVA_llM<97.9669571] yes=49,no=50,missing=50
					49:leaf=0.0306318831
					50:leaf=-0.350344002
				26:[MVA_llM<95.2785568] yes=51,no=52,missing=52
					51:leaf=-0.307766914
					52:leaf=-0.399606913
		6:[MVA_btagSum<0.162694931] yes=13,no=14,missing=14
			13:[MVA_MET<60.7535591] yes=27,no=28,missing=28
				27:[MVA_llM<97.1204758] yes=53,no=54,missing=54
					53:leaf=0.000165688078
					54:leaf=-0.358291507
				28:[MVA_MET<78.5224304] yes=55,no=56,missing=56
					55:leaf=-0.290930569
					56:leaf=-0.390974462
			14:[MVA_MET<55.3876839] yes=29,no=30,missing=30
				29:[MVA_btagSum<0.39666748] yes=57,no=58,missing=58
					57:leaf=-0.239019826
					58:leaf=-0.373244464
				30:leaf=-0.39801535
booster[3]:
0:[MVA_btagSum<0.02734375] yes=1,no=2,missing=2
	1:[MVA_MET<44.7125626] yes=3,no=4,missing=4
		3:[MVA_llM<103.060326] yes=7,no=8,missing=8
			7:[MVA_llM<82.0414352] yes=15,no=16,missing=16
				15:[MVA_llDr<1.9758848] yes=31,no=32,missing=32
					31:leaf=-0.000898501545
					32:leaf=0.231771424
				16:[MVA_llM<95.7787628] yes=33,no=34,missing=34
					33:leaf=0.354572117
					34:leaf=0.268376559
			8:[MVA_llM<145.574829] yes=17,no=18,missing=18
				17:[MVA_btagSum<0.00408554077] yes=35,no=36,missing=36
					35:leaf=0.143359125
					36:leaf=-0.10615515
				18:[MVA_Topmass<101.80442] yes=37,no=38,missing=38
					37:leaf=-0.0893564373
					38:leaf=-0.242252082
		4:[MVA_llM<97.9669571] yes=9,no=10,missing=10
			9:[MVA_llM<85.3434982] yes=19,no=20,missing=20
				19:[MVA_llDr<2.14383078] yes=39,no=40,missing=40
					39:leaf=-0.330778122
					40:leaf=-0.128844619
				20:[MVA_MET<89.1177368] yes=41,no=42,missing=42
					41:leaf=0.249033242
					42:leaf=-0.234094113
			10:[MVA_MET<64.8213425] yes=21,no=22,missing=22
				21:[MVA_llM<125.856453] yes=43,no=44,missing=44
					43:leaf=-0.141407877
					44:leaf=-0.306110948
				22:[MVA_llM<103.926605] yes=45,no=46,missing=46
					45:leaf=-0.249150053
					46:leaf=-0.3580302
	2:[MVA_MET<41.5002327] yes=5,no=6,missing=6
		5:[MVA_btagSum<0.328857422] yes=11,no=12,missing=12
			11:[MVA_llM<100.170288] yes=23,no=24,missing=24
				23:[MVA_llM<77.9670715] yes=47,no=48,missing=48
					47:leaf=-0.146102369
					48:leaf=0.26707384
				24:[MVA_Ht<38.2714615] yes=49,no=50,missing=50
					49:leaf=-0.0266621709
					50:leaf=-0.270669401
			12:[MVA_llM<97.1204758] yes=25,no=26,missing=26
				25:[MVA_llM<87.8949738] yes=51,no=52,missing=52
					51:leaf=-0.313638657
					52:leaf=0.102407806
				26:[MVA_Topmass<101.80442] yes=53,no=54,missing=54
					53:leaf=-0.103876315
					54:leaf=-0.356434166
		6:[MVA_btagSum<0.204620361] yes=13,no=14,missing=14
			13:[MVA_MET<69.0216599] yes=27,no=28,missing=28
				27:[MVA_llM<83.2431793] yes=55,no=56,missing=56
					55:leaf=-0.364653975
					56:leaf=-0.0587411039
				28:[MVA_MET<80.1831741] yes=57,no=58,missing=58
					57:leaf=-0.261409581
					58:leaf=-0.353403658
			14:[MVA_MET<62.070694] yes=29,no=30,missing=30
				29:[MVA_btagSum<0.670410156] yes=59,no=60,missing=60
					59:leaf=-0.256385624
					60:leaf=-0.350535154
				30:leaf=-0.365384579
booster[4]:
0:[MVA_btagSum<0.0823974609] yes=1,no=2,missing=2
	1:[MVA_MET<42.3087578] yes=3,no=4,missing=4
		3:[MVA_llM<102.242714] yes=7,no=8,missing=8
			7:[MVA_llM<79.1732025] yes=15,no=16,missing=16
				15:[MVA_MET<22.2197247] yes=31,no=32,missing=32
					31:leaf=0.205423489
					32:leaf=-0.00211470365
				16:[MVA_llM<95.0625] yes=33,no=34,missing=34
					33:leaf=0.322994798
					34:leaf=0.239683658
			8:[MVA_llM<163.016846] yes=17,no=18,missing=18
				17:[MVA_MET<25.6899796] yes=35,no=36,missing=36
					35:leaf=0.138945162
					36:leaf=-0.0561944507
				18:[MVA_Topmass<115.871521] yes=37,no=38,missing=38
					37:leaf=-0.094853051
					38:leaf=-0.24235335
		4:[MVA_llM<96.0858765] yes=9,no=10,missing=10
			9:[MVA_llM<86.7887878] yes=19,no=20,missing=20
				19:[MVA_MET<73.7211914] yes=39,no=40,missing=40
					39:leaf=-0.116702616
					40:leaf=-0.318450779
				20:[MVA_MET<90.0560608] yes=41,no=42,missing=42
					41:leaf=0.243969113
					42:leaf=-0.187702909
			10:[MVA_MET<59.5254211] yes=21,no=22,missing=22
				21:[MVA_Ht<32.9086494] yes=43,no=44,missing=44
					43:leaf=-0.126516715
					44:leaf=-0.321316034
				22:[MVA_llM<104.725906] yes=45,no=46,missing=46
					45:leaf=-0.241207048
					46:leaf=-0.332402319
	2:[MVA_MET<25.4397182] yes=5,no=6,missing=6
		5:[MVA_btagSum<0.7109375] yes=11,no=12,missing=12
			11:[MVA_llM<97.546524] yes=23,no=24,missing=24
				23:[MVA_llM<82.0414352] yes=47,no=48,missing=48
					47:leaf=-0.0956299305
					48:leaf=0.252240986
				24:[MVA_Ht<30.3141575] yes=49,no=50,missing=50
					49:leaf=0.161770597
					50:leaf=-0.253848821
			12:[MVA_Ht<62.2461014] yes=25,no=26,missing=26
				25:[MVA_llM<97.1204758] yes=51,no=52,missing=52
					51:leaf=-0.00768236676
					52:leaf=-0.28833279
				26:[MVA_Topmass<375.424591] yes=53,no=54,missing=54
					53:leaf=-0.304274082
					54:leaf=-0.0311199091
		6:[MVA_Ht<37.8399124] yes=13,no=14,missing=14
			13:[MVA_llM<97.1204758] yes=27,no=28,missing=28
				27:[MVA_llM<86.2207413] yes=55,no=56,missing=56
					55:leaf=-0.247162297
					56:leaf=0.36223352
				28:[MVA_llM<102.242714] yes=57,no=58,missing=58
					57:leaf=-0.148191914
					58:leaf=-0.327002227
			14:[MVA_MET<57.6893311] yes=29,no=30,missing=30
				29:[MVA_llM<97.9669571] yes=59,no=60,missing=60
					59:leaf=-0.220790967
					60:leaf=-0.339590907
				30:[MVA_btagSum<0.367630005] yes=61,no=62,missing=62
					61:leaf=-0.309106499
					62:leaf=-0.343650103
booster[5]:
0:[MVA_btagSum<0.0117340088] yes=1,no=2,missing=2
	1:[MVA_MET<61.4122429] yes=3,no=4,missing=4
		3:[MVA_llM<102.242714] yes=7,no=8,missing=8
			7:[MVA_llM<81.6098328] yes=15,no=16,missing=16
				15:[MVA_MET<32.1133308] yes=31,no=32,missing=32
					31:leaf=0.177520752
					32:leaf=-0.0424871668
				16:[MVA_MET<38.5433769] yes=33,no=34,missing=34
					33:leaf=0.311222047
					34:leaf=0.208825648
			8:[MVA_MET<36.5891342] yes=17,no=18,missing=18
				17:[MVA_llM<128.710571] yes=35,no=36,missing=36
					35:leaf=0.128951222
					36:leaf=-0.0234000012
				18:[MVA_llM<138.126495] yes=37,no=38,missing=38
					37:leaf=-0.0834561735
					38:leaf=-0.202171266
		4:[MVA_MET<81.0266876] yes=9,no=10,missing=10
			9:[MVA_llM<105.644005] yes=19,no=20,missing=20
				19:[MVA_llM<74.244194] yes=39,no=40,missing=40
					39:leaf=-0.241767198
					40:leaf=0.0656337291
				20:[MVA_llM<121.835663] yes=41,no=42,missing=42
					41:leaf=-0.152918801
					42:leaf=-0.282757968
			10:[MVA_llM<96.0858765] yes=21,no=22,missing=22
				21:[MVA_llM<84.257988] yes=43,no=44,missing=44
					43:leaf=-0.297943026
					44:leaf=-0.0294469092
				22:[MVA_llDr<1.79915476] yes=45,no=46,missing=46
					45:leaf=-0.0945565253
					46:leaf=-0.325820237
	2:[MVA_MET<48.713047] yes=5,no=6,missing=6
		5:[MVA_btagSum<0.531738281] yes=11,no=12,missing=12
			11:[MVA_llM<96.0858765] yes=23,no=24,missing=24
				23:[MVA_llM<84.257988] yes=47,no=48,missing=48
					47:leaf=-0.120359316
					48:leaf=0.252280682
				24:[MVA_Ht<40.9395218] yes=49,no=50,missing=50
					49:leaf=-0.046860151
					50:leaf=-0.225485325
			12:[MVA_llM<95.2785568] yes=25,no=26,missing=26
				25:[MVA_llM<83.9366531] yes=51,no=52,missing=52
					51:leaf=-0.305891275
					52:leaf=0.0550555065
				26:[MVA_llM<106.486519] yes=53,no=54,missing=54
					53:leaf=-0.252144545
					54:leaf=-0.327578545
		6:[MVA_btagSum<0.383972168] yes=13,no=14,missing=14
			13:[MVA_llM<103.060326] yes=27,no=28,missing=28
				27:[MVA_llM<86.9464569] yes=55,no=56,missing=56
					55:leaf=-0.286840767
					56:leaf=0.0475567654
				28:leaf=-0.319902331
			14:[MVA_MET<62.7348328] yes=29,no=30,missing=30
				29:[MVA_btagSum<0.65625] yes=57,no=58,missing=58
					57:leaf=-0.207156241
					58:leaf=-0.308082223
				30:leaf=-0.329395801
booster[6]:
0:[MVA_Ht<44.8809013] yes=1,no=2,missing=2
	1:[MVA_MET<46.4359245] yes=3,no=4,missing=4
		3:[MVA_llM<102.242714] yes=7,no=8,missing=8
			7:[MVA_llM<77.4315109] yes=15,no=16,missing=16
				15:[MVA_llDr<1.73923254] yes=31,no=32,missing=32
					31:leaf=-0.0718940943
					32:leaf=0.140880272
				16:[MVA_llDr<2.26989937] yes=33,no=34,missing=34
					33:leaf=0.189059988
					34:leaf=0.294008017
			8:[MVA_MET<15.0765247] yes=17,no=18,missing=18
				17:[MVA_tauPt<35.966301] yes=35,no=36,missing=36
					35:leaf=0.201856479
					36:leaf=-0.0127515225
				18:[MVA_llM<183.386444] yes=37,no=38,missing=38
					37:leaf=-0.0113558006
					38:leaf=-0.195839196
		4:[MVA_llM<94.6418762] yes=9,no=10,missing=10
			9:[MVA_llM<80.2078018] yes=19,no=20,missing=20
				19:[MVA_MET<69.7957153] yes=39,no=40,missing=40
					39:leaf=-0.0890732259
					40:leaf=-0.294178069
				20:[MVA_MET<94.1172638] yes=41,no=42,missing=42
					41:leaf=0.177434459
					42:leaf=-0.18264845
			10:[MVA_MET<67.6171951] yes=21,no=22,missing=22
				21:[MVA_llM<114.468834] yes=43,no=44,missing=44
					43:leaf=-0.049911771
					44:leaf=-0.228206739
				22:[MVA_MET<80.1831741] yes=45,no=46,missing=46
					45:leaf=-0.228129864
					46:leaf=-0.306057572
	2:[MVA_btagSum<0.14125824] yes=5,no=6,missing=6
		5:[MVA_MET<31.0438671] yes=11,no=12,missing=12
			11:[MVA_llM<108.236618] yes=23,no=24,missing=24
				23:[MVA_llM<86.2207413] yes=47,no=48,missing=48
					47:leaf=-0.0478207767
					48:leaf=0.225966737
				24:[MVA_Topmass<245.277603] yes=49,no=50,missing=50
					49:leaf=-0.169478193
					50:leaf=0.0399846435
			12:[MVA_llM<97.9669571] yes=25,no=26,missing=26
				25:[MVA_llM<84.541832] yes=51,no=52,missing=52
					51:leaf=-0.233697101
					52:leaf=0.0455175117
				26:[MVA_llDr<1.42479134] yes=53,no=54,missing=54
					53:leaf=0.0697275624
					54:leaf=-0.27940017
		6:[MVA_MET<49.1834717] yes=13,no=14,missing=14
			13:[MVA_llM<95.2785568] yes=27,no=28,missing=28
				27:[MVA_llM<87.3964539] yes=55,no=56,missing=56
					55:leaf=-0.258305341
					56:leaf=0.0957022309
				28:[MVA_llDr<1.30363715] yes=57,no=58,missing=58
					57:leaf=0.0268759634
					58:leaf=-0.295917541
			14:[MVA_btagSum<0.427490234] yes=29,no=30,missing=30
				29:[MVA_llM<99.5369415] yes=59,no=60,missing=60
					59:leaf=-0.208046868
					60:leaf=-0.312871963
				30:leaf=-0.31392312
booster[7]:
0:[MVA_Ht<31.8940887] yes=1,no=2,missing=2
	1:[MVA_MET<35.6386681] yes=3,no=4,missing=4
		3:[MVA_llM<110.292809] yes=7,no=8,missing=8
			7:[MVA_llM<83.6114731] yes=15,no=16,missing=16
				15:[MVA_llDr<2.02164793] yes=31,no=32,missing=32
					31:leaf=0.0211901087
					32:leaf=0.180961162
				16:[MVA_llM<97.546524] yes=33,no=34,missing=34
					33:leaf=0.287492514
					34:leaf=0.152168736
			8:[MVA_llDr<3.17238307] yes=17,no=18,missing=18
				17:[MVA_llDr<2.50392294] yes=35,no=36,missing=36
					35:leaf=-0.159177884
					36:leaf=0.0956940278
				18:[MVA_tauPt<20.5309448] yes=37,no=38,missing=38
					37:leaf=0.269698709
					38:leaf=-0.111846231
		4:[MVA_llM<94.6418762] yes=9,no=10,missing=10
			9:[MVA_llM<86.6123734] yes=19,no=20,missing=20
				19:[MVA_llDr<2.47326493] yes=39,no=40,missing=40
					39:leaf=-0.169452757
					40:leaf=0.0710564032
				20:[MVA_MET<64.8213425] yes=41,no=42,missing=42
					41:leaf=0.247110859
					42:leaf=0.0795492083
			10:[MVA_MET<59.5254211] yes=21,no=22,missing=22
				21:[MVA_tauPt<28.0953331] yes=43,no=44,missing=44
					43:leaf=0.028055165
					44:leaf=-0.129580721
				22:[MVA_llM<121.835663] yes=45,no=46,missing=46
					45:leaf=-0.169074267
					46:leaf=-0.283716559
	2:[MVA_MET<55.9669037] yes=5,no=6,missing=6
		5:[MVA_btagSum<0.545410156] yes=11,no=12,missing=12
			11:[MVA_llM<95.5134277] yes=23,no=24,missing=24
				23:[MVA_llM<83.6114731] yes=47,no=48,missing=48
					47:leaf=-0.083604306
					48:leaf=0.189746857
				24:[MVA_MET<25.2106361] yes=49,no=50,missing=50
					49:leaf=-0.0385848396
					50:leaf=-0.175472498
			12:[MVA_llM<104.725906] yes=25,no=26,missing=26
				25:[MVA_llM<84.8238602] yes=51,no=52,missing=52
					51:leaf=-0.277111888
					52:leaf=-0.04973552
				26:leaf=-0.305025101
		6:[MVA_btagSum<0.224853516] yes=13,no=14,missing=14
			13:[MVA_MET<79.3380585] yes=27,no=28,missing=28
				27:[MVA_llM<103.926605] yes=53,no=54,missing=54
					53:leaf=-0.0764385611
					54:leaf=-0.267886579
				28:[MVA_MET<98.7866592] yes=55,no=56,missing=56
					55:leaf=-0.226459384
					56:leaf=-0.305279613
			14:[MVA_MET<62.7348328] yes=29,no=30,missing=30
				29:[MVA_btagSum<0.684082031] yes=57,no=58,missing=58
					57:leaf=-0.122229576
					58:leaf=-0.28771165
				30:leaf=-0.307592869
booster[8]:
0:[MVA_btagSum<0.14125824] yes=1,no=2,missing=2
	1:[MVA_MET<38.8848152] yes=3,no=4,missing=4
		3:[MVA_llM<98.4692612] yes=7,no=8,missing=8
			7:[MVA_llM<86.2207413] yes=15,no=16,missing=16
				15:[MVA_llDr<2.39241338] yes=31,no=32,missing=32
					31:leaf=0.00204687309
					32:leaf=0.157821685
				16:[MVA_llM<95.0625] yes=33,no=34,missing=34
					33:leaf=0.268817186
					34:leaf=0.133017078
			8:[MVA_llM<145.574829] yes=17,no=18,missing=18
				17:[MVA_llDr<2.40956163] yes=35,no=36,missing=36
					35:leaf=-0.0697289854
					36:leaf=0.0771583319
				18:[MVA_btagSum<0.0117340088] yes=37,no=38,missing=38
					37:leaf=-0.0310574919
					38:leaf=-0.157579213
		4:[MVA_MET<77.7025909] yes=9,no=10,missing=10
			9:[MVA_llDr<2.25913095] yes=19,no=20,missing=20
				19:[MVA_Topmass<316.557098] yes=39,no=40,missing=40
					39:leaf=-0.126326442
					40:leaf=0.131593361
				20:[MVA_llM<96.7388763] yes=41,no=42,missing=42
					41:leaf=0.128800154
					42:leaf=-0.100111499
			10:[MVA_MET<98.7866592] yes=21,no=22,missing=22
				21:[MVA_llM<103.060326] yes=43,no=44,missing=44
					43:leaf=-0.0855051354
					44:leaf=-0.277108401
				22:[MVA_llDr<0.534976125] yes=45,no=46,missing=46
					45:leaf=-0.0646310449
					46:leaf=-0.283261091
	2:[MVA_MET<54.8153076] yes=5,no=6,missing=6
		5:[MVA_llM<110.292809] yes=11,no=12,missing=12
			11:[MVA_llM<75.6165619] yes=23,no=24,missing=24
				23:[MVA_MET<12.3870344] yes=47,no=48,missing=48
					47:leaf=-0.0128018521
					48:leaf=-0.267131984
				24:[MVA_Ht<78.3254089] yes=49,no=50,missing=50
					49:leaf=0.126963347
					50:leaf=-0.103346698
			12:[MVA_MET<7.03875828] yes=25,no=26,missing=26
				25:[MVA_btagSum<0.670410156] yes=51,no=52,missing=52
					51:leaf=0.00591438776
					52:leaf=-0.201574385
				26:leaf=-0.287902981
		6:[MVA_btagSum<0.684082031] yes=13,no=14,missing=14
			13:[MVA_llM<99.5369415] yes=27,no=28,missing=28
				27:[MVA_llM<86.4081497] yes=53,no=54,missing=54
					53:leaf=-0.268853068
					54:leaf=0.0879232511
				28:leaf=-0.30335927
			14:[MVA_Topmass<111.413277] yes=29,no=30,missing=30
				29:[MVA_MET<75.3298798] yes=55,no=56,missing=56
					55:leaf=0.0160410572
					56:leaf=-0.180493698
				30:leaf=-0.30398795
booster[9]:
0:[MVA_Ht<54.7908974] yes=1,no=2,missing=2
	1:[MVA_MET<28.4283085] yes=3,no=4,missing=4
		3:[MVA_llM<110.292809] yes=7,no=8,missing=8
			7:[MVA_llDr<2.02164793] yes=15,no=16,missing=16
				15:[MVA_llM<21.707634] yes=29,no=30,missing=30
					29:leaf=0.277027041
					30:leaf=0.0265085027
				16:[MVA_llM<62.5557709] yes=31,no=32,missing=32
					31:leaf=-0.0255279839
					32:leaf=0.238264084
			8:[MVA_llDr<3.73004889] yes=17,no=18,missing=18
				17:[MVA_llDr<2.40956163] yes=33,no=34,missing=34
					33:leaf=-0.121527411
					34:leaf=0.0375664309
				18:[MVA_tauPt<25.2088566] yes=35,no=36,missing=36
					35:leaf=-0.336521089
					36:leaf=-0.102861188
		4:[MVA_MET<64.8213425] yes=9,no=10,missing=10
			9:[MVA_llDr<2.06412673] yes=19,no=20,missing=20
				19:[MVA_tauPt<58.806179] yes=37,no=38,missing=38
					37:leaf=-0.15206264
					38:leaf=0.125442311
				20:[MVA_llM<95.5134277] yes=39,no=40,missing=40
					39:leaf=0.151944935
					40:leaf=-0.0406108424
			10:[MVA_MET<90.0560608] yes=21,no=22,missing=22
				21:[MVA_llM<103.926605] yes=41,no=42,missing=42
					41:leaf=-0.0315116048
					42:leaf=-0.219629809
				22:[MVA_MET<105.227867] yes=43,no=44,missing=44
					43:leaf=-0.191938475
					44:leaf=-0.282488883
	2:[MVA_MET<62.070694] yes=5,no=6,missing=6
		5:[MVA_btagSum<0.834472656] yes=11,no=12,missing=12
			11:[MVA_Topmass<240.066086] yes=23,no=24,missing=24
				23:[MVA_llM<79.1732025] yes=45,no=46,missing=46
					45:leaf=-0.170123726
					46:leaf=-0.0394976027
				24:[MVA_llM<133.28331] yes=47,no=48,missing=48
					47:leaf=0.131199792
					48:leaf=-0.120550089
			12:[MVA_llM<94.8480911] yes=25,no=26,missing=26
				25:[MVA_llM<88.629425] yes=49,no=50,missing=50
					49:leaf=-0.247636244
					50:leaf=0.00624265289
				26:[MVA_llDr<1.50698996] yes=51,no=52,missing=52
					51:leaf=-0.0972177163
					52:leaf=-0.286547542
		6:[MVA_btagSum<0.224853516] yes=13,no=14,missing=14
			13:[MVA_llM<100.170288] yes=27,no=28,missing=28
				27:[MVA_llM<84.8238602] yes=53,no=54,missing=54
					53:leaf=-0.231585369
					54:leaf=-0.0503814928
				28:[MVA_llDr<1.65068519] yes=55,no=56,missing=56
					55:leaf=-0.0805846006
					56:leaf=-0.286253095
			14:leaf=-0.292168349
booster[10]:
0:[MVA_btagSum<0.00647735596] yes=1,no=2,missing=2
	1:[MVA_MET<30.2258854] yes=3,no=4,missing=4
		3:[MVA_llM<110.292809] yes=7,no=8,missing=8
			7:[MVA_llM<85.8104019] yes=15,no=16,missing=16
				15:[MVA_llDr<2.3204236] yes=29,no=30,missing=30
					29:leaf=0.0422967076
					30:leaf=0.142264232
				16:[MVA_llM<97.546524] yes=31,no=32,missing=32
					31:leaf=0.269460529
					32:leaf=0.119596854
			8:[MVA_llDr<3.31175303] yes=17,no=18,missing=18
				17:[MVA_llDr<2.6533792] yes=33,no=34,missing=34
					33:leaf=-0.0434179902
					34:leaf=0.0830246285
				18:[MVA_MET<21.362421] yes=35,no=36,missing=36
					35:leaf=-0.0271982122
					36:leaf=-0.17108798
		4:[MVA_llM<134.940857] yes=9,no=10,missing=10
			9:[MVA_llM<85.3434982] yes=19,no=20,missing=20
				19:[MVA_MET<79.3380585] yes=37,no=38,missing=38
					37:leaf=-0.0260243546
					38:leaf=-0.19936353
				20:[MVA_llM<93.7212296] yes=39,no=40,missing=40
					39:leaf=0.173850119
					40:leaf=0.0264128242
			10:[MVA_MET<56.5684929] yes=21,no=22,missing=22
				21:[MVA_llM<214.997314] yes=41,no=42,missing=42
					41:leaf=-0.0444215685
					42:leaf=-0.186027825
				22:leaf=-0.22841306
	2:[MVA_MET<64.8213425] yes=5,no=6,missing=6
		5:[MVA_btagSum<0.934082031] yes=11,no=12,missing=12
			11:[MVA_llM<123.15934] yes=23,no=24,missing=24
				23:[MVA_llM<86.9464569] yes=43,no=44,missing=44
					43:leaf=-0.0774128661
					44:leaf=0.0883145928
				24:[MVA_btagSum<0.11730957] yes=45,no=46,missing=46
					45:leaf=-0.118282452
					46:leaf=-0.258945793
			12:[MVA_llM<101.516701] yes=25,no=26,missing=26
				25:[MVA_llM<88.2217407] yes=47,no=48,missing=48
					47:leaf=-0.234952405
					48:leaf=-0.0612527952
				26:leaf=-0.288501501
		6:[MVA_btagSum<0.383972168] yes=13,no=14,missing=14
			13:[MVA_llM<92.9860916] yes=27,no=28,missing=28
				27:[MVA_llM<86.0162125] yes=49,no=50,missing=50
					49:leaf=-0.213868916
					50:leaf=0.0925419554
				28:[MVA_llDr<1.39601398] yes=51,no=52,missing=52
					51:leaf=0.108780213
					52:leaf=-0.267086565
			14:leaf=-0.289785057
booster[11]:
0:[MVA_Ht<62.2461014] yes=1,no=2,missing=2
	1:[MVA_MET<24.7524052] yes=3,no=4,missing=4
		3:[MVA_llM<98.4692612] yes=7,no=8,missing=8
			7:[MVA_llM<87.8949738] yes=15,no=16,missing=16
				15:[MVA_llDr<2.10534859] yes=29,no=30,missing=30
					29:leaf=0.0288592223
					30:leaf=0.140440762
				16:[MVA_btagSum<0.265380859] yes=31,no=32,missing=32
					31:leaf=0.262924403
					32:leaf=0.120532744
			8:[MVA_btagSum<0.24621582] yes=17,no=18,missing=18
				17:[MVA_MET<17.137537] yes=33,no=34,missing=34
					33:leaf=0.0796633214
					34:leaf=-0.0158985239
				18:[MVA_llM<104.725906] yes=35,no=36,missing=36
					35:leaf=0.0143608348
					36:leaf=-0.193554327
		4:[MVA_llDr<2.45751023] yes=9,no=10,missing=10
			9:[MVA_tauPt<91.4458084] yes=19,no=20,missing=20
				19:[MVA_llM<93.8472443] yes=37,no=38,missing=38
					37:leaf=-0.0594172142
					38:leaf=-0.184643134
				20:[MVA_llDr<1.83820462] yes=39,no=40,missing=40
					39:leaf=0.31141153
					40:leaf=-0.0740706548
			10:[MVA_llM<114.468834] yes=21,no=22,missing=22
				21:[MVA_tauPt<29.2039719] yes=41,no=42,missing=42
					41:leaf=0.164080828
					42:leaf=0.000885666232
				22:[MVA_btagSum<0.0225524902] yes=43,no=44,missing=44
					43:leaf=-0.0335832424
					44:leaf=-0.250427961
	2:[MVA_MET<69.7957153] yes=5,no=6,missing=6
		5:[MVA_llM<93.8472443] yes=11,no=12,missing=12
			11:[MVA_llM<88.5392456] yes=23,no=24,missing=24
				23:[MVA_MET<19.1280842] yes=45,no=46,missing=46
					45:leaf=0.0360462964
					46:leaf=-0.146571562
				24:[MVA_llDr<1.36742234] yes=47,no=48,missing=48
					47:leaf=0.383881807
					48:leaf=0.0943503752
			12:[MVA_btagSum<0.265380859] yes=25,no=26,missing=26
				25:[MVA_Topmass<268.182983] yes=49,no=50,missing=50
					49:leaf=-0.145387307
					50:leaf=0.0267952029
				26:[MVA_llDr<1.62713492] yes=51,no=52,missing=52
					51:leaf=-0.0480246022
					52:leaf=-0.257543355
		6:[MVA_btagSum<0.383972168] yes=13,no=14,missing=14
			13:[MVA_tauPt<101.709084] yes=27,no=28,missing=28
				27:[MVA_MET<91.0531082] yes=53,no=54,missing=54
					53:leaf=-0.14329505
					54:leaf=-0.252402544
				28:[MVA_llM<100.842751] yes=55,no=56,missing=56
					55:leaf=0.236227766
					56:leaf=-0.161684126
			14:leaf=-0.286242634
booster[12]:
0:[MVA_btagSum<0.670410156] yes=1,no=2,missing=2
	1:[MVA_MET<66.16436] yes=3,no=4,missing=4
		3:[MVA_llM<94.8480911] yes=7,no=8,missing=8
			7:[MVA_llM<87.7801743] yes=15,no=16,missing=16
				15:[MVA_MET<22.2197247] yes=27,no=28,missing=28
					27:leaf=0.0798871964
					28:leaf=-0.0355598368
				16:[MVA_llM<93.3783875] yes=29,no=30,missing=30
					29:leaf=0.205274329
					30:leaf=0.0637211427
			8:[MVA_btagSum<0.018737793] yes=17,no=18,missing=18
				17:[MVA_tauPt<34.3671112] yes=31,no=32,missing=32
					31:leaf=0.0329978392
					32:leaf=-0.0605723225
				18:[MVA_MET<20.2387905] yes=33,no=34,missing=34
					33:leaf=0.0161567666
					34:leaf=-0.132790029
		4:[MVA_MET<102.582741] yes=9,no=10,missing=10
			9:[MVA_llM<109.261726] yes=19,no=20,missing=20
				19:[MVA_llM<87.2543564] yes=35,no=36,missing=36
					35:leaf=-0.14422901
					36:leaf=0.050590273
				20:[MVA_llDr<1.99132884] yes=37,no=38,missing=38
					37:leaf=-0.0423319042
					38:leaf=-0.234608114
			10:[MVA_llDr<1.00535488] yes=21,no=22,missing=22
				21:[MVA_Topmass<261.517731] yes=39,no=40,missing=40
					39:leaf=-0.121506363
					40:leaf=0.115024447
				22:[MVA_MET<108.35112] yes=41,no=42,missing=42
					41:leaf=-0.157722056
					42:leaf=-0.271700174
	2:[MVA_MET<51.1398048] yes=5,no=6,missing=6
		5:[MVA_Topmass<337.378632] yes=11,no=12,missing=12
			11:[MVA_Ht<110.391876] yes=23,no=24,missing=24
				23:[MVA_llM<80.7022858] yes=43,no=44,missing=44
					43:leaf=-0.208940029
					44:leaf=-0.0341640636
				24:[MVA_btagSum<1.17687988] yes=45,no=46,missing=46
					45:leaf=-0.171807364
					46:leaf=-0.28447178
			12:[MVA_llM<108.236618] yes=25,no=26,missing=26
				25:leaf=0.452102989
				26:leaf=-0.103205703
		6:[MVA_Topmass<115.871521] yes=13,no=14,missing=14
			13:leaf=-0.0491725951
			14:leaf=-0.272125125
booster[13]:
0:[MVA_Topmass<127.743874] yes=1,no=2,missing=2
	1:[MVA_llDr<2.25913095] yes=3,no=4,missing=4
		3:[MVA_tauPt<51.6414108] yes=7,no=8,missing=8
			7:[MVA_llM<93.7212296] yes=15,no=16,missing=16
				15:[MVA_llDr<1.9278419] yes=31,no=32,missing=32
					31:leaf=-0.0912949964
					32:leaf=0.0708064437
				16:[MVA_llDr<1.94362545] yes=33,no=34,missing=34
					33:leaf=-0.339460611
					34:leaf=-0.137283012
			8:[MVA_llDr<1.65068519] yes=17,no=18,missing=18
				17:[MVA_llM<21.707634] yes=35,no=36,missing=36
					35:leaf=0.37191236
					36:leaf=0.137183771
				18:[MVA_llM<83.6114731] yes=37,no=38,missing=38
					37:leaf=-0.0853162706
					38:leaf=0.0672413707
		4:[MVA_tauPt<44.2954865] yes=9,no=10,missing=10
			9:[MVA_llM<97.1204758] yes=19,no=20,missing=20
				19:[MVA_llM<70.7087555] yes=39,no=40,missing=40
					39:leaf=-0.0495782234
					40:leaf=0.169309303
				20:[MVA_MET<80.1831741] yes=41,no=42,missing=42
					41:leaf=0.0360291153
					42:leaf=-0.229118511
			10:[MVA_llDr<2.72592545] yes=21,no=22,missing=22
				21:[MVA_tauPt<60.9450798] yes=43,no=44,missing=44
					43:leaf=0.0470175184
					44:leaf=-0.152059168
				22:[MVA_MET<33.2165222] yes=45,no=46,missing=46
					45:leaf=-0.0840244368
					46:leaf=-0.213697836
	2:[MVA_MET<86.360672] yes=5,no=6,missing=6
		5:[MVA_Topmass<302.410675] yes=11,no=12,missing=12
			11:[MVA_llM<93.5974884] yes=23,no=24,missing=24
				23:[MVA_llM<88.629425] yes=47,no=48,missing=48
					47:leaf=-0.0819543004
					48:leaf=0.101043351
				24:[MVA_btagSum<0.328857422] yes=49,no=50,missing=50
					49:leaf=-0.0877318829
					50:leaf=-0.225467727
			12:[MVA_llM<139.854874] yes=25,no=26,missing=26
				25:[MVA_llM<73.6082382] yes=51,no=52,missing=52
					51:leaf=0.00883317366
					52:leaf=0.225164354
				26:[MVA_btagSum<0.0282745361] yes=53,no=54,missing=54
					53:leaf=0.0654124171
					54:leaf=-0.176021099
		6:[MVA_btagSum<0.0476665497] yes=13,no=14,missing=14
			13:[MVA_MET<120.389565] yes=27,no=28,missing=28
				27:[MVA_llM<97.9669571] yes=55,no=56,missing=56
					55:leaf=-0.0099394815
					56:leaf=-0.21387969
				28:leaf=-0.242859825
			14:[MVA_tauPt<101.709084] yes=29,no=30,missing=30
				29:[MVA_Ht<638.339478] yes=57,no=58,missing=58
					57:leaf=-0.277098209
					58:leaf=-0.059482079
				30:[MVA_llM<95.2785568] yes=59,no=60,missing=60
					59:leaf=0.0169003177
					60:leaf=-0.187429637
booster[14]:
0:[MVA_Ht<92.2437134] yes=1,no=2,missing=2
	1:[MVA_MET<62.7348328] yes=3,no=4,missing=4
		3:[MVA_llDr<2.10534859] yes=7,no=8,missing=8
			7:[MVA_llM<21.707634] yes=15,no=16,missing=16
				15:[MVA_btagSum<0.069732666] yes=31,no=32,missing=32
					31:leaf=0.241853252
					32:leaf=-0.0808224827
				16:[MVA_tauPt<74.0451431] yes=33,no=34,missing=34
					33:leaf=-0.0682388321
					34:leaf=0.164185494
			8:[MVA_llM<93.7212296] yes=17,no=18,missing=18
				17:[MVA_llM<88.5392456] yes=35,no=36,missing=36
					35:leaf=0.0462987684
					36:leaf=0.192287147
				18:[MVA_llM<176.755615] yes=37,no=38,missing=38
					37:leaf=0.0238941889
					38:leaf=-0.0951605514
		4:[MVA_MET<101.236641] yes=9,no=10,missing=10
			9:[MVA_llM<120.562469] yes=19,no=20,missing=20
				19:[MVA_llM<77.9670715] yes=39,no=40,missing=40
					39:leaf=-0.142378807
					40:leaf=0.0115803014
				20:[MVA_Ht<40.0279732] yes=41,no=42,missing=42
					41:leaf=-0.151860848
					42:leaf=-0.257342547
			10:[MVA_llDr<0.860524237] yes=21,no=22,missing=22
				21:leaf=0.0268518608
				22:[MVA_MET<108.35112] yes=43,no=44,missing=44
					43:leaf=-0.153140798
					44:leaf=-0.26068449
	2:[MVA_llDr<1.67391264] yes=5,no=6,missing=6
		5:[MVA_llM<82.4529648] yes=11,no=12,missing=12
			11:[MVA_btagSum<0.214233398] yes=23,no=24,missing=24
				23:[MVA_llM<25.0143623] yes=45,no=46,missing=46
					45:leaf=0.188030139
					46:leaf=-0.0809824988
				24:[MVA_llDr<0.450075835] yes=47,no=48,missing=48
					47:leaf=0.011578883
					48:leaf=-0.24825412
			12:[MVA_llDr<1.08749592] yes=25,no=26,missing=26
				25:[MVA_btagSum<0.0282745361] yes=49,no=50,missing=50
					49:leaf=0.145029172
					50:leaf=0.462696463
				26:[MVA_llM<94.6418762] yes=51,no=52,missing=52
					51:leaf=0.144496515
					52:leaf=-0.00542559382
		6:[MVA_Ht<119.632027] yes=13,no=14,missing=14
			13:[MVA_MET<38.8848152] yes=27,no=28,missing=28
				27:[MVA_Topmass<253.772018] yes=53,no=54,missing=54
					53:leaf=-0.0297969021
					54:leaf=0.135133654
				28:[MVA_llM<93.7212296] yes=55,no=56,missing=56
					55:leaf=-0.0550343804
					56:leaf=-0.211661562
			14:[MVA_Topmass<129.275055] yes=29,no=30,missing=30
				29:[MVA_MET<18.6759644] yes=57,no=58,missing=58
					57:leaf=0.144245744
					58:leaf=-0.0591283664
				30:[MVA_btagSum<0.0199584961] yes=59,no=60,missing=60
					59:leaf=-0.0415657535
					60:leaf=-0.213983133
booster[15]:
0:[MVA_btagSum<0.793457031] yes=1,no=2,missing=2
	1:[MVA_MET<21.362421] yes=3,no=4,missing=4
		3:[MVA_llM<121.835663] yes=7,no=8,missing=8
			7:[MVA_llM<87.3964539] yes=15,no=16,missing=16
				15:[MVA_btagSum<0.0460510254] yes=29,no=30,missing=30
					29:leaf=0.0289287549
					30:leaf=0.140637666
				16:[MVA_llM<93.7212296] yes=31,no=32,missing=32
					31:leaf=0.203889668
					32:leaf=0.0765329227
			8:[MVA_llDr<3.21048808] yes=17,no=18,missing=18
				17:[MVA_MET<13.3850889] yes=33,no=34,missing=34
					33:leaf=0.0917208195
					34:leaf=-0.0326635167
				18:[MVA_tauPt<36.1679153] yes=35,no=36,missing=36
					35:leaf=-0.0415168367
					36:leaf=-0.227269843
		4:[MVA_MET<108.35112] yes=9,no=10,missing=10
			9:[MVA_Topmass<329.733429] yes=19,no=20,missing=20
				19:[MVA_btagSum<0.00647735596] yes=37,no=38,missing=38
					37:leaf=0.01175527
					38:leaf=-0.0467912853
				20:[MVA_llM<103.060326] yes=39,no=40,missing=40
					39:leaf=0.190621778
					40:leaf=-0.0325627774
			10:[MVA_llDr<1.00535488] yes=21,no=22,missing=22
				21:leaf=-0.000814085884
				22:[MVA_Ht<392.191925] yes=41,no=42,missing=42
					41:leaf=-0.245437309
					42:leaf=-0.0271182377
	2:[MVA_MET<37.2048111] yes=5,no=6,missing=6
		5:[MVA_llM<92.1644592] yes=11,no=12,missing=12
			11:[MVA_llM<69.956665] yes=23,no=24,missing=24
				23:[MVA_llDr<0.534976125] yes=43,no=44,missing=44
					43:leaf=0.0732131451
					44:leaf=-0.242660761
				24:[MVA_tauPt<28.7706604] yes=45,no=46,missing=46
					45:leaf=0.123404831
					46:leaf=-0.0351932831
			12:[MVA_llM<106.486519] yes=25,no=26,missing=26
				25:[MVA_llDr<2.81370878] yes=47,no=48,missing=48
					47:leaf=-0.152650058
					48:leaf=0.0121839931
				26:leaf=-0.237905726
		6:[MVA_llM<84.8238602] yes=13,no=14,missing=14
			13:leaf=-0.278003454
			14:[MVA_llM<95.2785568] yes=27,no=28,missing=28
				27:[MVA_llM<89.9964447] yes=49,no=50,missing=50
					49:leaf=-0.129279479
					50:leaf=0.109061383
				28:leaf=-0.267668515
booster[16]:
0:[MVA_btagSum<0.747558594] yes=1,no=2,missing=2
	1:[MVA_MET<17.5893841] yes=3,no=4,missing=4
		3:[MVA_llM<110.292809] yes=7,no=8,missing=8
			7:[MVA_llDr<2.52575445] yes=13,no=14,missing=14
				13:[MVA_MET<2.0973134] yes=25,no=26,missing=26
					25:leaf=-0.214992672
					26:leaf=0.0573856905
				14:[MVA_llM<57.7996445] yes=27,no=28,missing=28
					27:leaf=-0.365980864
					28:leaf=0.171964154
			8:[MVA_llDr<3.00874805] yes=15,no=16,missing=16
				15:[MVA_llDr<2.92820144] yes=29,no=30,missing=30
					29:leaf=0.0386978984
					30:leaf=0.203804895
				16:[MVA_MET<14.8356695] yes=31,no=32,missing=32
					31:leaf=0.0172814764
					32:leaf=-0.178117812
		4:[MVA_llDr<2.66506433] yes=9,no=10,missing=10
			9:[MVA_llM<25.0143623] yes=17,no=18,missing=18
				17:[MVA_MET<54.8153076] yes=33,no=34,missing=34
					33:leaf=0.181677714
					34:leaf=-0.0619325303
				18:[MVA_llM<66.8209305] yes=35,no=36,missing=36
					35:leaf=-0.100614071
					36:leaf=-0.0194896627
			10:[MVA_llM<138.126495] yes=19,no=20,missing=20
				19:[MVA_tauPt<33.8886147] yes=37,no=38,missing=38
					37:leaf=0.0755391791
					38:leaf=-0.030233942
				20:[MVA_btagSum<0.0141677856] yes=39,no=40,missing=40
					39:leaf=-0.0329108275
					40:leaf=-0.180780604
	2:[MVA_MET<66.8622742] yes=5,no=6,missing=6
		5:[MVA_llM<106.486519] yes=11,no=12,missing=12
			11:[MVA_llM<81.6098328] yes=21,no=22,missing=22
				21:[MVA_MET<15.5254049] yes=41,no=42,missing=42
					41:leaf=0.0418882146
					42:leaf=-0.206814602
				22:[MVA_Topmass<263.281219] yes=43,no=44,missing=44
					43:leaf=-0.0193955991
					44:leaf=0.264365524
			12:[MVA_llM<114.468834] yes=23,no=24,missing=24
				23:[MVA_Ht<60.5911522] yes=45,no=46,missing=46
					45:leaf=0.0023182258
					46:leaf=-0.149497703
				24:leaf=-0.245574698
		6:leaf=-0.261500537
booster[17]:
0:[MVA_MET<88.1794891] yes=1,no=2,missing=2
	1:[MVA_btagSum<0.938964844] yes=3,no=4,missing=4
		3:[MVA_MET<32.1133308] yes=7,no=8,missing=8
			7:[MVA_llM<114.468834] yes=13,no=14,missing=14
				13:[MVA_llDr<2.33951402] yes=23,no=24,missing=24
					23:leaf=0.0133649698
					24:leaf=0.0893376321
				14:[MVA_llDr<3.55198956] yes=25,no=26,missing=26
					25:leaf=-0.00092544232
					26:leaf=-0.140865326
			8:[MVA_llM<66.8209305] yes=15,no=16,missing=16
				15:[MVA_btagSum<0.0897216797] yes=27,no=28,missing=28
					27:leaf=-0.0456553958
					28:leaf=-0.238163128
				16:[MVA_llDr<1.1644237] yes=29,no=30,missing=30
					29:leaf=0.346533537
					30:leaf=-0.00110121234
		4:[MVA_llM<114.468834] yes=9,no=10,missing=10
			9:[MVA_llM<87.7801743] yes=17,no=18,missing=18
				17:[MVA_tauPt<23.1301422] yes=31,no=32,missing=32
					31:leaf=-0.0118564516
					32:leaf=-0.18713893
				18:[MVA_btagSum<0.999511719] yes=33,no=34,missing=34
					33:leaf=0.0304469075
					34:leaf=-0.0944338813
			10:leaf=-0.2456083
	2:[MVA_llM<100.170288] yes=5,no=6,missing=6
		5:[MVA_llM<88.629425] yes=11,no=12,missing=12
			11:[MVA_Topmass<411.149017] yes=19,no=20,missing=20
				19:[MVA_llM<87.3964539] yes=35,no=36,missing=36
					35:leaf=-0.226810426
					36:leaf=-0.0605921559
				20:leaf=-0.0384074673
			12:[MVA_llM<93.9962845] yes=21,no=22,missing=22
				21:[MVA_MET<108.35112] yes=37,no=38,missing=38
					37:leaf=0.238421455
					38:leaf=-0.0722336248
				22:[MVA_Topmass<137.376984] yes=39,no=40,missing=40
					39:leaf=0.00246109348
					40:leaf=-0.146386474
		6:leaf=-0.26947239
booster[18]:
0:[MVA_Ht<109.464958] yes=1,no=2,missing=2
	1:[MVA_tauPt<28.0953331] yes=3,no=4,missing=4
		3:[MVA_llDr<2.45751023] yes=7,no=8,missing=8
			7:[MVA_llM<13.9206724] yes=15,no=16,missing=16
				15:[MVA_llDr<0.351664156] yes=31,no=32,missing=32
					31:leaf=0.0619748197
					32:leaf=0.383440793
				16:[MVA_llM<92.8204651] yes=33,no=34,missing=34
					33:leaf=-0.0159172565
					34:leaf=-0.123990104
			8:[MVA_llM<94.6418762] yes=17,no=18,missing=18
				17:[MVA_llDr<3.23589182] yes=35,no=36,missing=36
					35:leaf=0.132275686
					36:leaf=-0.0531179458
				18:[MVA_MET<43.0761185] yes=37,no=38,missing=38
					37:leaf=0.0465776958
					38:leaf=-0.0546137653
		4:[MVA_Topmass<249.590561] yes=9,no=10,missing=10
			9:[MVA_Topmass<128.513336] yes=19,no=20,missing=20
				19:[MVA_llDr<3.22702098] yes=39,no=40,missing=40
					39:leaf=0.00701700291
					40:leaf=-0.106295913
				20:[MVA_Topmass<159.572937] yes=41,no=42,missing=42
					41:leaf=-0.101845168
					42:leaf=-0.0191775542
			10:[MVA_MET<83.6091995] yes=21,no=22,missing=22
				21:[MVA_llM<77.9670715] yes=43,no=44,missing=44
					43:leaf=-0.0451788828
					44:leaf=0.188691765
				22:[MVA_llDr<1.87595725] yes=45,no=46,missing=46
					45:leaf=-0.0146291377
					46:leaf=-0.189680129
	2:[MVA_llDr<1.48013306] yes=5,no=6,missing=6
		5:[MVA_llM<66.8209305] yes=11,no=12,missing=12
			11:[MVA_llDr<0.612356663] yes=23,no=24,missing=24
				23:[MVA_MET<36.2426147] yes=47,no=48,missing=48
					47:leaf=0.295507908
					48:leaf=-0.0743463635
				24:[MVA_tauPt<21.192255] yes=49,no=50,missing=50
					49:leaf=0.120963223
					50:leaf=-0.170862079
			12:[MVA_Topmass<195.454987] yes=25,no=26,missing=26
				25:[MVA_MET<29.4421883] yes=51,no=52,missing=52
					51:leaf=-0.0767687783
					52:leaf=0.0805144012
				26:[MVA_llDr<1.36742234] yes=53,no=54,missing=54
					53:leaf=0.290506035
					54:leaf=0.0551307164
		6:[MVA_llDr<3.13770938] yes=13,no=14,missing=14
			13:[MVA_Topmass<129.275055] yes=27,no=28,missing=28
				27:[MVA_tauPt<43.1225014] yes=55,no=56,missing=56
					55:leaf=0.0953837037
					56:leaf=-0.133533493
				28:[MVA_Topmass<193.951675] yes=57,no=58,missing=58
					57:leaf=-0.16041097
					58:leaf=-0.0726082176
			14:[MVA_llM<83.6114731] yes=29,no=30,missing=30
				29:leaf=-0.0139396936
				30:[MVA_btagSum<0.0125045776] yes=59,no=60,missing=60
					59:leaf=-0.0412989333
					60:leaf=-0.243843123
booster[19]:
0:[MVA_MET<77.7025909] yes=1,no=2,missing=2
	1:[MVA_btagSum<0.0102386475] yes=3,no=4,missing=4
		3:[MVA_llM<30.7015686] yes=7,no=8,missing=8
			7:[MVA_llDr<0.803062141] yes=15,no=16,missing=16
				15:[MVA_llM<21.707634] yes=27,no=28,missing=28
					27:leaf=0.168737561
					28:leaf=-0.0530771352
				16:leaf=0.345719635
			8:[MVA_llDr<1.65068519] yes=17,no=18,missing=18
				17:[MVA_tauPt<39.6473351] yes=29,no=30,missing=30
					29:leaf=-0.160424754
					30:leaf=0.0633396655
				18:[MVA_tauPt<45.1640511] yes=31,no=32,missing=32
					31:leaf=0.0445641652
					32:leaf=-0.0452809483
		4:[MVA_Topmass<184.297211] yes=9,no=10,missing=10
			9:[MVA_Topmass<131.948914] yes=19,no=20,missing=20
				19:[MVA_btagSum<0.0282745361] yes=33,no=34,missing=34
					33:leaf=-0.0695852488
					34:leaf=0.0352990441
				20:[MVA_Ht<32.5606842] yes=35,no=36,missing=36
					35:leaf=0.0394040756
					36:leaf=-0.0904899463
			10:[MVA_Ht<49.0049782] yes=21,no=22,missing=22
				21:[MVA_llDr<2.59417439] yes=37,no=38,missing=38
					37:leaf=0.0592958368
					38:leaf=0.1884038
				22:[MVA_Topmass<395.60791] yes=39,no=40,missing=40
					39:leaf=-0.0125657488
					40:leaf=0.167781681
	2:[MVA_llM<100.170288] yes=5,no=6,missing=6
		5:[MVA_llM<83.9366531] yes=11,no=12,missing=12
			11:[MVA_btagSum<0.0552062988] yes=23,no=24,missing=24
				23:[MVA_Topmass<287.978516] yes=41,no=42,missing=42
					41:leaf=-0.164862692
					42:leaf=0.159477413
				24:leaf=-0.242089435
			12:[MVA_llDr<1.48013306] yes=25,no=26,missing=26
				25:[MVA_tauPt<45.6037445] yes=43,no=44,missing=44
					43:leaf=0.110453568
					44:leaf=0.455573529
				26:[MVA_Topmass<217.596786] yes=45,no=46,missing=46
					45:leaf=0.03895358
					46:leaf=-0.124831319
		6:[MVA_llDr<1.79915476] yes=13,no=14,missing=14
			13:leaf=-0.0333678164
			14:leaf=-0.244775668
booster[20]:
0:[MVA_MET<55.9669037] yes=1,no=2,missing=2
	1:[MVA_Topmass<316.557098] yes=3,no=4,missing=4
		3:[MVA_llM<86.0162125] yes=7,no=8,missing=8
			7:[MVA_llM<30.7015686] yes=15,no=16,missing=16
				15:[MVA_llDr<0.683923125] yes=29,no=30,missing=30
					29:leaf=0.00605576113
					30:leaf=0.21650441
				16:[MVA_llDr<1.50698996] yes=31,no=32,missing=32
					31:leaf=-0.114205845
					32:leaf=-0.00802053325
			8:[MVA_llM<92.9860916] yes=17,no=18,missing=18
				17:[MVA_btagSum<0.00749588013] yes=33,no=34,missing=34
					33:leaf=0.162326276
					34:leaf=0.035620261
				18:[MVA_btagSum<0.214233398] yes=35,no=36,missing=36
					35:leaf=-0.00355983293
					36:leaf=-0.0985329524
		4:[MVA_Ht<89.2800903] yes=9,no=10,missing=10
			9:[MVA_llM<176.755615] yes=19,no=20,missing=20
				19:[MVA_btagSum<0.00647735596] yes=37,no=38,missing=38
					37:leaf=0.00652956497
					38:leaf=0.316752583
				20:leaf=-0.0253334492
			10:[MVA_llDr<3.14236903] yes=21,no=22,missing=22
				21:[MVA_Topmass<516.138] yes=39,no=40,missing=40
					39:leaf=0.0406677835
					40:leaf=0.164996803
				22:leaf=-0.141711116
	2:[MVA_llM<121.835663] yes=5,no=6,missing=6
		5:[MVA_tauPt<118.373703] yes=11,no=12,missing=12
			11:[MVA_llM<68.3855286] yes=23,no=24,missing=24
				23:[MVA_btagSum<0.112304688] yes=41,no=42,missing=42
					41:leaf=-0.0753987879
					42:leaf=-0.240185812
				24:[MVA_llM<92.7439346] yes=43,no=44,missing=44
					43:leaf=0.0168394502
					44:leaf=-0.080807209
			12:leaf=0.317352712
		6:[MVA_btagSum<0.00379562378] yes=13,no=14,missing=14
			13:[MVA_MET<77.7025909] yes=25,no=26,missing=26
				25:[MVA_tauPt<22.7411594] yes=45,no=46,missing=46
					45:leaf=-0.146708027
					46:leaf=0.000178743168
				26:leaf=-0.19684343
			14:[MVA_llM<125.856453] yes=27,no=28,missing=28
				27:leaf=-0.0717334747
				28:[MVA_Ht<38.7315292] yes=47,no=48,missing=48
					47:leaf=-0.116511621
					48:leaf=-0.256130457
booster[21]:
0:[MVA_MET<101.236641] yes=1,no=2,missing=2
	1:[MVA_tauPt<108.724724] yes=3,no=4,missing=4
		3:[MVA_MET<17.5893841] yes=7,no=8,missing=8
			7:[MVA_tauPt<30.2143154] yes=15,no=16,missing=16
				15:[MVA_llM<124.531387] yes=27,no=28,missing=28
					27:leaf=0.0935114771
					28:leaf=-0.0241719317
				16:[MVA_llDr<3.18644428] yes=29,no=30,missing=30
					29:leaf=0.00769844046
					30:leaf=-0.138445765
			8:[MVA_llM<93.3783875] yes=17,no=18,missing=18
				17:[MVA_llM<89.2872238] yes=31,no=32,missing=32
					31:leaf=-0.0287554748
					32:leaf=0.0873757303
				18:[MVA_btagSum<0.427490234] yes=33,no=34,missing=34
					33:leaf=-0.0259223711
					34:leaf=-0.125817537
		4:[MVA_llDr<2.90313911] yes=9,no=10,missing=10
			9:[MVA_Topmass<149.579712] yes=19,no=20,missing=20
				19:[MVA_llDr<1.87595725] yes=35,no=36,missing=36
					35:leaf=0.190016404
					36:leaf=-0.0398921147
				20:[MVA_Ht<263.596008] yes=37,no=38,missing=38
					37:leaf=0.290143222
					38:leaf=0.0928040966
			10:[MVA_llDr<3.03801894] yes=21,no=22,missing=22
				21:leaf=-0.23136507
				22:leaf=0.0370802954
	2:[MVA_btagSum<0.0199584961] yes=5,no=6,missing=6
		5:[MVA_MET<127.126495] yes=11,no=12,missing=12
			11:[MVA_tauPt<49.1848145] yes=23,no=24,missing=24
				23:[MVA_tauPt<24.2064972] yes=39,no=40,missing=40
					39:leaf=0.0275225583
					40:leaf=-0.11978846
				24:leaf=0.103128143
			12:leaf=-0.187737614
		6:[MVA_tauPt<101.709084] yes=13,no=14,missing=14
			13:[MVA_Ht<451.964203] yes=25,no=26,missing=26
				25:leaf=-0.247661397
				26:leaf=-0.0731381401
			14:leaf=-0.0530206896
booster[22]:
0:[MVA_btagSum<0.998046875] yes=1,no=2,missing=2
	1:[MVA_llDr<3.73004889] yes=3,no=4,missing=4
		3:[MVA_llDr<2.66506433] yes=7,no=8,missing=8
			7:[MVA_tauPt<101.709084] yes=13,no=14,missing=14
				13:[MVA_MET<37.9116707] yes=23,no=24,missing=24
					23:leaf=0.00792344008
					24:leaf=-0.0343614444
				14:[MVA_llDr<1.77954793] yes=25,no=26,missing=26
					25:leaf=0.210210338
					26:leaf=0.0178993698
			8:[MVA_tauPt<41.3857002] yes=15,no=16,missing=16
				15:[MVA_llM<64.3964767] yes=27,no=28,missing=28
					27:leaf=-0.152112603
					28:leaf=0.0432373434
				16:[MVA_Ht<34.7324486] yes=29,no=30,missing=30
					29:leaf=-0.121146552
					30:leaf=0.030919116
		4:[MVA_llM<116.824471] yes=9,no=10,missing=10
			9:leaf=0.0991137847
			10:[MVA_MET<17.137537] yes=17,no=18,missing=18
				17:[MVA_tauPt<31.7712669] yes=31,no=32,missing=32
					31:leaf=0.0281816199
					32:leaf=-0.129557922
				18:leaf=-0.211099893
	2:[MVA_MET<60.133255] yes=5,no=6,missing=6
		5:[MVA_Ht<154.46431] yes=11,no=12,missing=12
			11:[MVA_llM<88.2217407] yes=19,no=20,missing=20
				19:[MVA_Ht<66.0942459] yes=33,no=34,missing=34
					33:leaf=-0.229269117
					34:leaf=-0.00706100231
				20:[MVA_Topmass<129.275055] yes=35,no=36,missing=36
					35:leaf=0.116994746
					36:leaf=-0.0325558372
			12:[MVA_llDr<1.81876695] yes=21,no=22,missing=22
				21:[MVA_Ht<322.118988] yes=37,no=38,missing=38
					37:leaf=-0.0683943331
					38:leaf=0.0908502117
				22:[MVA_MET<47.8200417] yes=39,no=40,missing=40
					39:leaf=-0.207555518
					40:leaf=-0.0291717649
		6:leaf=-0.228735998
booster[23]:
0:[MVA_MET<105.227867] yes=1,no=2,missing=2
	1:[MVA_Topmass<229.659805] yes=3,no=4,missing=4
		3:[MVA_btagSum<0.00491714478] yes=7,no=8,missing=8
			7:[MVA_llM<88.0115891] yes=15,no=16,missing=16
				15:[MVA_llDr<2.99405479] yes=25,no=26,missing=26
					25:leaf=0.00521970028
					26:leaf=-0.137481108
				16:[MVA_llM<94.4582748] yes=27,no=28,missing=28
					27:leaf=0.0931076258
					28:leaf=-0.00151094934
			8:[MVA_llDr<3.44947624] yes=17,no=18,missing=18
				17:[MVA_llDr<2.81917739] yes=29,no=30,missing=30
					29:leaf=-0.0405005962
					30:leaf=0.0249361936
				18:[MVA_MET<31.8373852] yes=31,no=32,missing=32
					31:leaf=-0.00395646924
					32:leaf=-0.268916905
		4:[MVA_Ht<103.893791] yes=9,no=10,missing=10
			9:[MVA_MET<72.8960953] yes=19,no=20,missing=20
				19:[MVA_llM<62.5557709] yes=33,no=34,missing=34
					33:leaf=-0.0497975312
					34:leaf=0.120643184
				20:[MVA_llDr<2.75442958] yes=35,no=36,missing=36
					35:leaf=0.029572051
					36:leaf=-0.150529623
			10:[MVA_llDr<1.69697392] yes=21,no=22,missing=22
				21:[MVA_llDr<0.911181927] yes=37,no=38,missing=38
					37:leaf=0.201624751
					38:leaf=0.060505379
				22:[MVA_llM<86.4081497] yes=39,no=40,missing=40
					39:leaf=-0.13725026
					40:leaf=-0.0215684231
	2:[MVA_llDr<1.79915476] yes=5,no=6,missing=6
		5:[MVA_llM<76.8254395] yes=11,no=12,missing=12
			11:leaf=-0.113076098
			12:leaf=0.0824012458
		6:[MVA_Topmass<464.953308] yes=13,no=14,missing=14
			13:[MVA_tauPt<23.3217564] yes=23,no=24,missing=24
				23:leaf=-0.0670886934
				24:leaf=-0.220368832
			14:leaf=-0.0125352228
booster[24]:
0:[MVA_MET<18.2390728] yes=1,no=2,missing=2
	1:[MVA_Topmass<189.695938] yes=3,no=4,missing=4
		3:[MVA_Topmass<136.647842] yes=7,no=8,missing=8
			7:[MVA_llDr<1.62713492] yes=15,no=16,missing=16
				15:[MVA_tauPt<39.3741112] yes=31,no=32,missing=32
					31:leaf=-0.183197811
					32:leaf=0.0854804963
				16:[MVA_llM<107.379295] yes=33,no=34,missing=34
					33:leaf=0.0918391049
					34:leaf=0.00408776663
			8:[MVA_llDr<3.13309956] yes=17,no=18,missing=18
				17:[MVA_Ht<95.5278168] yes=35,no=36,missing=36
					35:leaf=0.0110470187
					36:leaf=-0.14132151
				18:[MVA_Topmass<145.426025] yes=37,no=38,missing=38
					37:leaf=-0.436832845
					38:leaf=-0.0593425892
		4:[MVA_Topmass<217.596786] yes=9,no=10,missing=10
			9:[MVA_Ht<77.7338257] yes=19,no=20,missing=20
				19:leaf=0.291515529
				20:[MVA_llDr<2.90809107] yes=39,no=40,missing=40
					39:leaf=0.0916918516
					40:leaf=-0.132048592
			10:[MVA_Ht<73.2449951] yes=21,no=22,missing=22
				21:[MVA_MET<14.8356695] yes=41,no=42,missing=42
					41:leaf=0.0321427472
					42:leaf=-0.177322179
				22:[MVA_Ht<132.18512] yes=43,no=44,missing=44
					43:leaf=0.215834662
					44:leaf=-0.0479057841
	2:[MVA_llDr<3.15330625] yes=5,no=6,missing=6
		5:[MVA_llDr<3.12874794] yes=11,no=12,missing=12
			11:[MVA_tauPt<33.8886147] yes=23,no=24,missing=24
				23:[MVA_llDr<1.81876695] yes=45,no=46,missing=46
					45:leaf=-0.0519632697
					46:leaf=0.0182872619
				24:[MVA_llDr<2.02164793] yes=47,no=48,missing=48
					47:leaf=0.0161723271
					48:leaf=-0.052776739
			12:[MVA_MET<20.2387905] yes=25,no=26,missing=26
				25:leaf=-0.240408316
				26:[MVA_llM<145.574829] yes=49,no=50,missing=50
					49:leaf=0.214614049
					50:leaf=-0.0766941831
		6:[MVA_tauPt<50.9759293] yes=13,no=14,missing=14
			13:[MVA_llM<84.8238602] yes=27,no=28,missing=28
				27:[MVA_llM<83.2431793] yes=51,no=52,missing=52
					51:leaf=-0.0428554378
					52:leaf=-0.519124687
				28:[MVA_llM<92.2969818] yes=53,no=54,missing=54
					53:leaf=0.0878250226
					54:leaf=-0.0489047468
			14:[MVA_Ht<27.2743549] yes=29,no=30,missing=30
				29:[MVA_llM<151.574829] yes=55,no=56,missing=56
					55:leaf=-0.3868604
					56:leaf=-0.0743735954
				30:[MVA_llM<92.3664627] yes=57,no=58,missing=58
					57:leaf=-0.017782459
					58:leaf=-0.188862517
booster[25]:
0:[MVA_llM<25.0143623] yes=1,no=2,missing=2
	1:[MVA_MET<28.1810875] yes=3,no=4,missing=4
		3:[MVA_btagSum<0.0592956543] yes=7,no=8,missing=8
			7:[MVA_llDr<0.534976125] yes=15,no=16,missing=16
				15:[MVA_tauPt<41.7225494] yes=31,no=32,missing=32
					31:leaf=0.100182973
					32:leaf=-0.12305472
				16:[MVA_MET<12.8875532] yes=33,no=34,missing=34
					33:leaf=0.0188806392
					34:leaf=0.193600819
			8:[MVA_btagSum<0.427490234] yes=17,no=18,missing=18
				17:leaf=0.402731299
				18:leaf=-0.0125585375
		4:[MVA_btagSum<0.0494995117] yes=9,no=10,missing=10
			9:[MVA_Topmass<252.411575] yes=19,no=20,missing=20
				19:[MVA_llM<18.291584] yes=35,no=36,missing=36
					35:leaf=0.138093933
					36:leaf=-0.0423059799
				20:leaf=0.296531588
			10:[MVA_Ht<139.954407] yes=21,no=22,missing=22
				21:leaf=-0.228024349
				22:leaf=-0.0449072793
	2:[MVA_llM<45.8644524] yes=5,no=6,missing=6
		5:[MVA_MET<12.3870344] yes=11,no=12,missing=12
			11:[MVA_MET<7.03875828] yes=23,no=24,missing=24
				23:[MVA_llM<35.7731857] yes=37,no=38,missing=38
					37:leaf=0.0264382977
					38:leaf=-0.12692526
				24:[MVA_llDr<0.746508896] yes=39,no=40,missing=40
					39:leaf=0.00152696599
					40:leaf=0.255192071
			12:[MVA_Topmass<126.258759] yes=25,no=26,missing=26
				25:[MVA_llM<40.0918999] yes=41,no=42,missing=42
					41:leaf=0.0317134783
					42:leaf=-0.151250511
				26:[MVA_llDr<1.39601398] yes=43,no=44,missing=44
					43:leaf=-0.217316583
					44:leaf=0.0135311978
		6:[MVA_llDr<0.860524237] yes=13,no=14,missing=14
			13:[MVA_llM<57.7996445] yes=27,no=28,missing=28
				27:leaf=0.0474002063
				28:[MVA_MET<25.4397182] yes=45,no=46,missing=46
					45:leaf=0.0741768852
					46:leaf=0.374133557
			14:[MVA_MET<108.35112] yes=29,no=30,missing=30
				29:[MVA_tauPt<20.318779] yes=47,no=48,missing=48
					47:leaf=0.0931480154
					48:leaf=-0.00167997077
				30:[MVA_llDr<1.42479134] yes=49,no=50,missing=50
					49:leaf=0.0232753363
					50:leaf=-0.176398113
booster[26]:
0:[MVA_llDr<3.21048808] yes=1,no=2,missing=2
	1:[MVA_llM<92.9023895] yes=3,no=4,missing=4
		3:[MVA_llM<89.2872238] yes=7,no=8,missing=8
			7:[MVA_MET<77.7025909] yes=15,no=16,missing=16
				15:[MVA_Topmass<350.107941] yes=31,no=32,missing=32
					31:leaf=-0.00293463166
					32:leaf=0.114948086
				16:[MVA_Topmass<287.978516] yes=33,no=34,missing=34
					33:leaf=-0.107860684
					34:leaf=0.0575036146
			8:[MVA_llDr<3.19407368] yes=17,no=18,missing=18
				17:[MVA_llM<91.857338] yes=35,no=36,missing=36
					35:leaf=0.103245877
					36:leaf=0.0390782319
				18:leaf=-0.219449162
		4:[MVA_MET<59.5254211] yes=9,no=10,missing=10
			9:[MVA_Ht<164.671448] yes=19,no=20,missing=20
				19:[MVA_Topmass<395.60791] yes=37,no=38,missing=38
					37:leaf=-0.00351995858
					38:leaf=0.204723924
				20:[MVA_llDr<2.11801505] yes=39,no=40,missing=40
					39:leaf=0.00223022071
					40:leaf=-0.147320494
			10:[MVA_llDr<1.55652392] yes=21,no=22,missing=22
				21:[MVA_llM<96.4025269] yes=41,no=42,missing=42
					41:leaf=0.209004909
					42:leaf=-0.0196726434
				22:[MVA_llDr<3.00874805] yes=43,no=44,missing=44
					43:leaf=-0.0762285516
					44:leaf=-0.171427652
	2:[MVA_MET<31.5749817] yes=5,no=6,missing=6
		5:[MVA_btagSum<0.0980224609] yes=11,no=12,missing=12
			11:[MVA_llM<114.468834] yes=23,no=24,missing=24
				23:[MVA_llM<87.3964539] yes=45,no=46,missing=46
					45:leaf=-0.048009187
					46:leaf=0.189936772
				24:[MVA_tauPt<27.6273994] yes=47,no=48,missing=48
					47:leaf=-0.0772185624
					48:leaf=0.066586569
			12:[MVA_llM<86.9464569] yes=25,no=26,missing=26
				25:leaf=0.242746815
				26:[MVA_tauPt<22.3176956] yes=49,no=50,missing=50
					49:leaf=0.0407741815
					50:leaf=-0.271523058
		6:[MVA_llM<90.2325974] yes=13,no=14,missing=14
			13:[MVA_Topmass<180.487289] yes=27,no=28,missing=28
				27:[MVA_llM<74.9836349] yes=51,no=52,missing=52
					51:leaf=0.052121941
					52:leaf=-0.352300614
				28:[MVA_MET<66.8622742] yes=53,no=54,missing=54
					53:leaf=0.11652901
					54:leaf=-0.163139284
			14:[MVA_llM<92.5086517] yes=29,no=30,missing=30
				29:[MVA_Topmass<103.960594] yes=55,no=56,missing=56
					55:leaf=-0.012070003
					56:leaf=0.19055894
				30:[MVA_Topmass<131.351547] yes=57,no=58,missing=58
					57:leaf=-0.0145781441
					58:leaf=-0.176782787
booster[27]:
0:[MVA_btagSum<0.999511719] yes=1,no=2,missing=2
	1:[MVA_btagSum<0.031036377] yes=3,no=4,missing=4
		3:[MVA_btagSum<0.0205841064] yes=7,no=8,missing=8
			7:[MVA_MET<9.95294857] yes=15,no=16,missing=16
				15:[MVA_MET<6.69470119] yes=27,no=28,missing=28
					27:leaf=0.0046393224
					28:leaf=0.118699342
				16:[MVA_tauPt<118.373703] yes=29,no=30,missing=30
					29:leaf=-0.00920781028
					30:leaf=0.180478275
			8:[MVA_Ht<27.2743549] yes=17,no=18,missing=18
				17:[MVA_Topmass<147.838623] yes=31,no=32,missing=32
					31:leaf=-0.417361498
					32:leaf=0.00957137719
				18:[MVA_Topmass<138.601654] yes=33,no=34,missing=34
					33:leaf=0.0414583758
					34:leaf=-0.0925041437
		4:[MVA_llM<114.468834] yes=9,no=10,missing=10
			9:[MVA_llDr<2.33951402] yes=19,no=20,missing=20
				19:[MVA_llM<89.7529221] yes=35,no=36,missing=36
					35:leaf=-0.0331327058
					36:leaf=0.0579835847
				20:[MVA_Ht<102.119957] yes=37,no=38,missing=38
					37:leaf=0.104816489
					38:leaf=-0.048964791
			10:[MVA_btagSum<0.204620361] yes=21,no=22,missing=22
				21:[MVA_MET<49.1834717] yes=39,no=40,missing=40
					39:leaf=0.0388381109
					40:leaf=-0.151821464
				22:[MVA_tauPt<67.2309265] yes=41,no=42,missing=42
					41:leaf=-0.213004023
					42:leaf=-0.0351596698
	2:[MVA_tauPt<68.7755737] yes=5,no=6,missing=6
		5:[MVA_Topmass<127.743874] yes=11,no=12,missing=12
			11:[MVA_btagSum<1.004673] yes=23,no=24,missing=24
				23:leaf=-0.112517312
				24:[MVA_btagSum<1.28710938] yes=43,no=44,missing=44
					43:leaf=0.189500853
					44:leaf=-0.0853962898
			12:[MVA_tauPt<22.2569351] yes=25,no=26,missing=26
				25:[MVA_tauPt<21.5969505] yes=45,no=46,missing=46
					45:leaf=-0.0822716355
					46:leaf=0.10830602
				26:[MVA_Topmass<199.077011] yes=47,no=48,missing=48
					47:leaf=-0.170018911
					48:leaf=-0.0897712335
		6:[MVA_btagSum<1.02581787] yes=13,no=14,missing=14
			13:leaf=-0.0715491548
			14:leaf=0.129455119
booster[28]:
0:[MVA_llM<25.0143623] yes=1,no=2,missing=2
	1:[MVA_Topmass<175.072983] yes=3,no=4,missing=4
		3:[MVA_btagSum<0.12890625] yes=7,no=8,missing=8
			7:[MVA_tauPt<21.7749348] yes=13,no=14,missing=14
				13:leaf=0.235846862
				14:[MVA_llDr<0.534976125] yes=23,no=24,missing=24
					23:leaf=-0.0158798993
					24:leaf=0.108005755
			8:leaf=-0.131540224
		4:[MVA_MET<31.0438671] yes=9,no=10,missing=10
			9:[MVA_btagSum<0.0571289062] yes=15,no=16,missing=16
				15:[MVA_Ht<79.6639633] yes=25,no=26,missing=26
					25:leaf=0.171647593
					26:leaf=0.0378150046
				16:leaf=0.416599542
			10:[MVA_Topmass<287.978516] yes=17,no=18,missing=18
				17:[MVA_btagSum<0.0117340088] yes=27,no=28,missing=28
					27:leaf=0.0836911649
					28:leaf=-0.17379646
				18:leaf=0.213789254
	2:[MVA_MET<135.194489] yes=5,no=6,missing=6
		5:[MVA_llDr<2.66506433] yes=11,no=12,missing=12
			11:[MVA_tauPt<118.373703] yes=19,no=20,missing=20
				19:[MVA_MET<37.9116707] yes=29,no=30,missing=30
					29:leaf=0.0033144129
					30:leaf=-0.0271247867
				20:[MVA_llDr<2.19160867] yes=31,no=32,missing=32
					31:leaf=0.20165199
					32:leaf=0.0219713151
			12:[MVA_tauPt<20.318779] yes=21,no=22,missing=22
				21:[MVA_llM<97.546524] yes=33,no=34,missing=34
					33:leaf=0.2142407
					34:leaf=0.0195730384
				22:[MVA_llDr<3.73004889] yes=35,no=36,missing=36
					35:leaf=0.0172079727
					36:leaf=-0.108565286
		6:leaf=-0.197516918
booster[29]:
0:[MVA_tauPt<28.0953331] yes=1,no=2,missing=2
	1:[MVA_tauPt<27.160059] yes=3,no=4,missing=4
		3:[MVA_llDr<2.63386393] yes=7,no=8,missing=8
			7:[MVA_Topmass<177.426102] yes=15,no=16,missing=16
				15:[MVA_MET<46.4359245] yes=31,no=32,missing=32
					31:leaf=-0.0222721789
					32:leaf=-0.0777061656
				16:[MVA_Ht<30.0317764] yes=33,no=34,missing=34
					33:leaf=-0.114655599
					34:leaf=0.0588660873
			8:[MVA_Ht<30.9091129] yes=17,no=18,missing=18
				17:[MVA_llM<59.7198639] yes=35,no=36,missing=36
					35:leaf=-0.284798384
					36:leaf=0.0622641183
				18:[MVA_Ht<34.7324486] yes=37,no=38,missing=38
					37:leaf=-0.219114169
					38:leaf=-0.00468087802
		4:[MVA_llM<118.067383] yes=9,no=10,missing=10
			9:[MVA_Ht<157.823547] yes=19,no=20,missing=20
				19:[MVA_tauPt<27.6273994] yes=39,no=40,missing=40
					39:leaf=0.18640855
					40:leaf=0.0665945113
				20:[MVA_Ht<202.679077] yes=41,no=42,missing=42
					41:leaf=-0.159865528
					42:leaf=0.0260426346
			10:[MVA_tauPt<27.536108] yes=21,no=22,missing=22
				21:[MVA_llM<180.051804] yes=43,no=44,missing=44
					43:leaf=-0.283165872
					44:leaf=-0.0215934683
				22:[MVA_llDr<2.86742806] yes=45,no=46,missing=46
					45:leaf=-0.0609848127
					46:leaf=0.147587642
	2:[MVA_btagSum<0.574058533] yes=5,no=6,missing=6
		5:[MVA_btagSum<0.0426635742] yes=11,no=12,missing=12
			11:[MVA_llDr<2.23672533] yes=23,no=24,missing=24
				23:[MVA_tauPt<36.3742905] yes=47,no=48,missing=48
					47:leaf=-0.040221706
					48:leaf=0.0345405787
				24:[MVA_tauPt<65.8072433] yes=49,no=50,missing=50
					49:leaf=-0.024459077
					50:leaf=-0.128529474
			12:[MVA_MET<44.7125626] yes=25,no=26,missing=26
				25:[MVA_llM<85.3434982] yes=51,no=52,missing=52
					51:leaf=0.0564945377
					52:leaf=-0.0641116574
				26:[MVA_llM<62.5557709] yes=53,no=54,missing=54
					53:leaf=-0.164462149
					54:leaf=0.114913359
		6:[MVA_llM<79.1732025] yes=13,no=14,missing=14
			13:[MVA_MET<12.3870344] yes=27,no=28,missing=28
				27:leaf=0.0421812311
				28:[MVA_tauPt<29.7636833] yes=55,no=56,missing=56
					55:leaf=-0.0601644665
					56:leaf=-0.208090112
			14:[MVA_llM<94.1442413] yes=29,no=30,missing=30
				29:[MVA_MET<49.6487083] yes=57,no=58,missing=58
					57:leaf=-0.00368215144
					58:leaf=0.167502493
				30:[MVA_llDr<2.00687456] yes=59,no=60,missing=60
					59:leaf=0.0131475218
					60:leaf=-0.16675514
booster[30]:
0:[MVA_llM<25.0143623] yes=1,no=2,missing=2
	1:[MVA_tauPt<59.8631859] yes=3,no=4,missing=4
		3:[MVA_tauPt<42.7647972] yes=7,no=8,missing=8
			7:[MVA_tauPt<21.0287876] yes=15,no=16,missing=16
				15:leaf=-0.101959407
				16:[MVA_btagSum<0.545410156] yes=29,no=30,missing=30
					29:leaf=0.105317056
					30:leaf=-0.0690596774
			8:[MVA_Ht<93.9073563] yes=17,no=18,missing=18
				17:[MVA_MET<24.0296135] yes=31,no=32,missing=32
					31:leaf=0.00526718516
					32:leaf=-0.20431821
				18:leaf=0.153689563
		4:[MVA_btagSum<0.0102386475] yes=9,no=10,missing=10
			9:leaf=0.294251263
			10:[MVA_llM<18.291584] yes=19,no=20,missing=20
				19:leaf=-0.0888734758
				20:leaf=0.196353033
	2:[MVA_btagSum<0.00647735596] yes=5,no=6,missing=6
		5:[MVA_llDr<1.71810627] yes=11,no=12,missing=12
			11:[MVA_tauPt<67.2309265] yes=21,no=22,missing=22
				21:[MVA_llM<62.5557709] yes=33,no=34,missing=34
					33:leaf=0.00407345127
					34:leaf=-0.136277512
				22:[MVA_llM<73.6082382] yes=35,no=36,missing=36
					35:leaf=0.0225787871
					36:leaf=0.232366979
			12:[MVA_llM<53.2634087] yes=23,no=24,missing=24
				23:[MVA_llM<45.8644524] yes=37,no=38,missing=38
					37:leaf=-0.0996395722
					38:leaf=0.237707883
				24:[MVA_tauPt<65.8072433] yes=39,no=40,missing=40
					39:leaf=0.0165887419
					40:leaf=-0.0709873512
		6:[MVA_llM<44.0567017] yes=13,no=14,missing=14
			13:[MVA_MET<15.3013563] yes=25,no=26,missing=26
				25:[MVA_Ht<70.3039169] yes=41,no=42,missing=42
					41:leaf=0.208435759
					42:leaf=-0.155230656
				26:[MVA_btagSum<0.0165100098] yes=43,no=44,missing=44
					43:leaf=0.0327407643
					44:leaf=-0.216626853
			14:[MVA_llDr<0.860524237] yes=27,no=28,missing=28
				27:[MVA_llM<57.7996445] yes=45,no=46,missing=46
					45:leaf=0.0538236015
					46:leaf=0.281815767
				28:[MVA_btagSum<0.0300598145] yes=47,no=48,missing=48
					47:leaf=-0.0351943634
					48:leaf=0.00152726762
booster[31]:
0:[MVA_MET<120.389565] yes=1,no=2,missing=2
	1:[MVA_Topmass<199.940018] yes=3,no=4,missing=4
		3:[MVA_llDr<2.82977009] yes=7,no=8,missing=8
			7:[MVA_Topmass<121.506874] yes=13,no=14,missing=14
				13:[MVA_llM<95.0625] yes=21,no=22,missing=22
					21:leaf=0.0146077173
					22:leaf=-0.0295881554
				14:[MVA_llDr<2.35780835] yes=23,no=24,missing=24
					23:leaf=-0.00953528937
					24:leaf=-0.0738823861
			8:[MVA_tauPt<41.3857002] yes=15,no=16,missing=16
				15:[MVA_MET<71.2352676] yes=25,no=26,missing=26
					25:leaf=0.0194761828
					26:leaf=0.124515779
				16:[MVA_llM<91.9275665] yes=27,no=28,missing=28
					27:leaf=0.0431122072
					28:leaf=-0.101295196
		4:[MVA_llM<71.4450989] yes=9,no=10,missing=10
			9:[MVA_llM<25.0143623] yes=17,no=18,missing=18
				17:[MVA_btagSum<0.00778579712] yes=29,no=30,missing=30
					29:leaf=0.227627262
					30:leaf=0.0506713875
				18:[MVA_btagSum<0.107421875] yes=31,no=32,missing=32
					31:leaf=-0.0167818256
					32:leaf=-0.167773634
			10:[MVA_llDr<1.36742234] yes=19,no=20,missing=20
				19:[MVA_btagSum<0.162694931] yes=33,no=34,missing=34
					33:leaf=0.0755061284
					34:leaf=0.231157735
				20:[MVA_MET<77.7025909] yes=35,no=36,missing=36
					35:leaf=0.047822807
					36:leaf=-0.0684704259
	2:[MVA_llDr<1.81876695] yes=5,no=6,missing=6
		5:[MVA_Topmass<266.421844] yes=11,no=12,missing=12
			11:leaf=-0.0845084712
			12:leaf=0.0246727169
		6:leaf=-0.203619346
booster[32]:
0:[MVA_llM<88.2217407] yes=1,no=2,missing=2
	1:[MVA_Topmass<147.231415] yes=3,no=4,missing=4
		3:[MVA_llDr<2.58068705] yes=7,no=8,missing=8
			7:[MVA_llDr<1.45349491] yes=15,no=16,missing=16
				15:[MVA_llM<18.291584] yes=31,no=32,missing=32
					31:leaf=0.0731841549
					32:leaf=-0.0770556107
				16:[MVA_llM<59.7198639] yes=33,no=34,missing=34
					33:leaf=0.0794879273
					34:leaf=-0.00242313487
			8:[MVA_Ht<32.5606842] yes=17,no=18,missing=18
				17:[MVA_Topmass<140.624664] yes=35,no=36,missing=36
					35:leaf=-0.0890263468
					36:leaf=-0.433689207
				18:[MVA_llM<87.7801743] yes=37,no=38,missing=38
					37:leaf=0.0558977202
					38:leaf=-0.276084125
		4:[MVA_llDr<3.04278803] yes=9,no=10,missing=10
			9:[MVA_MET<69.7957153] yes=19,no=20,missing=20
				19:[MVA_Ht<37.4299812] yes=39,no=40,missing=40
					39:leaf=0.0831269547
					40:leaf=-0.008862908
				20:[MVA_btagSum<0.122924805] yes=41,no=42,missing=42
					41:leaf=-0.0419645011
					42:leaf=-0.201103389
			10:[MVA_llM<86.0162125] yes=21,no=22,missing=22
				21:[MVA_Ht<94.7032623] yes=43,no=44,missing=44
					43:leaf=0.229911923
					44:leaf=0.0261329804
				22:[MVA_Topmass<162.507294] yes=45,no=46,missing=46
					45:leaf=0.134590134
					46:leaf=-0.143269837
	2:[MVA_llM<93.3783875] yes=5,no=6,missing=6
		5:[MVA_llDr<1.26950479] yes=11,no=12,missing=12
			11:[MVA_llM<91.857338] yes=23,no=24,missing=24
				23:leaf=0.240612239
				24:leaf=0.057286676
			12:[MVA_Ht<62.8037415] yes=25,no=26,missing=26
				25:[MVA_MET<46.001461] yes=47,no=48,missing=48
					47:leaf=0.102316298
					48:leaf=0.00293787732
				26:[MVA_MET<46.4359245] yes=49,no=50,missing=50
					49:leaf=-0.047186207
					50:leaf=0.0717082024
		6:[MVA_MET<68.3057709] yes=13,no=14,missing=14
			13:[MVA_tauPt<21.8997917] yes=27,no=28,missing=28
				27:[MVA_MET<5.88981962] yes=51,no=52,missing=52
					51:leaf=-0.341148525
					52:leaf=-0.029479675
				28:[MVA_MET<10.7869511] yes=53,no=54,missing=54
					53:leaf=0.0505172201
					54:leaf=-0.00215762481
			14:[MVA_llM<120.562469] yes=29,no=30,missing=30
				29:[MVA_tauPt<26.5026665] yes=55,no=56,missing=56
					55:leaf=0.0286481194
					56:leaf=-0.0811802596
				30:[MVA_Ht<39.6037788] yes=57,no=58,missing=58
					57:leaf=-0.0799212828
					58:leaf=-0.210971624
booster[33]:
0:[MVA_llDr<3.22702098] yes=1,no=2,missing=2
	1:[MVA_btagSum<0.895507812] yes=3,no=4,missing=4
		3:[MVA_Topmass<192.516891] yes=7,no=8,missing=8
			7:[MVA_Topmass<117.768654] yes=15,no=16,missing=16
				15:[MVA_btagSum<0.0442810059] yes=31,no=32,missing=32
					31:leaf=0.00588569185
					32:leaf=0.138610587
				16:[MVA_tauPt<32.0261841] yes=33,no=34,missing=34
					33:leaf=-0.00136717851
					34:leaf=-0.0430871956
			8:[MVA_btagSum<0.00749588013] yes=17,no=18,missing=18
				17:[MVA_Topmass<322.875397] yes=35,no=36,missing=36
					35:leaf=0.117370419
					36:leaf=-0.0643650815
				18:[MVA_btagSum<0.0426635742] yes=37,no=38,missing=38
					37:leaf=-0.0138222156
					38:leaf=0.0446229242
		4:[MVA_llM<80.7022858] yes=9,no=10,missing=10
			9:[MVA_MET<36.2426147] yes=19,no=20,missing=20
				19:[MVA_llM<69.1846924] yes=39,no=40,missing=40
					39:leaf=-0.10991177
					40:leaf=0.0489109568
				20:leaf=-0.2181236
			10:[MVA_llM<106.486519] yes=21,no=22,missing=22
				21:[MVA_tauPt<20.8641205] yes=41,no=42,missing=42
					41:leaf=0.207210675
					42:leaf=-0.0120593719
				22:leaf=-0.188954934
	2:[MVA_llDr<3.2447052] yes=5,no=6,missing=6
		5:[MVA_tauPt<33.8886147] yes=11,no=12,missing=12
			11:[MVA_tauPt<22.2569351] yes=23,no=24,missing=24
				23:leaf=0.054071065
				24:[MVA_Topmass<173.230942] yes=43,no=44,missing=44
					43:leaf=-0.361534745
					44:leaf=-0.0677710772
			12:[MVA_llDr<3.23589182] yes=25,no=26,missing=26
				25:leaf=0.000683811144
				26:leaf=0.166729599
		6:[MVA_llM<214.997314] yes=13,no=14,missing=14
			13:[MVA_Topmass<131.948914] yes=27,no=28,missing=28
				27:[MVA_llM<88.1224594] yes=45,no=46,missing=46
					45:leaf=-0.0933904946
					46:leaf=0.0524029098
				28:[MVA_tauPt<20.5833626] yes=47,no=48,missing=48
					47:leaf=-0.395745605
					48:leaf=-0.029527178
			14:[MVA_MET<22.6609612] yes=29,no=30,missing=30
				29:[MVA_MET<15.3013563] yes=49,no=50,missing=50
					49:leaf=-0.117895365
					50:leaf=0.103379153
				30:[MVA_llDr<3.33976245] yes=51,no=52,missing=52
					51:leaf=-0.0242277421
					52:leaf=-0.179433495
booster[34]:
0:[MVA_Topmass<395.60791] yes=1,no=2,missing=2
	1:[MVA_btagSum<0.502441406] yes=3,no=4,missing=4
		3:[MVA_btagSum<0.0410461426] yes=7,no=8,missing=8
			7:[MVA_tauPt<20.2149506] yes=15,no=16,missing=16
				15:[MVA_llDr<3.15330625] yes=29,no=30,missing=30
					29:leaf=0.0384215787
					30:leaf=0.212669685
				16:[MVA_MET<92.0360947] yes=31,no=32,missing=32
					31:leaf=-0.00564798247
					32:leaf=0.0752097666
			8:[MVA_Ht<31.8940887] yes=17,no=18,missing=18
				17:[MVA_Topmass<124.588409] yes=33,no=34,missing=34
					33:leaf=-0.00702446047
					34:leaf=0.163125902
				18:[MVA_Topmass<116.804214] yes=35,no=36,missing=36
					35:leaf=0.11423289
					36:leaf=-0.00480755931
		4:[MVA_llM<106.486519] yes=9,no=10,missing=10
			9:[MVA_llM<76.8254395] yes=19,no=20,missing=20
				19:[MVA_llM<40.0918999] yes=37,no=38,missing=38
					37:leaf=0.0331230015
					38:leaf=-0.166019604
				20:[MVA_Ht<39.1707458] yes=39,no=40,missing=40
					39:leaf=-0.10831406
					40:leaf=0.037807487
			10:[MVA_MET<32.3834915] yes=21,no=22,missing=22
				21:[MVA_MET<22.8981724] yes=41,no=42,missing=42
					41:leaf=-0.11515256
					42:leaf=0.000607256603
				22:leaf=-0.222908571
	2:[MVA_btagSum<0.0823974609] yes=5,no=6,missing=6
		5:[MVA_llDr<2.84621072] yes=11,no=12,missing=12
			11:[MVA_Ht<279.50119] yes=23,no=24,missing=24
				23:[MVA_btagSum<0.0256347656] yes=43,no=44,missing=44
					43:leaf=-0.0614289157
					44:leaf=0.136622116
				24:leaf=-0.187025964
			12:[MVA_MET<33.5633736] yes=25,no=26,missing=26
				25:leaf=-0.00174065179
				26:leaf=0.242450029
		6:[MVA_llM<103.060326] yes=13,no=14,missing=14
			13:leaf=0.22510308
			14:[MVA_MET<50.1267738] yes=27,no=28,missing=28
				27:leaf=0.0814500377
				28:leaf=-0.129546329
booster[35]:
0:[MVA_Topmass<285.726624] yes=1,no=2,missing=2
	1:[MVA_btagSum<0.14125824] yes=3,no=4,missing=4
		3:[MVA_MET<36.5891342] yes=7,no=8,missing=8
			7:[MVA_llM<95.2785568] yes=15,no=16,missing=16
				15:[MVA_llM<89.4925613] yes=31,no=32,missing=32
					31:leaf=0.00766887516
					32:leaf=0.0881239995
				16:[MVA_Topmass<184.297211] yes=33,no=34,missing=34
					33:leaf=-0.0180415269
					34:leaf=0.0756963938
			8:[MVA_btagSum<0.0291442871] yes=17,no=18,missing=18
				17:[MVA_llM<81.1753769] yes=35,no=36,missing=36
					35:leaf=0.012362632
					36:leaf=-0.031680394
				18:[MVA_Ht<30.9091129] yes=37,no=38,missing=38
					37:leaf=0.146497414
					38:leaf=-0.00469290139
		4:[MVA_llM<69.1846924] yes=9,no=10,missing=10
			9:[MVA_MET<19.5721798] yes=19,no=20,missing=20
				19:[MVA_llM<30.7015686] yes=39,no=40,missing=40
					39:leaf=0.256174207
					40:leaf=-0.069892928
				20:[MVA_MET<35.3645439] yes=41,no=42,missing=42
					41:leaf=-0.0990461409
					42:leaf=-0.212720767
			10:[MVA_llM<92.2969818] yes=21,no=22,missing=22
				21:[MVA_MET<43.899025] yes=43,no=44,missing=44
					43:leaf=-0.0126807606
					44:leaf=0.0791319534
				22:[MVA_llDr<3.15931797] yes=45,no=46,missing=46
					45:leaf=-0.0383915901
					46:leaf=-0.200281456
	2:[MVA_Ht<109.464958] yes=5,no=6,missing=6
		5:[MVA_tauPt<22.3176956] yes=11,no=12,missing=12
			11:[MVA_Topmass<310.588135] yes=23,no=24,missing=24
				23:leaf=0.0663868785
				24:[MVA_llM<91.4095764] yes=47,no=48,missing=48
					47:leaf=-0.232111603
					48:leaf=-0.0286203511
			12:[MVA_llDr<2.81917739] yes=25,no=26,missing=26
				25:[MVA_tauPt<25.0660534] yes=49,no=50,missing=50
					49:leaf=0.218344182
					50:leaf=0.0142147597
				26:[MVA_llM<252.71994] yes=51,no=52,missing=52
					51:leaf=0.222715825
					52:leaf=-0.0898531005
		6:[MVA_btagSum<0.169799805] yes=13,no=14,missing=14
			13:[MVA_tauPt<21.192255] yes=27,no=28,missing=28
				27:leaf=0.169206113
				28:[MVA_Ht<253.853394] yes=53,no=54,missing=54
					53:leaf=-0.0917448401
					54:leaf=0.0348433144
			14:[MVA_llM<94.8480911] yes=29,no=30,missing=30
				29:[MVA_llM<87.097496] yes=55,no=56,missing=56
					55:leaf=-0.0208552778
					56:leaf=0.230861351
				30:[MVA_llDr<1.85729504] yes=57,no=58,missing=58
					57:leaf=0.0658835694
					58:leaf=-0.128752246
booster[36]:
0:[MVA_tauPt<108.724724] yes=1,no=2,missing=2
	1:[MVA_btagSum<1.24328613] yes=3,no=4,missing=4
		3:[MVA_llDr<3.73004889] yes=7,no=8,missing=8
			7:[MVA_llDr<3.49525476] yes=15,no=16,missing=16
				15:[MVA_Ht<567.831116] yes=23,no=24,missing=24
					23:leaf=-0.000602572574
					24:leaf=0.174266204
				16:[MVA_Ht<59.5123444] yes=25,no=26,missing=26
					25:leaf=0.128935739
					26:leaf=-0.108441137
			8:[MVA_llM<131.648102] yes=17,no=18,missing=18
				17:[MVA_tauPt<25.5804596] yes=27,no=28,missing=28
					27:leaf=-0.0232428815
					28:leaf=0.13716723
				18:[MVA_llM<167.955887] yes=29,no=30,missing=30
					29:leaf=-0.233032256
					30:leaf=-0.0534172952
		4:[MVA_Ht<110.391876] yes=9,no=10,missing=10
			9:leaf=0.0450076088
			10:[MVA_tauPt<46.559761] yes=19,no=20,missing=20
				19:leaf=-0.185906127
				20:leaf=-0.0200570002
	2:[MVA_llDr<2.93859696] yes=5,no=6,missing=6
		5:[MVA_MET<22.8981724] yes=11,no=12,missing=12
			11:leaf=0.203164577
			12:[MVA_btagSum<0.0332946777] yes=21,no=22,missing=22
				21:[MVA_btagSum<0.00379562378] yes=31,no=32,missing=32
					31:leaf=0.0544582829
					32:leaf=0.177252084
				22:[MVA_llM<95.2785568] yes=33,no=34,missing=34
					33:leaf=0.0556079
					34:leaf=-0.0931532905
		6:[MVA_llDr<3.05327106] yes=13,no=14,missing=14
			13:leaf=-0.196179435
			14:leaf=0.069711946
booster[37]:
0:[MVA_MET<135.194489] yes=1,no=2,missing=2
	1:[MVA_tauPt<56.9232521] yes=3,no=4,missing=4
		3:[MVA_tauPt<42.0491486] yes=7,no=8,missing=8
			7:[MVA_tauPt<37.2130585] yes=11,no=12,missing=12
				11:[MVA_tauPt<28.0953331] yes=19,no=20,missing=20
					19:leaf=0.00458719209
					20:leaf=-0.018845344
				12:[MVA_llM<58.7818375] yes=21,no=22,missing=22
					21:leaf=0.142475501
					22:leaf=0.0266943015
			8:[MVA_llM<96.0858765] yes=13,no=14,missing=14
				13:[MVA_llDr<2.45751023] yes=23,no=24,missing=24
					23:leaf=-0.0231982525
					24:leaf=-0.0897774026
				14:[MVA_llDr<3.15330625] yes=25,no=26,missing=26
					25:leaf=0.0436756127
					26:leaf=-0.0681492016
		4:[MVA_llDr<3.12874794] yes=9,no=10,missing=10
			9:[MVA_llDr<3.03282428] yes=15,no=16,missing=16
				15:[MVA_llDr<2.16840339] yes=27,no=28,missing=28
					27:leaf=0.0553180277
					28:leaf=-0.0162265971
				16:[MVA_MET<21.362421] yes=29,no=30,missing=30
					29:leaf=-0.0093259383
					30:leaf=0.260269314
			10:[MVA_llM<92.3664627] yes=17,no=18,missing=18
				17:[MVA_MET<45.5310287] yes=31,no=32,missing=32
					31:leaf=0.117805853
					32:leaf=-0.0519911498
				18:[MVA_tauPt<65.8072433] yes=33,no=34,missing=34
					33:leaf=-0.0242277496
					34:leaf=-0.223206535
	2:[MVA_llDr<1.9278419] yes=5,no=6,missing=6
		5:leaf=-0.0539172404
		6:leaf=-0.171821281
booster[38]:
0:[MVA_llDr<2.40139985] yes=1,no=2,missing=2
	1:[MVA_MET<135.194489] yes=3,no=4,missing=4
		3:[MVA_Ht<122.88118] yes=7,no=8,missing=8
			7:[MVA_tauPt<26.1119556] yes=13,no=14,missing=14
				13:[MVA_Topmass<105.846588] yes=25,no=26,missing=26
					25:leaf=-0.0806789249
					26:leaf=-0.00521361548
				14:[MVA_Ht<36.6804199] yes=27,no=28,missing=28
					27:leaf=0.0087822387
					28:leaf=-0.0391470753
			8:[MVA_llDr<1.83820462] yes=15,no=16,missing=16
				15:[MVA_tauPt<33.2930489] yes=29,no=30,missing=30
					29:leaf=0.0880271271
					30:leaf=-0.00736114755
				16:[MVA_Ht<159.496262] yes=31,no=32,missing=32
					31:leaf=0.0038346143
					32:leaf=-0.0855205134
		4:leaf=-0.145897403
	2:[MVA_llM<74.244194] yes=5,no=6,missing=6
		5:[MVA_llM<73.6082382] yes=9,no=10,missing=10
			9:[MVA_btagSum<0.0618286133] yes=17,no=18,missing=18
				17:[MVA_MET<50.6111221] yes=33,no=34,missing=34
					33:leaf=-0.0677054897
					34:leaf=0.0562045015
				18:[MVA_llDr<2.79235625] yes=35,no=36,missing=36
					35:leaf=0.200836957
					36:leaf=-0.0488264523
			10:[MVA_MET<29.4421883] yes=19,no=20,missing=20
				19:leaf=-0.486679763
				20:[MVA_tauPt<24.9218502] yes=37,no=38,missing=38
					37:leaf=0.0620673075
					38:leaf=-0.129968986
		6:[MVA_llM<93.3783875] yes=11,no=12,missing=12
			11:[MVA_tauPt<33.2930489] yes=21,no=22,missing=22
				21:[MVA_llDr<3.22702098] yes=39,no=40,missing=40
					39:leaf=0.0648645535
					40:leaf=-0.0356074981
				22:[MVA_Ht<54.2454796] yes=41,no=42,missing=42
					41:leaf=-0.0663776025
					42:leaf=0.0629161298
			12:[MVA_Ht<28.432827] yes=23,no=24,missing=24
				23:[MVA_tauPt<72.1133652] yes=43,no=44,missing=44
					43:leaf=0.0213264078
					44:leaf=-0.196657389
				24:[MVA_MET<52.6460953] yes=45,no=46,missing=46
					45:leaf=-0.0115200542
					46:leaf=-0.122214653
booster[39]:
0:[MVA_tauPt<20.2149506] yes=1,no=2,missing=2
	1:[MVA_MET<49.6487083] yes=3,no=4,missing=4
		3:[MVA_Ht<101.215187] yes=7,no=8,missing=8
			7:[MVA_llM<108.236618] yes=15,no=16,missing=16
				15:[MVA_llM<84.541832] yes=27,no=28,missing=28
					27:leaf=0.0882380977
					28:leaf=0.223324865
				16:[MVA_MET<31.3161945] yes=29,no=30,missing=30
					29:leaf=-0.0651598647
					30:leaf=0.134462029
			8:leaf=-0.0466750823
		4:[MVA_llDr<2.96832514] yes=9,no=10,missing=10
			9:[MVA_tauPt<20.1044102] yes=17,no=18,missing=18
				17:leaf=-0.0131181357
				18:leaf=-0.103691809
			10:leaf=0.079032965
	2:[MVA_llDr<3.52085567] yes=5,no=6,missing=6
		5:[MVA_tauPt<20.3691864] yes=11,no=12,missing=12
			11:[MVA_MET<17.5893841] yes=19,no=20,missing=20
				19:[MVA_llM<91.5665894] yes=31,no=32,missing=32
					31:leaf=0.0184056927
					32:leaf=0.108956538
				20:[MVA_llDr<3.14236903] yes=33,no=34,missing=34
					33:leaf=-0.151284859
					34:leaf=0.0481743813
			12:[MVA_Ht<226.528198] yes=21,no=22,missing=22
				21:[MVA_llDr<2.60043907] yes=35,no=36,missing=36
					35:leaf=-0.00410825759
					36:leaf=0.0123272976
				22:[MVA_llDr<0.683923125] yes=37,no=38,missing=38
					37:leaf=0.11699637
					38:leaf=-0.0650426373
		6:[MVA_tauPt<27.160059] yes=13,no=14,missing=14
			13:[MVA_tauPt<26.1928024] yes=23,no=24,missing=24
				23:[MVA_llM<130.175034] yes=39,no=40,missing=40
					39:leaf=0.0198957026
					40:leaf=-0.123197421
				24:leaf=-0.304770201
			14:[MVA_llM<134.940857] yes=25,no=26,missing=26
				25:[MVA_tauPt<41.0745201] yes=41,no=42,missing=42
					41:leaf=0.2148709
					42:leaf=-0.0877916887
				26:[MVA_tauPt<30.1124592] yes=43,no=44,missing=44
					43:leaf=0.0864597559
					44:leaf=-0.137392044
booster[40]:
0:[MVA_Topmass<316.557098] yes=1,no=2,missing=2
	1:[MVA_MET<9.04650307] yes=3,no=4,missing=4
		3:[MVA_MET<6.69470119] yes=7,no=8,missing=8
			7:[MVA_Ht<96.401062] yes=15,no=16,missing=16
				15:[MVA_llM<96.7388763] yes=31,no=32,missing=32
					31:leaf=0.0622292086
					32:leaf=-0.0719755962
				16:[MVA_Ht<181.436523] yes=33,no=34,missing=34
					33:leaf=-0.222522989
					34:leaf=0.0698978901
			8:[MVA_btagSum<0.6015625] yes=17,no=18,missing=18
				17:[MVA_Ht<60.5911522] yes=35,no=36,missing=36
					35:leaf=0.137291953
					36:leaf=0.0202859193
				18:[MVA_Ht<69.648468] yes=37,no=38,missing=38
					37:leaf=-0.196997061
					38:leaf=0.0798296183
		4:[MVA_llM<165.493149] yes=9,no=10,missing=10
			9:[MVA_llM<158.327179] yes=19,no=20,missing=20
				19:[MVA_tauPt<26.3433762] yes=39,no=40,missing=40
					39:leaf=-0.0150815649
					40:leaf=0.00138164766
				20:[MVA_Ht<30.6303234] yes=41,no=42,missing=42
					41:leaf=0.205507711
					42:leaf=-0.0938365608
			10:[MVA_MET<44.7125626] yes=21,no=22,missing=22
				21:[MVA_llDr<3.10096693] yes=43,no=44,missing=44
					43:leaf=0.0312728286
					44:leaf=-0.0521590151
				22:[MVA_tauPt<56.0517387] yes=45,no=46,missing=46
					45:leaf=-0.142950341
					46:leaf=0.0355949216
	2:[MVA_btagSum<0.0980224609] yes=5,no=6,missing=6
		5:[MVA_MET<81.9390182] yes=11,no=12,missing=12
			11:[MVA_Ht<107.42746] yes=23,no=24,missing=24
				23:[MVA_tauPt<23.0655766] yes=47,no=48,missing=48
					47:leaf=-0.113275737
					48:leaf=0.0783955082
				24:[MVA_llM<128.710571] yes=49,no=50,missing=50
					49:leaf=-0.0859915167
					50:leaf=0.0845926628
			12:[MVA_llDr<1.99132884] yes=25,no=26,missing=26
				25:leaf=0.233698919
				26:leaf=-0.00939557143
		6:[MVA_llM<102.242714] yes=13,no=14,missing=14
			13:[MVA_llM<88.7216187] yes=27,no=28,missing=28
				27:[MVA_MET<60.7535591] yes=51,no=52,missing=52
					51:leaf=0.0933407173
					52:leaf=-0.0788928643
				28:[MVA_btagSum<0.843986511] yes=53,no=54,missing=54
					53:leaf=0.297458202
					54:leaf=0.00028837318
			14:[MVA_btagSum<0.195587158] yes=29,no=30,missing=30
				29:leaf=0.104646258
				30:leaf=-0.113073468
booster[41]:
0:[MVA_tauPt<118.373703] yes=1,no=2,missing=2
	1:[MVA_tauPt<23.655014] yes=3,no=4,missing=4
		3:[MVA_llDr<3.01838732] yes=7,no=8,missing=8
			7:[MVA_llDr<2.94894004] yes=15,no=16,missing=16
				15:[MVA_llDr<2.91836977] yes=25,no=26,missing=26
					25:leaf=0.0015155928
					26:leaf=0.153980792
				16:[MVA_btagSum<0.00926971436] yes=27,no=28,missing=28
					27:leaf=-0.30986923
					28:leaf=0.102062948
			8:[MVA_Ht<31.8940887] yes=17,no=18,missing=18
				17:[MVA_llM<63.5161057] yes=29,no=30,missing=30
					29:leaf=-0.270166308
					30:leaf=0.136574998
				18:[MVA_Ht<33.6251602] yes=31,no=32,missing=32
					31:leaf=-0.283066839
					32:leaf=0.00196760939
		4:[MVA_tauPt<25.8825836] yes=9,no=10,missing=10
			9:[MVA_llDr<3.01347208] yes=19,no=20,missing=20
				19:[MVA_tauPt<23.7223682] yes=33,no=34,missing=34
					33:leaf=-0.221841723
					34:leaf=-0.00890619121
				20:[MVA_llDr<3.27653623] yes=35,no=36,missing=36
					35:leaf=-0.181192651
					36:leaf=0.0212009829
			10:[MVA_tauPt<28.0025673] yes=21,no=22,missing=22
				21:[MVA_btagSum<0.00622940063] yes=37,no=38,missing=38
					37:leaf=0.0723962858
					38:leaf=-0.0137329074
				22:[MVA_tauPt<29.7636833] yes=39,no=40,missing=40
					39:leaf=-0.0473309681
					40:leaf=0.000927374873
	2:[MVA_btagSum<0.00897216797] yes=5,no=6,missing=6
		5:[MVA_llDr<1.55652392] yes=11,no=12,missing=12
			11:leaf=0.0663929507
			12:leaf=-0.0986849815
		6:[MVA_Ht<90.7329178] yes=13,no=14,missing=14
			13:leaf=0.211035982
			14:[MVA_llDr<1.57976413] yes=23,no=24,missing=24
				23:leaf=-0.0527398176
				24:[MVA_btagSum<0.0728759766] yes=41,no=42,missing=42
					41:leaf=-0.00234890659
					42:leaf=0.195770025
booster[42]:
0:[MVA_btagSum<1.44873047] yes=1,no=2,missing=2
	1:[MVA_tauPt<56.0517387] yes=3,no=4,missing=4
		3:[MVA_Ht<482.36618] yes=7,no=8,missing=8
			7:[MVA_Ht<233.96817] yes=13,no=14,missing=14
				13:[MVA_llDr<1.50698996] yes=21,no=22,missing=22
					21:leaf=-0.0275831502
					22:leaf=0.00686197309
				14:[MVA_llDr<0.860524237] yes=23,no=24,missing=24
					23:leaf=0.160168797
					24:leaf=-0.100215264
			8:[MVA_Topmass<261.517731] yes=15,no=16,missing=16
				15:leaf=-0.00182107033
				16:leaf=0.21572347
		4:[MVA_llM<104.725906] yes=9,no=10,missing=10
			9:[MVA_MET<55.3876839] yes=17,no=18,missing=18
				17:[MVA_llDr<1.91103017] yes=25,no=26,missing=26
					25:leaf=0.0382228605
					26:leaf=-0.0578570962
				18:[MVA_btagSum<0.00298309326] yes=27,no=28,missing=28
					27:leaf=-0.0419714972
					28:leaf=0.132438943
			10:[MVA_llDr<3.25485539] yes=19,no=20,missing=20
				19:[MVA_Ht<84.7234421] yes=29,no=30,missing=30
					29:leaf=0.138563052
					30:leaf=0.0158627518
				20:[MVA_btagSum<0.00989532471] yes=31,no=32,missing=32
					31:leaf=-0.0152370827
					32:leaf=-0.114518829
	2:[MVA_Ht<128.624786] yes=5,no=6,missing=6
		5:leaf=0.0363790207
		6:[MVA_Topmass<157.761795] yes=11,no=12,missing=12
			11:leaf=-0.0509550534
			12:leaf=-0.176344424
booster[43]:
0:[MVA_Topmass<182.374374] yes=1,no=2,missing=2
	1:[MVA_llM<64.3964767] yes=3,no=4,missing=4
		3:[MVA_llDr<1.48013306] yes=7,no=8,missing=8
			7:[MVA_llM<45.8644524] yes=15,no=16,missing=16
				15:[MVA_llDr<1.00535488] yes=31,no=32,missing=32
					31:leaf=-0.024457084
					32:leaf=0.105970047
				16:[MVA_tauPt<55.2322044] yes=33,no=34,missing=34
					33:leaf=-0.149683312
					34:leaf=0.0947084501
			8:[MVA_Topmass<167.220413] yes=17,no=18,missing=18
				17:[MVA_llDr<2.2805624] yes=35,no=36,missing=36
					35:leaf=0.0942321941
					36:leaf=-0.0250549018
				18:[MVA_tauPt<36.5642509] yes=37,no=38,missing=38
					37:leaf=0.414966285
					38:leaf=0.0495233834
		4:[MVA_MET<48.3002052] yes=9,no=10,missing=10
			9:[MVA_llM<89.2872238] yes=19,no=20,missing=20
				19:[MVA_MET<21.362421] yes=39,no=40,missing=40
					39:leaf=0.00669564214
					40:leaf=-0.0539720021
				20:[MVA_llM<92.1644592] yes=41,no=42,missing=42
					41:leaf=0.0567701869
					42:leaf=-0.0162249971
			10:[MVA_Topmass<164.280853] yes=21,no=22,missing=22
				21:[MVA_btagSum<0.0211639404] yes=43,no=44,missing=44
					43:leaf=0.000185308003
					44:leaf=0.094110854
				22:[MVA_Ht<29.0478859] yes=45,no=46,missing=46
					45:leaf=0.198530793
					46:leaf=-0.100953981
	2:[MVA_Ht<37.4299812] yes=5,no=6,missing=6
		5:[MVA_Topmass<219.418182] yes=11,no=12,missing=12
			11:[MVA_MET<47.8200417] yes=23,no=24,missing=24
				23:[MVA_tauPt<31.15382] yes=47,no=48,missing=48
					47:leaf=0.0640755296
					48:leaf=0.262144834
				24:[MVA_tauPt<37.6561165] yes=49,no=50,missing=50
					49:leaf=0.0945804045
					50:leaf=-0.0549357496
			12:[MVA_llM<75.6165619] yes=25,no=26,missing=26
				25:[MVA_Topmass<269.984009] yes=51,no=52,missing=52
					51:leaf=-0.0186917838
					52:leaf=-0.22216624
				26:[MVA_Topmass<271.966736] yes=53,no=54,missing=54
					53:leaf=-0.0237485766
					54:leaf=0.154058799
		6:[MVA_btagSum<0.0205841064] yes=13,no=14,missing=14
			13:[MVA_tauPt<42.7647972] yes=27,no=28,missing=28
				27:[MVA_Topmass<215.726501] yes=55,no=56,missing=56
					55:leaf=0.121190444
					56:leaf=0.0285658482
				28:[MVA_Ht<54.2454796] yes=57,no=58,missing=58
					57:leaf=-0.150029302
					58:leaf=0.0241636354
			14:[MVA_llDr<3.01838732] yes=29,no=30,missing=30
				29:[MVA_btagSum<0.0382080078] yes=59,no=60,missing=60
					59:leaf=-0.0512105413
					60:leaf=0.0266135782
				30:[MVA_llDr<3.09613347] yes=61,no=62,missing=62
					61:leaf=-0.180053771
					62:leaf=-0.0261348989
booster[44]:
0:[MVA_llM<89.9345016] yes=1,no=2,missing=2
	1:[MVA_llDr<3.09156513] yes=3,no=4,missing=4
		3:[MVA_llM<88.8093185] yes=7,no=8,missing=8
			7:[MVA_tauPt<42.7647972] yes=15,no=16,missing=16
				15:[MVA_tauPt<26.1119556] yes=29,no=30,missing=30
					29:leaf=-0.0140518835
					30:leaf=0.0227158181
				16:[MVA_llDr<2.74899411] yes=31,no=32,missing=32
					31:leaf=-0.045337759
					32:leaf=0.0554246344
			8:[MVA_MET<44.7125626] yes=17,no=18,missing=18
				17:[MVA_tauPt<22.8049412] yes=33,no=34,missing=34
					33:leaf=-0.255045891
					34:leaf=-0.072315976
				18:[MVA_btagSum<0.0264587402] yes=35,no=36,missing=36
					35:leaf=-0.0757670403
					36:leaf=0.0853785947
		4:[MVA_llM<62.5557709] yes=9,no=10,missing=10
			9:[MVA_MET<22.4335556] yes=19,no=20,missing=20
				19:leaf=-0.481584251
				20:leaf=-0.110524051
			10:[MVA_Topmass<179.709595] yes=21,no=22,missing=22
				21:[MVA_tauPt<36.7622375] yes=37,no=38,missing=38
					37:leaf=-0.107598394
					38:leaf=0.0927770063
				22:[MVA_tauPt<52.3620148] yes=39,no=40,missing=40
					39:leaf=0.127475962
					40:leaf=-0.105065115
	2:[MVA_llM<90.1748505] yes=5,no=6,missing=6
		5:[MVA_llDr<2.72592545] yes=11,no=12,missing=12
			11:[MVA_MET<40.7672272] yes=23,no=24,missing=24
				23:[MVA_Topmass<162.507294] yes=41,no=42,missing=42
					41:leaf=0.166831926
					42:leaf=-0.0118854707
				24:[MVA_Topmass<186.888824] yes=43,no=44,missing=44
					43:leaf=-0.121751808
					44:leaf=0.0154729281
			12:leaf=0.248358682
		6:[MVA_llDr<1.39601398] yes=13,no=14,missing=14
			13:[MVA_Ht<313.824341] yes=25,no=26,missing=26
				25:[MVA_llDr<1.08749592] yes=45,no=46,missing=46
					45:leaf=0.233509034
					46:leaf=0.0901194513
				26:[MVA_Topmass<359.484894] yes=47,no=48,missing=48
					47:leaf=0.0217535906
					48:leaf=-0.115960471
			14:[MVA_llM<90.2867661] yes=27,no=28,missing=28
				27:[MVA_tauPt<26.7383118] yes=49,no=50,missing=50
					49:leaf=0.129639044
					50:leaf=-0.269226551
				28:[MVA_llDr<2.80304217] yes=51,no=52,missing=52
					51:leaf=-0.0112145972
					52:leaf=0.0166194905
booster[45]:
0:[MVA_llM<160.540222] yes=1,no=2,missing=2
	1:[MVA_MET<124.698776] yes=3,no=4,missing=4
		3:[MVA_tauPt<56.9232521] yes=7,no=8,missing=8
			7:[MVA_llM<58.7818375] yes=15,no=16,missing=16
				15:[MVA_llDr<1.23624408] yes=27,no=28,missing=28
					27:leaf=-0.0338462628
					28:leaf=0.0875546485
				16:[MVA_llM<59.7198639] yes=29,no=30,missing=30
					29:leaf=-0.171606347
					30:leaf=-0.00429673679
			8:[MVA_llDr<0.746508896] yes=17,no=18,missing=18
				17:[MVA_btagSum<0.0102386475] yes=31,no=32,missing=32
					31:leaf=0.257002354
					32:leaf=-0.0311807152
				18:[MVA_llM<74.244194] yes=33,no=34,missing=34
					33:leaf=-0.0506843366
					34:leaf=0.0321829878
		4:[MVA_llDr<1.26950479] yes=9,no=10,missing=10
			9:leaf=-0.0362167954
			10:leaf=-0.16428028
	2:[MVA_tauPt<23.5244827] yes=5,no=6,missing=6
		5:[MVA_MET<18.8999844] yes=11,no=12,missing=12
			11:[MVA_MET<15.3013563] yes=19,no=20,missing=20
				19:[MVA_llDr<3.55198956] yes=35,no=36,missing=36
					35:leaf=-0.0139837144
					36:leaf=-0.203824341
				20:leaf=0.171005711
			12:[MVA_Topmass<179.709595] yes=21,no=22,missing=22
				21:[MVA_llM<165.493149] yes=37,no=38,missing=38
					37:leaf=0.00224893005
					38:leaf=-0.17732136
				22:[MVA_tauPt<21.9578285] yes=39,no=40,missing=40
					39:leaf=0.0218496844
					40:leaf=-0.0844970644
		6:[MVA_btagSum<0.0643310547] yes=13,no=14,missing=14
			13:[MVA_Topmass<147.838623] yes=23,no=24,missing=24
				23:[MVA_llM<199.327927] yes=41,no=42,missing=42
					41:leaf=-0.0583137162
					42:leaf=0.0152945779
				24:[MVA_btagSum<0.006980896] yes=43,no=44,missing=44
					43:leaf=-0.0420522243
					44:leaf=0.11910665
			14:[MVA_tauPt<27.0670528] yes=25,no=26,missing=26
				25:leaf=-0.00035802694
				26:[MVA_llDr<2.5326457] yes=45,no=46,missing=46
					45:leaf=-0.0425818674
					46:leaf=-0.185445219
booster[46]:
0:[MVA_tauPt<20.318779] yes=1,no=2,missing=2
	1:[MVA_Ht<41.8907433] yes=3,no=4,missing=4
		3:[MVA_llDr<3.08749104] yes=7,no=8,missing=8
			7:[MVA_llM<100.842751] yes=15,no=16,missing=16
				15:[MVA_llDr<2.19160867] yes=27,no=28,missing=28
					27:leaf=-0.0323499478
					28:leaf=0.164789692
				16:[MVA_llDr<2.92820144] yes=29,no=30,missing=30
					29:leaf=-0.00113988423
					30:leaf=-0.168711722
			8:leaf=0.255674213
		4:[MVA_Topmass<141.850632] yes=9,no=10,missing=10
			9:leaf=-0.145247385
			10:[MVA_llDr<2.00687456] yes=17,no=18,missing=18
				17:leaf=0.114640005
				18:[MVA_llM<100.842751] yes=31,no=32,missing=32
					31:leaf=0.0119997794
					32:leaf=-0.145409003
	2:[MVA_tauPt<45.1640511] yes=5,no=6,missing=6
		5:[MVA_MET<36.5891342] yes=11,no=12,missing=12
			11:[MVA_MET<33.5633736] yes=19,no=20,missing=20
				19:[MVA_tauPt<21.5969505] yes=33,no=34,missing=34
					33:leaf=0.0473375283
					34:leaf=0.00140009588
				20:[MVA_llM<60.6845398] yes=35,no=36,missing=36
					35:leaf=0.174082935
					36:leaf=0.0438386835
			12:[MVA_tauPt<20.5833626] yes=21,no=22,missing=22
				21:[MVA_MET<45.1396561] yes=37,no=38,missing=38
					37:leaf=-0.250706077
					38:leaf=0.0201824233
				22:[MVA_tauPt<24.494873] yes=39,no=40,missing=40
					39:leaf=0.0191847999
					40:leaf=-0.0141414348
		6:[MVA_llDr<2.06412673] yes=13,no=14,missing=14
			13:[MVA_llM<58.7818375] yes=23,no=24,missing=24
				23:[MVA_MET<39.2959671] yes=41,no=42,missing=42
					41:leaf=-0.0173371695
					42:leaf=-0.155434445
				24:[MVA_Ht<79.0188446] yes=43,no=44,missing=44
					43:leaf=0.0709646344
					44:leaf=-0.0139829824
			14:[MVA_MET<47.3433914] yes=25,no=26,missing=26
				25:[MVA_Ht<168.107605] yes=45,no=46,missing=46
					45:leaf=-0.0417382568
					46:leaf=-0.184415102
				26:[MVA_llM<118.067383] yes=47,no=48,missing=48
					47:leaf=0.0315633118
					48:leaf=-0.112941995
booster[47]:
0:[MVA_MET<47.8200417] yes=1,no=2,missing=2
	1:[MVA_MET<46.4359245] yes=3,no=4,missing=4
		3:[MVA_MET<45.5310287] yes=7,no=8,missing=8
			7:[MVA_tauPt<20.1602459] yes=15,no=16,missing=16
				15:[MVA_MET<19.1280842] yes=31,no=32,missing=32
					31:leaf=-0.0505207144
					32:leaf=0.147110924
				16:[MVA_MET<15.0765247] yes=33,no=34,missing=34
					33:leaf=0.012787763
					34:leaf=-0.0100678373
			8:[MVA_llM<114.468834] yes=17,no=18,missing=18
				17:[MVA_Ht<41.4156532] yes=35,no=36,missing=36
					35:leaf=0.173337311
					36:leaf=-0.0255142692
				18:[MVA_tauPt<27.536108] yes=37,no=38,missing=38
					37:leaf=-0.145929605
					38:leaf=-0.0282507315
		4:[MVA_llDr<3.11967468] yes=9,no=10,missing=10
			9:[MVA_btagSum<0.0460510254] yes=19,no=20,missing=20
				19:[MVA_llM<110.292809] yes=39,no=40,missing=40
					39:leaf=-0.0998457521
					40:leaf=0.0584124662
				20:[MVA_btagSum<0.444107056] yes=41,no=42,missing=42
					41:leaf=0.111820646
					42:leaf=-0.0968446657
			10:[MVA_tauPt<30.9358845] yes=21,no=22,missing=22
				21:leaf=-0.333444953
				22:leaf=0.0135586262
	2:[MVA_llDr<2.14383078] yes=5,no=6,missing=6
		5:[MVA_llDr<0.911181927] yes=11,no=12,missing=12
			11:[MVA_MET<51.1398048] yes=23,no=24,missing=24
				23:[MVA_llDr<0.534976125] yes=43,no=44,missing=44
					43:leaf=0.0388582759
					44:leaf=0.286261708
				24:[MVA_llM<44.0567017] yes=45,no=46,missing=46
					45:leaf=-0.0157887377
					46:leaf=0.141259894
			12:[MVA_Ht<146.680023] yes=25,no=26,missing=26
				25:[MVA_tauPt<42.4047432] yes=47,no=48,missing=48
					47:leaf=-0.0735209808
					48:leaf=-0.00476007676
				26:[MVA_Ht<226.528198] yes=49,no=50,missing=50
					49:leaf=0.0913475752
					50:leaf=-0.0437356867
		6:[MVA_llM<127.281555] yes=13,no=14,missing=14
			13:[MVA_MET<55.9669037] yes=27,no=28,missing=28
				27:[MVA_llDr<2.82977009] yes=51,no=52,missing=52
					51:leaf=0.0242732465
					52:leaf=0.147798792
				28:[MVA_Ht<313.824341] yes=53,no=54,missing=54
					53:leaf=0.0110240616
					54:leaf=0.32406342
			14:[MVA_btagSum<0.0426635742] yes=29,no=30,missing=30
				29:[MVA_MET<49.6487083] yes=55,no=56,missing=56
					55:leaf=0.127369955
					56:leaf=-0.0524234734
				30:leaf=-0.182559431
booster[48]:
0:[MVA_MET<15.9902048] yes=1,no=2,missing=2
	1:[MVA_MET<15.5254049] yes=3,no=4,missing=4
		3:[MVA_llM<81.6098328] yes=7,no=8,missing=8
			7:[MVA_llDr<3.05837917] yes=15,no=16,missing=16
				15:[MVA_btagSum<0.00598526001] yes=29,no=30,missing=30
					29:leaf=-0.0866510198
					30:leaf=0.0080134673
				16:[MVA_tauPt<26.3433762] yes=31,no=32,missing=32
					31:leaf=-0.420319468
					32:leaf=0.0619078353
			8:[MVA_Ht<29.0478859] yes=17,no=18,missing=18
				17:[MVA_llM<95.7787628] yes=33,no=34,missing=34
					33:leaf=0.136412844
					34:leaf=0.00160911295
				18:[MVA_Topmass<159.572937] yes=35,no=36,missing=36
					35:leaf=-0.0841012672
					36:leaf=0.0161218103
		4:[MVA_llDr<3.28810573] yes=9,no=10,missing=10
			9:[MVA_tauPt<35.7749748] yes=19,no=20,missing=20
				19:[MVA_llDr<2.99885941] yes=37,no=38,missing=38
					37:leaf=0.130014166
					38:leaf=-0.0579711311
				20:[MVA_tauPt<45.6037445] yes=39,no=40,missing=40
					39:leaf=-0.415953964
					40:leaf=-0.0747383609
			10:leaf=-0.506698608
	2:[MVA_MET<17.5893841] yes=5,no=6,missing=6
		5:[MVA_llDr<2.25913095] yes=11,no=12,missing=12
			11:[MVA_Ht<71.5065231] yes=21,no=22,missing=22
				21:[MVA_tauPt<50.9759293] yes=41,no=42,missing=42
					41:leaf=-0.100743085
					42:leaf=0.0721147358
				22:[MVA_btagSum<0.0494995117] yes=43,no=44,missing=44
					43:leaf=0.226796895
					44:leaf=-0.00407480448
			12:[MVA_llM<114.468834] yes=23,no=24,missing=24
				23:[MVA_tauPt<39.1323509] yes=45,no=46,missing=46
					45:leaf=0.209981501
					46:leaf=-0.0107712904
				24:[MVA_MET<16.4626141] yes=47,no=48,missing=48
					47:leaf=0.0883388817
					48:leaf=-0.0468307398
		6:[MVA_MET<94.1172638] yes=13,no=14,missing=14
			13:[MVA_tauPt<21.8997917] yes=25,no=26,missing=26
				25:[MVA_MET<18.4645004] yes=49,no=50,missing=50
					49:leaf=-0.27834937
					50:leaf=-0.0146086924
				26:[MVA_tauPt<22.7411594] yes=51,no=52,missing=52
					51:leaf=0.0477083474
					52:leaf=-0.000611434225
			14:[MVA_btagSum<0.0291442871] yes=27,no=28,missing=28
				27:[MVA_llM<72.901474] yes=53,no=54,missing=54
					53:leaf=-0.110464424
					54:leaf=0.0414485745
				28:[MVA_llDr<1.99132884] yes=55,no=56,missing=56
					55:leaf=-0.047866378
					56:leaf=-0.180488333
booster[49]:
0:[MVA_llM<13.9206724] yes=1,no=2,missing=2
	1:[MVA_llDr<0.351664156] yes=3,no=4,missing=4
		3:[MVA_Topmass<213.881638] yes=7,no=8,missing=8
			7:[MVA_tauPt<39.8982468] yes=15,no=16,missing=16
				15:[MVA_MET<21.362421] yes=25,no=26,missing=26
					25:leaf=-0.0132568721
					26:leaf=-0.166005671
				16:leaf=0.0376469493
			8:leaf=0.101886801
		4:[MVA_Topmass<134.047913] yes=9,no=10,missing=10
			9:leaf=0.285984367
			10:leaf=0.0834361762
	2:[MVA_tauPt<20.9171143] yes=5,no=6,missing=6
		5:[MVA_llDr<2.78684878] yes=11,no=12,missing=12
			11:[MVA_Topmass<163.697861] yes=17,no=18,missing=18
				17:[MVA_llDr<2.07832789] yes=27,no=28,missing=28
					27:leaf=-0.134974033
					28:leaf=-0.0071337386
				18:[MVA_llM<106.486519] yes=29,no=30,missing=30
					29:leaf=0.0914942175
					30:leaf=-0.0597878769
			12:[MVA_llM<96.7388763] yes=19,no=20,missing=20
				19:[MVA_Ht<45.3462105] yes=31,no=32,missing=32
					31:leaf=0.252743661
					32:leaf=0.00341590378
				20:[MVA_MET<43.899025] yes=33,no=34,missing=34
					33:leaf=0.0471317209
					34:leaf=-0.152651876
		6:[MVA_tauPt<21.9578285] yes=13,no=14,missing=14
			13:[MVA_MET<53.1713676] yes=21,no=22,missing=22
				21:[MVA_Ht<32.223484] yes=35,no=36,missing=36
					35:leaf=0.0172577631
					36:leaf=-0.074247703
				22:[MVA_llM<92.4379883] yes=37,no=38,missing=38
					37:leaf=-0.203647122
					38:leaf=-0.000520997972
			14:[MVA_llDr<3.14236903] yes=23,no=24,missing=24
				23:[MVA_llDr<3.13309956] yes=39,no=40,missing=40
					39:leaf=-0.00108706648
					40:leaf=0.132117376
				24:[MVA_MET<6.32532072] yes=41,no=42,missing=42
					41:leaf=0.174075007
					42:leaf=-0.0383176543
booster[50]:
0:[MVA_llM<30.7015686] yes=1,no=2,missing=2
	1:[MVA_llDr<0.860524237] yes=3,no=4,missing=4
		3:[MVA_tauPt<21.8390236] yes=7,no=8,missing=8
			7:[MVA_tauPt<20.8087063] yes=15,no=16,missing=16
				15:leaf=-0.0621145777
				16:leaf=0.270757973
			8:[MVA_Ht<85.5617981] yes=17,no=18,missing=18
				17:[MVA_llM<18.291584] yes=25,no=26,missing=26
					25:leaf=0.0558163412
					26:leaf=-0.0764488876
				18:[MVA_Topmass<250.950806] yes=27,no=28,missing=28
					27:leaf=0.0289597847
					28:leaf=0.213567659
		4:[MVA_tauPt<38.8708878] yes=9,no=10,missing=10
			9:leaf=0.332455844
			10:leaf=0.037318036
	2:[MVA_llM<49.2315063] yes=5,no=6,missing=6
		5:[MVA_llDr<1.23624408] yes=11,no=12,missing=12
			11:[MVA_tauPt<24.7098465] yes=19,no=20,missing=20
				19:[MVA_tauPt<22.7411594] yes=29,no=30,missing=30
					29:leaf=-0.119181894
					30:leaf=0.149310663
				20:[MVA_tauPt<60.9450798] yes=31,no=32,missing=32
					31:leaf=-0.188496932
					32:leaf=0.0216190703
